,coef_weight_0,coef_weight_1,coef_weight_2,coef_weight_3,coef_weight_4,coef_weight_mean,label,abs(cwm)
15691,0.13897340664192304,0.1945088656881413,0.1575618356870344,0.1409140665121258,0.16880345136328784,0.16015232517850247,MFI:469,0.16015232517850247
15934,0.12977983730552034,0.1831277615008875,0.1518481187734855,0.14689413315064861,0.1848413206531362,0.15929823427673562,MFI:149,0.15929823427673562
15939,0.11720588401253462,0.2000598600572259,0.13198516805778351,0.13608453804451914,0.17693644301612155,0.15245437863763694,MFI:144,0.15245437863763694
15687,-0.12197067361829945,-0.11312353640763864,-0.139605574737165,-0.14745457416276322,-0.09913760293905326,-0.12425839237298393,MFI:472,0.12425839237298393
15494,0.07882050787949904,0.15487826402134305,0.10005928337888036,0.1219342704307447,0.10232194613030812,0.11160285436815505,MFI:95,0.11160285436815505
1466,0.11997806033207856,0.09903041358922653,0.10586167785623717,0.13667137303729104,0.07968393849860017,0.1082450926626867,P6:227,0.1082450926626867
14751,0.10790023328205071,0.09002103628051816,0.11238871484519539,0.08941130233849263,0.09864354605714211,0.0996729665606798,P1:20030,0.0996729665606798
2873,-0.09364889492108967,-0.029927390639991443,-0.11626757580774406,-0.11505608421918714,-0.13836711104772076,-0.09865341132714661,P4:6320,0.09865341132714661
2794,-0.07841511817448261,-0.09006854093283657,-0.11940736377434184,-0.10003008864384517,-0.09022316952852791,-0.09562885621080681,P4:6542,0.09562885621080681
14014,0.0992246367372114,0.08336071640532176,0.09274352822821293,0.09829309854031289,0.10261289320012043,0.09524697462223589,P1:22132,0.09524697462223589
13985,-0.09385093106547256,-0.11602542419490842,-0.08889722368892575,-0.07669389483809934,-0.0960789210039055,-0.09430927895826231,P1:2220,0.09430927895826231
3089,0.10126599898399966,0.07243032855656922,0.1147243640345366,0.06708059418821642,0.10620796201000579,0.09234184955466554,P4:5451,0.09234184955466554
15675,0.11044544145144447,0.10280047170497907,0.07850772715340162,0.07189683294017189,0.09621235727808598,0.09197256610561662,MFI:486,0.09197256610561662
1638,-0.08671646700386751,-0.09694441975473853,-0.08923780129548048,-0.09631871538629438,-0.08021574140570374,-0.08988662896921693,P6 earlyB:128,0.08988662896921693
14728,0.10034899407019525,0.0776960695892038,0.10657965878296313,0.08051204020525708,0.08416035146625349,0.08985942282277455,P1:20103,0.08985942282277455
13978,0.1080914004967872,0.07331905897848445,0.09339723009757898,0.0761676221944481,0.09751069419848137,0.08969720119315602,P1:22213,0.08969720119315602
2870,-0.07350009962092781,-0.06441634432802824,-0.11142822140784764,-0.10032769419164797,-0.09428895045433994,-0.08879226200055831,P4:6323,0.08879226200055831
15103,-0.08373484495364056,-0.0651477595658003,-0.11276603867579456,-0.08368667343774648,-0.09665936316514677,-0.08839893595962574,P1:12512,0.08839893595962574
15595,0.070244760021355,0.08436697338653266,0.05910805424480899,0.1296230083419487,0.09281330043750043,0.08723121928642916,MFI:59,0.08723121928642916
15483,-0.08151725322280949,-0.10622915922822132,-0.060384259908365,-0.09361583582885602,-0.09400203374791073,-0.0871497083872325,P1:1007,0.0871497083872325
15604,0.07320928207580311,0.08705753453094399,0.05620441205350697,0.12726301088726746,0.08646925921657905,0.08604069975282012,MFI:58,0.08604069975282012
15528,0.06205992460587319,0.09137343927202352,0.06917273844563498,0.12269789732701816,0.0837834583510583,0.08581749160032162,MFI:68,0.08581749160032162
12440,-0.0528834899218204,-0.09958551613120935,-0.08141877485307324,-0.05760527826825621,-0.12892388904764937,-0.08408338964440172,P1:317,0.08408338964440172
1975,-0.08367905344303547,-0.07405863419823158,-0.09898601056556908,-0.07754470156557021,-0.07168136183054524,-0.08118995232059031,P5 gd:454,0.08118995232059031
14912,-0.080733011536079,-0.05697614881976805,-0.06820977235754387,-0.11899354216118171,-0.0806295753711286,-0.08110841004914024,P1:13482,0.08110841004914024
1632,0.07725864120845154,0.09034927393157681,0.08567167422451702,0.08373907004880825,0.06502727646114578,0.0804091871748999,P6 earlyB:139,0.0804091871748999
1563,0.07226777135858745,0.10910937207088439,0.0829740264628605,0.06518956626095988,0.07176370150727904,0.08026088753211424,P6 earlyB:57,0.08026088753211424
14013,0.08332679619002792,0.06986245090879707,0.08409936376193641,0.08663866657949144,0.07503986230019034,0.07979342794808864,P1:22133,0.07979342794808864
15504,0.0774415936217828,0.11119459964368741,0.0711858743862976,0.07948343043793568,0.05870784506260324,0.07960266863046134,MFI:86,0.07960266863046134
6090,-0.08503041071084473,-0.06707663663764721,-0.09842975141380049,-0.08868024795209947,-0.05829280788050597,-0.07950197091897956,P2:90,0.07950197091897956
1636,0.09200403312615846,0.0932685673436766,0.07467052447512737,0.08381707456331515,0.05295605498285223,0.07934325089822596,P6 earlyB:130,0.07934325089822596
1556,0.05284080858371128,0.10109670157096239,0.09154908405660898,0.06322310756209634,0.08116039234281357,0.07797401882323851,P6 earlyB:66,0.07797401882323851
15991,-0.07370539675092758,-0.08810870723173803,-0.06608337235911604,-0.07955580518458372,-0.07996165167223691,-0.07748298663972045,Lin:41,0.07748298663972045
383,-0.08424387720539646,-0.11474442955634512,-0.08420315634404699,-0.07032477546330426,-0.03164775346210106,-0.07703279840623879,P7 Mono:654,0.07703279840623879
15064,-0.055076055792916925,-0.06332155080435362,-0.09590449088946999,-0.07454670236997807,-0.09174145803279214,-0.07611805157790216,P1:12755,0.07611805157790216
14908,-0.07308183660714378,-0.04428225956251932,-0.06381235569998508,-0.11535202877386944,-0.08254937914711753,-0.07581557195812702,P1:13488,0.07581557195812702
15660,0.07664485593269936,0.05820963911508473,0.10096084711645639,0.03079926517402281,0.11043854825401923,0.0754106311184565,MFI:507,0.0754106311184565
2625,-0.09529529092355297,-0.1280130112544683,-0.027035758772785023,-0.05534972490405266,-0.07022584248617875,-0.07518392566820754,P5 NKT:112,0.07518392566820754
1420,-0.07806475849479627,-0.05135141453735338,-0.11437453767766204,-0.060681998339692705,-0.06998441691996075,-0.07489142519389304,P6:31,0.07489142519389304
5952,-0.03686517649182301,-0.06928257474858288,-0.1112235144477388,-0.07658575959605263,-0.08013451685523415,-0.0748183084278863,P2:9329,0.0748183084278863
164,0.0636588890656474,0.08710343540158164,0.08001868536892887,0.07063899016268232,0.07241761386605933,0.0747675227729799,P7:165,0.0747675227729799
13977,0.09139324430507721,0.05946298106336102,0.08493883150221784,0.06471470133803231,0.07216171583136648,0.07453429480801098,P1:22214,0.07453429480801098
13797,-0.10349237993048503,-0.03685669627346642,-0.05327704470848277,-0.0960163126162358,-0.08189592558889534,-0.07430767182351308,P1:22747,0.07430767182351308
3105,-0.09031549866137041,-0.056285191585457736,-0.08848269220830339,-0.03408810419785304,-0.10065709022823023,-0.07396571537624295,P4:5373,0.07396571537624295
5942,-0.03646329742864318,-0.07266069253108964,-0.1023604666981137,-0.07325248780642236,-0.08290870065470363,-0.0735291290237945,P2:9343,0.0735291290237945
3244,-0.08317362718871969,-0.08557068076016014,-0.045606717288645945,-0.08801546033610735,-0.06336872788268011,-0.07314704269126265,P4:4335,0.07314704269126265
3037,-0.08401855234379257,-0.04943954392336064,-0.09331566152421589,-0.045414455858480515,-0.09353533432808965,-0.07314470959558786,P4:5616,0.07314470959558786
157,0.05726662903524339,0.09111513623935592,0.057743081040436586,0.08834930621690788,0.07065848702205522,0.0730265279107998,P7:172,0.0730265279107998
8716,-0.04529393377496082,-0.06863086247031294,-0.06895997964889947,-0.09752678334751824,-0.0831448471090225,-0.07271128127014279,P2:23363,0.07271128127014279
7746,-0.05500636820431139,-0.054248043823590206,-0.06766309230622689,-0.09912099932295816,-0.08201535927090758,-0.07161077258559885,P2:25498,0.07161077258559885
1362,0.05863617526328796,0.09041079750428747,0.08120405577397037,0.05781578294010913,0.06996908382756219,0.07160717906184343,P6:83,0.07160717906184343
15581,0.04723087507486132,0.07463379548860498,0.05757271599687925,0.09487001960150869,0.08072041159554758,0.07100556355148036,MFI:63,0.07100556355148036
3485,-0.11283288109800382,-0.05340235559452487,-0.04363730113551688,-0.0575759049810886,-0.08210548736152315,-0.06991078603413148,P4:3473,0.06991078603413148
10807,-0.05539796046123313,-0.05680533869443633,-0.09094825917285054,-0.06583784093994059,-0.08038354127228962,-0.06987458810815005,P1:9660,0.06987458810815005
14095,-0.01611562737643007,-0.09110705449055982,-0.07082953209791945,-0.07454869554424312,-0.09412760952900376,-0.06934570380763125,P1:21968,0.06934570380763125
2064,-0.08112222643872943,-0.05977459899478298,-0.08690878810096445,-0.06958777841364157,-0.048483220917858914,-0.06917532257319546,P5 gd:235,0.06917532257319546
248,0.0611076575463434,0.07141063832861547,0.08720195345826975,0.07118807776702965,0.053012151461307756,0.06878409571231321,P7 Mono:95,0.06878409571231321
15496,0.027364038628327706,0.10056254393169527,0.07176427052602889,0.061001954783753864,0.08224135826011265,0.06858683322598368,MFI:93,0.06858683322598368
3085,0.07782349252998902,0.05014165654289412,0.07710091762529275,0.06521954601135291,0.07234723422040328,0.06852656938598642,P4:5491,0.06852656938598642
3099,-0.07649850572816476,-0.04551557714832532,-0.08670684809878744,-0.05172643176383014,-0.07977066877843866,-0.06804360630350925,P4:5382,0.06804360630350925
15628,0.07951653978523297,0.07499662210093849,0.06496085692753639,0.03491740865778149,0.08487988246722043,0.06785426198774196,MFI:555,0.06785426198774196
13365,-0.07622958013068185,-0.04038271378747913,-0.06674040635291961,-0.08464525245084265,-0.07002562286959296,-0.06760471511830324,P1:24256,0.06760471511830324
15654,-0.0810051214226798,-0.06378904197549708,-0.06106290463654276,-0.07266083587206747,-0.05621937489683091,-0.06694745576072361,MFI:516,0.06694745576072361
13134,-0.08624064955529351,-0.0471798967515652,-0.04471346137522074,-0.08200074563849948,-0.0722400661180935,-0.06647496388773448,P1:24870,0.06647496388773448
10698,-0.037857373005650015,-0.05234765784242909,-0.08899479669886862,-0.0672000952762253,-0.08575650736656142,-0.06643128603794689,P1:9985,0.06643128603794689
1977,-0.08540240374800914,-0.05658102056298838,-0.0796859250544056,-0.06048909467128069,-0.046069860431150425,-0.06564566089356684,P5 gd:451,0.06564566089356684
10784,-0.03542617615010089,-0.05451534065833133,-0.09914812348641341,-0.06627279457303416,-0.07276930366157884,-0.06562634770589174,P1:9742,0.06562634770589174
1368,0.06992212114329593,0.05871675700216827,0.07313084571801015,0.07095456250179222,0.05325740583394554,0.06519633843984243,P6:77,0.06519633843984243
197,0.04325789008566695,0.05380428367822595,0.09916562324973499,0.08020247460149212,0.04816462570714934,0.06491897946445388,P7:127,0.06491897946445388
8711,-0.03144041561819082,-0.06285789926952731,-0.06993783279703387,-0.09093910051362077,-0.0683364327965868,-0.06470233619899192,P2:23372,0.06470233619899192
165,-0.05937432862065662,-0.06896503782054174,-0.04512514155272225,-0.0735701962111446,-0.07109149064558593,-0.06362523897013023,P7:164,0.06362523897013023
8214,-0.0613413933631547,-0.05642681720138134,-0.07537149056305682,-0.05587556431333336,-0.06783703125643041,-0.06337045933947133,P2:24604,0.06337045933947133
52,0.04743732255757886,0.07983953960149467,0.04192579125099785,0.08247373116170865,0.06452259328249754,0.06323979557085552,P7:49,0.06323979557085552
1364,0.02448522153580341,0.09028100581168032,0.07028051960976783,0.0670209973566853,0.06253434015936547,0.06292041689466046,P6:80,0.06292041689466046
3159,0.0714399671674723,0.045476126630419555,0.07432721744036713,0.05581346264767899,0.0638619394475693,0.06218374266670146,P4:4790,0.06218374266670146
1605,-0.033813030924028056,-0.069660880321643,-0.07936265151885226,-0.04354820631580932,-0.08409591984670205,-0.06209613778540694,P6 earlyB:210,0.06209613778540694
3245,-0.078082440904069,-0.07407948989910933,-0.03495420806308863,-0.07328798531074747,-0.04811824168380154,-0.06170447317216319,P4:4332,0.06170447317216319
15726,0.0578213338226545,0.07876463982433288,0.052661372853255534,0.042341015843637676,0.07470017375092047,0.06125770721896021,MFI:418,0.06125770721896021
15922,-0.09143807769168803,-0.02099587543487692,-0.06213525844459601,-0.06391130462482726,-0.06739778928198469,-0.06117566109559458,MFI:161,0.06117566109559458
2915,-0.05768542586968782,-0.06743875829397517,-0.08952608185362469,-0.039455469870438284,-0.05131679006836171,-0.06108450519121754,P4:6227,0.06108450519121754
2455,0.05290208456056319,0.05587036116936759,0.06046188301780374,0.06736108495687447,0.06596007994123328,0.060511098729168454,P5 gd:1359,0.060511098729168454
168,-0.06326223627466161,-0.04790300258586036,-0.08050770706866542,-0.07204818737770939,-0.035533505610030144,-0.05985092778338539,P7:16,0.05985092778338539
3220,-0.07402561134359803,-0.07400059694291783,-0.026042953853476637,-0.08137757228741804,-0.04276592218129034,-0.05964253132174017,P4:4408,0.05964253132174017
2985,-0.0544112654047759,-0.04010292995067188,-0.09866263860817763,-0.04146075298282137,-0.06164995658122245,-0.05925750870553385,P4:5850,0.05925750870553385
15871,-0.04433997560516642,-0.07223132442014808,-0.07947384077465315,-0.055164166119586064,-0.04375956892937237,-0.058993775169785226,MFI:214,0.058993775169785226
13313,-0.06624066455472362,-0.028327871114232298,-0.066436170898304,-0.0749071853177427,-0.05696493124683922,-0.058575364626368365,P1:24334,0.058575364626368365
7749,-0.04604919453898298,-0.03642722120733603,-0.05719838992087948,-0.08941890063933235,-0.06325461961598376,-0.05846966518450292,P2:25495,0.05846966518450292
1606,-0.0494230725873997,-0.056895331813436145,-0.042572890264795944,-0.08855715555645342,-0.05487869975665512,-0.05846542999574807,P6 earlyB:21,0.05846542999574807
7682,-0.05314564233708433,-0.03414409547433837,-0.035485466934777075,-0.09701715244438737,-0.07094089483016323,-0.05814665040415008,P2:25576,0.05814665040415008
2242,0.053686262264878624,0.06401295052980416,0.06404317570065218,0.051913985371804215,0.056577725973302045,0.05804681996808825,P5 gd:1881,0.05804681996808825
15564,0.048443292951027575,0.061601141086729976,0.06244222220620818,0.04712719065056939,0.06963824815644844,0.057850419010196705,MFI:646,0.057850419010196705
14911,-0.049333211257721686,-0.03857440976817229,-0.06304331618794856,-0.08176657789319687,-0.055354278982781266,-0.05761435881796414,P1:13483,0.05761435881796414
2980,-0.05580841688299216,-0.024985874050267504,-0.08572783045267929,-0.05708167087704618,-0.06242096713012033,-0.05720495187862109,P4:5859,0.05720495187862109
3144,-0.046949947416266825,-0.03689277575593208,-0.03333364830467858,-0.08589706919532626,-0.08143283646853115,-0.05690125542814698,P4:4904,0.05690125542814698
15720,0.024872411100175032,0.08418010914663844,0.04449040067359189,0.07104412223768589,0.059893778275719727,0.056896164286762196,MFI:424,0.056896164286762196
2286,-0.07076555593194049,-0.08736377380634722,-0.049096945248473384,-0.03126641081064875,-0.04597521753525596,-0.05689358066653316,P5 gd:1794,0.05689358066653316
2871,-0.05661810983710672,-0.06258202921283951,-0.06771351090741592,-0.06197028767838664,-0.03381688682000106,-0.05654016489114997,P4:6322,0.05654016489114997
2190,0.06089904478646237,0.05966653766979793,0.05608976414403015,0.05550914630784463,0.050364645192258035,0.05650582762007862,P5 gd:2000,0.05650582762007862
7754,-0.053887446725296786,-0.03751548966171038,-0.04515244429502044,-0.07958721496019842,-0.06519887010734626,-0.05626829314991446,P2:25486,0.05626829314991446
511,-0.07069142438004208,-0.04345686219914984,-0.07583274547450762,-0.039296877495285876,-0.051746677016074334,-0.05620491731301195,P7 Mono:6262,0.05620491731301195
1399,0.08125439375289403,0.03617692192745604,0.06364586496116796,0.06115445689212221,0.0366658132848522,0.055779490163698486,P6:43,0.055779490163698486
115,0.04859786941611435,0.04121702522310786,0.04591068994026717,0.07662940374632965,0.06648206864490011,0.05576741139414383,P7:222,0.05576741139414383
16004,0.0247484108883292,0.06045185359527774,0.07013277063325433,0.07327322033431506,0.048508960178616535,0.05542304312595857,Lin:29,0.05542304312595857
15037,-0.03600608248470955,-0.0699680021270341,-0.06225406415664915,-0.019792839881258795,-0.0884910745604115,-0.05530241264201262,P1:12846,0.05530241264201262
13305,-0.06342043993722687,-0.028087554755393457,-0.05369125765225407,-0.07960513537136087,-0.051690617584305064,-0.055299001060108065,P1:24355,0.055299001060108065
9034,-0.028908578123175377,-0.06157680425789937,-0.04829051560540612,-0.07414619889000126,-0.06278370064808325,-0.05514115950491307,P2:22634,0.05514115950491307
15514,-0.05273640246788874,-0.07494643075095078,-0.07341470410491813,-0.07161772087622954,-0.0029326327599114984,-0.05512957819197974,MFI:77,0.05512957819197974
3508,0.030923002142200146,0.0484454759360871,0.08643109806097432,0.03990089365084172,0.0696725859298259,0.05507461114398583,P4:3392,0.05507461114398583
1396,-0.06338503473465454,-0.07349255238310247,-0.03593671509305063,-0.08237957807943001,-0.02009620914140001,-0.05505801788632754,P6:46,0.05505801788632754
13304,-0.059025933131005445,-0.02967521124560571,-0.05510136505022246,-0.08362816002528892,-0.047785458940520595,-0.05504322567852863,P1:24356,0.05504322567852863
13302,-0.054142485864936536,-0.06164496526460831,-0.04145928104365015,-0.07420823858553242,-0.043427316257804716,-0.05497645740330642,P1:24358,0.05497645740330642
2725,-0.03503395711826196,-0.04211783837466915,-0.0768259958277333,-0.0721992280800919,-0.04826349778285903,-0.05488810343672307,P5 CD8:199,0.05488810343672307
1369,0.02859294601495081,0.06290558498625849,0.048090415655505425,0.09151751120236758,0.04301382522681297,0.054824056617179054,P6:76,0.054824056617179054
15141,-0.06693582761813746,-0.01903165341810017,-0.06301433938378716,-0.06178107172205145,-0.0628817906817034,-0.05472893656475593,P1:12275,0.05472893656475593
162,-0.044474608987923346,-0.06508995118484916,-0.05552048403788219,-0.05093427734857109,-0.05738145339448209,-0.05468015499074157,P7:167,0.05468015499074157
5048,-0.05314245505901476,-0.09055758119499661,-0.05192872283561538,-0.056921266104568824,-0.019427119994241807,-0.05439542903768747,P3:3963,0.05439542903768747
7904,-0.05639228762690913,-0.06904337029767588,-0.05477310089693011,-0.0550993366050482,-0.0366547432674068,-0.054392567738794015,P2:25274,0.054392567738794015
1359,0.059100997507478194,0.060121323241614996,0.02830447297824847,0.06475675364683973,0.05963303743212255,0.054383316961260794,P6:9,0.054383316961260794
1960,-0.06334075823392199,-0.0563175384142183,-0.06836145805133338,-0.05247591834812577,-0.03138341783199569,-0.054375818175919036,P5 gd:481,0.054375818175919036
5936,-0.023570439775730763,-0.04579247919824812,-0.09007163172307324,-0.04990675361692071,-0.06210781458698007,-0.05428982378019058,P2:9353,0.05428982378019058
2127,-0.026792872718768276,-0.04250217587071927,-0.06417424748967028,-0.05016248719459876,-0.0877652415497793,-0.05427940496470718,P5 gd:210,0.05427940496470718
278,-0.06542443346526983,-0.055562846134882445,-0.07333500913549859,-0.0287516162061217,-0.04832238631425433,-0.05427925825120537,P7 Mono:89,0.05427925825120537
8667,-0.04506275198133647,-0.045950095975707594,-0.029255309814053585,-0.08228220986543465,-0.06859335861807327,-0.054228745250921105,P2:23444,0.054228745250921105
15647,0.04095178344877623,0.06126587477410755,0.07547853530781981,0.033582087661706186,0.05775359186736791,0.05380637461195553,MFI:525,0.05380637461195553
15225,-0.06792585708663806,-0.011376899499164912,-0.05560034716242814,-0.06998672066402345,-0.06403756182629698,-0.05378547724771031,P1:11676,0.05378547724771031
2015,0.04686708954095686,0.06366127006084892,0.05006165024333027,0.04512925473878643,0.06275572197988422,0.05369499731276134,P5 gd:373,0.05369499731276134
5954,-0.020994489678200123,-0.049704874233299494,-0.08254901953424623,-0.05379975523441985,-0.0595262242065874,-0.05331487257735061,P2:9324,0.05331487257735061
1371,0.05613596693674397,0.052628443051882585,0.045797160845446196,0.04868474020570915,0.06290597806992614,0.0532304578219416,P6:74,0.0532304578219416
3167,-0.04599539959356919,-0.031366019767112674,-0.03182025893322705,-0.07723144996196839,-0.0792220987225717,-0.0531270453956898,P4:4669,0.0531270453956898
2830,-0.055223642440183913,-0.08423971664052461,-0.012560386644613208,-0.05592327500545679,-0.05745717168463265,-0.05308083848308224,P4:6467,0.05308083848308224
15990,0.06672291407017585,0.034784235359479984,0.040894519129266095,0.06866187705621987,0.05409328804052552,0.05303136673113347,Lin:42,0.05303136673113347
12392,-0.045212574191251534,-0.06042812413146262,-0.046630158550071514,-0.07070851135367558,-0.04027711501639181,-0.052651296648570614,P1:344,0.052651296648570614
693,-0.05854767594194874,-0.05513692114906471,-0.07382461578190179,-0.027033479671035882,-0.04750338642122977,-0.05240921579303618,P7 Mono:5537,0.05240921579303618
2611,-0.06559114259710565,-0.06899549466917473,-0.027250084251656443,-0.053810006391213624,-0.04538166324318124,-0.05220567823046633,P5 NKT:51,0.05220567823046633
6131,0.05758302278481457,0.02679807606652149,0.049731041570726456,0.04450319587568247,0.08235148967642927,0.05219336519483485,P2:8824,0.05219336519483485
13618,-0.07947486534012241,-0.021455271784885887,-0.06627974303627036,-0.06815740162085165,-0.024919921088464282,-0.052057440574118916,P1:23479,0.052057440574118916
14104,-0.011077968078046747,-0.0671212640619546,-0.060566864380110004,-0.06275774264062547,-0.058618158805283094,-0.052028399593203975,P1:21942,0.052028399593203975
2549,0.04639810983251416,0.05501216842870445,0.05195842667411618,0.0551382658527521,0.05051279948146586,0.05180395405391055,P5 gd:115,0.05180395405391055
15526,-0.05076361757305955,-0.055674655309620055,-0.06276399568733985,-0.03911481911628928,-0.049961265971448406,-0.05165567073155143,MFI:681,0.05165567073155143
16003,0.01998251342196163,0.05269882987574263,0.08984305236056019,0.04018429776242479,0.0555560363312821,0.05165294595039427,Lin:30,0.05165294595039427
721,0.06959729732708607,0.06720487955601509,0.04539804375940043,0.019477513393980496,0.05540653499585298,0.05141685380646701,P7 Mono:5431,0.05141685380646701
8249,-0.050154597171938625,-0.0676262095390711,-0.058290709484279446,-0.04923503996580187,-0.03174724541304943,-0.05141076031482809,P2:24496,0.05141076031482809
4654,0.04992211119533339,0.06793950505170619,0.04842769128564722,0.045063099747633915,0.04565564165092259,0.05140160978624866,P3:5457,0.05140160978624866
7679,-0.03973591241157657,-0.04453888243765854,-0.02576738706686182,-0.07946294602540505,-0.06682166053532725,-0.051265357695365846,P2:25579,0.051265357695365846
7688,-0.05427352220137632,-0.03306833891202708,-0.025329052285137175,-0.07837259134788402,-0.06495500978247315,-0.051199702905779555,P2:25567,0.051199702905779555
10093,0.05888938579843603,0.0552271177201065,0.02818983437299286,0.05229121480924489,0.06064058957757586,0.05104762845567122,P2:13384,0.05104762845567122
3422,0.05161715790252871,0.043183219157330525,0.05533814942259689,0.05329166728431717,0.05153009095188223,0.0509920569437311,P4:3666,0.0509920569437311
1019,0.07185097700327783,0.03900177207361992,0.03687103313140323,0.03955161324844657,0.06735073011172693,0.05092522511369489,P7 Mono:4037,0.05092522511369489
1365,0.05375174212659263,0.06623333776940632,0.03857057710894975,0.05825800512448578,0.037200275007073194,0.05080278742730153,P6:8,0.05080278742730153
172,0.051253325382111005,0.05404716977131411,0.03809156396947424,0.06434736386472305,0.04542836588335081,0.050633557774194635,P7:154,0.050633557774194635
2592,0.0,-0.0613381526592173,-0.07546022303588684,-0.021382566206517416,-0.09490226136076599,-0.05061664065247751,P5 NKT:86,0.05061664065247751
4558,-0.016469957861112827,-0.08590756662296752,-0.07661231730480579,0.0,-0.07385146360535716,-0.05056826107884867,P3:5886,0.05056826107884867
2831,-0.04457038717632247,-0.0732170163346953,-0.02249098152355739,-0.05323678589373067,-0.0566426950618772,-0.050031573198036604,P4:6464,0.050031573198036604
15548,0.033066741564910206,0.045346192941988245,0.05736035408095018,0.04318328437541108,0.07102851960751377,0.0499970185141547,MFI:661,0.0499970185141547
11251,-0.039457801652649546,-0.02275293800246378,-0.05222963563753218,-0.08152572173713835,-0.05386825722023775,-0.04996687085000432,P1:824,0.04996687085000432
13796,-0.06045408575601246,0.0,-0.061420770307233086,-0.06743961393913867,-0.059641430166559005,-0.04979118003378864,P1:22748,0.04979118003378864
1543,0.05933880311886938,0.07059618156954925,0.05264328769850712,0.028251598891219594,0.03750637138998167,0.049667248533625405,P6 earlyB:82,0.049667248533625405
10345,-0.030452582122618296,-0.03131470671635476,-0.05845375265824248,-0.06177902739192078,-0.06631934183494739,-0.04966388214481674,P2:123,0.04966388214481674
5624,-0.05428731662962575,-0.04470384901695213,-0.043424432401861716,-0.04727326422292275,-0.05769970063350279,-0.04947771258097303,P3:1876,0.04947771258097303
13621,-0.07743796526005213,-0.007756609691519361,-0.05577176022999314,-0.0602093096544362,-0.04428872592972292,-0.049092874153144755,P1:23476,0.049092874153144755
9028,-0.021940540590598172,-0.05190107720390898,-0.04502838203585228,-0.07253504170404537,-0.0539317498975355,-0.04906735828638806,P2:22646,0.04906735828638806
2632,0.02531407576932162,0.044466820204692725,0.063115053122478,0.08256178430398887,0.029747896390380703,0.04904112595817239,P5 NKT:100,0.04904112595817239
6583,0.05443356073871404,0.019486086052728467,0.03580922091346408,0.06176993555710647,0.07164560801897428,0.04862888225619747,P2:6824,0.04862888225619747
7596,-0.046093247366346235,-0.03739620151265399,-0.06649227144259341,-0.045744462982723194,-0.04634795272211159,-0.048414827205285685,P2:25810,0.048414827205285685
11411,0.0,-0.033412078869647595,-0.0553542388881995,-0.04326148164475431,-0.10957386570650521,-0.04832033302182132,P1:7588,0.04832033302182132
4657,0.0398771133055221,0.05546895350521767,0.05530285708613137,0.04622400513405492,0.0446371365605359,0.04830201311829239,P3:5454,0.04830201311829239
16019,0.07292329663273339,0.027682779103879125,0.052418509562541134,0.026871895992031995,0.06095459413348379,0.04817021508493388,Lin:15,0.04817021508493388
6347,-0.060579466969531356,-0.045135087388444586,0.0,-0.07296732006777795,-0.06206367414534323,-0.04814910971421942,P2:827,0.04814910971421942
7949,-0.047757037255256526,-0.06124688711609419,-0.05098726140536536,-0.04518730068066578,-0.03525831812134154,-0.04808736091574468,P2:25193,0.04808736091574468
1025,0.07642621222857407,0.061042981047860594,0.03321476004511126,0.041979098539318145,0.026363891231379236,0.047805388618448665,P7 Mono:3812,0.047805388618448665
6088,-0.042545528720006075,0.0,-0.07090561914731146,-0.04317687797452535,-0.08195903105169731,-0.04771741137870804,P2:9002,0.04771741137870804
13363,-0.05602058448683513,-0.0428058598206251,-0.029846797091070697,-0.06676811941782862,-0.04299950421692863,-0.04768817300665763,P1:24258,0.04768817300665763
2351,-0.05074681748720989,-0.07107362494702817,-0.03551090996661435,-0.03884903138682184,-0.04222358531753773,-0.04768079382104239,P5 gd:1573,0.04768079382104239
195,-0.02747126918268592,-0.034897598627282256,-0.0768235205434223,-0.06302363156524743,-0.035398883029944234,-0.04752298058971643,P7:129,0.04752298058971643
11353,0.0,-0.04636284704858973,-0.055624551788277334,-0.03535924370348977,-0.09881279323629767,-0.0472318871553309,P1:7822,0.0472318871553309
15659,0.03832182392117494,0.04805070793278479,0.05382507430406364,0.029344154608533853,0.0663170507591054,0.04717176230513252,MFI:508,0.04717176230513252
1627,-0.034530894523376245,-0.041420471777301716,-0.0664453403394743,-0.035828749172715606,-0.05687722157278611,-0.047020535477130795,P6 earlyB:152,0.047020535477130795
3375,0.0,-0.07129632360800489,-0.08483409425725359,-0.06757585910772343,-0.011282183879976494,-0.04699769217059168,P4:3799,0.04699769217059168
7868,-0.022919052243662984,-0.05694350418045463,-0.04789809372682061,-0.05672976671618303,-0.04983590484893574,-0.0468652643432114,P2:25327,0.0468652643432114
2241,0.050325508889949584,0.0366364246095249,0.06655531650989938,0.045535468916107276,0.03463740108501096,0.046738024002098415,P5 gd:1882,0.046738024002098415
1510,0.044623927005128246,0.06774749290319063,0.028886421224930306,0.046596390952144455,0.04527356432611201,0.04662555928230113,P6:143,0.04662555928230113
1565,-0.058164760570579524,-0.05222997801942501,-0.03469755137412352,-0.06628148219385159,-0.021102622632307493,-0.046495278958057426,P6 earlyB:55,0.046495278958057426
2378,-0.05123840567973123,-0.036182873357187284,-0.04966406620433027,-0.02744500829566063,-0.06768809755494826,-0.04644369021837153,P5 gd:150,0.04644369021837153
7859,-0.015679591260406012,-0.045653204242401484,-0.026746574817240465,-0.07777167655114106,-0.06585523784738305,-0.046341256943714416,P2:25336,0.046341256943714416
4179,0.0629655021373992,0.03427843490385415,0.04263391559554075,0.05024099037426996,0.041435250126005,0.046310818627413805,P3:7276,0.046310818627413805
10350,0.04919656712276074,0.036340190381799496,0.07134258849029347,0.033798203339845005,0.0405010717647434,0.046235724219888426,P2:122,0.046235724219888426
15100,-0.051345969467356894,-0.03340966599903602,-0.05050991548151429,-0.03275256629005924,-0.062377076846643224,-0.046079038816921936,P1:12521,0.046079038816921936
2248,0.04918941166007554,0.04663734747666211,0.057135815611360524,0.033100549827970165,0.043881642349726455,0.04598895338515896,P5 gd:1872,0.04598895338515896
15717,0.0030610810129386096,0.09212702481992133,0.04219069555630747,0.05096748071907596,0.0413287448201413,0.04593500538567694,MFI:427,0.04593500538567694
15752,0.07696998571134396,0.04376144813148116,0.029504734517235745,0.032893611710140484,0.046448353416240984,0.04591562669728847,MFI:39,0.04591562669728847
13352,-0.05166682621440797,-0.019172404333059223,-0.0477330388812247,-0.07035357048865327,-0.040210626147321155,-0.045827293212933266,P1:24283,0.045827293212933266
1634,-0.04425424087933468,-0.05179745260553682,-0.04605455391417217,-0.04903928991497845,-0.037780129083205216,-0.04578513327944546,P6 earlyB:137,0.04578513327944546
2834,-0.05126750977351056,-0.07382287789165595,-0.009982465311579323,-0.04221403617071845,-0.05159021007227812,-0.04577541984394848,P4:6458,0.04577541984394848
13785,-0.05851957713971979,-0.023907822587247544,-0.035734794191483274,-0.05534186730923222,-0.05460927533313426,-0.04562266731216342,P1:22774,0.04562266731216342
7127,0.054143134785068096,0.04674976696802927,0.026582333994473885,0.04953534262886619,0.050871550966413555,0.0455764258685702,P2:355,0.0455764258685702
711,-0.043119001560443085,-0.017237095507742647,-0.06477604703302492,-0.03642972881949819,-0.06622817303437932,-0.045558009191017636,P7 Mono:5488,0.045558009191017636
1096,-0.05546257331984142,-0.05356534003602785,-0.06454999308676657,-0.009831319547055942,-0.04387682006264026,-0.04545720921046641,P7 Mono:3441,0.04545720921046641
4719,-0.038484958195772176,-0.0708034541928934,-0.06547860097721105,-0.04501400879686284,-0.00747174501112958,-0.04545055343477381,P3:499,0.04545055343477381
10699,-0.013247174267385397,-0.04360959377693177,-0.06071235865717743,-0.04698831874043732,-0.06165482921027368,-0.04524245493044112,P1:9984,0.04524245493044112
15142,-0.04427885038715894,-0.01782239613472518,-0.05912237568377349,-0.058534855385670576,-0.04614730419962572,-0.045181156358190776,P1:12273,0.045181156358190776
14909,-0.033867754667468046,-0.04222879933689964,-0.034176936082853604,-0.07560711524373968,-0.039435510532862955,-0.04506322317276478,P1:13487,0.04506322317276478
15624,0.05232739318591544,0.035386562102755655,0.04552102249503107,0.019147113627081904,0.07278344014407069,0.04503310631097095,MFI:559,0.04503310631097095
1437,0.04189698530939401,0.05902827256616875,0.024497739117625192,0.05442146200530517,0.04373463620156708,0.04471581904001204,P6:286,0.04471581904001204
2765,-0.03783112177100858,-0.03086001361983228,-0.058699970879352525,-0.04158576013899436,-0.05441755028312274,-0.044678883338462094,P4:89,0.044678883338462094
109,0.057568052191604394,0.035667387952073415,0.026869410376926306,0.04615675155724343,0.05623674458043359,0.04449966933165623,P7:229,0.04449966933165623
5374,0.0564944256810157,0.04067574381432639,0.04984360344271962,0.024276244735580897,0.051184043872937984,0.04449481230931612,P3:30,0.04449481230931612
3036,-0.056829760997616434,-0.03447352372366268,-0.05517893367329867,-0.014070231278695562,-0.06165280630099147,-0.04444105119485296,P4:5617,0.04444105119485296
173,0.03285642611016296,0.05087897927492076,0.048084665368842185,0.062025921802852324,0.02818055612968976,0.0444053097372936,P7:153,0.0444053097372936
13366,-0.06037950475438407,-0.007135286980275387,-0.05370856152369384,-0.05422940327393606,-0.04620354596488681,-0.044331260499435234,P1:24255,0.044331260499435234
15743,0.050166847325561294,0.04224300747875607,0.0,0.006840984700127881,0.12240215267932432,0.04433059843675391,MFI:398,0.04433059843675391
625,0.04532929366217986,0.04288245813768909,0.04527911949606219,0.031640012806580554,0.055928748017057536,0.04421192642391385,P7 Mono:575,0.04421192642391385
3104,-0.05702877724254663,-0.04238501308927089,-0.05042059741724199,-0.004495890165414051,-0.06657139817993538,-0.04418033521888178,P4:5374,0.04418033521888178
6334,-0.054631114317314246,-0.0417960966050436,0.0,-0.06776644087543138,-0.056595655312495885,-0.04415786142205702,P2:8300,0.04415786142205702
15636,0.0558227569885139,0.05153864022572784,0.028685302591681526,0.040463732128641954,0.04350004769345582,0.04400209592560421,MFI:541,0.04400209592560421
14796,-0.03054372629982658,-0.06952322328616474,-0.043724162628165406,-0.030003080688550655,-0.046010624548707205,-0.043960963490282924,P1:1973,0.043960963490282924
2462,-0.03711576188279299,-0.060381917455992876,-0.05202115339247816,-0.03317348957314922,-0.03677903228431189,-0.04389427091774503,P5 gd:135,0.04389427091774503
836,0.023535417013660742,0.060656456370305846,0.04970032447508525,0.022532569115432916,0.06191992123944265,0.043668937642785476,P7 Mono:482,0.043668937642785476
145,0.05417274222699155,0.044953902175293256,0.0390763671885961,0.04993071723500731,0.02962499024561561,0.043551743814300756,P7:190,0.043551743814300756
15627,0.04769216397268833,0.04621027519034735,0.04689066715026218,0.014086256915098334,0.0627856372133008,0.043533000088339394,MFI:556,0.043533000088339394
2591,-0.04043666003110492,-0.06509878469238774,-0.01201682860038596,-0.02711085935881725,-0.07057798272759369,-0.04304822308205791,P5 NKT:87,0.04304822308205791
15160,0.051130969881428685,0.04058643590494042,0.02550055565809816,0.050711589071066036,0.047023381063425046,0.042990586315791675,P1:12216,0.042990586315791675
332,0.044386918883280814,0.03060074597622744,0.04087549624366305,0.055123060074738356,0.04387816256742269,0.04297287674906647,P7 Mono:76,0.04297287674906647
15620,-0.06383356213291756,-0.041167199382355406,-0.04676152196651676,-0.05207151601468225,-0.01099251393809251,-0.04296526268691289,MFI:564,0.04296526268691289
3163,-0.044890752467993116,-0.02940691841686006,-0.05937811387757434,-0.024788608228176225,-0.05562301936505174,-0.042817482471131096,P4:4690,0.042817482471131096
10057,0.04409284967849241,0.03492144351959768,0.04145905282169083,0.04786126515666306,0.04570903856576254,0.0428087299484413,P2:13521,0.0428087299484413
2730,-0.0296921054765973,-0.029111690161204736,-0.0656477285087355,-0.055212432045048776,-0.03335347679864546,-0.04260348659804636,P5 CD8:179,0.04260348659804636
15722,0.02379857296584366,0.07945378448228761,0.03353025866283224,0.041362171135057337,0.03474899058432921,0.042578755566070006,MFI:421,0.042578755566070006
572,0.03386548478902259,0.05241839813211791,0.0484421139284652,0.0368621993991743,0.04085370755766052,0.04248838076128811,P7 Mono:602,0.04248838076128811
3052,0.05215064593711195,0.03224236319783964,0.0565112272400785,0.034211703116793314,0.03719679439685855,0.04246254677773639,P4:5561,0.04246254677773639
1559,0.0007606226299753725,0.06555546963097071,0.06992619003367219,0.01747090701930289,0.05839127663736533,0.042420893190257304,P6 earlyB:62,0.042420893190257304
15044,-0.010848613362147826,-0.03638060182030937,-0.05890052745659264,-0.038804057744266277,-0.06650531807075206,-0.04228782369081363,P1:12837,0.04228782369081363
1622,0.06067866385393475,0.045311044715608546,0.04924451798993681,0.030418204151633394,0.025331889815012627,0.04219686410522523,P6 earlyB:166,0.04219686410522523
9764,0.036739809094921826,0.053811997074116165,0.034145676155413376,0.02917236218715173,0.0569130643127993,0.04215658176488048,P2:20566,0.04215658176488048
6372,-0.05112890259250049,-0.05618772022464996,0.0,-0.04732485500615302,-0.05599603297869534,-0.04212750216039977,P2:8102,0.04212750216039977
11019,0.0,-0.052727135354830555,-0.05106518067955945,-0.047038832154322585,-0.05947729346998917,-0.04206168833174036,P1:91,0.04206168833174036
5638,-0.048830542565495294,-0.03934988601448529,-0.06440449446593181,-0.013854448975702165,-0.04377345700981896,-0.04204256580628671,P3:183,0.04204256580628671
4603,0.02903506662258088,0.07671093106053646,0.039030486072548005,0.020505898665217844,0.04466152111092596,0.041988780706361827,P3:5691,0.041988780706361827
2041,-0.04087423508396769,-0.05017362732960669,-0.06726087692856929,-0.05129727769781056,0.0,-0.04192120340799085,P5 gd:308,0.04192120340799085
7154,-0.05238898392340167,-0.05607206862761623,-0.033983522390666855,-0.02863019074846201,-0.03840735559896002,-0.041896424257821356,P2:3371,0.041896424257821356
8082,-0.03257028538428483,-0.05071915567663296,-0.04719986978839813,-0.03528544260129191,-0.04350618544323115,-0.041856187778767796,P2:24869,0.041856187778767796
1413,-0.048894511547778026,-0.062489831016045244,-0.04165237750549257,-0.05619486775147814,0.0,-0.0418463175641588,P6:319,0.0418463175641588
2010,0.03512578899686449,0.05773186130364413,0.03523930343998932,0.03214939138672879,0.04864288613336885,0.04177784625211912,P5 gd:383,0.04177784625211912
2773,0.0,-0.0666093062829275,-0.07168686235305959,-0.05363432006136633,-0.01680020940412977,-0.041746139620296635,P4:77,0.041746139620296635
15525,0.02424740274166724,0.05459465731752279,0.03368593258894566,0.022469484484765285,0.07351585228070678,0.04170266588272155,MFI:682,0.04170266588272155
13310,-0.03406650009774613,-0.0210402732128292,-0.054045523983618074,-0.0650531867420531,-0.03428409519490274,-0.04169791584622985,P1:24341,0.04169791584622985
3087,0.043655933987035135,0.03538372156240418,0.05071826576942432,0.040704916338162124,0.038017166084479234,0.041696000748301,P4:5481,0.041696000748301
15764,0.05693586109045822,0.036739863810720655,0.021719136327934072,0.03875128114781936,0.05432259673468789,0.04169374782232404,MFI:34,0.04169374782232404
1562,-0.012695748538952849,-0.04632098647376911,-0.07030161083016927,-0.021638747279966664,-0.05723937353289005,-0.04163929333114959,P6 earlyB:6,0.04163929333114959
14406,-0.018551540485265375,-0.05092566356744309,-0.03326909435760537,-0.054364488833485,-0.05086521783095095,-0.041595201014949956,P1:21031,0.041595201014949956
715,-0.04832116117137212,-0.04166024556062167,-0.06234849169025002,-0.014526054607414523,-0.040044558909867724,-0.04138010238790521,P7 Mono:5459,0.04138010238790521
8332,-0.05774897006815455,0.0,-0.03406182708242704,-0.0614924772878283,-0.05331131249629558,-0.04132291738694109,P2:24182,0.04132291738694109
155,-0.04153752742207981,-0.03158943967366148,-0.0804988763798241,-0.03646208620834612,-0.016403550187117064,-0.041298295974205715,P7:174,0.041298295974205715
999,0.07228026733894104,0.04924409840748565,0.02695034676475924,0.035021753983642205,0.02273356118950843,0.04124600553686732,P7 Mono:4136,0.04124600553686732
198,-0.023927729852466603,-0.013587075555857083,-0.05639857181313254,-0.06849544727303541,-0.04380886633353786,-0.0412435381656059,P7:126,0.0412435381656059
2315,0.03676123521906456,0.009080712521284633,0.03291604339177987,0.0670835755639243,0.06023306753889386,0.04121492684698944,P5 gd:1727,0.04121492684698944
3160,0.022978129146026875,0.030093009312312017,0.07945513232221191,0.024560039533410127,0.04887925612005293,0.041193113286802766,P4:4754,0.041193113286802766
3564,0.025946324357043967,0.017290176838199174,0.07812659901102269,0.019656931489572628,0.06443234710213536,0.04109047575959476,P4:3143,0.04109047575959476
15605,-0.059491351086691284,-0.053601505179198594,0.0,-0.044562180432441686,-0.04773883721071212,-0.04107877478180874,MFI:579,0.04107877478180874
15395,0.044836396544592205,0.042661212070532126,0.028743886165159403,0.04469420216227666,0.044088195202071224,0.04100477842892632,P1:10564,0.04100477842892632
234,0.035863377501044506,0.046868915396046346,0.035732190613691206,0.03686976587425224,0.04959334528686419,0.0409855189343797,P7 Mono:969,0.0409855189343797
15702,-0.0325590835161516,-0.01655174524412012,-0.06729617192536495,-0.06863038364216989,-0.01967825263442342,-0.040943127392445995,MFI:441,0.040943127392445995
15364,0.042667145564609425,0.04085868853626735,0.03569626771102893,0.04221969111390098,0.042783655789603095,0.04084508974308195,P1:10810,0.04084508974308195
6869,0.043881867864970094,0.013247280589790151,0.02539222659328669,0.04051416557726153,0.0810359755635026,0.040814303237762216,P2:4982,0.040814303237762216
5478,-0.04403689488324031,-0.04695502481384326,-0.0221740333921928,-0.05751638912379693,-0.0333666001520871,-0.040809788473032085,P3:2549,0.040809788473032085
10115,0.02709301007144243,0.04422378926344118,0.046016520013245,0.03800088221088856,0.0486896711563027,0.04080477454306397,P2:13305,0.04080477454306397
15640,0.0373365937024888,0.032670660662514096,0.054214805308233596,0.011783814165507082,0.06791154972017648,0.040783484711784015,MFI:535,0.040783484711784015
1002,0.0780211649519712,0.04751918896772301,0.028806960925782336,0.03276785802355014,0.01663379282078038,0.04074979313796141,P7 Mono:4127,0.04074979313796141
1933,-0.03788241194482648,-0.052567388492906236,-0.06620791230957923,-0.047076063102544946,0.0,-0.04074675516997138,P5 gd:535,0.04074675516997138
14793,-0.0010822184767183272,-0.04926633280250551,-0.043810384264361464,-0.018552113749529805,-0.09060486209798306,-0.040663182278219634,P1:1982,0.040663182278219634
5723,-0.058751334803913084,-0.045629885814341624,-0.02618406901656517,-0.05088524044876223,-0.021567251215279703,-0.04060355625977236,P2:996,0.04060355625977236
1624,-0.020631277553913065,-0.03801278958202343,-0.060664556758350585,-0.035772212420551106,-0.04790823186018317,-0.04059781363500427,P6 earlyB:164,0.04059781363500427
7671,-0.022147687415917935,-0.03841246961451195,-0.04998877405148874,-0.046618338790220384,-0.04581492357067435,-0.04059643868856268,P2:25618,0.04059643868856268
2192,0.056405062194276503,0.048043758849401784,0.03786690077833261,0.02734268567806838,0.033278321139481926,0.04058734572791224,P5 gd:1999,0.04058734572791224
12901,-0.056702312966548055,-0.02180747895578007,-0.04440559348162707,-0.04245637195943373,-0.03740228923972606,-0.04055480932062299,P1:25594,0.04055480932062299
1439,0.03451872443197143,0.04371416741503556,0.028092777870716186,0.051534142634690104,0.04489923716052601,0.04055180990258786,P6:283,0.04055180990258786
3221,-0.06086043515936037,-0.055179403770036016,-0.005393753035108833,-0.0620005393735251,-0.018835279784386136,-0.0404538822244833,P4:4405,0.0404538822244833
14323,-0.013452390256626723,-0.06166346382505615,-0.03429161774409019,-0.04113423254380704,-0.051077705066186245,-0.04032388188715327,P1:21304,0.04032388188715327
12900,-0.05631747959236605,-0.03125015915285569,-0.05074106330750949,-0.04542973535901505,-0.017227627611841864,-0.040193213004717634,P1:25596,0.040193213004717634
4598,0.049791582358797076,0.039706283871429444,0.044147425267066075,0.03418972423612242,0.03293936251962898,0.0401548756506088,P3:5697,0.0401548756506088
15927,-0.03852755318603471,-0.03670830455602783,-0.03572030749394378,-0.04354082486825089,-0.0460789566742337,-0.04011518935569818,MFI:156,0.04011518935569818
9029,-0.004506645758648461,-0.049352342826584655,-0.04421404974637683,-0.05962191404337291,-0.04246820160742814,-0.0400326307964822,P2:22643,0.0400326307964822
15844,0.031131401530654072,0.03724747825820875,0.03543117857862522,0.03255643325716751,0.06378860290081323,0.04003101890509375,MFI:24,0.04003101890509375
15870,-0.05332977440536907,-0.05850262606157486,-0.015689436984907677,-0.0313845110055435,-0.04071828826618631,-0.03992492734471628,MFI:215,0.03992492734471628
509,-0.05325921660474532,-0.03867800229431034,-0.06010115575604712,-0.01274759268444081,-0.034541838934181564,-0.03986556125474503,P7 Mono:6264,0.03986556125474503
13070,-0.04686266564293126,-0.02927382736631733,-0.0465889086045373,-0.04766463591550016,-0.028737129170218118,-0.03982543333990084,P1:25113,0.03982543333990084
1325,0.05865670804759512,0.04325314193014136,0.03059237223556904,0.030013561526183754,0.03641644382954548,0.03978644551380695,P7 Mono:1434,0.03978644551380695
1381,-0.060174369780683905,-0.04933860765665802,-0.022901522053196836,-0.022111414066959434,-0.043888989258582395,-0.03968298056321612,P6:6,0.03968298056321612
443,-0.05812806749097058,-0.044994319485363796,-0.03120736984641816,-0.027216362798166083,-0.03656827716384257,-0.03962287935695224,P7 Mono:6408,0.03962287935695224
4010,0.055542024712619376,0.03157744314689594,0.024447027453727246,0.0488164464216676,0.037730220376454855,0.039622632422273,P3:7908,0.039622632422273
15745,-0.08149153181010046,0.0,-0.0801907344630996,-0.009835228627301415,-0.02647504949031829,-0.03959850887816395,MFI:396,0.03959850887816395
1525,0.030108209303994077,0.058566557837703204,0.043997965583005776,0.03709061341715664,0.02810599723163499,0.039573868674698934,P6:109,0.039573868674698934
10252,-0.054674886199528754,-0.05886527092946728,0.0,-0.03403114088736496,-0.04963899945786219,-0.03944205949484463,P2:12783,0.03944205949484463
6076,0.04705046487449707,0.009198850393338285,0.03743434488122075,0.039460357073638964,0.06400760668216239,0.03943032478097149,P2:9024,0.03943032478097149
946,0.03689546119161234,0.03810528749099992,0.04056821563080839,0.034327524867230716,0.04722800901439434,0.03942489963900914,P7 Mono:4271,0.03942489963900914
8235,-0.03818968527064975,-0.047947019349936205,-0.04818645882712483,-0.02436566992362969,-0.03813352990598251,-0.0393644726554646,P2:24523,0.0393644726554646
1916,-0.04437374201159631,-0.054225296197743376,-0.0634348879728244,-0.03477101143194769,0.0,-0.039360987522822355,P5 gd:562,0.039360987522822355
6114,0.03626372827547937,0.03467824544651826,0.030119021546736836,0.04521553661491609,0.05034293830783897,0.039323894038297905,P2:8929,0.039323894038297905
2880,-0.02752576373948129,-0.009223308011240917,-0.05742400518590434,-0.05300052636435794,-0.04903320309896278,-0.03924136127998946,P4:6311,0.03924136127998946
143,0.04803340698826783,0.04469862830721435,0.02985395647051931,0.045471974555572565,0.02800601763862383,0.039212796792039574,P7:192,0.039212796792039574
3046,0.04319003170614792,0.024459277109991677,0.05196690057357923,0.04106214564498152,0.035084075374347976,0.03915248608180967,P4:5571,0.03915248608180967
15505,0.015286337943256487,0.06440846975313826,0.03442501905375046,0.013171737002921517,0.06835175404315758,0.03912866355924486,MFI:85,0.03912866355924486
15250,-0.030413014783787155,-0.04476001020629332,-0.03649253454230542,-0.04594198644232213,-0.037901605284354205,-0.03910183025181244,P1:11543,0.03910183025181244
10481,0.0426486526547958,0.04539667299169412,0.016080024056625352,0.037538718078153975,0.05371799207838166,0.03907641197193018,P2:11320,0.03907641197193018
11277,-0.02777549402271985,-0.052244672733733094,-0.019978549736334516,-0.06773768311445455,-0.02746081422852237,-0.03903944276715288,P1:814,0.03903944276715288
6074,0.032571696741197025,0.011558587573955144,0.05108724543489437,0.036781013701978504,0.06239415410651103,0.038878539511707215,P2:9033,0.038878539511707215
1290,0.05430395519789105,0.028589654074581583,0.02137382316826091,0.04929500766358906,0.04023193236929155,0.03875887449472283,P7 Mono:1762,0.03875887449472283
8093,-0.06686715475260573,-0.04600011350395362,-0.028170391343592636,-0.02794621031823421,-0.024632874805500922,-0.03872334894477743,P2:24836,0.03872334894477743
113,-0.032779077538279924,-0.022675091964993597,-0.023739852061734425,-0.05980628237822394,-0.054134040662227226,-0.038626868921091816,P7:224,0.038626868921091816
13800,-0.0366813210978407,0.0,-0.05584386386587743,-0.04580630580788159,-0.054755838909963654,-0.03861746593631268,P1:22739,0.03861746593631268
2624,-0.047253604599557755,-0.06911669993352047,0.0,-0.033128121570652695,-0.0428825793381985,-0.038476201088385883,P5 NKT:113,0.038476201088385883
2203,0.051662213663531305,0.027819089356648754,0.028883559206369803,0.029305494723753708,0.05462475676667069,0.03845902274339485,P5 gd:1979,0.03845902274339485
6317,-0.05194454554743571,-0.04054433124563792,0.0,-0.04485761507760658,-0.054523345697938146,-0.03837396751372367,P2:8345,0.03837396751372367
14108,-0.003305865519468445,-0.04670595829843375,-0.054886940254444475,-0.05128660118523825,-0.03533297961085429,-0.038303668973687845,P1:21935,0.038303668973687845
6524,0.04012588978618859,0.013659896948838342,0.021869243290245956,0.051357011711445695,0.06443651101373951,0.038289710550091616,P2:7082,0.038289710550091616
3282,-0.03418005005450943,-0.06585588580722039,-0.01606661126980266,-0.052475687299334974,-0.022862823756664163,-0.03828821163750632,P4:4208,0.03828821163750632
4655,0.027227247188244194,0.07176149623974896,0.03650266112654635,0.026972768052935397,0.028942594755482144,0.03828135347259141,P3:5456,0.03828135347259141
4180,0.05160407695245434,0.031751400892443896,0.03471685744082845,0.04349226684652854,0.02982441446819046,0.038277803320089135,P3:7275,0.038277803320089135
2663,0.025140203274705158,0.03073953060156014,0.009295006451240399,0.06108239569998493,0.06510479048724735,0.03827238530294759,P5 CD8:66,0.03827238530294759
1566,-0.06487909642645545,-0.04003512377303941,-0.010525498399407899,-0.05957696719545899,-0.016344496363592153,-0.03827223643159078,P6 earlyB:52,0.03827223643159078
10629,0.044248570226080815,0.04858138688094562,0.020408722136368376,0.031226444677432783,0.046421673025948004,0.038177359389355126,P2:10638,0.038177359389355126
10064,0.03775541725432649,0.03666367627582061,0.02879227585225963,0.04661129449556475,0.04090191185267983,0.03814491514613026,P2:13494,0.03814491514613026
13349,-0.03731756390810533,-0.03851325560272182,-0.029700425010259164,-0.05734508246697124,-0.027560245454624027,-0.03808731448853631,P1:24286,0.03808731448853631
3030,-0.04472466820888455,-0.0067049142229365,-0.04496157851064129,-0.0464345722282478,-0.04758056716317857,-0.03808126006677774,P4:5625,0.03808126006677774
2593,-0.003510144702288328,-0.02687921329674211,-0.039776983388551894,-0.07116200487752943,-0.04888238954781577,-0.038042147162585506,P5 NKT:85,0.038042147162585506
1629,-0.052170198393596066,-0.034435217621658985,-0.017075621129970412,-0.022476716550221727,-0.06398521070179468,-0.038028592879448375,P6 earlyB:15,0.038028592879448375
15403,0.04156089417271038,0.040422545016090355,0.02922803337933568,0.024998629402214312,0.05387653015938234,0.038017326425946615,P1:10536,0.038017326425946615
4658,0.018676272813723763,0.05771705776350122,0.04870418144776304,0.03185958385488082,0.032871658191768335,0.03796575081432744,P3:5453,0.03796575081432744
252,0.03699611151351649,0.038725503888361594,0.033235555704765586,0.025005902479717568,0.05585295356858516,0.03796320543098928,P7 Mono:942,0.03796320543098928
15512,0.016454411461701457,0.0582112020026491,0.0489077864803781,0.06603224352262266,0.0,0.037921128693470266,MFI:79,0.037921128693470266
66,-0.03766663747308222,-0.03158635232485873,-0.0472499719012724,-0.072829636069182,0.0,-0.03786651955367907,P7:36,0.03786651955367907
15657,0.02710584427627361,0.029300033835623178,0.052470360658535865,0.0024735520333347915,0.07785601773983707,0.037841161708720907,MFI:511,0.037841161708720907
5520,-0.04621986178880972,-0.038485848221360544,-0.04344946875047767,-0.006736946640452695,-0.05430690827279433,-0.03783980673477899,P3:245,0.03783980673477899
1289,0.05805268472281732,0.043925342805875144,0.025272892784289597,0.04159561169486638,0.02012507022888276,0.03779432044734624,P7 Mono:1780,0.03779432044734624
11914,0.04404729730113858,0.04927595626684727,0.023611212178083107,0.03747193682774415,0.03409817279270764,0.03770091507330415,P1:5491,0.03770091507330415
15887,0.05672917384492048,0.05489948391789385,0.03432264771944871,0.0235954329720041,0.018916830851092626,0.03769271386107196,MFI:20,0.03769271386107196
9965,0.030811225372435927,0.032453241030465325,0.039746834387561276,0.03298196040190115,0.05226167284210993,0.03765098680689473,P2:162,0.03765098680689473
3045,0.04324027266395354,0.0210795472418255,0.04493273423390525,0.04533937679403806,0.033355347879386814,0.037589455762621835,P4:5572,0.037589455762621835
15611,0.02904295881722394,0.04714284138293442,0.038427228644792685,0.02927566962921837,0.04383683130157203,0.03754510595514829,MFI:573,0.03754510595514829
1481,-0.0021012320768113925,-0.04338880620245652,-0.07891969898946806,-0.049373826427341616,-0.013508038285470278,-0.03745832039630957,P6:194,0.03745832039630957
16005,-0.025629425703745615,-0.04062588730312962,-0.010807235716022661,-0.06974245163866737,-0.040283619085092176,-0.03741772388933148,Lin:28,0.03741772388933148
1519,-0.04105370890801866,-0.0378239116659311,-0.025640122196140355,-0.034306909452362186,-0.04787157983986895,-0.03733924641246425,P6:123,0.03733924641246425
7922,-0.01433276776190829,-0.0429420686845316,-0.05288391598942792,-0.0417976025765566,-0.034637817499308894,-0.03731883450234666,P2:25246,0.03731883450234666
14657,0.0837433268760697,0.0,0.030821583683451403,0.027966192027315803,0.04404312750471025,0.037314846018309436,P1:20243,0.037314846018309436
1470,0.048229123318293904,0.02902872697842783,0.038131960380527,0.020929359182104475,0.050192483598290795,0.0373023306915288,P6:221,0.0373023306915288
3467,0.03504736749249523,0.022320586535191794,0.03250898296465962,0.04964407997022947,0.046818018450583955,0.03726780708263201,P4:3513,0.03726780708263201
2029,-0.04426321828395279,-0.04609182323265357,-0.060067670292459296,-0.035710045784228324,0.0,-0.03722655151865879,P5 gd:335,0.03722655151865879
15216,0.024569610699903453,0.03974688908922355,0.044075988144068164,0.03464854492226814,0.04284493294026853,0.037177193159146374,P1:11692,0.037177193159146374
88,0.04409582373044704,0.008951912034853491,0.019725945962982216,0.034362085365861494,0.0777996044477077,0.036987074308370387,P7:251,0.036987074308370387
15802,0.05666054565818713,0.034490718185564755,0.01960262769843606,0.03320986640438818,0.04087141080954444,0.03696703375122411,MFI:281,0.03696703375122411
690,-0.04420888212537649,-0.03670707863980897,-0.05891537086835005,-0.013230407907824858,-0.031622903367182015,-0.03693692858170848,P7 Mono:5540,0.03693692858170848
8135,-0.0363259651887424,-0.031110496673507928,-0.01968390576340292,-0.0542085706875686,-0.04315628765251482,-0.036897045193147335,P2:24773,0.036897045193147335
3385,0.03850466579264096,0.02840796125350361,0.03671256847252682,0.0396254947761708,0.041156336179043615,0.03688140529477716,P4:3756,0.03688140529477716
9960,0.04387685691350523,0.039111730277077775,0.033443722706862855,0.03585007023212196,0.03200815486249238,0.036858106998412035,P2:1641,0.036858106998412035
3101,-0.04461629940001267,-0.03473986674705118,-0.050341103105516045,-0.018637242066075636,-0.03560349913697077,-0.03678760209112526,P4:5379,0.03678760209112526
1748,-0.030817702966965312,-0.03695604197364143,-0.05057244228760033,-0.033289251350330444,-0.03222196807489846,-0.036771481330687195,P5 gd:838,0.036771481330687195
1680,0.03280317751485967,0.008062649565774902,0.03333697082761288,0.05561612579408982,0.05379503708219865,0.036722792156907186,P5 gd:95,0.036722792156907186
14650,0.07141753253731446,0.0,0.027800591938850067,0.04555503637329668,0.038597039283532746,0.03667404002659879,P1:20270,0.03667404002659879
11142,-0.020238039395016946,-0.02793435908239149,-0.05755850088754285,-0.02270059659825947,-0.054812037011432106,-0.03664870659492857,P1:861,0.03664870659492857
14031,-0.046458594809741974,-0.015389700881989914,-0.014821293816293539,-0.06390382605559294,-0.042547205503841404,-0.03662412421349196,P1:22090,0.03662412421349196
14877,-0.04606290853581091,-0.05180455679972025,-0.030973039351763456,-0.02814826016285009,-0.025918320561683087,-0.03658141708236555,P1:13632,0.03658141708236555
14956,-0.040142864712046776,-0.0207870475885477,-0.015485777064139264,-0.05880071668060981,-0.047423190349315046,-0.03652791927893172,P1:13260,0.03652791927893172
15676,-0.06962075741643613,-0.008623845777681166,-0.04100633371797458,-0.022225339019079023,-0.04114939999563159,-0.0365251351853605,MFI:483,0.0365251351853605
8619,0.04074327345997348,0.0309150405943219,0.04051532939588832,0.029364039181138796,0.04057333294106919,0.03642220311447834,P2:23616,0.03642220311447834
245,-0.032978109053949316,-0.03661317401218922,-0.009704515210789745,-0.04767560277550864,-0.054387399442377915,-0.03627176009896297,P7 Mono:957,0.03627176009896297
441,-0.04371072625788876,0.0,-0.04389834531774295,-0.04596475119919993,-0.04772300318543768,-0.03625936519205387,P7 Mono:6411,0.03625936519205387
13350,-0.04357930638658983,-0.034239902369498816,-0.019941639591932948,-0.05505497122861668,-0.02797221064720999,-0.036157606044769655,P1:24285,0.036157606044769655
3029,-0.03605576958079274,-0.010731807294086178,-0.042598048542428255,-0.045153329104659815,-0.04609168927077908,-0.03612612875854922,P4:5626,0.03612612875854922
3377,-0.021215585517352652,-0.03305422113681714,-0.0330505138296151,-0.058638287622698876,-0.03444665765796995,-0.036081053152890744,P4:3793,0.036081053152890744
10888,-0.040093178836306705,-0.0008268666742379424,-0.035583188271497354,-0.05893518396665754,-0.04399753213612966,-0.03588718997696584,P1:9424,0.03588718997696584
8308,0.028581655001508957,0.03148548461618543,0.04815290053865956,0.030226239422702455,0.040775852384519064,0.03584442639271509,P2:24276,0.03584442639271509
6202,-0.04261890086576479,-0.03316277169240065,0.0,-0.05570033146297858,-0.04766363847854152,-0.03582912849993711,P2:865,0.03582912849993711
10683,0.0,-0.05573076465882045,-0.06295982429917772,-0.026343071372904637,-0.03401331408740832,-0.03580939488366223,P2:1005,0.03580939488366223
4599,0.033585091891731894,0.046706497419001826,0.043172586484047225,0.02934989322309576,0.02556818907085279,0.035676451617745894,P3:5696,0.035676451617745894
3511,0.04249171064747592,0.0071117098659465,0.07386887528971385,0.0,0.054858765940900105,0.03566621234880728,P4:3383,0.03566621234880728
985,-0.05149111992236405,-0.040924973514061366,-0.04522698334563862,0.0,-0.03963063554339966,-0.03545474246509274,P7 Mono:4173,0.03545474246509274
3040,-0.04274371231970736,-0.001195730388137811,-0.021737984575167527,-0.05686238291895318,-0.05447236569485998,-0.03540243517936517,P4:5611,0.03540243517936517
15988,-0.031196212545147237,-0.0324338369269858,-0.035736516435320526,-0.046241510839899296,-0.030486508320138734,-0.035218917013498316,Lin:44,0.035218917013498316
1694,-0.04361625667434072,-0.060888704847686256,-0.04941640740599177,0.0,-0.021624416068007836,-0.03510915699920532,P5 gd:927,0.03510915699920532
7886,-0.03947537588244594,-0.04027067893583756,-0.03971600140015908,-0.01993965244993644,-0.035829064366192216,-0.03504615460691425,P2:25301,0.03504615460691425
371,0.06051793630230728,0.043892243564491645,0.027692735467429862,0.027719765514326793,0.015372471891176428,0.0350390305479464,P7 Mono:66,0.0350390305479464
13924,-0.04673267220279401,-0.06664789116068369,0.0,-0.017001206728409483,-0.044734391589231884,-0.03502323233622381,P1:22368,0.03502323233622381
3513,0.0,-0.06946860959102501,-0.03557351135112988,-0.03860126308141044,-0.03132163403836053,-0.03499300361238517,P4:3349,0.03499300361238517
3093,-0.03858205633309779,-0.028141394127849325,-0.05426527711232386,-0.0026800852072625626,-0.05127499624539237,-0.03498876180518518,P4:5399,0.03498876180518518
7583,-0.02138077317682549,-0.018501276447734073,-0.04342503684464026,-0.046775139800301194,-0.044714540144896175,-0.034959353282879434,P2:25836,0.034959353282879434
3562,0.002247002080576586,0.04193605139612329,0.06533593213393393,0.03873854781083684,0.026176347294316882,0.03488677614315751,P4:3149,0.03488677614315751
3944,-0.05132973951869615,-0.03294323563352104,-0.02973382596579236,-0.02195586021748421,-0.038328214013380636,-0.03485817506977488,P3:8059,0.03485817506977488
11124,0.047328902948919616,0.04110893410215409,0.017955411086489584,0.03494081347392557,0.032953532426699135,0.0348575188076376,P1:8687,0.0348575188076376
15999,0.03631637007988523,0.022574861408021805,0.04839096467058493,0.029198895916384592,0.03765304632698694,0.03482682768037269,Lin:34,0.03482682768037269
2954,-0.033044119580126846,-0.050900298957523946,-0.03457029158076464,-0.030178634711823173,-0.025386474419888512,-0.03481596385002542,P4:6032,0.03481596385002542
10910,-0.04374729116978499,-0.03629797808346897,-0.030574235806987156,-0.014540904886699024,-0.048897974449748256,-0.03481167687933768,P1:9367,0.03481167687933768
2776,-0.04747298969865974,-0.02129531574659147,-0.06242062006783806,-0.005108236951644242,-0.037759310501124535,-0.034811294593171616,P4:71,0.034811294593171616
7558,-0.03611160566325147,-0.04156467142657267,-0.030812265219132173,-0.03096461243442249,-0.03448755255803333,-0.03478814146028243,P2:25890,0.03478814146028243
11785,-0.05203110282003355,-0.03317115011250234,0.0,-0.057141377717489186,-0.03130084227564985,-0.03472889458513499,P1:6052,0.03472889458513499
2006,0.031944153764905496,0.05031206192861178,0.03601628566628443,0.03253623722842944,0.02273681480897384,0.034709110679441005,P5 gd:396,0.034709110679441005
1555,-0.026638932159383472,-0.04348628445713317,-0.04869673983303321,-0.049041420102175826,-0.005416807919559058,-0.03465603689425695,P6 earlyB:67,0.03465603689425695
15688,-0.06151701256547051,-0.03555396431028859,-0.018372441491454804,-0.04145641595317873,-0.016329178685611578,-0.034645802601200835,MFI:471,0.034645802601200835
6023,0.03821467935428138,0.008844542885894419,0.02399333988200214,0.05240133839145097,0.04960056074209715,0.03461089225114521,P2:917,0.03461089225114521
6129,0.03182925656150142,0.01817596455499969,0.0395536745728462,0.029529486703323244,0.053923742488622424,0.034602424976258594,P2:8833,0.034602424976258594
1746,-0.05755010608497538,-0.02724207465079662,-0.048039195533704955,-0.036245235242947337,-0.0036763188854936056,-0.03455058607958358,P5 gd:84,0.03455058607958358
2799,-0.02531676239684979,-0.0407351611191866,-0.04376252583756209,-0.046546896198711905,-0.0162625837615589,-0.03452478586277386,P4:6533,0.03452478586277386
227,-0.03170133967827108,-0.03405013754241815,-0.009932338821961777,-0.031103008073240797,-0.06563319370341132,-0.034484003563860624,P7 Mono:984,0.034484003563860624
1786,-0.032370255172872744,-0.039328515719563195,-0.041730318541613694,-0.028282040532747868,-0.030699663534901025,-0.03448215870033971,P5 gd:783,0.03448215870033971
1539,0.031980393275248736,0.04881637269944555,0.04346931438671536,0.014915293423643885,0.033070353631595946,0.0344503454833299,P6 earlyB:89,0.0344503454833299
15920,0.03327973596877143,0.04423251647109841,0.01562965322792855,0.05179007168128934,0.027167374398322505,0.03441987034948205,MFI:163,0.03441987034948205
5459,-0.046834983396075384,-0.05422606645783894,0.0,-0.026839385834383514,-0.04414403718156879,-0.03440889457397332,P3:2625,0.03440889457397332
3021,-0.038110439049496736,-0.028506602797522915,-0.053553118768260445,-0.0007776477468466255,-0.05064313388632558,-0.034318188449690465,P4:5642,0.034318188449690465
1005,0.06310992843630887,0.01679569890440952,0.018082703291204132,0.028401626246744957,0.0448348306830272,0.03424495751233894,P7 Mono:4118,0.03424495751233894
15248,-0.05013630072894623,-0.04222027806568004,-0.03707223460472642,-0.003134183844631225,-0.03852270853694373,-0.03421714115618553,P1:11546,0.03421714115618553
824,0.02583830465227209,0.02985248259316365,0.05076451293707305,0.036181162898317895,0.028359040068808395,0.034199100629927016,P7 Mono:4867,0.034199100629927016
15839,-0.04998346347710545,-0.02423964525831762,-0.020318568124688283,-0.051644659754896946,-0.0243334182534509,-0.034103950973691836,MFI:245,0.034103950973691836
2979,-0.04378737797376241,-0.009534642737101754,-0.05215911337693867,-0.026383370997170235,-0.03859825100111604,-0.034092551217217826,P4:5860,0.034092551217217826
2017,-0.03344823237153344,-0.007857913078654013,-0.021266569291055634,-0.04070692820323795,-0.0670268270163904,-0.03406129399217429,P5 gd:370,0.03406129399217429
2016,-0.022407386510367146,-0.030736469560481067,-0.03027008853086301,-0.052433285260232936,-0.03351960608010936,-0.033873367188410705,P5 gd:371,0.033873367188410705
13361,-0.049725280944713846,-0.0027140319202374414,-0.02353568958086914,-0.047795383340440645,-0.04552533866782966,-0.03385914489081814,P1:24261,0.03385914489081814
10876,0.0,0.022724820772154816,0.05649241158835541,0.04077773807212745,0.049181045451050245,0.033835203176737584,P1:9437,0.033835203176737584
6608,-0.06140211371069099,-0.026725870949048245,0.0,-0.03064712388722756,-0.05030666674692208,-0.033816355058777774,P2:6649,0.033816355058777774
507,-0.02491108012693945,-0.019616550516427113,-0.05212741020637556,-0.018995047171746774,-0.05253188497514016,-0.03363639459932581,P7 Mono:6269,0.03363639459932581
15507,0.019802563395340977,0.05168952726615127,0.016943910085904863,0.041067403283817125,0.03856995612705685,0.03361467203165422,MFI:83,0.03361467203165422
1545,-0.005336905035746077,-0.05418548300780696,-0.05221973414472234,-0.02788747133077967,-0.02844156839390729,-0.033614232382592465,P6 earlyB:8,0.033614232382592465
725,0.04577652002575158,0.046421113012992864,0.03450419702304835,0.007654745753926431,0.03341129749536076,0.033553574662216,P7 Mono:5422,0.033553574662216
53,0.04298166716270394,0.037701099726798214,0.03518246997621288,0.03570732243575181,0.016193633119537476,0.033553238484200866,P7:48,0.033553238484200866
1242,0.07337857168746509,0.029177162693712545,0.021189083539030172,0.02075806417461919,0.023249040541783277,0.03355038452732206,P7 Mono:2123,0.03355038452732206
15989,-0.04884008349474198,-0.013606725003840721,-0.016142310636911027,-0.049026743480463895,-0.03983171258702036,-0.033489515040595594,Lin:43,0.033489515040595594
106,-0.019256658911827162,-0.03573731014404684,-0.05340326070599034,-0.0315461620885541,-0.027222604749858624,-0.03343319932005541,P7:231,0.03343319932005541
1693,-0.04669986675629627,-0.05138645247546905,-0.037023004143934064,0.0,-0.031838163202514085,-0.0333894973156427,P5 gd:928,0.0333894973156427
3391,0.04440519551977715,0.019296862179469708,0.03605692964518067,0.03217720583655141,0.034888094503193634,0.03336485753683451,P4:3746,0.03336485753683451
6325,0.05047944955858603,0.02546373382406001,0.03194843929863464,0.024426629738540553,0.03427609132406942,0.03331886874877813,P2:832,0.03331886874877813
1780,-0.014167790009370835,-0.047861642916615016,-0.04373825712756322,-0.020164866145582057,-0.04027689565568956,-0.03324189037096414,P5 gd:792,0.03324189037096414
15591,0.0387109083037213,0.03394463697757836,0.0323533252454377,0.03207311052880811,0.029045186038535117,0.03322543341881612,MFI:62,0.03322543341881612
2684,0.03582506645263837,0.03312555190285226,0.00930648936910694,0.04656337458953524,0.04126180036636387,0.03321645653609934,P5 CD8:42,0.03321645653609934
13798,-0.05264585760218089,-0.0385311067256016,-0.0019872296453548877,-0.041226684807364605,-0.031601930110364634,-0.033198561778173326,P1:22746,0.033198561778173326
12007,0.03362919739163114,0.014019626681026522,0.047877789677395304,0.024544477472370447,0.04574912877951982,0.033164044000388644,P1:52,0.033164044000388644
3025,-0.029358208915257415,-0.0382811366979956,-0.05107467880958484,0.0,-0.04697319690395001,-0.03313744426535757,P4:5633,0.03313744426535757
6602,-0.05561537173004033,-0.05068617016037685,0.0,-0.021102354463174537,-0.03824228737147087,-0.033129236745012516,P2:6658,0.033129236745012516
13856,0.036467004343174944,0.030414126109906042,0.035077956747129914,0.011289844356111939,0.05226240107519786,0.033102266526304144,P1:22610,0.033102266526304144
6119,0.03874758697209005,0.008217482856050682,0.025538323941822684,0.025045188239581014,0.06778255495707428,0.033066227393323745,P2:8897,0.033066227393323745
11282,0.0,-0.025129535560254775,-0.04820775723837048,-0.018423442013661723,-0.07348075984294532,-0.03304829893104646,P1:809,0.03304829893104646
2801,-0.028995057190613894,-0.031663270716784264,-0.05062068930254582,-0.04513550284300841,-0.008745808694403504,-0.03303206574947117,P4:6529,0.03303206574947117
14170,-0.013670931383386745,-0.04071283151171767,-0.024787825876115836,-0.03698304180259248,-0.04884250268739585,-0.03299942665224172,P1:21728,0.03299942665224172
14652,0.07135575568735847,0.0,0.03477472068023742,0.020035853868126792,0.03872314823011258,0.03297789569316705,P1:20261,0.03297789569316705
7533,-0.06496586858212057,-0.04782217852685017,0.0,-0.014919345451555127,-0.03683753280015993,-0.032908985072137166,P2:25940,0.032908985072137166
15600,0.03155478018423071,0.022412740849506358,0.035848551465085,0.018919163278388898,0.05580858574833851,0.032908764305109896,MFI:583,0.032908764305109896
1854,-0.042269577444596196,-0.05588754556115713,-0.01063966247457076,-0.04122331171985236,-0.014414274414090475,-0.032886874322853386,P5 gd:674,0.032886874322853386
342,0.031014690921692668,0.03864079270016878,0.028419088205873435,0.02695496970483728,0.03935132747272375,0.032876173801059186,P7 Mono:728,0.032876173801059186
6191,-0.038243927277564295,-0.030421663005305383,0.0,-0.051898910301449795,-0.043455231066699455,-0.03280394633020379,P2:8669,0.03280394633020379
5993,0.037502111328998944,0.00993428267950845,0.026809781298225744,0.049385318850460234,0.04023017743016965,0.032772334317472604,P2:9251,0.032772334317472604
15049,0.0,-0.04219360638511716,-0.021170005480157947,-0.03780761171127628,-0.06260445952988553,-0.03275513662128739,P1:12818,0.03275513662128739
15301,-0.02994358068713048,-0.0222959718917988,-0.0022234646674687934,-0.06175303323759367,-0.047522914003950346,-0.03274779289758842,P1:11169,0.03274779289758842
13763,0.027098189628208404,0.038745049281712164,0.018997484521100297,0.06011784795551364,0.018486858284342322,0.03268908593417537,P1:22862,0.03268908593417537
15950,0.014938754389895758,0.04531768350153666,0.028217248815884947,0.04767019587478016,0.027225830207463834,0.03267394255791227,MFI:133,0.03267394255791227
676,0.050906921301433684,0.03680203798067852,0.0336093768376378,0.01625876380078753,0.025744421203299436,0.03266430422476739,P7 Mono:5608,0.03266430422476739
643,-0.02024683768632244,-0.0313213049904183,-0.029483335481537802,-0.03850971008471354,-0.043649435179530266,-0.03264212468450447,P7 Mono:5696,0.03264212468450447
14887,-0.005664148566605536,-0.04738100073536757,-0.027465785073512057,-0.04908190147107194,-0.03349521311892954,-0.03261760979309734,P1:13608,0.03261760979309734
10869,-0.05107871451468289,-0.02291308639867655,-0.026756602391202877,-0.030536830126379748,-0.03142599256899109,-0.03254224519998663,P1:945,0.03254224519998663
8578,-0.01908944736111504,-0.011739980929333753,-0.046135556920919606,-0.0441349278940332,-0.04156053876839948,-0.032532090374760216,P2:23718,0.032532090374760216
8658,-0.01883117690982764,-0.020867043714693945,-0.047007467614056664,-0.03707017859118041,-0.03877069862739339,-0.03250931309143042,P2:23476,0.03250931309143042
8002,0.03935242914859789,0.02738893109918956,0.04582377805754141,0.017308438071062235,0.03210846500430613,0.032396408276139446,P2:25090,0.032396408276139446
7296,-0.04160012101398652,0.0,-0.03464461568931374,-0.045793265317668405,-0.039619145456204534,-0.03233142949543464,P2:26243,0.03233142949543464
2877,-0.014761456242013141,-0.03160683880019428,-0.053375817695070944,-0.04012831489484129,-0.02152996387244544,-0.03228047830091302,P4:6314,0.03228047830091302
14624,0.0618990842263516,0.02576199403625927,0.030237806048626626,0.012240643285679371,0.030924139998745593,0.032212733519132494,P1:20365,0.032212733519132494
15806,0.04132523273961047,0.03265371210447463,0.02227000807519938,0.02012282412675693,0.04448687377957312,0.032171730165122904,MFI:276,0.032171730165122904
6117,0.028844359980448302,0.010283688082643825,0.038394965556020406,0.024311726089409486,0.05901105924576045,0.032169159790856494,P2:8906,0.032169159790856494
6529,0.037565635431435075,0.01190274669338422,0.020397275291816463,0.03630086221755369,0.05444676050178683,0.03212265602719526,P2:7073,0.03212265602719526
1968,0.022832343464662706,0.019516833786230068,0.02902152828127061,0.026060213160587997,0.06318104545310795,0.03212239282917186,P5 gd:47,0.03212239282917186
148,0.032998929380257516,0.03720961767793136,0.06957992180372163,0.010126728232420524,0.01048889197158582,0.03208081781318337,P7:186,0.03208081781318337
1850,-0.016707734628046724,-0.04739003491761655,-0.022686635316926548,-0.02260719429303219,-0.0509346827920607,-0.03206525638953654,P5 gd:683,0.03206525638953654
15396,0.027932238874971926,0.020591654766532935,0.02337735856352533,0.03819592028133785,0.050228375279810875,0.032065109553235785,P1:10563,0.032065109553235785
16017,-0.05467986377499624,0.0,-0.06574312580665212,0.0,-0.039673169231909305,-0.03201923176271153,Lin:17,0.03201923176271153
15959,0.023348343048693005,0.02509459884513015,0.05781976064184045,0.021773099408020122,0.0320287055410616,0.03201290149694907,MFI:122,0.03201290149694907
67,0.027243085271080925,0.016851564908224727,0.029800162329420957,0.0415632687258354,0.04423166632455967,0.03193794951182433,P7:35,0.03193794951182433
6519,-0.018590073124000447,-0.039097914667591153,-0.0035992412058673323,-0.05674612854517073,-0.041582643301188375,-0.03192320016876361,P2:71,0.03192320016876361
5340,-0.029806200411523164,-0.009796434174645333,-0.03691305869380878,-0.03331642643443876,-0.0497698950583417,-0.03192040295455155,P3:313,0.03192040295455155
3955,0.026709654923827743,0.03256461394721184,0.019927438233521576,0.050232052143226846,0.030149247222675923,0.03191660129409278,P3:8043,0.03191660129409278
13651,0.02244214396225707,0.01228201128960723,0.031062927703506354,0.04579199428846251,0.04798676584009202,0.03191316861678504,P1:23405,0.03191316861678504
15712,0.020858737060885486,0.044472142493543455,0.025646631140690067,0.023248270762869366,0.04519972804143252,0.03188510189988418,MFI:431,0.03188510189988418
1530,-0.05283192956765601,-0.04431425148055413,0.0,-0.04379270971108209,-0.018341783327482864,-0.03185613481735502,P6 earlyB:98,0.03185613481735502
14333,-0.012944620601669172,-0.05223889549984844,-0.022177617813912153,-0.043979101098394764,-0.027224474101847845,-0.03171294182313447,P1:21273,0.03171294182313447
2586,-0.008927080691470274,-0.025320462080151436,-0.040856022795770684,-0.06627132020651288,-0.017123296353451896,-0.03169963642547143,P5 NKT:94,0.03169963642547143
8208,-0.001278932241151118,-0.04755815234432769,-0.00520637794417581,-0.059078563528406694,-0.045232736282685315,-0.03167095246814933,P2:24639,0.03167095246814933
15568,0.023476777524432647,0.040035184032024364,0.042476992658524816,0.02473557207596668,0.02746678895584237,0.03163826304935818,MFI:642,0.03163826304935818
15768,0.036901134607189516,0.0307651691484128,0.029899459267095297,0.020751654976385092,0.03969371672915351,0.031602226945647245,MFI:327,0.031602226945647245
15033,-0.010948139546672687,-0.0463556137369015,-0.023605642765448142,-0.03509111740106703,-0.04199278258260953,-0.03159865920653978,P1:12854,0.03159865920653978
13296,-0.026458742470206045,-0.0148973092183664,-0.03625420966094013,-0.06351343342419315,-0.016844951354067977,-0.03159372922555474,P1:24365,0.03159372922555474
10896,-0.05333041902628243,-0.046371215061829604,-0.017586030277054427,0.0,-0.040632925195114536,-0.031584117912056196,P1:9387,0.031584117912056196
15710,0.0,0.06336979890640983,0.030243529143298038,0.03743140274189134,0.02685329879084025,0.031579605916487896,MFI:433,0.031579605916487896
7303,-0.03225935776198365,0.0,-0.036362437016207824,-0.04669964220925765,-0.0425220767965676,-0.031568702756803346,P2:26236,0.031568702756803346
15782,0.042420403639301725,0.02419857644602849,0.01351797624758848,0.029859756282836852,0.04770286974482781,0.031539916472116666,MFI:30,0.031539916472116666
15578,-0.004582680204081215,-0.01940492080215666,-0.05433744175025686,-0.04860145207276237,-0.030664434140299523,-0.03151818579391132,MFI:632,0.03151818579391132
1403,0.066550895282279,0.0,0.021380377357789027,0.04042226901110569,0.029188500810869128,0.03150840849240857,P6:39,0.03150840849240857
13768,0.022995796586770027,0.031227016325656776,0.03402396721196089,0.04073343523947478,0.028166979266934095,0.03142943892615931,P1:22834,0.03142943892615931
8937,0.02936278141890503,0.0006549855033007117,0.050609527550718326,0.04527818939902343,0.03106391845881417,0.03139388046615234,P2:22886,0.03139388046615234
5872,-0.028358790988000163,-0.05078172332348614,0.0,-0.03006043571317176,-0.047731767043454464,-0.03138654341362251,P2:9577,0.03138654341362251
1342,-0.029697598676057764,-0.03429745161653487,-0.02158078577828275,-0.03422837560374057,-0.03694560938613858,-0.03134996421215091,P7 Mono:1281,0.03134996421215091
8130,-0.017319231376644765,-0.026734763338805197,-0.023108042319824957,-0.05504660832310136,-0.03445716922150851,-0.03133316291597696,P2:24782,0.03133316291597696
2301,0.054472413895596324,0.007258908715302509,0.023333156148486252,0.03962210191578799,0.0319343926105171,0.03132419465713804,P5 gd:1765,0.03132419465713804
3062,-0.03865774145234566,-0.030854655083913933,-0.023629402980078377,-0.018733825182894147,-0.044653464239779256,-0.031305817787802274,P4:5539,0.031305817787802274
14394,-0.0021242227415207166,-0.05964264592452132,-0.01720754771048211,-0.0367337186577284,-0.04078598992744993,-0.0312988249923405,P1:21061,0.0312988249923405
3407,0.0,-0.05176682011142389,-0.06151504172540685,-0.0422296288409413,-0.0008727228488830641,-0.03127684270533102,P4:3718,0.03127684270533102
634,-0.05224901342529643,-0.016706221482318415,-0.02318639228040852,-0.023000441086128514,-0.041208024258537534,-0.031270018506537885,P7 Mono:5723,0.031270018506537885
13620,-0.03541021396015143,0.0,-0.03480762930846844,-0.04610902768582858,-0.03978290398121175,-0.031221954987132046,P1:23477,0.031221954987132046
3925,-0.05045383838849,-0.04650921290860191,0.0,-0.01632489883364758,-0.042592291001414956,-0.031176048226430886,P3:81,0.031176048226430886
1512,0.025440084605845997,0.04369838185520817,0.017143308793900275,0.04794821093044456,0.021414895815691976,0.031128976400218195,P6:140,0.031128976400218195
2583,-0.024988688379268324,-0.04607122112838701,0.0,-0.034051504142542176,-0.0503934585240857,-0.031100974434856644,P5 NKT:97,0.031100974434856644
8327,0.03482556647043023,0.00905163313545815,0.04959982971999944,0.03635176534440869,0.025396721318349056,0.031045103197729112,P2:24204,0.031045103197729112
3137,-0.012482490916525856,-0.04939283669703179,-0.04521078334462157,0.0,-0.04770762345015663,-0.030958746881667172,P4:4937,0.030958746881667172
444,-0.04814933308920727,-0.03606863078480005,-0.0028536775989573986,-0.04064590372253302,-0.02700971351120559,-0.03094545174134066,P7 Mono:6405,0.03094545174134066
2247,0.03939951402028793,0.014701744176364016,0.05475193947556356,0.02753816844856993,0.018325707986156115,0.03094341482138831,P5 gd:1873,0.03094341482138831
6125,0.03243607866613929,0.027624634912499942,0.019642562782079643,0.03427701481615149,0.0406395133359768,0.03092396090256943,P2:8860,0.03092396090256943
10701,0.011938531274437374,0.04654221232839749,0.018451133912926077,0.038340654813229624,0.039282085401666965,0.030910923546131508,P1:9980,0.030910923546131508
14337,-0.04280410347360072,-0.04182838213681827,-0.033038804905559584,0.0,-0.03673376519839829,-0.030881011142875375,P1:21228,0.030881011142875375
12298,0.04271037489473237,0.03450647430802745,0.023546619168015995,0.03703715060459103,0.01652876814201548,0.030865877423476462,P1:3864,0.030865877423476462
14339,0.0,-0.055241587489147904,-0.02543561495914114,-0.05046088721872908,-0.023188687581173505,-0.030865355449638327,P1:21219,0.030865355449638327
5288,-0.04233742557266931,-0.043849172808354084,0.0,-0.036204196311302554,-0.0318826894367949,-0.030854696825824167,P3:3311,0.030854696825824167
10348,0.022501042577194617,0.0074024409529501655,0.034482476606223215,0.026703620765745964,0.0631549774493505,0.03084891167029289,P2:12284,0.03084891167029289
127,0.034928632031003534,0.015510814276114787,0.019431691745888737,0.03784379974326351,0.046296502936872895,0.030802288146628692,P7:21,0.030802288146628692
1216,0.02674251710875333,0.020669209089552353,0.03940853088113311,0.030191479792347535,0.03695821594298359,0.030793990562953982,P7 Mono:2233,0.030793990562953982
4531,-0.03793606957710958,-0.045800888376848384,-0.03680776833105556,0.0,-0.03340051696584901,-0.030789048650172506,P3:5967,0.030789048650172506
6378,-0.03943560318367338,-0.017270432016782564,0.0,-0.050343750050501235,-0.046814476390722386,-0.030772852328335914,P2:8066,0.030772852328335914
1518,-0.047363078699015085,-0.024780069819048754,-0.019382736452385824,-0.03664605043934321,-0.025541238427649934,-0.030742634767488557,P6:124,0.030742634767488557
5885,-0.03794628411851076,-0.03821219131835299,0.0,-0.03869269462172152,-0.03883071478785089,-0.030736376969287233,P2:9496,0.030736376969287233
1246,0.025141646380836147,0.04210948799598419,0.028545941501141602,0.02299681593612976,0.034503249755011234,0.03065942831382059,P7 Mono:2111,0.03065942831382059
1866,0.02121172155955393,0.03936396166858333,0.051680749239450256,1.1233485890603231e-07,0.04076033154159519,0.030603375268808318,P5 gd:66,0.030603375268808318
170,0.038132444920722486,0.018320560005008757,0.0117010047768385,0.026938486995583467,0.05780137080133461,0.03057877349989756,P7:156,0.03057877349989756
10418,-0.04092539830581428,0.0,-0.024114741148564073,-0.06305048700543736,-0.024659420414591526,-0.03055000937488145,P2:11566,0.03055000937488145
10778,0.012907133605619278,0.04158914911891378,0.020134299832406426,0.03940313811261454,0.03869201542916635,0.030545147219744072,P1:9761,0.030545147219744072
726,0.04732391980594963,0.04247952866382434,0.027054305404495327,0.006215254723130763,0.02952263405825822,0.030519128531131656,P7 Mono:5421,0.030519128531131656
8330,0.022907678113443703,0.001628042718469088,0.0336569149425938,0.03694459526476309,0.05731258488840275,0.030489963185534485,P2:24198,0.030489963185534485
8287,0.03185403645834962,0.013841203217861078,0.03403236534762776,0.02109517989555065,0.051391775925070965,0.030442912168892017,P2:24413,0.030442912168892017
9349,0.01198786159824977,0.04067945075589271,0.058399970737485166,0.020179386241854537,0.02096225009384052,0.030441783885464535,P2:2168,0.030441783885464535
6503,-0.0524071407585261,-0.03630027695211191,-0.02907814731180549,-0.03431608686799935,0.0,-0.030420330378088566,P2:7165,0.030420330378088566
1801,-0.014622923471734054,-0.032102099848678144,-0.04128820641655917,-0.01990075487869457,-0.04410119483899848,-0.030403035890932885,P5 gd:765,0.030403035890932885
5660,-0.042323242644682936,-0.025178496003850193,-0.022970367705019847,-0.03412839589197608,-0.027356453254121237,-0.030391391099930054,P3:1603,0.030391391099930054
3881,-0.02608568974848027,-0.03873676174984696,-0.03339407424044946,0.0,-0.05371390386720901,-0.030386085921197143,P3:8223,0.030386085921197143
1834,-0.010614113690668258,-0.0471683859556654,-0.02867847248887981,-0.024243297111724394,-0.04105061223808823,-0.030350976297005217,P5 gd:706,0.030350976297005217
8091,-0.031404171595860494,-0.030422130453667134,-0.0010841297613884294,-0.05024628518938363,-0.03837683033713467,-0.03030670946748687,P2:24842,0.03030670946748687
413,-0.03528496200428046,-0.04114287050534994,-0.04490634501181225,0.0,-0.030195245741547434,-0.03030588465259802,P7 Mono:6476,0.03030588465259802
6290,-0.0322287583494793,-0.04184491595876001,0.0,-0.037690705590601496,-0.03973319507470015,-0.030299514994708187,P2:8426,0.030299514994708187
8977,-0.01866247425415998,-0.03603706891943958,-0.029613135330961653,-0.03414637344491671,-0.03297430565320308,-0.030286671520536195,P2:22746,0.030286671520536195
646,-0.012577835582484348,-0.036804640848023366,-0.038749929141406875,-0.029272016009721468,-0.03371839600979106,-0.030224563518285424,P7 Mono:5687,0.030224563518285424
4532,-0.03397618106342516,-0.0407864960816242,-0.037017519082368416,0.0,-0.0392486033320179,-0.030205759911887137,P3:5964,0.030205759911887137
9854,0.039276045173986064,0.035163333945775616,0.029643017754137354,0.01456762526334008,0.032169260980294795,0.03016385662350678,P2:20410,0.03016385662350678
7662,-0.006564115021193953,-0.050494775464176724,-0.009291089870925565,-0.05364971849490166,-0.030567642952015327,-0.03011346836064265,P2:25633,0.03011346836064265
13347,-0.046221931900784274,0.0,-0.017738307847976507,-0.04477203713494125,-0.04171758863920276,-0.030089973104580958,P1:24288,0.030089973104580958
7582,-0.018474876978788423,-0.03002538497261869,-0.03973776474203331,-0.033789902743753535,-0.02814839038928017,-0.030035263965294823,P2:25837,0.030035263965294823
9149,0.026444007064804334,0.03643992123999667,0.022168270031526417,0.017402746615479758,0.047701718898610905,0.030031332770083612,P2:22258,0.030031332770083612
1432,-0.03112008527304655,-0.05791682183706972,-0.008985645444777174,-0.03750760818829064,-0.014619933353851098,-0.030030018819407034,P6:293,0.030030018819407034
13071,-0.034696170149671336,-0.05420556161793259,-0.006210505035844576,-0.027001398030367833,-0.028020147054373393,-0.030026756377637947,P1:25112,0.030026756377637947
2283,0.03326893146613729,0.013950072565342595,0.03811943420586108,0.03421804579636693,0.030449913002827757,0.03000127940730713,P5 gd:1801,0.03000127940730713
13132,-0.04504071901173844,-0.04296088810872013,0.0,-0.03589007434991795,-0.025814506389684206,-0.02994123757201215,P1:24872,0.02994123757201215
3108,-0.039924745246676885,0.0,-0.026370416831019563,-0.03899048219128204,-0.044352585937787625,-0.02992764604135322,P4:5368,0.02992764604135322
5822,-0.040560366327234684,-0.03757244878861288,0.0,-0.0382877021079775,-0.033059922239717154,-0.029896087892708444,P2:9739,0.029896087892708444
1615,-0.036908358825007384,-0.03120467353718412,-0.006626249976182906,-0.023263305925154878,-0.05124496751339676,-0.02984951115538521,P6 earlyB:187,0.02984951115538521
2943,-0.025848803206317807,0.0,-0.025163418954166537,-0.0360482217645161,-0.06188817278769331,-0.029789723342538755,P4:6085,0.029789723342538755
6867,0.028280125780080937,0.0017254729553616802,0.015735554015459473,0.04153927435305501,0.06146962849067002,0.029750011118925425,P2:4991,0.029750011118925425
44,0.02758111866355027,0.019690560704489334,0.039604019527046744,0.031818215022811326,0.029843950488868322,0.029707572881353193,P7:56,0.029707572881353193
187,-0.031015012303833352,-0.028424965200071154,-0.020018978854773304,-0.042663500827102616,-0.026260248050570402,-0.029676541047270168,P7:140,0.029676541047270168
1328,0.025283754206463303,0.03043229510397609,0.027819831609750188,0.03448400513192768,0.030348376512211298,0.02967365251286571,P7 Mono:1404,0.02967365251286571
14090,-0.008359612777464377,-0.05069335817467383,-0.018617829245224364,-0.025368011669764417,-0.04522753585264581,-0.029653269543954565,P1:21977,0.029653269543954565
1757,0.025306299332761847,0.04744391991375323,0.03429539400373657,0.032407109812658666,0.008693325217066897,0.029629209655995442,P5 gd:822,0.029629209655995442
2766,-0.021006713112899467,-0.01539059763523076,-0.017371212827766852,-0.05242996972514231,-0.04186842229550893,-0.029613383119309666,P4:88,0.029613383119309666
948,0.027921540012269232,0.023103619805013843,0.030556483800478595,0.02647130461348718,0.04000843445568623,0.029612276537387017,P7 Mono:4262,0.029612276537387017
14773,0.03049018604979656,0.02596669086460616,0.04225848688125975,0.040646869787620714,0.008596202925348885,0.029591687301726417,P1:19981,0.029591687301726417
1351,0.007608328935297536,0.03482776354185018,0.026574770315179234,0.06997925416480265,0.008674559747879325,0.029532935341001782,P6:99,0.029532935341001782
2003,-0.030458660132869082,-0.04053214489311434,-0.051606258612230844,-0.024950435269402983,0.0,-0.02950949978152345,P5 gd:40,0.02950949978152345
13133,-0.030192103668045922,0.0,-0.03979822172850324,-0.04109173587107861,-0.036139622784197294,-0.029444336810365013,P1:24871,0.029444336810365013
10307,0.024246736432711025,0.01339877210913597,0.03038048587840809,0.026662770002926724,0.052480433472852014,0.029433839579206766,P2:12572,0.029433839579206766
8585,0.01774594683145607,0.023129652546038156,0.02299640637982782,0.04777064935784453,0.035455921288838635,0.02941971528080104,P2:23695,0.02941971528080104
14023,-0.04139643737901442,-0.02294887091684601,-0.007163479645498112,-0.042235741514934554,-0.033254162347868474,-0.029399738360832317,P1:22117,0.029399738360832317
830,0.019464930458527763,0.05231657972546209,0.025595680285450697,0.007460717802792049,0.04208881335435746,0.02938534432531801,P7 Mono:485,0.02938534432531801
13866,-0.058173862969211246,-0.03764555215717249,-0.010493018896938825,-0.0021354592928317785,-0.03847148475001049,-0.02938387561323296,P1:22550,0.02938387561323296
9097,-0.021047363070996156,-0.039027760232968924,-0.037558557511191054,-0.025477099048031415,-0.023794832439860573,-0.029381122460609626,P2:22422,0.029381122460609626
8529,0.03764575439142531,0.015484223831656348,0.023409781933342793,0.03420680448292143,0.03609875333569227,0.029369063595007634,P2:23856,0.029369063595007634
1350,-0.038577037637219,-0.04141875216370012,-0.02020762263995918,-0.00467142778212567,-0.04190993292687293,-0.02935695462997538,P7 Mono:1034,0.02935695462997538
14715,0.02578262930230406,0.02859613269693298,0.01154615661905952,0.04050051081288856,0.040335922395044466,0.029352270365245913,P1:20135,0.029352270365245913
9151,0.022008281990577864,0.021858935730896572,0.06124900215978926,0.01855731825626707,0.023002906704868327,0.029335288968479818,P2:22235,0.029335288968479818
1225,0.06786045490348142,0.025501639867429475,0.0018215759511688704,0.03332575831405422,0.018149146128234594,0.02933171503287372,P7 Mono:2196,0.02933171503287372
3510,0.036270214311391415,0.0,0.05637198496220072,0.0,0.053632803288364735,0.029255000512391372,P4:3386,0.029255000512391372
2693,-0.016760327764419908,-0.02328921653914871,-0.0361538587193539,-0.04024226886392186,-0.02979532100813234,-0.029248198578995344,P5 CD8:30,0.029248198578995344
4401,0.026807322505736846,0.025400524877614395,0.03874893199308739,0.03010773920868447,0.02510449789078568,0.029233803295181753,P3:640,0.029233803295181753
5550,-0.034136998175910864,-0.05722372716109904,0.0,-0.03880041213801926,-0.015785816596982444,-0.029189390814402322,P3:2303,0.029189390814402322
610,-0.03820497239351051,-0.024959012930712315,-0.045948087483663184,0.0,-0.03678314428339851,-0.029179043418256907,P7 Mono:5795,0.029179043418256907
348,0.023993707514096258,0.042368752947485884,0.034725260631979574,0.027389495100060196,0.01735457853424666,0.029166358945573713,P7 Mono:710,0.029166358945573713
13297,-0.02285127976661447,-0.010814916763647963,-0.03609084161173455,-0.05882819995856057,-0.016981286089594264,-0.029113304838030363,P1:24364,0.029113304838030363
2270,-0.033721574715777844,-0.017523864303279593,-0.04422290962959341,-0.028512863043523053,-0.021516023624111803,-0.029099447063257143,P5 gd:1828,0.029099447063257143
10464,0.02074825415264388,0.02461079023770324,0.026370507029914288,0.039886657127695894,0.03369600197838888,0.02906244210526924,P2:11422,0.02906244210526924
9193,0.0,-0.05346605457001166,-0.052104807123987185,-0.014596258476665265,-0.02499952238469812,-0.02903332851107245,P2:2202,0.02903332851107245
6363,-0.029212705185741504,-0.047582533373813365,0.0,-0.03056029261524159,-0.03779102419102046,-0.029029311073163384,P2:8183,0.029029311073163384
7177,0.010640754531070447,0.05042600524914407,0.021838430086165216,0.029921789010350752,0.03229692034917935,0.02902477984518197,P2:307,0.02902477984518197
8301,0.01909958599513654,0.017018851464616524,0.048814230620669016,0.04203761679866499,0.017715513756352174,0.028937159727087845,P2:24325,0.028937159727087845
1014,0.03000911167313201,0.04446972523772953,0.010341264297644339,0.02918762072023426,0.03049972595459558,0.028901489576667144,P7 Mono:4064,0.028901489576667144
1663,0.024546709322074985,0.03589527258365813,0.019976138801239912,0.006639948830971588,0.057296192543468766,0.028870852416282677,P5 gd:975,0.028870852416282677
15597,0.036255279179837535,0.03712261404294301,0.011375784200111134,0.007110079822243226,0.05221342999170945,0.02881543744736887,MFI:586,0.02881543744736887
6721,-0.043617680896581155,-0.03992401546773424,-0.03058112404704381,-0.010613327791403948,-0.01920968552696163,-0.02878916674594496,P2:5980,0.02878916674594496
12648,0.0,-0.021614490313225997,-0.04849984512336822,-0.03189457158164915,-0.04161180037591025,-0.028724141478830723,P1:26098,0.028724141478830723
7626,0.027008015906768004,0.031456996048389585,0.021264187598980713,0.028148203269245765,0.03472362669265672,0.028520205903208157,P2:25724,0.028520205903208157
1914,0.03407677629009501,0.01910112545310846,0.051981878785534945,0.008725911514028512,0.028665887881811746,0.028510315984915734,P5 gd:57,0.028510315984915734
8939,0.018219232932543794,0.005027935784132397,0.05690877928400456,0.043141399036286526,0.019242536068523542,0.028507976621098163,P2:22883,0.028507976621098163
10756,0.028625081514374116,0.024023977216453118,0.037238691409363305,0.020689766176406534,0.03189085294670532,0.028493673852660478,P1:9847,0.028493673852660478
2811,-0.048620120772270195,-0.04633826583502671,-0.008908594350159511,-0.03189649435361671,-0.006448145562435052,-0.02844232417470164,P4:6516,0.02844232417470164
1592,-0.02315800557320844,-0.04232940777874983,-0.02021379636087301,-0.053730430364993094,-0.0026932846971633347,-0.02842498495499754,P6 earlyB:238,0.02842498495499754
15057,-0.037746775756780794,-0.035798752100670246,-0.019965555225735777,0.0,-0.04858465630844477,-0.028419147878326317,P1:12794,0.028419147878326317
15529,0.029766960902884432,0.0026859029174031114,0.024532197266589645,0.02076760884791677,0.06416506083691459,0.02838354615434171,MFI:679,0.02838354615434171
15874,-0.03051148973969312,-0.013972840662252637,-0.05613356626803897,-0.007624714091040676,-0.033400174597507645,-0.028328557071706607,MFI:211,0.028328557071706607
2808,-0.048620120772270195,-0.050178808256092056,-0.011545645080440224,-0.03127515906489881,0.0,-0.028323946634740256,P4:6519,0.028323946634740256
13360,-0.03920925110157955,0.0,-0.039369324315880076,-0.03020684638929498,-0.032765635065557,-0.028310211374462324,P1:24262,0.028310211374462324
13795,-0.04722812326854559,-0.03486044563240696,0.0,-0.03908574134560126,-0.02026581488723487,-0.028288025026757736,P1:22749,0.028288025026757736
3340,-0.042687423413543264,-0.050781603589933964,-0.0006132635173079984,-0.03724075403250211,-0.009986154160871456,-0.028261839742831762,P4:3969,0.028261839742831762
3566,0.020068686156652173,0.015262715883810682,0.06239486067109978,0.009191355760850206,0.03438846305146797,0.02826121630477616,P4:3140,0.02826121630477616
2013,-0.019440180766253198,-0.03706760056778606,-0.048940028385922985,-0.03585022657805423,0.0,-0.028259607259603293,P5 gd:378,0.028259607259603293
9462,0.052766577846383125,0.025199067528341,0.003144593869620443,0.028235775856365088,0.03189769291241555,0.028248741602625038,P2:21311,0.028248741602625038
1967,0.04421592933735546,0.005458747155319091,0.04101113026546137,0.04262339795874139,0.007797851368904804,0.028221411217156423,P5 gd:470,0.028221411217156423
10757,0.0328514976322318,0.03966279457966511,0.014674370658031465,0.0327269777516688,0.021037031152024526,0.02819053435472434,P1:9845,0.02819053435472434
10916,-0.03440541975109347,-0.027029172513574846,-0.03791757703320093,-0.00742630233178462,-0.034056247474490285,-0.028166943820828832,P1:9358,0.028166943820828832
5628,-0.03181577498681776,-0.028938325964463912,-0.023259803760994305,-0.024381450214927762,-0.03242884300903583,-0.028164839587247914,P3:1867,0.028164839587247914
949,0.02403905312730308,0.034982555906612735,0.02588803433600217,0.021711486773576504,0.03420285297441735,0.028164796623582372,P7 Mono:4261,0.028164796623582372
7078,-0.04443856633152696,-0.0016530733204585218,-0.03241202565257945,-0.048387321055016766,-0.01391663641496072,-0.02816152455490848,P2:3794,0.02816152455490848
14133,-0.0456851765789173,-0.044368531447826834,0.0,-0.016256719673447072,-0.03447390052043969,-0.02815686564412618,P1:21796,0.02815686564412618
13657,0.012534574022925156,0.0007584661743399578,0.03543057680376858,0.045329720933379926,0.04653847704543639,0.028118362995970002,P1:23378,0.028118362995970002
16002,0.0,-0.026555376705405895,-0.06555860062640657,-0.008586854005716436,-0.03987316386451406,-0.02811479904040859,Lin:31,0.02811479904040859
1582,-0.03273130856289714,-0.02992043652642804,-0.024584617785296806,-0.052971697070905696,0.0,-0.028041611989105535,P6 earlyB:29,0.028041611989105535
8819,-0.024980410742928873,-0.04497166649157929,-0.03167860285697209,-0.013879124473136944,-0.024596385769168647,-0.02802123806675717,P2:23151,0.02802123806675717
1955,0.021164842627651757,0.03531787938180938,0.050223246472000445,0.0,0.032988161531704106,0.027938826002633137,P5 gd:490,0.027938826002633137
12793,-0.020158944756861127,-0.01642788043182481,-0.04181154189769978,-0.03655004113072806,-0.024742585893792184,-0.027938198822181192,P1:25810,0.027938198822181192
8336,-0.03171869015762294,0.0,-0.023300251429466467,-0.04335481195629524,-0.041187719688085316,-0.027912294646293995,P2:24173,0.027912294646293995
8869,-0.02289868254142987,-0.04193776947528994,-0.031042161856950218,-0.01898808318911914,-0.02455036107781905,-0.027883411628121645,P2:23070,0.027883411628121645
9558,0.034208473517509025,0.04119001899339677,0.02345918558629899,0.006049125143848685,0.034396071087526174,0.027860574865715932,P2:21193,0.027860574865715932
1875,-0.028417031834114686,-0.04173650072800396,-0.04882828603871045,-0.020300014012247222,0.0,-0.02785636652261526,P5 gd:643,0.02785636652261526
3402,0.0,-0.04148803886588465,-0.054228227678839065,-0.027254428579222625,-0.016144823307934993,-0.027823103686376267,P4:3724,0.027823103686376267
764,0.016173084700303486,0.05507565959371347,0.051898177084970146,5.016205020698759e-07,0.015930770500231214,0.02781563869994408,P7 Mono:509,0.02781563869994408
14772,0.03218182956989782,0.02379218006527731,0.04053150172801148,0.0282359972256089,0.013940090624377979,0.0277363198426347,P1:19982,0.0277363198426347
2005,0.03647898220896108,0.02971786197057188,0.033356794175453765,0.01228619795511091,0.026564921402846733,0.027680951542588872,P5 gd:397,0.027680951542588872
3381,-0.007865751953424992,-0.031735259679578715,-0.027036946151237574,-0.047078510567017146,-0.02421598724868237,-0.02758649111998816,P4:3784,0.02758649111998816
1523,-0.03981901263282835,-0.029142639880271735,0.0,-0.04451534299683762,-0.024444030873170715,-0.02758420527662168,P6:115,0.02758420527662168
15394,0.021224954367424696,0.031238779811960098,0.01795864339588137,0.033524600275737455,0.03387495294359542,0.027564386158919808,P1:10566,0.027564386158919808
118,-0.013770637728848198,-0.018392030563419755,-0.03854978420110952,-0.03906085578787141,-0.028032430006350167,-0.027561147657519814,P7:22,0.027561147657519814
6962,0.030271357261034165,0.03749959816212773,0.005251073997319438,0.025449553034807355,0.03927600307226054,0.027549517105509846,P2:440,0.027549517105509846
12363,0.033963286835194464,0.02564642729418555,0.010546382793082513,0.03523396184416515,0.03219866825079395,0.027517745403484322,P1:358,0.027517745403484322
