,coef_weight_0,coef_weight_1,coef_weight_2,coef_weight_3,coef_weight_4,coef_weight_mean,label,abs(cwm)
15511,0.19890927411632459,0.16871018176608257,0.1459951635067159,0.13786077559823384,0.09648253266908678,0.14959158553128876,MFI:8,0.14959158553128876
3071,0.1101532229308952,0.16022074303775147,0.09381438008234316,0.14450759998169113,0.1281852299459142,0.12737623519571903,P4:5530,0.12737623519571903
15552,0.1711881349857649,0.134255137455515,0.11019826947700735,0.09597727953572557,0.11192826371401944,0.12470941703360645,MFI:658,0.12470941703360645
1369,0.09264115404147347,0.09415874422683415,0.12122483420121838,0.1331907331334035,0.13570280631262216,0.11538365438311034,P6:76,0.11538365438311034
3062,0.06368910452076847,0.1266815052255769,0.10468568304206861,0.13480998106870531,0.09524946543910823,0.10502314785924552,P4:5539,0.10502314785924552
1352,-0.08774325130653651,-0.08610559569517572,-0.11181223934764462,-0.11654086249043981,-0.11178490626104819,-0.10279737102016898,P6:98,0.10279737102016898
1543,-0.1089222661085817,-0.06427735875252275,-0.11745231973504806,-0.11428944551206578,-0.10567131672150339,-0.10212254136594434,P6 earlyB:82,0.10212254136594434
2915,0.06717157560803637,0.13021730716740437,0.08961135292437494,0.11952527782993452,0.10315635113348526,0.1019363729326471,P4:6227,0.1019363729326471
1370,-0.08236386358872069,-0.08132796956044021,-0.10954793426930556,-0.1144010810983535,-0.10056993478705348,-0.09764215666077469,P6:75,0.09764215666077469
1527,-0.08370797206169231,-0.08308581877736895,-0.10339735130190683,-0.10638197055277421,-0.11155631800521111,-0.09762588613979067,P6:101,0.09762588613979067
15972,-0.10186314228414584,-0.12633244482257933,-0.09902070872205393,-0.08371613358147409,-0.07640975548005005,-0.09746843697806065,MFI:102,0.09746843697806065
2230,0.04358544204433802,0.12858812679812623,0.13375989784592152,0.0764371558843351,0.10130462165006165,0.0967350488445565,P5 gd:1904,0.0967350488445565
1367,-0.08008975997689716,-0.08117823735053434,-0.10400483569233142,-0.10783348919993843,-0.10248045127856735,-0.09511735469965374,P6:78,0.09511735469965374
15687,0.10668857314650548,0.07427901282184399,0.096914200691548,0.11842074146296709,0.07813213374855449,0.09488693237428382,MFI:472,0.09488693237428382
15512,0.1008000350384342,0.15237776326463023,0.07176620588508523,0.08088218647017015,0.0684752115943059,0.09486028045052514,MFI:79,0.09486028045052514
150,-0.11149014756418277,-0.12633443390407542,-0.08692893423640921,-0.07697479282046135,-0.0698310807748131,-0.09431187785998837,P7:184,0.09431187785998837
3602,0.06826240175261852,0.07600602276439797,0.11393662210898929,0.1264183152286073,0.08281535226656637,0.0934877428242359,P3:984,0.0934877428242359
2328,0.05908767494705414,0.1151965937116076,0.10807081073790681,0.10696946845763977,0.0771403607491969,0.09329298172068104,P5 gd:166,0.09329298172068104
6425,0.10079483852289496,0.058725609296780806,0.09849022595372463,0.10379329888090873,0.09962662503322585,0.092286119537507,P2:761,0.092286119537507
2781,0.07152405336396798,0.10630771828079627,0.09090924003214425,0.09537816595705595,0.08406096642264439,0.08963602881132177,P4:66,0.08963602881132177
16005,-0.07742625308935065,-0.08942022903857434,-0.08873442360312879,-0.09792630136387508,-0.09028135200061871,-0.08875771181910952,Lin:28,0.08875771181910952
1351,0.07516590004056048,0.0724769401934938,0.09981866535993932,0.10227476173113081,0.0935691447407512,0.08866108241317512,P6:99,0.08866108241317512
1492,-0.0667670172211339,-0.0513176507340318,-0.1294296396983971,-0.1203334331720343,-0.07138144522340051,-0.08784583720979952,P6:174,0.08784583720979952
1622,-0.08004572924382493,-0.06832561881529861,-0.09537819275155787,-0.09280135000197748,-0.10091351170777288,-0.08749288050408635,P6 earlyB:166,0.08749288050408635
15491,-0.11128910444226231,-0.09709655086148869,-0.05058265756436437,-0.10497919457185484,-0.07214905732642585,-0.08721931295327921,MFI:98,0.08721931295327921
3429,0.09776392064699077,0.09659180283670286,0.042215768614169646,0.10095726508932558,0.09359970118969396,0.08622569167537655,P4:3645,0.08622569167537655
1364,0.05284081221800655,0.0635275614621374,0.11126718403572948,0.09660851424490377,0.10150831825702851,0.08515047804356114,P6:80,0.08515047804356114
2273,0.04771604768081282,0.09624676031747069,0.11653910980182147,0.07174210878321471,0.08915682490492667,0.08428017029764928,P5 gd:1823,0.08428017029764928
1544,-0.0843889280665297,-0.0484622009737033,-0.08310853784524017,-0.10631530801416379,-0.09764173373279234,-0.08398334172648586,P6 earlyB:81,0.08398334172648586
12331,0.10137068064749813,0.06146638671152245,0.10205494934252793,0.07889592060439488,0.07415797977897666,0.083589183416984,P1:3781,0.083589183416984
16018,-0.07930979196576231,-0.04387238146480866,-0.07914740189770099,-0.12219534937374603,-0.0881944018795234,-0.08254386531630828,Lin:16,0.08254386531630828
3505,0.07597328803322778,0.07628711673589253,0.080224629486922,0.0888115008450807,0.09012746589886006,0.08228480019999661,P4:3396,0.08228480019999661
1497,-0.0698608689112856,-0.04396968814409969,-0.12446307405776341,-0.10459328808478688,-0.06644567359502014,-0.08186651855859114,P6:165,0.08186651855859114
11333,0.0838239655062784,0.07830225917292925,0.07516557909425638,0.06045465017779062,0.10804127598697115,0.08115754598764516,P1:792,0.08115754598764516
1605,0.09362431612237741,0.05167263826341917,0.11522419142988748,0.07511043189753996,0.06896657650109535,0.08091963084286388,P6 earlyB:210,0.08091963084286388
1583,0.0894444731002971,0.0,0.11163555163369267,0.10156844513040245,0.10132473017887243,0.08079464000865293,P6 earlyB:28,0.08079464000865293
3070,-0.0776842245788225,-0.11121142532335043,-0.04779341989337576,-0.08620694629670299,-0.08083648694776545,-0.08074650060800344,P4:5531,0.08074650060800344
10633,-0.09183934299395118,-0.07817900468954121,-0.09390767660196123,-0.06365152960549912,-0.07290087160678826,-0.0800956850995482,P2:10535,0.0800956850995482
3400,0.08139066048910201,0.08838826110914519,0.04548415889950246,0.09243946281341447,0.09044990330960695,0.07963048932415422,P4:3729,0.07963048932415422
2269,0.02913756370967378,0.09053429083633997,0.11015650221598368,0.07737385413099833,0.08993164248340434,0.07942677067528002,P5 gd:183,0.07942677067528002
6296,-0.08992171961968598,-0.06712306668856274,-0.08080799263983202,-0.07895516092228169,-0.0801643146028373,-0.07939445089463995,P2:8413,0.07939445089463995
3529,-0.0645171829864375,-0.060552925006091725,-0.09399251634494793,-0.07705966495663252,-0.09789398013134398,-0.07880325388509073,P4:3313,0.07880325388509073
15939,0.03767030120893755,0.0379165985822206,0.11152304064343282,0.09018544406445572,0.11500649371500338,0.07846037564281001,MFI:144,0.07846037564281001
1398,0.11276596313768211,0.028839430884251723,0.0843599323561225,0.0674514679831135,0.09828234006455595,0.07833982688514515,P6:44,0.07833982688514515
8655,0.0,0.08538380231015397,0.1007581955897503,0.08952957030842905,0.11321660292172998,0.07777763422601267,P2:235,0.07777763422601267
1539,-0.0829611049556569,-0.04347469669162939,-0.0846806495337057,-0.08605115728480596,-0.09112818369988301,-0.07765915843313619,P6 earlyB:89,0.07765915843313619
148,0.09731010771212634,0.10848323558113815,0.0716306248321689,0.060085592196815016,0.05060183183084519,0.07762227843061872,P7:186,0.07762227843061872
534,-0.06613844027893301,-0.0561649966714613,-0.0776528292965605,-0.1052415867242052,-0.07993383440384214,-0.07702633747500043,P7 Mono:6198,0.07702633747500043
53,0.10253572566536004,0.08277118036450358,0.08875469282740847,0.07299952084290647,0.03770664019918434,0.07695355197987258,P7:48,0.07695355197987258
15571,-0.10888507666350361,-0.06058140842107996,-0.08608549962467557,-0.06259299099084921,-0.06628241594337753,-0.07688547832869716,MFI:64,0.07688547832869716
1363,-0.047451407977957216,-0.07765590028966543,-0.09558164653546619,-0.09051383469704549,-0.07165155397001757,-0.07657086869403038,P6:82,0.07657086869403038
3432,0.09157094884761663,0.07380130213082935,0.058477684208415856,0.07282585624478977,0.0833103880043966,0.07599723588720965,P4:3639,0.07599723588720965
2545,0.025458990276859703,0.06819045977254859,0.11315367814286112,0.08283259576558724,0.08785046717347307,0.07549723822626594,P5 gd:1167,0.07549723822626594
1684,0.04113354884359222,0.06269559303373694,0.11270267492029375,0.07499812234461056,0.0838727322401786,0.07508053427648241,P5 gd:940,0.07508053427648241
6417,-0.07432513520679924,-0.06919981765257242,-0.07555846336556922,-0.0829312473649631,-0.07139804998658783,-0.07468254271529837,P2:7712,0.07468254271529837
3120,0.06106907333044986,0.08677436238688681,0.05943997583229981,0.0852445118197571,0.08043051368628831,0.07459168741113638,P4:5290,0.07459168741113638
1501,-0.050077424912680926,-0.086531291763966,-0.08570594457453161,-0.08008109266266417,-0.06804501221570412,-0.07408815322590936,P6:16,0.07408815322590936
6357,0.0681045451815388,0.05414321050871887,0.06339662878288697,0.07741682087906408,0.10702192027845597,0.07401662512613294,P2:822,0.07401662512613294
9840,0.09390616996566818,0.0622935033362921,0.05543631148032405,0.09581397116642996,0.06221894991066637,0.07393378117187613,P2:20445,0.07393378117187613
40,-0.09497346915071689,-0.0962351344457701,-0.06978858018196031,-0.05598304132754994,-0.05065956529691705,-0.07352795808058286,P7:6,0.07352795808058286
15922,-0.0802516735702042,-0.10701214039127493,-0.04629268054690317,-0.07649872888064944,-0.05644188895607378,-0.0732994224690211,MFI:161,0.0732994224690211
3459,-0.06106912908830233,-0.05694277765774938,-0.08848420822958435,-0.07679696282207683,-0.08138038810687984,-0.07293469318091854,P4:3556,0.07293469318091854
15593,-0.11496878627887813,-0.0649268986878144,-0.05699441073149833,-0.061146471503902455,-0.06581836827417736,-0.07277098709525413,MFI:60,0.07277098709525413
6541,0.09614541944432764,0.06465532112014992,0.03198916891621652,0.0833798270281529,0.08722778910717807,0.07267950512320501,P2:702,0.07267950512320501
1563,-0.08627299804747326,-0.06410515118623253,-0.08789563850889358,-0.06841701284392242,-0.055380495804576116,-0.07241425927821958,P6 earlyB:57,0.07241425927821958
13712,0.09861573624538936,0.06214286765239067,0.08894369551308239,0.052000081281255287,0.05645232239878251,0.07163094061818004,P1:2310,0.07163094061818004
3507,0.07027233741845132,0.059855443283975955,0.07103531646273281,0.07925071394760125,0.07728345417463865,0.07153945305748,P4:3393,0.07153945305748
15938,0.08111505672709084,0.05357582665737878,0.046492784822023875,0.09550259759346902,0.07964205635602017,0.07126566443119653,MFI:145,0.07126566443119653
15553,-0.06968645077043274,-0.10248087909202702,-0.04882689080237122,-0.07872537118628417,-0.056541165450880525,-0.07125215146039914,MFI:657,0.07125215146039914
3163,-0.05037134292833001,-0.05278084248103061,-0.08038879100971995,-0.0890215040431931,-0.083579540658023,-0.07122840422405934,P4:4690,0.07122840422405934
5797,-0.079212228603204,-0.07667559075847448,-0.07565534820847078,-0.0582670200954902,-0.0657959279928599,-0.07112122313169987,P2:9806,0.07112122313169987
2960,-0.0536015407703596,-0.06573377032151259,-0.07725901012054184,-0.06792067392067416,-0.08943954063333598,-0.07079090715328483,P4:60,0.07079090715328483
3477,0.046524839346670954,0.07710850017295982,0.05473104072216904,0.08886832395070894,0.08568542499529548,0.07058362583756085,P4:3486,0.07058362583756085
3481,0.055535842027388434,0.06933583211047488,0.07444080381058675,0.07848133811785092,0.07478318158038395,0.07051539952933698,P4:3477,0.07051539952933698
3503,0.05521265227000014,0.07114248229077903,0.05113378750381853,0.09046329320090998,0.08456333427730457,0.07050310990856246,P4:3402,0.07050310990856246
7494,0.08306121418451735,0.0593109806743301,0.05250242288110528,0.08019981534066473,0.07714055341323268,0.07044299729877003,P2:25999,0.07044299729877003
9442,-0.06153938716990414,-0.0728721784400913,-0.059438294192013144,-0.08227077975376283,-0.07602202553980401,-0.07042853301911509,P2:21350,0.07042853301911509
3430,0.08115905226122722,0.09416989038712126,0.028850522196883308,0.07904195124920028,0.06888978604362779,0.07042224042761197,P4:3644,0.07042224042761197
3486,-0.060393878180018463,-0.0634799553156168,-0.07461860672939163,-0.07749477125033447,-0.07553752029656573,-0.07030494635438542,P4:3472,0.07030494635438542
11917,0.0781118731614551,0.06896330178729555,0.05972635618434035,0.05105083611167817,0.09303927454478493,0.07017832835791082,P1:5478,0.07017832835791082
7495,0.08705492639703707,0.04954946820502823,0.05050567928125566,0.0878703050305213,0.07576071402624454,0.07014821858801737,P2:25998,0.07014821858801737
14868,0.08958957080406145,0.06442275495005252,0.07978657869544074,0.06388778372840796,0.05046357718416679,0.0696300530724259,P1:1451,0.0696300530724259
1524,-0.0495283228652543,-0.0775776324782729,-0.07861431328625132,-0.07060418367012776,-0.07019171289278453,-0.06930323303853816,P6:110,0.06930323303853816
2345,0.03310881240386453,0.07133759433243622,0.09632974671388622,0.06758433638658409,0.07752207611744519,0.06917651319084325,P5 gd:1596,0.06917651319084325
1109,0.08361163070263365,0.03522379876934255,0.0829943852261841,0.06421421379274767,0.07765445502955233,0.06873969670409205,P7 Mono:3409,0.06873969670409205
9437,-0.06076221669979643,-0.06938002190603017,-0.0644882484098671,-0.07386677530228343,-0.07519163201816276,-0.06873777886722797,P2:21375,0.06873777886722797
15914,0.03923880741585532,0.058878313961004305,0.12231763438748604,0.07674226857760529,0.045573014138269294,0.06855000769604405,MFI:169,0.06855000769604405
10905,-0.0487968343603954,-0.06744518583661395,-0.06089959627302582,-0.07568942178873059,-0.0898796711331226,-0.06854214187837768,P1:9374,0.06854214187837768
2026,0.04545652351436752,0.08129825190966972,0.07086683286536595,0.07544084062622951,0.06929695419542622,0.0684718806222118,P5 gd:343,0.0684718806222118
5641,-0.06477123269850418,-0.08468017811825228,-0.07237617360316316,-0.07345292937332021,-0.04634602291689773,-0.0683253073420275,P3:1816,0.0683253073420275
918,0.07932571973752674,0.10660674731100989,0.009952604935463362,0.07813599833149658,0.0673953411324181,0.06828328228958294,P7 Mono:4353,0.06828328228958294
2000,-0.09679804560024304,-0.047333939679559046,-0.07302416773916229,-0.08636270402634372,-0.03763011410152747,-0.06822979422936712,P5 gd:403,0.06822979422936712
1540,-0.07024179758027511,-0.03679147455129836,-0.06345444011965089,-0.08421458251081025,-0.08604462509838334,-0.06814938397208359,P6 earlyB:88,0.06814938397208359
8499,0.0902916518210149,0.04799781786152435,0.040537932023891596,0.08649016115931733,0.07409474619678698,0.06788246181250704,P2:23907,0.06788246181250704
452,0.09889979824130689,0.04991113136972732,0.07207748492119802,0.06875511411713338,0.04969246905026985,0.06786719953992709,P7 Mono:6394,0.06786719953992709
14892,-0.0624483743843264,-0.07062046699735769,-0.07579901604497656,-0.06960272497657734,-0.059849713556440066,-0.0676640591919356,P1:13602,0.0676640591919356
1564,-0.08423945500526737,-0.037824800997718774,-0.06840364217115202,-0.08038281566773879,-0.06576437384044004,-0.0673230175364634,P6 earlyB:56,0.0673230175364634
13516,0.09053749552780335,0.07964560778208829,0.06434559905990624,0.04350076008776939,0.055324706354413763,0.06667083376239621,P1:2382,0.06667083376239621
1562,0.07281298028058938,0.04106616929855372,0.11111701140572791,0.05854300185914045,0.049589334610682316,0.06662569949093876,P6 earlyB:6,0.06662569949093876
3995,-0.047161389093425245,-0.07459423132252871,-0.07102669454409474,-0.0791481598997323,-0.06103996582736971,-0.06659408813743015,P3:7962,0.06659408813743015
3150,0.07326672838082658,0.08617367422667908,0.04295635780718301,0.0704945015969635,0.058982597611813355,0.0663747719246931,P4:4836,0.0663747719246931
147,-0.07074171468022722,-0.04526924851143727,-0.05736716994887308,-0.08865374709080419,-0.06956990420654906,-0.06632035688757817,P7:188,0.06632035688757817
2753,0.0723479037059257,0.05496701161002384,0.055264564419103775,0.06180796680922423,0.08680947833308379,0.06623938497547227,P5 CD8:109,0.06623938497547227
3401,0.06704473683261643,0.09053182602121679,0.02908098722160181,0.07250732453944736,0.0713014536965329,0.06609326566228305,P4:3728,0.06609326566228305
15544,-0.08123294310171116,-0.06015397487038405,-0.09588624345014447,-0.0558465698275262,-0.035885226495537034,-0.06580099154906058,MFI:665,0.06580099154906058
2742,0.05543739682443424,0.06935704612950158,0.06379738504407702,0.05218548079008484,0.08766781788556346,0.06568902533473223,P5 CD8:136,0.06568902533473223
4039,0.07589448661030808,0.08719033934801783,0.0070293579893006735,0.07395979146847262,0.08385040020885333,0.0655848751249905,P3:7812,0.0655848751249905
12726,0.06481641688183286,0.0540821508907508,0.09961424184025267,0.06589070174487678,0.04271557892022727,0.06542381805558807,P1:25970,0.06542381805558807
3433,0.07957280297953566,0.07045768750301039,0.049572672094692044,0.058368947995869516,0.06846526505504322,0.06528747512563016,P4:3638,0.06528747512563016
8660,-0.044119920494617486,-0.0730508129052222,-0.07202161767234334,-0.0619905893532511,-0.07464570358633635,-0.06516572880235409,P2:23471,0.06516572880235409
3404,0.0778116706139887,0.057433347255945066,0.05367816408708892,0.06052913585684994,0.07600407536882282,0.06509127863653909,P4:3720,0.06509127863653909
3101,-0.048861469389177965,-0.04268242995653707,-0.07135910666539964,-0.08240237551699256,-0.07746042373599842,-0.06455316105282113,P4:5379,0.06455316105282113
15876,0.030264963743155418,0.07214184764062777,0.08340357403523123,0.031000494313617295,0.10502095988609052,0.06436636792374444,MFI:21,0.06436636792374444
1500,0.055264599813262864,0.024854570547707518,0.10637147856363786,0.08786422764319657,0.046021308024802816,0.06407523691852153,P6:160,0.06407523691852153
3068,0.06308632338166283,0.09367923623519163,0.032771003196744176,0.0690516068558639,0.061494076478832656,0.06401644922965903,P4:5533,0.06401644922965903
7510,0.0831166481036189,0.042260841198313345,0.0507528810287566,0.08245612786898829,0.061306050195748085,0.06397850967908505,P2:25974,0.06397850967908505
361,-0.07059493212800932,-0.06381361420800942,-0.0787080164348961,-0.05280294175933828,-0.05377369064028304,-0.06393863903410724,P7 Mono:681,0.06393863903410724
6615,0.05841739944503053,0.04478948587022975,0.0642563166317433,0.07223931046055639,0.07976071233349012,0.06389264494821002,P2:6625,0.06389264494821002
13489,0.08735896735539447,0.04983185189683266,0.08045852219384633,0.047903331784866894,0.053188807946799685,0.06374829623554802,P1:2390,0.06374829623554802
6672,0.05183707095871118,0.04528286954978576,0.06843458508926677,0.07979817631180962,0.07311083524204014,0.0636927074303227,P2:6391,0.0636927074303227
3079,-0.06406730063376388,-0.08009415816813606,-0.03811650764573806,-0.06183864601247483,-0.07407313533541063,-0.06363794955910469,P4:5522,0.06363794955910469
1230,0.07215157822195117,0.09516855972624187,0.006264555616669942,0.0773217113461609,0.06650442043795496,0.06348216506979577,P7 Mono:2182,0.06348216506979577
145,0.09246897353671438,0.03732739848425833,0.07352816106885474,0.0751017239797338,0.038911759566560254,0.0634676033272243,P7:190,0.0634676033272243
1491,-0.04340025133845279,-0.029738425365465452,-0.092334855927064,-0.09736524388387265,-0.05325017497042946,-0.06321779029705686,P6:175,0.06321779029705686
10907,-0.08748088742766437,-0.03762141070788626,-0.06729968816857675,-0.06170782409837663,-0.060092167295583705,-0.06284039553961754,P1:9372,0.06284039553961754
9834,0.07793927989796551,0.015709685695699725,0.05999337352646292,0.09162028992516316,0.06832511563981658,0.06271754893702157,P2:20455,0.06271754893702157
7509,0.07558218740248489,0.05115511484601188,0.04867430106605999,0.07646836625314479,0.06019932874651803,0.06241585966284391,P2:25975,0.06241585966284391
10494,-0.06707979251019573,-0.0667324754020616,-0.03808400282469557,-0.08266443071507376,-0.0573156809168883,-0.062375276473783006,P2:11251,0.062375276473783006
5474,-0.06273537038907347,-0.060404159303351454,-0.05248405286549274,-0.07710664532886281,-0.059102225959698614,-0.06236649076929581,P3:2556,0.06236649076929581
4593,0.0869659446673369,0.033097097218676916,0.07900790080438734,0.08959194896256177,0.02303986155782853,0.0623405506421583,P3:5727,0.0623405506421583
14487,-0.0662940111009535,-0.05740652330065735,-0.06118343961199253,-0.06355204884602174,-0.06274728084394167,-0.06223666074071336,P1:20784,0.06223666074071336
2333,-0.07509091709510025,-0.05506527844791479,-0.05923423174894837,-0.07580477609250871,-0.045373249960102384,-0.0621136906689149,P5 gd:1648,0.0621136906689149
2494,0.004041085164381371,0.06270278173284181,0.09395999663208514,0.06791402398368285,0.08139247811405809,0.062002073125409854,P5 gd:1284,0.062002073125409854
10106,0.06195206450984996,0.03168146850120027,0.04707491460059075,0.07257552599515682,0.09627991163199513,0.061912777047758584,P2:13324,0.061912777047758584
1199,0.06560746820807292,0.09306118844336425,0.010559065798105798,0.07187754445946605,0.06712622914049268,0.06164629920990035,P7 Mono:2282,0.06164629920990035
14332,-0.05509064254237931,-0.05447498106049115,-0.0658314261329621,-0.05505721991919418,-0.0771994992120051,-0.06153075377340637,P1:21282,0.06153075377340637
1481,-0.03705358001699399,-0.02338040238149013,-0.10564885247679177,-0.09207620298463742,-0.04899056634151827,-0.061429920840286326,P6:194,0.061429920840286326
4724,0.04777311444131347,0.0137144004589215,0.06940572213404857,0.0741820010118069,0.10194405048088827,0.06140385770539575,P3:494,0.06140385770539575
884,0.07344481539354411,0.10190317648391767,0.0,0.07574478975786983,0.055514265727238596,0.06132140947251404,P7 Mono:4455,0.06132140947251404
3967,0.0739346130430092,0.07184566037503379,0.007635784674811772,0.07292168954648164,0.08022682048208143,0.06131291362428357,P3:8020,0.06131291362428357
11729,-0.06703773365153706,-0.06935413845017818,-0.07425037125487716,-0.04977296335874921,-0.04583601941037317,-0.06125024522514296,P1:6291,0.06125024522514296
2340,-0.06000325941551301,-0.07294085587763834,-0.053137773270005906,-0.08126780567907789,-0.03877680476017017,-0.06122529980048106,P5 gd:1621,0.06122529980048106
1333,-0.052821841045874146,-0.05039949466008239,-0.06148379636846513,-0.05695868846962185,-0.08436555016590448,-0.0612058741419896,P7 Mono:1378,0.0612058741419896
5080,0.06628484055737942,0.055994000934503574,0.02336886471109066,0.07549781808125818,0.08486658258594429,0.06120242137403522,P3:3911,0.06120242137403522
12148,0.07688880974603186,0.048979665884979026,0.07867244591253708,0.0496571322909712,0.05137783577113999,0.06111517792113182,P1:4514,0.06111517792113182
15998,-0.05435929917636909,-0.0776523467704676,-0.05429571982836083,-0.059346155786134204,-0.05980455605064754,-0.06109161552239585,Lin:35,0.06109161552239585
12217,0.06693707765785002,0.08870055052698743,0.08849464922774208,0.060653258904586574,0.0,0.060957107263433216,P1:4177,0.060957107263433216
1356,-0.0571125882578607,-0.03965772764747972,-0.06178223903439465,-0.06991084809383469,-0.07600331455273938,-0.06089334351726182,P6:92,0.06089334351726182
15763,-0.05652517859214668,-0.06251129752324798,-0.08440565931919332,-0.02460741836857246,-0.0755389384284732,-0.060717698446326726,MFI:35,0.060717698446326726
2351,-0.06631003550431462,-0.052207505053150104,-0.07405808647882306,-0.057642061159562656,-0.05336312024723775,-0.06071616168861764,P5 gd:1573,0.06071616168861764
2462,-0.0680313144374488,-0.05439767724279814,-0.06214857252878965,-0.07289753589239004,-0.04496332560448599,-0.06048768514118252,P5 gd:135,0.06048768514118252
882,0.06944089832606219,0.1012825740873971,0.0,0.07679599897685363,0.05431927924278902,0.06036775012662039,P7 Mono:4464,0.06036775012662039
15692,0.1208756632244787,0.04546198791575475,0.030097843079234847,0.04974633340652287,0.05534168708021527,0.06030470294124128,MFI:468,0.06030470294124128
11922,0.07445142946123377,0.06075112306514674,0.031314066201616954,0.06023236491937632,0.07470370237825756,0.06029053720512627,P1:5469,0.06029053720512627
12427,0.057785506422402114,0.05150001771967344,0.03570632077772976,0.08231599423666236,0.07406358281625113,0.06027428439454376,P1:3238,0.06027428439454376
5035,0.09683732867654872,0.0118291127090323,0.03553321402833035,0.07726279413603547,0.07985499676733751,0.06026348926345686,P3:4024,0.06026348926345686
1208,0.06664110640977434,0.09138276718278936,0.010102974620078723,0.07258671437579287,0.06050976787443937,0.06024466609257493,P7 Mono:2252,0.06024466609257493
3152,-0.05508167143276024,-0.09195665726833746,-0.027773034622002455,-0.06401190318042789,-0.061831291357411465,-0.060130911572187896,P4:4834,0.060130911572187896
9754,0.050745000917365855,0.07231654270283275,0.06309691727052935,0.07389965258245004,0.04058768987512123,0.06012916066965984,P2:20579,0.06012916066965984
15746,-0.05806377030141271,-0.05480986676258225,-0.0410191509962546,-0.06921262199685631,-0.0770005902634745,-0.06002120006411608,MFI:395,0.06002120006411608
8762,0.07043451368079925,0.08271690004841904,0.06816136989185378,0.06552160978542398,0.012670988490038755,0.05990107637930697,P2:23259,0.05990107637930697
5681,0.06349699388001166,0.05019811599880997,0.057704153446273394,0.05925488502405117,0.06877879145618672,0.059886587961066585,P3:130,0.059886587961066585
1254,-0.04394260953405778,-0.043717368200333,-0.052903743226242736,-0.0590484746776145,-0.0996488906861138,-0.059852217264872366,P7 Mono:2075,0.059852217264872366
43,-0.06665699607046977,-0.044408913538182875,-0.07932767992988593,-0.06263252556537245,-0.046223805723684785,-0.05984998416551916,P7:57,0.05984998416551916
14474,-0.0533395383572231,-0.06183540345865563,-0.05880326531354087,-0.06429704120898208,-0.06046553917259912,-0.05974815750220016,P1:20810,0.05974815750220016
5556,-0.07122666546881713,-0.06041453946337134,-0.06187238879785459,-0.06244352158642927,-0.04257377376442344,-0.059706177816179165,P3:2269,0.059706177816179165
11411,0.07516350653743056,0.08910852566894387,0.04502679159377044,0.05293251150857917,0.03611207256725587,0.05966868157519598,P1:7588,0.05966868157519598
11919,0.07509401634145613,0.060446910501090634,0.029034913560414637,0.06101727471115568,0.0726239807300909,0.0596434191688416,P1:5471,0.0596434191688416
8620,-0.05089228382685718,-0.053543656946289715,-0.0644489885993662,-0.07520216287083664,-0.05377934043202733,-0.05957328653507541,P2:23615,0.05957328653507541
15967,-0.08340480981706536,-0.029673118890467625,-0.0492425839613174,-0.08212222606276207,-0.053282926994341256,-0.05954513314519074,MFI:107,0.05954513314519074
3116,0.03473832782706865,0.055155233983400415,0.07016595905175307,0.0781763595944027,0.05913697371277332,0.059474570833879636,P4:5299,0.059474570833879636
15632,-0.04783677008230037,-0.05490910439959745,-0.03669691814837877,-0.08982184340037502,-0.06800021642223505,-0.059452970490577337,MFI:549,0.059452970490577337
2030,-0.08600441439398715,-0.05818276983767793,-0.05477374272685572,-0.05480057107892207,-0.043345164552930526,-0.059421332518074674,P5 gd:334,0.059421332518074674
11943,0.0665964212560017,0.05809923658857596,0.054330793294997244,0.03394422559245722,0.08361384779877593,0.05931690490616161,P1:5409,0.05931690490616161
11673,-0.06732118074106334,-0.0712363772506607,-0.06791472735029815,-0.050885050219224855,-0.03919669909782278,-0.05931080693181397,P1:6538,0.05931080693181397
14431,-0.0516870818904919,-0.060915038112703296,-0.043358488126336324,-0.054553855427215636,-0.08591595629776266,-0.05928608397090196,P1:20899,0.05928608397090196
1636,-0.04839961177807135,-0.05992050991962846,-0.0961677816705345,-0.048013088326367935,-0.04387449933362782,-0.059275098205646005,P6 earlyB:130,0.059275098205646005
3067,-0.058861832546981345,-0.08808717373049635,-0.028579414418654026,-0.06533946198514093,-0.05434089792492649,-0.05904175612123983,P4:5534,0.05904175612123983
1336,-0.04712975567385613,-0.048667438776141984,-0.0503044533799053,-0.06361976667537776,-0.08487894188229322,-0.058920071277514884,P7 Mono:1351,0.058920071277514884
9828,-0.05102421810645695,-0.06767196560007119,-0.05159205239259388,-0.04289526789237032,-0.08120611317623412,-0.05887792343354529,P2:20475,0.05887792343354529
1545,0.05907552530353182,0.024283739046155956,0.0827282359211994,0.0566226077675167,0.07118873022248991,0.05877976765217876,P6 earlyB:8,0.05877976765217876
1374,-0.05841201613840069,-0.039825981124118136,-0.06116345219106613,-0.06953369494111389,-0.06492930827887847,-0.05877289053471546,P6:68,0.05877289053471546
4055,0.07115860214554162,0.06995583139792524,0.005200692955042041,0.06954969443026189,0.07712939231284509,0.05859884264832318,P3:7777,0.05859884264832318
8498,0.07498170007280412,0.045811601943178445,0.038980344377739576,0.06615671759375907,0.06702842263638518,0.058591757324773286,P2:23908,0.058591757324773286
3549,-0.050984516582138095,-0.057341276963613304,-0.06201248398585538,-0.06093896733219169,-0.06090862104242164,-0.058437173181244015,P4:3229,0.058437173181244015
14885,-0.04505324093065579,-0.06132754230336104,-0.06520380652968115,-0.05808592083390315,-0.062346808933042085,-0.05840346390612865,P1:13611,0.05840346390612865
5281,-0.05925783382003144,-0.060908052404501235,-0.044503016018415636,-0.06443343020425919,-0.06263044478567319,-0.058346555446576145,P3:335,0.058346555446576145
1748,-0.07736034385962942,-0.04074034788363351,-0.05795943499351581,-0.07026695026115658,-0.04471228106346791,-0.05820787161228065,P5 gd:838,0.05820787161228065
2321,0.01932865341982544,0.047111088393473985,0.07837053906127285,0.08099542993548717,0.06412448702152009,0.05798603956631591,P5 gd:1696,0.05798603956631591
1923,-0.06822956421802456,-0.06431073780141879,-0.04026480469207192,-0.06302775239374554,-0.05385488486405899,-0.05793754879386396,P5 gd:552,0.05793754879386396
12230,-0.059396241780297114,-0.04949322611517535,-0.09246467943869488,-0.05438339291088609,-0.030167882258489577,-0.057181084500708614,P1:4141,0.057181084500708614
1452,0.08143660288223484,0.0,0.07345923181136448,0.051815471337560474,0.07895195916939186,0.05713265304011032,P6:248,0.05713265304011032
6469,0.05224504712442799,0.04756525453679061,0.0604257685371887,0.06229563336834007,0.0629251115488982,0.057091363023129116,P2:7295,0.057091363023129116
1334,-0.05927468143249239,-0.03943572109973152,-0.0583903885709629,-0.051834220387982584,-0.07622748555639453,-0.057032499409512785,P7 Mono:1375,0.057032499409512785
9559,0.06281001395845943,0.06877759602225561,0.07233683433411853,0.06817995725818377,0.012769585324096602,0.05697479737942279,P2:21191,0.05697479737942279
1559,-0.09770893737339133,-0.0264093103580456,-0.05041886916058081,-0.06460507040503768,-0.04572590882177312,-0.056973619223765704,P6 earlyB:62,0.056973619223765704
1876,-0.08630528584263551,-0.03438277623214099,-0.0511219709516403,-0.062262012336165115,-0.05055613070807224,-0.05692563521413083,P5 gd:642,0.05692563521413083
2331,0.019798329727373356,0.09186075127950169,0.07981173153081428,0.04576727712968131,0.04732575587382781,0.05691276910823969,P5 gd:165,0.05691276910823969
2666,0.0418293500971525,0.04953090465569253,0.054899333893299596,0.05038331414529903,0.08757848551697474,0.056844277661683686,P5 CD8:63,0.056844277661683686
15598,-0.06036061238500129,-0.04530248734138002,-0.04649884549524047,-0.04904868985298372,-0.08276215657702364,-0.05679455833032583,MFI:585,0.05679455833032583
2332,-0.07953158703359284,-0.05998354637142007,-0.05086263403738141,-0.05737965669312677,-0.03620341703037879,-0.05679216823317997,P5 gd:1649,0.05679216823317997
10634,-0.07631251815151176,-0.046774079922353225,-0.06331646837857131,-0.03823789869212402,-0.05870684299051965,-0.056669561627015995,P2:10533,0.056669561627015995
3676,0.06748880871745255,0.0792404768540616,0.0,0.07024324468630012,0.06630423113393509,0.05665535227834987,P3:8693,0.05665535227834987
1556,-0.07808512583347792,-0.04720878918591227,-0.06360880205992121,-0.04869258522032245,-0.045618742327283,-0.05664280892538337,P6 earlyB:66,0.05664280892538337
8669,0.0457509935719707,0.044948389053511395,0.06552365850269934,0.07471078794924722,0.05166150814538903,0.056519067444563545,P2:23438,0.056519067444563545
3606,0.03573228742854333,0.03291003913181855,0.06934191107594084,0.10280605785941883,0.04121756628206016,0.05640157235555634,P3:970,0.05640157235555634
5081,0.06259190988653375,0.04714470624991763,0.031471961307559214,0.06615844886934563,0.07454152883211104,0.056381711029093465,P3:3910,0.056381711029093465
6864,-0.055310026448260545,-0.06538150692083736,-0.04976132207409305,-0.05253337696451456,-0.058810333056656665,-0.05635931309287243,P2:5,0.05635931309287243
8513,0.07822079048912896,0.0371039792172437,0.03757554830367335,0.07433332394850725,0.05431370951859347,0.05630947029542934,P2:23883,0.05630947029542934
79,-0.038780084516821106,-0.07536566635128253,-0.0471995206783984,-0.08470102107702099,-0.035107759498460823,-0.056230810424396774,P7:264,0.056230810424396774
6057,0.06917059243228556,0.03753682252585674,0.05333727683219781,0.06445675074554992,0.056427106777815796,0.056185709862741164,P2:908,0.056185709862741164
2258,-0.013298486124221463,-0.0723021541034689,-0.061214505718853965,-0.052289335317730494,-0.0811470977285661,-0.05605031579856819,P5 gd:1852,0.05605031579856819
5510,-0.057809475926080274,-0.045846462429498726,-0.04782994849259552,-0.07694506732567045,-0.05177893833268842,-0.056041978501306676,P3:2488,0.056041978501306676
10930,-0.04513899619272544,-0.05592864003444639,-0.04024113526903864,-0.05665187429283428,-0.08157521382416277,-0.055907171922641496,P1:9303,0.055907171922641496
8993,0.039708030764263616,0.061701028467849604,0.05221702260116962,0.06662939670506997,0.05914729639176612,0.05588055498602379,P2:22694,0.05588055498602379
5505,-0.07151388580695812,-0.05956804532496088,-0.0578782522028727,-0.06062237126095592,-0.02894449577379126,-0.05570541007390778,P3:2503,0.05570541007390778
557,-0.059444430705308776,-0.029448497778830077,-0.03664623768341398,-0.0782280065075591,-0.07403900993285469,-0.055561236521593324,P7 Mono:6118,0.055561236521593324
12418,0.057894898939106924,0.05033784329111737,0.025869059592922142,0.07709247264262044,0.06652829229002347,0.055544513351158065,P1:3292,0.055544513351158065
16020,0.041557619957650165,0.018435602284158945,0.04956963683987345,0.09685631800095922,0.07118067616190818,0.05551997064890999,Lin:14,0.05551997064890999
3453,-0.050973519471296413,-0.02737551743950401,-0.07411611935116186,-0.06439857985251259,-0.0606274123016255,-0.05549822968322007,P4:3562,0.05549822968322007
2686,0.060322133184789885,0.03004529762210744,0.044213241537923616,0.0597461034520162,0.08291788880261687,0.0554489329198908,P5 CD8:40,0.0554489329198908
15734,0.0374069150390698,0.06509373766090211,0.05380645455580034,0.062159075263510014,0.05821510678636422,0.05533625786112929,MFI:410,0.05533625786112929
7673,-0.04261414029179572,-0.06144918415466196,-0.05877765208755514,-0.0578999873120244,-0.05590140169639959,-0.05532847310848736,P2:25613,0.05532847310848736
11468,-0.06762748900444869,-0.03896136523520034,-0.04936661221110753,-0.061459499750326815,-0.05898296055051438,-0.05527958535031955,P1:7310,0.05527958535031955
1432,-0.06645998996664827,-0.040426329092131265,-0.03446557799806204,-0.05522543503558709,-0.07955300144112838,-0.05522606670671141,P6:293,0.05522606670671141
5643,-0.042236100455218153,-0.0727340693523055,-0.05863190031032625,-0.05595745801948577,-0.04634479041812396,-0.05518086371109192,P3:1807,0.05518086371109192
54,-0.07839403192859747,-0.05838161900796218,-0.04166164187042408,-0.04290753346308226,-0.052456201482963614,-0.05476020555060592,P7:47,0.05476020555060592
1007,0.062375896803724865,0.047859620427032325,0.06194190704761873,0.0555299585332327,0.04545245039550945,0.05463196664142361,P7 Mono:4115,0.05463196664142361
2256,0.08476494254013084,-0.007046522830213372,0.05302851054321406,0.049696911119964646,0.09251687806663098,0.05459214388794542,P5 gd:1855,0.05459214388794542
155,-0.05186297514130811,-0.07195853855106515,-0.047899496852962256,-0.03982018362863549,-0.061146051220340406,-0.05453744907886228,P7:174,0.05453744907886228
2427,-0.03628966803052113,-0.04925167473842828,-0.039239587047375665,-0.08409094694691775,-0.06371001560553005,-0.05451637847375457,P5 gd:1418,0.05451637847375457
7491,0.060356789262447995,0.03112750798841011,0.046531764153461844,0.07145998465142978,0.0627764219720624,0.05445049360556242,P2:26001,0.05445049360556242
15246,-0.062397037181200855,-0.04593449055941024,-0.05007373737793545,-0.04501649649797723,-0.06881160300172263,-0.054446672923649284,P1:11556,0.054446672923649284
14884,-0.03166779611675957,-0.0670894586894218,-0.06736180154672361,-0.05148122750019173,-0.05437224618901445,-0.05439450600842223,P1:13612,0.05439450600842223
6612,0.047787327581259115,0.0352411275094908,0.055993765284489995,0.06340099011590153,0.06795614683062362,0.05407587146435301,P2:6634,0.05407587146435301
152,-0.08345600844982166,-0.03680949410644649,-0.06037346776851377,-0.06286166770713449,-0.026703805462256466,-0.054040888698834576,P7:178,0.054040888698834576
2407,-0.042014450566844934,-0.03722439272262957,-0.06818411577132252,-0.07468936147314112,-0.0480915070053175,-0.05404076550785113,P5 gd:1451,0.05404076550785113
31,-0.06973157929412874,-0.028561651290781365,-0.04788388347326036,-0.07826948713983231,-0.04557511724265496,-0.05400434368813155,P7:69,0.05400434368813155
1557,-0.08671463955741403,-0.02588484087694093,-0.04746634265120451,-0.05968778956512601,-0.0500789836749006,-0.05396651926511722,P6 earlyB:65,0.05396651926511722
6410,0.08079840272767444,0.0401028624713293,0.0646248839213256,0.039402870437751585,0.04460943238336563,0.05390769038828931,P2:78,0.05390769038828931
1873,0.025331628176691046,0.09051413238682736,0.08057395332711166,0.027002002228448157,0.0460581564815704,0.053895974520129716,P5 gd:648,0.053895974520129716
3032,-0.043081065394865566,-0.041638451958677644,-0.06262011932658848,-0.06529660034346269,-0.05657767732879007,-0.05384278287047689,P4:5622,0.05384278287047689
893,0.06565612240626033,0.0909205109225399,0.0006292943658137882,0.06079880791452817,0.050904601975598956,0.053781867516948224,P7 Mono:4437,0.053781867516948224
640,0.08011566161370832,0.03332075360361381,0.058538982322618345,0.06187956159833528,0.034773510080278666,0.053725693843710884,P7 Mono:5705,0.053725693843710884
2266,-0.048957467570963246,-0.057192244781984425,-0.060774347264578144,-0.060113007522069155,-0.04128571523896436,-0.05366455647571187,P5 gd:184,0.05366455647571187
3596,0.03453348965167858,0.025825599648227157,0.06872538932984286,0.09899312934111258,0.03992241612685762,0.05360000481954376,P3:997,0.05360000481954376
14340,-0.04058685114375971,-0.06669796243065804,-0.055098237091399764,-0.04322676052819652,-0.06231678912455058,-0.05358532006371293,P1:21201,0.05358532006371293
162,-0.06075394906012309,-0.05831543862361385,-0.03372416714896008,-0.03635287010375804,-0.07811481696125093,-0.0534522483795412,P7:167,0.0534522483795412
3484,0.045760447395122986,0.04570547959512422,0.05922088030929967,0.06008555067125144,0.056039254012771544,0.05336232239671397,P4:3474,0.05336232239671397
5700,-0.04640647151471429,-0.07096732587620072,-0.058518523016494475,-0.05380371129398339,-0.03705587553617667,-0.0533503814475139,P3:1026,0.0533503814475139
6029,-0.06816297027606698,-0.046191611750727404,-0.047307195827549685,-0.053569651889165654,-0.05149828412953971,-0.05334594277460989,P2:9150,0.05334594277460989
14684,-0.061764968370789965,-0.040099476667527466,-0.056213729766442205,-0.03755859512294336,-0.07094626992910356,-0.053316607971361306,P1:20193,0.053316607971361306
2779,-0.04712607603137966,-0.026041783032280934,-0.07305658672369722,-0.05406976163819343,-0.0661144154416408,-0.05328172457343842,P4:69,0.05328172457343842
10948,-0.03921206322472678,-0.044773279966375396,-0.06251680569798065,-0.059840799819613974,-0.05944515944608971,-0.053157621630957295,P1:9234,0.053157621630957295
3037,-0.0349784832298933,-0.04146437871221345,-0.07328063528458974,-0.05911190251460645,-0.056906634688499054,-0.0531484068859604,P4:5616,0.0531484068859604
7543,0.0695269304437129,0.04588514201025125,0.05118078596382511,0.05716073434116986,0.04068517223615008,0.05288775299902184,P2:25917,0.05288775299902184
3546,-0.040674490627625015,-0.049891842845484945,-0.06013141743018974,-0.05568156264619483,-0.057981445246190054,-0.05287215175913692,P4:3232,0.05287215175913692
3947,0.05734518238961757,0.06873191889901685,0.012794207838543915,0.05668443820653731,0.06871045016696552,0.05285323950013623,P3:8055,0.05285323950013623
1662,0.012423198652006967,0.05178241292055742,0.08226774037950602,0.05207833216131077,0.06554672670119596,0.052819682162915424,P5 gd:976,0.052819682162915424
9473,0.0436881057708143,0.05296840979214632,0.06926338287776114,0.06194446878580969,0.036093230011813575,0.052791519447669,P2:21300,0.052791519447669
15494,-0.12568706687021938,-0.0017109586558350194,-0.01859502891038652,-0.03549703298133091,-0.08230594034604222,-0.05275920555276281,MFI:95,0.05275920555276281
47,-0.062179830538232256,-0.03979099659629532,-0.03645641076850515,-0.0763679369407195,-0.048721373075177564,-0.052703309583785954,P7:53,0.052703309583785954
11781,-0.057109113970734524,-0.05832707099293498,-0.05574514903240569,-0.02780372550116637,-0.06431335028800451,-0.05265968195704921,P1:6061,0.05265968195704921
14555,-0.05277571915611363,-0.03581101459599739,-0.05042028729005663,-0.0468972466669565,-0.07729569325768719,-0.05263999219336226,P1:20570,0.05263999219336226
15934,0.044772871121666384,0.020294649042797937,0.05656374766769977,0.06842133131998254,0.07154349966192963,0.05231921976281525,MFI:149,0.05231921976281525
3769,0.07049461078278729,0.0642019141784738,0.019634405825014082,0.06582252280760352,0.041383578502518004,0.05230740641927935,P3:8536,0.05230740641927935
3107,-0.044765135589301536,-0.04025202105956616,-0.06724428436880202,-0.05053907453361636,-0.05861145433319847,-0.0522823939768969,P4:5369,0.0522823939768969
8626,0.0,0.05696102845443147,0.09522697531170483,0.07416325092451678,0.034982443634671796,0.052266739665064975,P2:23598,0.052266739665064975
3039,-0.04165358279788707,-0.04434436136793215,-0.06516051198885547,-0.05367978739265157,-0.05602195091884724,-0.052172038893234705,P4:5612,0.052172038893234705
116,0.05659787503005406,0.05859900601156245,0.02753585945301187,0.08052871243893495,0.03732446934718647,0.05211718445614997,P7:221,0.05211718445614997
8752,0.059713436244889916,0.06429825438516866,0.06022448441041389,0.07621883583502205,0.0,0.0520910021750989,P2:23286,0.0520910021750989
7644,-0.04253145350357254,-0.05139524515603435,-0.048092101052400076,-0.05791434346121473,-0.06020759280836756,-0.052028147196317855,P2:25689,0.052028147196317855
1086,-0.04948610337443082,-0.04770065877139845,-0.045896727210694495,-0.04871599686794396,-0.06811928853526267,-0.05198375495194607,P7 Mono:3501,0.05198375495194607
6418,0.038116870525247315,0.02905130691708946,0.054111572561789084,0.06314957538279795,0.07534194630851186,0.05195425433908714,P2:771,0.05195425433908714
14871,0.053291584496566326,0.05086505256929734,0.015578801070684347,0.08108533847049118,0.05883211803372483,0.0519305789281528,P1:1443,0.0519305789281528
15682,0.03717703036491871,0.03689093639319287,0.05674703489748565,0.08828645845782393,0.04044170042827494,0.05190863210833922,MFI:477,0.05190863210833922
2980,-0.02992791925535657,-0.05284855868756608,-0.06624179780653823,-0.06589006461895412,-0.04440462954631161,-0.05186259398294533,P4:5859,0.05186259398294533
8656,-0.03626604266999159,-0.062402721323118304,-0.05738715897307296,-0.05295376101649171,-0.050238718600247236,-0.05184968051658436,P2:23495,0.05184968051658436
1247,-0.039984308419324786,-0.04017405734167928,-0.06065887890211307,-0.03843416979899948,-0.07998901127175671,-0.05184808514677467,P7 Mono:2102,0.05184808514677467
7904,0.07231865741706181,0.05178753918136554,0.039837321069310545,0.05574425588582868,0.03935765218146715,0.05180908514700675,P2:25274,0.05180908514700675
3171,0.07071471557646224,0.07453469377500459,0.012781828302250844,0.04271677068953076,0.058186452071022646,0.05178689208285422,P4:4597,0.05178689208285422
14258,-0.06664625654900805,-0.04586695555581269,-0.05559540698335077,-0.04176824234089166,-0.048757235146836914,-0.051726819315180014,P1:21493,0.051726819315180014
1913,0.05244663649502554,0.057225074717268946,0.0636864622513609,0.03898743461269732,0.045429662767006454,0.05155505416867183,P5 gd:570,0.05155505416867183
3548,-0.06995834326387601,-0.046969269767335176,-0.03842413081344975,-0.04160214681257929,-0.0600337860295835,-0.05139753533736474,P4:3230,0.05139753533736474
883,0.05701927247644451,0.08261678404514569,0.0,0.061420749139212964,0.05575815218617052,0.051362991569394736,P7 Mono:4461,0.051362991569394736
12646,-0.04881626355786507,-0.06060833355918907,-0.07379718520798276,-0.030411130956029417,-0.042617210092190626,-0.05125002467465138,P1:26101,0.05125002467465138
440,0.08465539489666278,0.02812809712793292,0.05229121218688048,0.06175838700645297,0.029347373091371386,0.05123609286186011,P7 Mono:6412,0.05123609286186011
549,0.046000580096190805,0.031855916546103855,0.07180997589511293,0.04035679335970743,0.06576988495791634,0.05115863017100627,P7 Mono:6132,0.05115863017100627
1162,-0.06308369668764688,-0.044063792726116456,-0.04107621669004117,-0.05289020566756287,-0.054497125670124054,-0.05112220748829829,P7 Mono:2799,0.05112220748829829
7219,-0.05297480454709915,-0.05726791409672661,-0.03147479981353467,-0.05449495578934299,-0.059386906100231916,-0.05111987606938706,P2:289,0.05111987606938706
3708,-0.04384708902218354,-0.07794350488098978,-0.05893753002044136,-0.031094710008234418,-0.04357156812688238,-0.0510788804117463,P3:864,0.0510788804117463
2645,-0.034487430956922936,-0.04478879905603256,-0.04253463876381194,-0.06852079447346285,-0.06486073929539772,-0.05103848050912561,P5 CD8:87,0.05103848050912561
1632,-0.045862599297353444,-0.0529491583547323,-0.07953112017685653,-0.0368576002447952,-0.03982674437314592,-0.051005444489376675,P6 earlyB:139,0.051005444489376675
5662,-0.053822693137861526,-0.06356313899122894,-0.06420486270074563,-0.03802812588631922,-0.034986592011703746,-0.0509210825455718,P3:1567,0.0509210825455718
1443,-0.04247250064306617,-0.028383235936618754,-0.07868697603175098,-0.06593934617483403,-0.037746427907549764,-0.05064569733876395,P6:27,0.05064569733876395
4600,-0.04407204180239865,-0.04262398825979539,-0.057537293717442844,-0.05314715520885265,-0.055817449055096786,-0.050639585608717265,P3:5695,0.050639585608717265
3653,-0.0467863233190247,-0.06055481747328802,-0.05210839325943166,-0.058734180576987434,-0.03494613418349382,-0.050625969762445135,P3:874,0.050625969762445135
12222,-0.049830773797274394,-0.039416435272540164,-0.09679514358938358,-0.04368047597862856,-0.023320340122647616,-0.050608633752094866,P1:4168,0.050608633752094866
7620,0.057528046437983316,0.046389864615023126,0.03936344604745356,0.06847738592157251,0.041102352581662026,0.05057221912073891,P2:25742,0.05057221912073891
15691,-0.04586069121697946,-0.050849240675060955,-0.09212539296803647,-0.042714692475162935,-0.0209699409153354,-0.05050399165011504,MFI:469,0.05050399165011504
15971,0.061753932937819195,0.076233040891773,0.03365418716781069,0.06621047603540271,0.01456884100533371,0.050484095607627864,MFI:103,0.050484095607627864
10483,0.049391990727035234,0.02623121753332485,0.0378922728618811,0.05217112953451669,0.08650676720937103,0.05043867557322579,P2:11314,0.05043867557322579
15558,-0.04927801469949837,-0.028651884381292778,-0.05118521239988194,-0.06696625064827244,-0.055954845578556,-0.0504072415415003,MFI:652,0.0504072415415003
13598,0.06324439787685998,0.05293833505142509,0.0334867060197033,0.05010843123378896,0.051874298519901475,0.050330433740335766,P1:23539,0.050330433740335766
812,-0.05164393503216068,-0.05722299419811947,-0.047877824716231435,-0.04412614092362069,-0.05049564090679388,-0.050273307155385236,P7 Mono:4936,0.050273307155385236
5503,-0.05235020243020544,-0.04793270515519195,-0.05639089091083089,-0.06561148008621784,-0.028408949353290303,-0.050138845587147284,P3:2506,0.050138845587147284
12636,-0.049084481458536264,-0.05566051244086099,-0.05894651743784031,-0.041716777779442646,-0.04516473176584984,-0.05011460417650602,P1:26128,0.05011460417650602
15895,0.04722680580047941,0.037529311299890025,0.029490300080062346,0.07076581520918442,0.0654530645912153,0.050093059396166296,MFI:193,0.050093059396166296
7255,-0.04872423665582324,-0.051685053605176765,-0.049946597264177744,-0.0507561140824435,-0.049342657377493014,-0.050090931797022856,P2:2766,0.050090931797022856
2190,-0.024945007503012845,-0.06663989697949786,-0.04148186193601753,-0.04447864839247854,-0.07288170049491655,-0.050085423061184665,P5 gd:2000,0.050085423061184665
711,-0.05893474138714366,-0.03182781528000182,-0.05764384228932029,-0.052034002948561094,-0.0499813863035702,-0.05008435764171941,P7 Mono:5488,0.05008435764171941
15254,-0.04342791816469259,-0.0653737552737605,-0.07433117512641169,-0.03726821933932159,-0.02987969710978005,-0.05005615300279328,P1:11535,0.05005615300279328
10906,-0.036508100044920395,-0.0478073443533197,-0.04951865448646565,-0.05286151695208461,-0.06357243328850035,-0.05005360982505813,P1:9373,0.05005360982505813
1327,-0.04527152611981809,-0.040619813401811,-0.056175341141257044,-0.04054816576097673,-0.06740704863903364,-0.0500043790125793,P7 Mono:1405,0.0500043790125793
15009,0.056528979349299784,0.06479139580848055,0.013431459844473883,0.06990528546815071,0.04512992875651056,0.04995740984538309,P1:12997,0.04995740984538309
8432,0.038180026858122065,0.058590222618814074,0.033125740194096434,0.0476098076870823,0.07140172970594691,0.04978150541281235,P2:24042,0.04978150541281235
7612,0.05309091331737366,0.03116881357151731,0.05013769906357949,0.058852706836044245,0.05539922113723423,0.04972987078514978,P2:25767,0.04972987078514978
5174,0.059697398439016586,0.045799438991371726,0.011679634808429701,0.06538473206708793,0.06602405685896759,0.04971705223297471,P3:3668,0.04971705223297471
3841,-0.05515529289276021,-0.058048901143484946,-0.045660342280364745,-0.05004295201091332,-0.03959576646681471,-0.04970065095886759,P3:836,0.04970065095886759
7221,-0.02491154122964654,-0.03702659237994757,-0.0559776969311224,-0.07170972347967586,-0.05875291902982625,-0.04967569461004373,P2:2883,0.04967569461004373
984,-0.06257811101063288,-0.04991196320569746,-0.0447246244686158,-0.05189146848141123,-0.03909566680552035,-0.04964036679437554,P7 Mono:4178,0.04964036679437554
7490,0.05464082553315253,0.03532973426038085,0.04072062371476001,0.060489868119743134,0.056821798250147194,0.04960056997563674,P2:26002,0.04960056997563674
5785,-0.04615410264802192,-0.05218702363056487,-0.039792705151780274,-0.03471995143567282,-0.07501325056008587,-0.049573406685225155,P2:9833,0.049573406685225155
16012,-0.03155759958881835,-0.04534774668978116,-0.03889444460014785,-0.05949660714803621,-0.0724572424147591,-0.04955072808830853,Lin:21,0.04955072808830853
2020,0.04165150217436325,0.01988712347587729,0.05772536136069363,0.032626529262877756,0.09580089663575152,0.04953828258191269,P5 gd:365,0.04953828258191269
15515,0.024826648276116452,0.07139731215547666,0.05170634282001522,0.05994257457290031,0.039262753587930584,0.04942712628248784,MFI:76,0.04942712628248784
8647,-0.052219957789528995,-0.04979131748889624,-0.04675932955227692,-0.06445245278053098,-0.03374835108931414,-0.04939428174010945,P2:23525,0.04939428174010945
7021,0.06217196450478365,0.027372349266028335,0.039285109842135194,0.07248581419034654,0.04556494220095311,0.049376036000849374,P2:416,0.049376036000849374
9598,0.02654891288705199,0.013764555249884278,0.06268457432880248,0.0650997043523833,0.0783713641003272,0.04929382218368985,P2:21096,0.04929382218368985
12220,-0.051477856263505546,-0.04286685144519347,-0.07375751841310352,-0.049833919351312275,-0.027494784860565596,-0.04908618606673608,P1:4171,0.04908618606673608
3105,-0.03403795750690943,-0.0316862007548794,-0.0706596837701388,-0.05043555896753935,-0.058222981241232125,-0.04900847644813982,P4:5373,0.04900847644813982
2005,-0.06658250494450872,-0.053836894733914294,-0.04863306593284347,-0.07581087611284315,0.0,-0.04897266834482193,P5 gd:397,0.04897266834482193
976,0.05181418667409423,0.034567967944373904,0.04656199358179979,0.060894277052372554,0.05086007697526891,0.04893970044558188,P7 Mono:4196,0.04893970044558188
7231,-0.04603619216022202,-0.05024555757719257,-0.0505921862629021,-0.04854326930750504,-0.049125548266766926,-0.04890855071491773,P2:2856,0.04890855071491773
11769,-0.056902424076000366,-0.04178857708168096,-0.04298650598531582,-0.04504725257197761,-0.057659369382197415,-0.048876825819434436,P1:6122,0.048876825819434436
1381,0.04338376212324408,0.0126149874794254,0.07331658678864969,0.06112510628113398,0.053909517873132334,0.0488699921091171,P6:6,0.0488699921091171
3156,-0.051121998916797196,-0.06611310125166948,-0.021991349146272845,-0.048642007491203364,-0.05645258912645141,-0.04886420918647886,P4:4825,0.04886420918647886
13903,-0.04399608655518024,-0.05424672630774553,-0.05307282879562882,-0.05492026649853092,-0.03797432344886677,-0.048842046321190456,P1:22437,0.048842046321190456
6025,-0.03615077336078292,-0.052847619999397105,-0.04565034740352523,-0.05686059073112012,-0.052056895475539884,-0.048713245394073054,P2:9167,0.048713245394073054
15924,0.017600603615077336,0.06401726398249409,0.04705009402448099,0.08741089609772175,0.027000794253921104,0.04861593039473905,MFI:159,0.04861593039473905
14249,-0.06898203637486988,-0.04240978405113749,-0.06513618853847103,-0.04238887656566623,-0.0240131676224399,-0.04858601063051691,P1:21507,0.04858601063051691
10933,-0.04695884144687957,-0.043961511200768306,-0.04713210370191696,-0.04079589375438175,-0.06404383078508544,-0.048578436177806404,P1:9299,0.048578436177806404
111,-0.05415550503235371,-0.03498313848697048,-0.06416021110440034,-0.04923788573943173,-0.0403390950780096,-0.04857516708823317,P7:227,0.04857516708823317
1909,0.06140401889759398,0.059281691732978405,0.04009647129824738,0.04940532191351908,0.032618219089836864,0.048561144586435144,P5 gd:576,0.048561144586435144
5508,-0.05491999779421535,-0.05474993194485475,-0.0498612739909846,-0.04657459264748323,-0.036615794584817965,-0.04854431819247118,P3:2494,0.04854431819247118
7633,-0.05130366684910994,-0.06222553656482978,-0.03229247028644419,-0.04785432307898541,-0.04897317495304108,-0.04852983434648207,P2:25716,0.04852983434648207
45,-0.0709167930114724,-0.03942213854052313,-0.03569116427007351,-0.04448490606047874,-0.05204833884692437,-0.04851266814589443,P7:55,0.04851266814589443
15595,0.015104844900862087,0.05635758591301219,0.07399537676765607,0.03685067534163413,0.05999926016300554,0.04846154861723401,MFI:59,0.04846154861723401
383,-0.04967259810668056,-0.05469046936155988,-0.07305515167009743,-0.03136821095114039,-0.033495069696022166,-0.04845629995710009,P7 Mono:654,0.04845629995710009
9761,0.042184256845472966,0.0688695063109723,0.04347995213073002,0.07176960588729742,0.015931043515299653,0.04844687293795447,P2:20570,0.04844687293795447
3522,-0.01744908185189155,-0.07477264493501569,-0.06296222215150299,-0.04067637946744571,-0.046324253837515185,-0.04843691644867422,P4:3331,0.04843691644867422
72,-0.04870523921644855,-0.053127959044226014,-0.05607502055928264,-0.05669523808280817,-0.02746075486768877,-0.04841284235409083,P7:3,0.04841284235409083
11764,-0.05308645991654146,-0.05810882035178378,-0.04172424322951833,-0.041484816767897455,-0.047538024041653755,-0.04838847286147895,P1:6139,0.04838847286147895
7627,-0.04059836892859621,-0.043597291848978106,-0.05044502497280434,-0.06873745327810542,-0.038502866097505875,-0.04837620102519798,P2:25722,0.04837620102519798
3465,-0.031083004373644682,-0.051268471530973164,-0.05763926722265823,-0.04870308039326257,-0.052376201554289514,-0.04821400501496563,P4:3544,0.04821400501496563
2382,-0.03354555951043588,-0.051514443465340454,-0.038725317511530286,-0.06234923555513367,-0.0548511795564372,-0.0481971471197755,P5 gd:1491,0.0481971471197755
1919,-0.05800525923208826,-0.037755994737936456,-0.03989751934387739,-0.044352804335471244,-0.0603557049830471,-0.04807345652648409,P5 gd:558,0.04807345652648409
2286,-0.0570531814074019,-0.06836697224614194,-0.0420086836405867,-0.03573491681712459,-0.036842125426025746,-0.04800117590745618,P5 gd:1794,0.04800117590745618
151,0.05488723930615848,0.02632532425016129,0.04059159429005853,0.06979385837731607,0.04840242308403403,0.04800008786154568,P7:182,0.04800008786154568
2021,0.035756950157163764,0.040287078450126544,0.05874998279182019,0.03642020245564697,0.06875175715757216,0.04799319420246593,P5 gd:364,0.04799319420246593
3406,0.06008044938622502,0.04849006825971388,0.03651796757723075,0.03875312096858417,0.05610863240261151,0.047990047718873066,P4:3719,0.047990047718873066
1874,-0.05376261551829106,-0.04849587399552501,-0.04690736690316214,-0.055958980882397834,-0.03461481503398968,-0.04794793046667315,P5 gd:646,0.04794793046667315
1198,0.05400879598626653,0.08282280341319809,0.0,0.060704862393221905,0.04189492921824669,0.04788627820218665,P7 Mono:2285,0.04788627820218665
2032,-0.08241025061561975,-0.047901533573159814,-0.03765587860770877,-0.03492045296897364,-0.03586554907075608,-0.047750732967243616,P5 gd:331,0.047750732967243616
8512,0.06395190039202933,0.03530350300265884,0.03393103954006676,0.05769700910891544,0.047812447203646836,0.04773917984946344,P2:23884,0.04773917984946344
14953,0.044722083326397793,0.04963527870459724,0.012206932957607722,0.07592843553629994,0.056132644620193996,0.047725075029019334,P1:1335,0.047725075029019334
9892,-0.056297831480235455,-0.04836963577808438,-0.05057678286664645,-0.0439046226279388,-0.039467446952052364,-0.047723263940991495,P2:2018,0.047723263940991495
15839,0.05870178338771403,0.058864190025865355,0.04557804219264422,0.02377643777000219,0.05098399597371897,0.04758088986998895,MFI:245,0.04758088986998895
13358,0.0,0.04338772678692472,0.06488389348083966,0.05790164721653724,0.0712040783493676,0.04747546916673384,P1:24266,0.04747546916673384
7512,0.06853965049137949,0.04127016291571765,0.024493846318308775,0.06412125165788436,0.03877214259832018,0.04743941079632209,P2:25972,0.04743941079632209
11761,-0.04987442795825073,-0.0617282913163262,-0.03945190459502137,-0.04066498732436361,-0.045388579938572524,-0.04742163822650689,P1:6142,0.04742163822650689
3688,-0.03794199621684728,-0.07343006644394158,-0.056266535361249384,-0.035974220025618744,-0.03320024180421461,-0.047362611970374315,P3:867,0.047362611970374315
14964,0.06198462257788366,0.06078560598704116,0.05378009722452902,0.0051787415199176035,0.05505333365965394,0.047356480193805076,P1:13239,0.047356480193805076
522,0.05383425687569998,0.01998522406150754,0.046679336661145564,0.04578906290899958,0.07041267551716031,0.0473401112049026,P7 Mono:6215,0.0473401112049026
11794,-0.0511863758957387,-0.03425275441882589,-0.06765305174162477,-0.040242819158439476,-0.04334776289095767,-0.047336552821117296,P1:6021,0.047336552821117296
1926,-0.06095066618677725,-0.06555885922447208,-0.024607539893712727,-0.04196586140592277,-0.04303640795117639,-0.04722386693241224,P5 gd:549,0.04722386693241224
5639,-0.05867152431542343,-0.05398840835933716,-0.05013256738515413,-0.05600412656771705,-0.01697756036783889,-0.04715483739909414,P3:1825,0.04715483739909414
1629,0.07399653928724362,0.041490298015881485,0.034882813520258384,0.0523029274475252,0.03278035097117307,0.047090585848416355,P6 earlyB:15,0.047090585848416355
10868,-0.04490113606350387,-0.03926525181840275,-0.033670536566646946,-0.06682489996968176,-0.05076624705659421,-0.047085614294965904,P1:9450,0.047085614294965904
13342,0.0,0.04868520189674012,0.059715318249951146,0.055665362536674666,0.07134689119934101,0.04708255477654139,P1:24293,0.04708255477654139
123,0.03489574707698191,0.06096679558014839,0.05620850696218844,0.049433021495578065,0.033838680211747234,0.047068550265328815,P7:214,0.047068550265328815
4851,-0.05576929716332527,-0.035170177362721565,-0.03608617058483569,-0.06660542255021941,-0.04148858917444949,-0.047023931367110285,P3:448,0.047023931367110285
355,-0.043631666691156416,-0.04060551559526608,-0.04259069776363901,-0.05479933781118152,-0.05339976936737747,-0.0470053974457241,P7 Mono:699,0.0470053974457241
12411,0.044376067557811275,0.04301177050403331,0.0105602050204154,0.0793389707225287,0.0575369227588604,0.046964787312729815,P1:3321,0.046964787312729815
11282,0.06686347832409471,0.06297494625371797,0.035737845300137835,0.04437094996671657,0.024722562876668575,0.04693395654426714,P1:809,0.04693395654426714
2725,0.06198589361657979,0.04817694531149518,0.0275567523730551,0.05626747105331267,0.040501768034044205,0.04689776607769739,P5 CD8:199,0.04689776607769739
9581,0.05214183759575554,0.04269722607361737,0.05434446941760075,0.061095529649611874,0.024129678242134366,0.04688174819574398,P2:21136,0.04688174819574398
1375,0.05238319112679093,0.04046824329334843,0.027267874898857805,0.05746509194804753,0.055828040046207054,0.046682488262650354,P6:66,0.046682488262650354
6287,-0.04443749563672968,-0.03579128493783998,-0.0326083075625078,-0.04222466169820903,-0.07807556321379298,-0.046627462609815894,P2:8440,0.046627462609815894
1957,0.030589009664364626,0.06442002270407615,0.05146951755757737,0.035152023134287204,0.051437112306769936,0.046613537073415055,P5 gd:488,0.046613537073415055
9571,0.06618531428688038,0.020495896446147216,0.0453078617823928,0.053399830175807766,0.04757154199434268,0.04659208893711417,P2:21154,0.04659208893711417
14932,-0.03605571945721849,-0.049390897230272,-0.06401543015578914,-0.039969413069237465,-0.043183512678164004,-0.04652299451813622,P1:13395,0.04652299451813622
7336,-0.03925832214443776,-0.054343680252312024,-0.053509169962119206,-0.04478243392747948,-0.040508971070076685,-0.04648051547128503,P2:2620,0.04648051547128503
2873,0.073704468956271,0.0820560683333389,0.0426411579289335,0.048651851761455304,-0.014671416970709901,0.046476426001857765,P4:6320,0.046476426001857765
5473,-0.03921596790362539,-0.03779349977657826,-0.04545782546420205,-0.061958218840717845,-0.047755919896620286,-0.046436286376348765,P3:2557,0.046436286376348765
5894,0.05454510893400442,0.07167043061160991,0.01534125247806001,0.07174630482582199,0.018664835595491782,0.04639358648899762,P2:945,0.04639358648899762
15174,0.04493930244540874,0.0336161604963634,0.05719475213174585,0.048929511046364386,0.047244236050914316,0.04638479243415934,P1:12022,0.04638479243415934
14120,-0.04649250510692234,-0.04752057948380147,-0.025622311238612305,-0.057368872287254825,-0.05469149614965698,-0.04633915285324959,P1:21828,0.04633915285324959
3483,-0.0363295741065704,-0.03735781108110806,-0.05286405232534728,-0.05300929985858103,-0.05176700186822361,-0.046265547847966076,P4:3475,0.046265547847966076
6780,-0.04492835781584366,-0.04785683654445841,-0.04792218153679276,-0.045779036246284766,-0.0446524771488469,-0.0462277778584453,P2:538,0.0462277778584453
9847,0.04792444161265121,0.053604634512227786,0.04243762914705016,0.07217735341364445,0.014860745440431953,0.04620096082520111,P2:20431,0.04620096082520111
2362,-0.04490272163787832,-0.03610680115648387,-0.06056450738530185,-0.05861211365973342,-0.030776572470043024,-0.0461925432618881,P5 gd:1521,0.0461925432618881
4734,0.06436445605466408,0.004159540096779776,0.043909797676832334,0.059589628088386554,0.05874911395914718,0.046154507175161986,P3:487,0.046154507175161986
7271,-0.041389151823597786,-0.04294604654080102,-0.04484405104945549,-0.04123473734335655,-0.06033834619613793,-0.04615046659066975,P2:2680,0.04615046659066975
1495,-0.03715521047857818,-0.026483457102981094,-0.06023417407425718,-0.06783221484393374,-0.039026149994553366,-0.046146241298860705,P6:17,0.046146241298860705
10098,-0.046727002444746014,-0.0495173965578685,-0.031149328783479653,-0.05966880401092733,-0.0434371752527806,-0.04609994140996042,P2:13342,0.04609994140996042
5553,-0.056511982477307744,-0.051722082291383975,-0.04801302326220604,-0.04785147763579738,-0.02637213945318536,-0.046094141023976104,P3:2278,0.046094141023976104
14429,0.0,0.10289107134094788,0.03742576001726187,0.05711678275673993,0.03300329139954336,0.0460873811028986,P1:20901,0.0460873811028986
8982,0.011080698016899338,0.058236926340369775,0.039632164315339315,0.07281896185684912,0.048391475641494326,0.046032045234190376,P2:22721,0.046032045234190376
5012,0.07272972493867229,0.0,0.04721048391035669,0.05482418558562184,0.0552959591123196,0.04601207070939408,P3:4092,0.04601207070939408
629,0.07236608749562279,0.020262427962972663,0.04952164672586544,0.06187956159833532,0.0257478351458057,0.04595551178572038,P7 Mono:5732,0.04595551178572038
5008,0.05839856795531323,0.010978606504835304,0.05142696662339908,0.06026284708708448,0.048631361230025406,0.0459396698801315,P3:4100,0.0459396698801315
10908,-0.0808760186945891,-0.017363776280041224,-0.05362354395150739,-0.0422446865879814,-0.03552436754453929,-0.04592647861173168,P1:9370,0.04592647861173168
434,-0.036884246534165416,-0.02894713347648806,-0.04462657716567717,-0.07192661363966572,-0.04673993888386616,-0.045824901939972504,P7 Mono:6426,0.045824901939972504
1322,0.021562610130427883,0.027583604139253436,0.05398528777220248,0.059310127294077426,0.06659103020737497,0.04580653190866724,P7 Mono:1507,0.04580653190866724
2017,0.01802527784223155,0.0787776066735631,0.028754725355734256,0.058199359335925516,0.04488583409151101,0.04572856065979309,P5 gd:370,0.04572856065979309
3080,0.06438881065665605,0.065695375232978,0.0042451436882975395,0.03802614063253568,0.05618536266704531,0.045708166575502515,P4:5521,0.045708166575502515
1200,0.03873495721726295,0.04653215778781282,0.036154865196910635,0.04039242541221748,0.06642087163209305,0.045647055449259386,P7 Mono:2279,0.045647055449259386
9829,-0.0403220447357946,-0.040801028981006085,-0.03979862933976533,-0.03231011319736291,-0.07474515669420055,-0.045595394589625894,P2:20474,0.045595394589625894
4659,-0.040568465406850884,-0.03705400295827088,-0.04719950393583257,-0.043953330648358935,-0.05908158678111241,-0.04557137794608514,P3:5452,0.04557137794608514
11173,-0.015622531241021668,-0.04014951890735415,-0.050818623554028435,-0.06430090716206772,-0.05695196759692953,-0.0455687096922803,P1:8525,0.0455687096922803
15474,0.031226717662716324,0.0525074935615023,0.033977677299868295,0.05769729283210198,0.05234599439272346,0.04555103514978247,P1:10098,0.04555103514978247
1611,0.047059993600978,0.0,0.06776471664261954,0.057271371424124314,0.05561581339610525,0.04554237901276542,P6 earlyB:196,0.04554237901276542
2882,0.061867656674110566,0.07029866641844541,0.052401588980817385,0.042988792959359694,0.0,0.045511341006546614,P4:6308,0.045511341006546614
1655,-0.06198331142380138,-0.03447235541925278,-0.01914304261885191,-0.046734457517809136,-0.06516794853913577,-0.0455002231037702,P5 gd:989,0.0455002231037702
538,-0.043299396061199466,-0.03273388868881312,-0.036240526461106405,-0.06806903674573839,-0.04665754693872905,-0.045400078979117284,P7 Mono:6189,0.045400078979117284
2250,0.0031905740724497214,0.062088955553280034,0.052658967703051146,0.04173753169911037,0.06731423493046951,0.04539805279167215,P5 gd:1867,0.04539805279167215
7598,-0.019160544395621447,-0.061744914221555036,-0.05078163163620116,-0.04557585726676258,-0.04967336029841077,-0.0453872615637102,P2:25802,0.0453872615637102
9532,0.06993697073746984,0.0,0.07331316089125814,0.04362048783237983,0.040043206266211245,0.045382765145463806,P2:21230,0.045382765145463806
2064,-0.003900056859963856,-0.04587930270089594,-0.07408497386213352,-0.026005898435150655,-0.07631861464147446,-0.04523776929992369,P5 gd:235,0.04523776929992369
15612,-0.039122815744859304,-0.023223892299585585,-0.06290831005817887,-0.04700891728338263,-0.05369804700440358,-0.045192396478082,MFI:572,0.045192396478082
3952,0.054371980203641174,0.05801476769085696,0.0017205567143864608,0.05298384969800815,0.058839711194375546,0.045186173100253656,P3:8047,0.045186173100253656
2875,0.05935510130855309,0.06790695186349482,0.0515423023511247,0.047096759606491186,0.0,0.04518022302593276,P4:6317,0.04518022302593276
2748,0.05380733135840965,0.04934105131020999,0.028988201963638955,0.031452853753289926,0.062304587742177356,0.04517880522554518,P5 CD8:118,0.04517880522554518
7531,-0.048858706322390706,-0.05504070481197378,-0.02292433673589466,-0.04502029215490808,-0.05401556311869433,-0.04517192062877231,P2:25943,0.04517192062877231
5787,-0.05500916283498978,-0.035972993764309666,-0.04102818263073437,-0.037713567724557626,-0.056026369122969724,-0.04515005521551223,P2:9830,0.04515005521551223
940,0.044773266847830694,0.04218476821691562,0.05827290604040653,0.02104959081022445,0.05943804437675295,0.045143715258426045,P7 Mono:4284,0.045143715258426045
3089,0.026354702356480006,0.03469825685605527,0.06695922399253446,0.0503229130502875,0.04735384019282877,0.0451377872896372,P4:5451,0.0451377872896372
393,0.07328607350055315,0.03599405510363565,0.02847043739535598,0.04284611150551067,0.044761843304370844,0.04507170416188525,P7 Mono:6515,0.04507170416188525
6115,-0.0671765818115359,-0.04216045522622612,-0.03139862528276987,-0.042874786410021355,-0.041746554434650036,-0.04507140063304065,P2:8915,0.04507140063304065
5068,0.06032761739944456,0.0046779942565265634,0.05860374670861935,0.03355328722273274,0.06809334312572202,0.045051197742609045,P3:3936,0.045051197742609045
11010,-0.042850838955849985,-0.036566400606852664,-0.043362415039117544,-0.040064721048813624,-0.06238713058976918,-0.0450463012480806,P1:9125,0.0450463012480806
10749,0.05324905441666449,0.02263986993881744,0.061279679695248494,0.04101137102630555,0.04683730990418785,0.045003456996244764,P1:986,0.045003456996244764
1956,0.03430513857022102,0.04578030338129252,0.05467119692934768,0.04168499244599066,0.04845380878029128,0.04497908802142864,P5 gd:489,0.04497908802142864
2338,0.0069102196411952145,0.029446101740774465,0.06654799861902226,0.06556558073607109,0.05641022368505893,0.04497602488442439,P5 gd:1623,0.04497602488442439
3166,-0.03418010382070287,-0.031322426891215276,-0.06128366882815193,-0.04664256076900951,-0.05131522463231956,-0.04494879698827982,P4:4680,0.04494879698827982
10541,-0.046665710095642715,-0.05283984823877722,-0.02553681172519435,-0.05567868937157898,-0.04392697017923239,-0.04492960592208513,P2:11008,0.04492960592208513
6610,0.06048429541148257,0.02580341910993362,0.047306799113110906,0.04786610597606782,0.04305023808993129,0.04490217154010524,P2:6637,0.04490217154010524
7273,-0.04384167482148865,-0.0444970818176335,-0.03964375822969118,-0.044166396544359256,-0.0522243505442079,-0.0448746523914761,P2:2677,0.0448746523914761
1734,-0.04452223216223059,-0.02987787325971383,-0.04319400629615563,-0.05895364121000678,-0.047696772721315985,-0.044848905129884556,P5 gd:856,0.044848905129884556
3059,0.02174593411849244,0.05640224700669255,0.0370178893227753,0.06519808934422841,0.04337999539788609,0.044748831038014955,P4:5542,0.044748831038014955
5796,-0.061661964882297686,-0.041138001812561394,-0.04419811346027064,-0.029521196364082732,-0.04718244479190942,-0.044740344262224375,P2:9807,0.044740344262224375
7625,-0.04683893493246454,-0.048238896632307016,-0.031296172635775436,-0.052136252868172465,-0.045070174593502994,-0.04471608633244449,P2:25725,0.04471608633244449
7655,-0.04362768814313168,-0.04288860890046483,-0.04092450307508362,-0.058785677080132076,-0.03701604574304268,-0.04464850458837098,P2:25643,0.04464850458837098
10499,0.0436750314767226,0.014699676924131967,0.0332977010710174,0.04453743317724565,0.08693046921500855,0.04462806237282523,P2:11233,0.04462806237282523
15950,-0.02758455958569298,-0.0497326771063276,-0.020499567684976967,-0.06457069226755947,-0.06065013055921111,-0.04460752544075363,MFI:133,0.04460752544075363
14440,-0.051879618018360274,-0.04133050648908687,-0.026845669910641287,-0.04425993636588005,-0.05865676295183203,-0.04459449874716011,P1:20890,0.04459449874716011
5322,0.048042046497808404,0.03285351591920067,0.01570587620571581,0.0745045028454403,0.0517238779341748,0.044565963880468,P3:3185,0.044565963880468
10814,0.035066619593223165,0.042797491328875455,0.04867629878928553,0.04742222137800183,0.04873466279058995,0.04453945877599519,P1:9627,0.04453945877599519
8516,0.07510648022357216,0.033075887030360955,0.008760659984705984,0.06691801370257576,0.0386745977445988,0.044507127737162734,P2:23880,0.044507127737162734
2536,-0.019503066204935263,-0.03746838197558963,-0.051084100043197814,-0.04856018114640975,-0.06562248706128877,-0.04444764328628424,P5 gd:1187,0.04444764328628424
15499,-0.05197077825207462,-0.06455736020770701,-0.027270113726253133,-0.018837856612947155,-0.05942552058764678,-0.044412325877325735,MFI:90,0.044412325877325735
7662,-0.05026627070255686,-0.04391495984423086,-0.042210660363206406,-0.06389445489770994,-0.021745435003093935,-0.04440635616215961,P2:25633,0.04440635616215961
3076,-0.051848594393303124,-0.06036187136620033,-0.0176835479931396,-0.04655302289796722,-0.04530862611950136,-0.04435113255402233,P4:5525,0.04435113255402233
3854,-0.052121576793595845,-0.05547966612934004,-0.040986963039571334,-0.04037115503066087,-0.03265056315153109,-0.04432198482893983,P3:833,0.04432198482893983
1815,0.02383103166023379,0.06506313536445224,0.03150992922663903,0.05640595320725302,0.04462389475520061,0.04428678884275574,P5 gd:738,0.04428678884275574
112,-0.04147602876702722,-0.053037858591927396,-0.05476203631982307,-0.04710915176440656,-0.025010109474952066,-0.044279036983627264,P7:226,0.044279036983627264
8431,0.034843539208373506,0.053989843232728874,0.03308740382510036,0.033867028792040774,0.06533488043043133,0.04422453909773497,P2:24043,0.04422453909773497
3099,-0.02841067522450711,-0.033460817133261676,-0.05163479293666417,-0.05574332455284655,-0.051821409609119004,-0.0442142038912797,P4:5382,0.0442142038912797
6468,0.042776338250755566,0.035217283285124065,0.04997851085781042,0.0437105271014837,0.04884821278015675,0.0441061744550661,P2:7298,0.0441061744550661
2070,-0.051025881436996594,-0.05859305502509893,-0.03410514018289754,-0.03515540867204579,-0.04129184527738173,-0.04403426611888411,P5 gd:225,0.04403426611888411
12186,-0.04681959292635118,-0.05029039735900228,-0.05294017286856821,-0.04378962283648357,-0.026111309092578437,-0.043990219016596735,P1:4334,0.043990219016596735
1496,-0.03458097140462795,-0.01766852526322837,-0.07385475112119563,-0.059788306908563356,-0.03403129821272592,-0.04398477058206825,P6:166,0.04398477058206825
4925,0.09179030857393748,-0.005260510717401766,0.05551682297247658,0.05372106982954837,0.0240412435777281,0.04396178684725776,P3:4319,0.04396178684725776
1987,0.08930251919936193,0.06974147273272763,0.0,0.0606897271816977,0.0,0.04394674382275745,P5 gd:430,0.04394674382275745
13983,-0.038019643546498706,-0.04396428193480089,-0.039846859950104424,-0.053985436382834484,-0.04391439580847055,-0.043946123524541816,P1:22204,0.043946123524541816
8986,0.029144088311225787,0.007695016528559845,0.0433622870974041,0.06052216181247176,0.07894253150035417,0.04393321705000314,P2:22709,0.04393321705000314
14650,-0.04310387124008815,-0.01676458824705545,-0.06369499090966123,-0.037859871296568176,-0.058025893725777294,-0.04388984308383006,P1:20270,0.04388984308383006
3553,-0.0439424437883413,-0.05246315246884322,-0.02563217259843262,-0.04157971705209381,-0.055604008335921246,-0.04384429884872644,P4:3221,0.04384429884872644
14865,0.04656995180218696,0.039539741673864676,0.012125262388829139,0.07113564838879541,0.049792433406230775,0.043832607531981385,P1:1470,0.043832607531981385
10929,-0.025826639459597043,-0.042684522038477196,-0.04396869660459338,-0.052238169235543946,-0.05434228791299273,-0.04381206305024086,P1:9305,0.04381206305024086
1204,0.05087713357636639,0.07731821595365183,0.0,0.05171815471788057,0.03858735452925347,0.04370017175543045,P7 Mono:2262,0.04370017175543045
15417,-0.04501855509888738,-0.04693020272665073,-0.05349610034388887,-0.005099607995463739,-0.06794181498063372,-0.043697256229104885,P1:10455,0.043697256229104885
6471,-0.051416479447033196,-0.03077780683276748,-0.04718515651382052,-0.05179952205819512,-0.037234877403902765,-0.043682768451143814,P2:7292,0.043682768451143814
4277,0.003083302725046246,0.04954342821466243,0.05962956899645852,0.05555721026148571,0.050436901649116885,0.04365008236935396,P3:6678,0.04365008236935396
4682,0.05035682354030926,0.06162805740403055,0.049783590533683045,0.03828595192593246,0.01779503071935062,0.04356989082466119,P3:53,0.04356989082466119
9375,0.01672990651416332,0.020242799575049104,0.06447956985847038,0.05327151070706893,0.06306622203441636,0.04355800173783362,P2:21603,0.04355800173783362
2981,-0.0280398154686337,-0.047133313754668164,-0.04851347918762344,-0.05350173252772958,-0.04058532289007182,-0.04355473276574534,P4:5858,0.04355473276574534
15294,-0.023652043174477944,-0.042454455961738906,-0.08739111672116887,-0.0275361325045617,-0.03643206943058607,-0.0434931635585067,P1:11265,0.0434931635585067
15898,0.05249863166973914,0.009789748122977143,0.04623453642949954,0.053806706430491354,0.05496827970198025,0.04345958047093749,MFI:190,0.04345958047093749
2638,-0.026272759907842145,-0.03230398742605168,-0.037104576709700854,-0.0668217219626317,-0.054499747438181964,-0.04340055868888167,P5 CD8:94,0.04340055868888167
1916,-0.03447458716172658,-0.05709150695424839,-0.04034864473442883,-0.051335079604089784,-0.03367042891260909,-0.04338404947342054,P5 gd:562,0.04338404947342054
14375,-0.04932339476640405,-0.025700458308086375,-0.021658192350184874,-0.038800884027943815,-0.08129123281368249,-0.043354832453260314,P1:21112,0.043354832453260314
9871,0.03904237322242693,0.019593682173963105,0.06499302355750927,0.058864925774263485,0.03410344676881135,0.04331949029939483,P2:20252,0.04331949029939483
7586,-0.0332545370885935,-0.047004216735563896,-0.04650017157298999,-0.050334970301827646,-0.039465844440105716,-0.04331194802781615,P2:25832,0.04331194802781615
6933,0.03224340131682538,0.02100300408226273,0.05025129132134413,0.053034307802160785,0.06002079270212352,0.04331055944494331,P2:4508,0.04331055944494331
7080,0.05255713681344903,0.023756641008608418,0.041632296538978084,0.05120125175262038,0.04673786848395926,0.043177038919523035,P2:3785,0.043177038919523035
4042,0.052133177236131464,0.056775591840589314,0.0,0.05038389878496889,0.05644010722011742,0.043146555016361415,P3:7804,0.043146555016361415
8213,-0.03924460260132313,-0.04123249083787869,-0.04354826168493534,-0.038300402963212576,-0.05340363960658172,-0.04314587953878629,P2:2461,0.04314587953878629
6731,0.016912067598939068,0.03859566498668535,0.05318849896684222,0.05735440624054779,0.04964115891804009,0.04313835934221091,P2:592,0.04313835934221091
15773,0.04142676241850641,0.06077236094250545,0.052700239123816287,0.0,0.06079236424815717,0.043138345346597065,MFI:322,0.043138345346597065
10780,0.007507460291291416,0.04746978025452308,0.049861903565884276,0.057593752489550405,0.05318134623006904,0.043122848566263645,P1:9759,0.043122848566263645
4408,0.04682311933662053,0.03406634677610468,0.0380582135684529,0.05444850953944964,0.04221089434812234,0.04312141671375001,P3:6389,0.04312141671375001
1425,-0.04667461227994278,-0.026551305949308858,-0.034840554944844615,-0.04316353562449298,-0.06437415663499194,-0.043120833086716236,P6:302,0.043120833086716236
3082,-0.03323943388952138,-0.05011631083437399,-0.034695676538996856,-0.036682266771507474,-0.060493508965833755,-0.04304543940004669,P4:5519,0.04304543940004669
3768,0.05374264299675843,0.04915938399821553,0.03897077503160347,0.0414880155975342,0.031692159846450046,0.04301059549411233,P3:854,0.04301059549411233
1844,0.045936968522167124,0.06886784562744744,0.015864944845149238,0.052734165052066725,0.031507128524986217,0.04298221051436335,P5 gd:692,0.04298221051436335
3966,-0.04783399310547577,-0.03582776307867716,-0.020553322933146125,-0.049554010949361495,-0.06098878650606296,-0.0429515753145447,P3:8023,0.0429515753145447
2985,-0.017583945984985902,-0.045490207590368745,-0.05553592558255983,-0.058588682352910065,-0.03751623507655406,-0.042942999317475715,P4:5850,0.042942999317475715
12353,0.03943895252346922,0.024610022129012265,0.047757274655241135,0.05099683293161488,0.051892267648374804,0.04293906997754247,P1:3697,0.04293906997754247
2192,-0.02704027610320892,-0.05714609749058663,-0.028214415565996978,-0.037604943078879786,-0.064683289817068,-0.04293780441114806,P5 gd:1999,0.04293780441114806
6289,-0.05292252276437035,-0.02043507363875301,-0.03437903593717469,-0.04705989423312047,-0.059691801483854716,-0.04289766561145465,P2:8437,0.04289766561145465
9620,0.02943333474172101,0.02476918816104608,0.06760651399573077,0.059109635235843096,0.033521610837887184,0.042888056594445625,P2:21057,0.042888056594445625
7022,-0.0628813061708697,-0.021344332074385575,-0.01781560741676744,-0.04292716143513157,-0.06942546563098674,-0.042878774545628204,P2:4150,0.042878774545628204
2040,-0.03331751403715188,-0.04304261129513364,-0.055947348106175424,-0.0444809951735665,-0.03759087839668124,-0.042875869401741734,P5 gd:31,0.042875869401741734
11674,0.04220156127498301,0.026985566296146304,0.0608149041698361,0.04884697099433267,0.035525354126352604,0.042874871372330134,P1:653,0.042874871372330134
214,-0.051875785158204735,-0.02004594294603383,-0.07095736432480242,-0.046632738841445906,-0.024675229973374832,-0.04283741224877234,P7:104,0.04283741224877234
14268,-0.05214420640405469,-0.038733857157365645,-0.046537565310686355,-0.031104328689769874,-0.04557508598136273,-0.042819008708647854,P1:21443,0.042819008708647854
5654,0.025389204974319932,0.02974993342415603,0.04757378483579443,0.05896617774389449,0.0524017658968768,0.042816173375008336,P3:165,0.042816173375008336
2737,0.04198246285195367,0.05017246077615427,0.03853788923734522,0.018017126430376243,0.06536705504918928,0.04281539886900373,P5 CD8:145,0.04281539886900373
7161,-0.0343010607563104,-0.039612397228114674,-0.042095339763263954,-0.054470524590272594,-0.04339854531934671,-0.042775573531461664,P2:328,0.042775573531461664
5304,-0.03677912900088752,-0.04294218863299306,-0.051740111625545905,-0.06091426780895696,-0.021458148386527258,-0.042766769090982135,P3:3229,0.042766769090982135
7220,-0.03800913962614245,-0.034486011443307645,-0.04062044650742662,-0.04935702677611724,-0.051300524044989894,-0.04275462967959677,P2:2886,0.04275462967959677
11702,0.036902110748073126,0.03597605283609887,0.01522145313863218,0.07585574202966076,0.04950517791761223,0.04269210733401543,P1:641,0.04269210733401543
1498,-0.03969809866340726,-0.028229754822154965,-0.058221986546553355,-0.05150001086532355,-0.035744163321961626,-0.04267880284388015,P6:164,0.04267880284388015
12155,0.0596363925830219,0.04759256575326323,0.0409257110553566,0.02585289024149514,0.03913375392148642,0.04262826271092466,P1:4505,0.04262826271092466
25,-0.03546631097126479,-0.024805392578005445,-0.05532105046490488,-0.047433006814905594,-0.05006954888589772,-0.04261906194299568,P7:74,0.04261906194299568
7341,0.06246912222369511,0.02055500682993978,0.031022825803987554,0.04249187448612798,0.056460994568220235,0.04259996478239413,P2:26195,0.04259996478239413
14900,-0.04704113299272614,-0.03975236422527983,-0.04133606982351336,-0.04190161467808265,-0.042966208352861995,-0.0425994780144928,P1:13578,0.0425994780144928
3506,0.04280939420044205,0.04121072136817077,0.03828015049112752,0.04356786075664587,0.047020296934448626,0.04257768475016697,P4:3395,0.04257768475016697
6088,0.08833778661735645,0.013077974587860794,0.029176927200856927,0.03245712929507741,0.04949632359844955,0.04250922825992022,P2:9002,0.04250922825992022
11780,-0.052874640339760665,-0.030826228537956444,-0.04460152981928768,-0.038818778526628024,-0.04522964784091062,-0.04247016501290868,P1:6068,0.04247016501290868
13585,0.05091410206791168,0.030041512185696593,0.026383835355238656,0.03365386888525187,0.0710834347944855,0.04241535065771686,P1:23622,0.04241535065771686
4871,0.0313752461861745,0.005985373923344399,0.05985956451597884,0.05152724849058189,0.06305853682147383,0.04236119398751069,P3:4417,0.04236119398751069
4434,0.05258266870911627,0.03450850925538512,0.03283775766830196,0.05167745324632377,0.04014587770015095,0.042350453315855616,P3:6308,0.042350453315855616
15249,-0.03499810355783382,-0.05534594100026027,-0.05421041760151233,-0.037683926411553055,-0.029457388815324302,-0.042339155477296754,P1:11544,0.042339155477296754
8515,0.06414284311422179,0.037979159935346,0.012514708112246977,0.05870069303337502,0.03834783150772616,0.04233704714058319,P2:23881,0.04233704714058319
7001,0.044198847293386814,0.05752452384191449,0.04043513404927358,0.03543625245288712,0.034071227675561824,0.042333197062604765,P2:4255,0.042333197062604765
8622,-0.0306210662394715,-0.04832043469347842,-0.03261775463599232,-0.04439073181028637,-0.05552067302372994,-0.042294132080591705,P2:23609,0.042294132080591705
9459,0.03872572593795219,0.04355515947781638,0.04557098538754118,0.05291688971142961,0.03053332482745776,0.04226041706843943,P2:21315,0.04226041706843943
1078,-0.03873006938665787,-0.042770507626142665,-0.04016396130246578,-0.037410814090652535,-0.05203992433046545,-0.042223055347276855,P7 Mono:3528,0.042223055347276855
1464,-0.02908847414356692,-0.04060044752466975,-0.047591953018622214,-0.042861955890065716,-0.05062728794222592,-0.042154023703830104,P6:23,0.042154023703830104
11676,0.03892105108452377,0.04166907930336272,0.01668107503960673,0.0648855176905087,0.04856429225057177,0.042144203073714734,P1:652,0.042144203073714734
9240,0.06919388762278386,0.029227181482031583,0.06342976276080903,0.04695670328650123,0.001901703942293924,0.04214184781888393,P2:21911,0.04214184781888393
3591,-0.03632517936894975,-0.03956096345409193,-0.041262948058264026,-0.04730850916323092,-0.04598511262732044,-0.042088542534371415,P4:2694,0.042088542534371415
14357,-0.043687447068953,-0.034210577349462784,-0.02815790709254217,-0.036317392433007,-0.06791967095560583,-0.04205859897991416,P1:21139,0.04205859897991416
4040,0.05234029087223979,0.05386861417782599,0.0004209298296114753,0.05127939785063682,0.05227161756887585,0.042036170059837986,P3:7811,0.042036170059837986
12699,-0.061287838608152234,-0.03534274408493809,-0.02856668763730008,-0.052065128348923184,-0.03274722797556226,-0.04200192533097517,P1:26012,0.04200192533097517
962,-0.03158228265894029,-0.03795069424878308,-0.03393225313366952,-0.03907885769082339,-0.06745966897139656,-0.042000751340722564,P7 Mono:4230,0.042000751340722564
14334,-0.02921116244299837,-0.03545688102436871,-0.04243542299799734,-0.05221852408082934,-0.05058909762049467,-0.04198221763333768,P1:21264,0.04198221763333768
5536,-0.030408412625172784,-0.03394857448602838,-0.0451996731299682,-0.05612713685943898,-0.04407796776707488,-0.041952352973536645,P3:2351,0.041952352973536645
15743,-0.05353523080287413,-0.03678129580052096,-0.07510539304630613,-0.014784624510359693,-0.029468092362039736,-0.041934927304420125,MFI:398,0.041934927304420125
5625,0.04762407367002544,0.030152816349829775,0.04170638511785919,0.03847696287356568,0.05170951645791309,0.04193395089383863,P3:1875,0.04193395089383863
2715,0.06782530073434369,0.04583330514061168,0.03180764365821303,0.05180135493143423,0.012161194374391842,0.04188575976779889,P5 CD8:225,0.04188575976779889
15812,0.019641486493163284,0.04272847289332837,0.055013998423679975,0.0,0.09195221494356938,0.0418672345507482,MFI:27,0.0418672345507482
7513,0.07027252486005514,0.029635365078721353,0.015332079703064558,0.06186134637470935,0.03219521111401676,0.041859305426113436,P2:25971,0.041859305426113436
7506,0.0350532744424846,0.0290398293828271,0.05035566037592954,0.043798093111952284,0.05093752069815438,0.04183687560226958,P2:25978,0.04183687560226958
14551,0.06242030463129226,0.053467204303683,0.034870901054771156,0.025026449305051063,0.03332966530905205,0.04182290492076991,P1:2058,0.04182290492076991
1890,-0.0653482820052668,-0.02692930754660599,-0.04363033776903045,-0.05296240009945563,-0.020216953474368134,-0.0418174561789454,P5 gd:619,0.0418174561789454
5642,-0.037845274037503145,-0.053670353442668337,-0.04020938771712003,-0.046818483478705465,-0.030513649766901248,-0.04181142968857964,P3:1815,0.04181142968857964
4394,-0.045141449039411516,-0.050844473378199376,-0.06079247379981089,-0.02890956152423236,-0.023341554079227854,-0.0418059023641764,P3:643,0.0418059023641764
15634,-0.04515390949240214,-0.04092298384225247,-0.04526155588584833,-0.02892428204065552,-0.04875407016705844,-0.04180336028564338,MFI:546,0.04180336028564338
13584,0.046334386304479225,0.034371086090494836,0.03265436297664689,0.03890922733870884,0.056501537016973434,0.04175411994546065,P1:23623,0.04175411994546065
1105,-0.03649982653922939,-0.032143778424549824,-0.04926422561489058,-0.046111486181459195,-0.044664679589717995,-0.04173679926996939,P7 Mono:3414,0.04173679926996939
11928,0.046702996958935365,0.04551425333461373,0.019298621283406932,0.030373237633366097,0.06676023070002748,0.04172986798206992,P1:5455,0.04172986798206992
3063,0.016221800318185257,0.048615774507572235,0.04728589937255208,0.053092702682976986,0.04305724531984993,0.041654684440227296,P4:5538,0.041654684440227296
2644,-0.04308754180855831,-0.044382131391521945,-0.0342506335172941,-0.05426146561121443,-0.032243622318142304,-0.04164507892934621,P5 CD8:88,0.04164507892934621
15386,-0.04180238133096565,-0.037797375007620225,-0.04734796331990942,-0.03694019717578951,-0.04430395185440938,-0.041638373737738835,P1:10697,0.041638373737738835
91,-0.04046260424915976,-0.05205890998728662,-0.05717724506927561,-0.04480974841449821,-0.013677788030217308,-0.0416372591500875,P7:249,0.0416372591500875
12024,0.0429150118198405,0.03541166870102645,0.04825278510103809,0.04007861912626541,0.041502131129629784,0.041632043175560046,P1:507,0.041632043175560046
4054,-0.0504108639330531,-0.024947708630892462,-0.03201384925483924,-0.042828809218765425,-0.05795302284232489,-0.041630850775975024,P3:7780,0.041630850775975024
15492,-0.03465387577781415,-0.04321182880750988,-0.0393231814781775,-0.06577979879469849,-0.025185205170819323,-0.041630778005803865,MFI:97,0.041630778005803865
15604,0.033906682193391775,0.04930444919293974,0.06396775347563001,0.02019125122649946,0.04073942542724935,0.041621912303142064,MFI:58,0.041621912303142064
5352,-0.049092450724151554,-0.042099749343877106,-0.047438086372520734,-0.0544691770444667,-0.014972025908286337,-0.041614297878660486,P3:306,0.041614297878660486
8456,0.022986215762120867,0.04604736972946283,0.058921698780030514,0.04041223893140107,0.03963725923360104,0.041600956487323267,P2:23988,0.041600956487323267
5554,-0.05674463717670024,-0.04699090156662835,-0.033850430569858876,-0.03703439345422761,-0.033382409954827996,-0.04160055454444861,P3:2277,0.04160055454444861
6111,0.02765333079067536,0.05656279294403793,0.027947112035036158,0.048931667407522896,0.046727588695076996,0.04156449837446987,P2:8943,0.04156449837446987
13655,-0.03926317861715665,-0.0432476183637667,-0.055234989260720534,-0.04472125331004987,-0.02534278924627227,-0.0415619657595932,P1:23382,0.0415619657595932
6945,0.0346313617080486,0.021016747346145476,0.05136993150798343,0.04641950069175822,0.05433678384863958,0.04155486502051506,P2:4475,0.04155486502051506
6813,0.047820978088334014,0.021441508056047255,0.04404697204537198,0.04775411791738057,0.04663203270585935,0.04153912176259863,P2:5219,0.04153912176259863
11361,0.032807067494938384,0.05360729207573401,0.02611578590718709,0.046386055813417724,0.04873383774437356,0.041530007807130155,P1:7779,0.041530007807130155
15125,-0.05270603185934656,-0.022079113065912245,-0.046720627565190194,-0.03379886869347916,-0.052319615951416154,-0.04152485142706887,P1:12337,0.04152485142706887
1952,0.05412807588088568,0.04698479374533662,0.025371516834654734,0.04615045364870593,0.03487312161694134,0.04150159234530486,P5 gd:498,0.04150159234530486
7025,-0.05042703478380583,-0.03154908723978666,-0.01969307338832567,-0.03994952450000139,-0.06563317802287297,-0.041450379586958505,P2:4141,0.041450379586958505
15493,-0.03687639222641674,-0.04842322492277676,-0.06171180847426478,-0.02708687408390155,-0.03305135445693053,-0.04142993083285808,MFI:96,0.04142993083285808
13487,0.05167984281288827,0.04058971074064081,0.04374218609679176,0.051484588062441626,0.01935617931199404,0.0413705014049513,P1:23902,0.0413705014049513
1648,-0.05165514761836835,-0.037775668404084424,-0.02517626085938665,-0.03711598350712924,-0.05507229343636933,-0.0413590707650676,P5 gd:995,0.0413590707650676
532,-0.044416341164526744,-0.044821906631498105,-0.029755550240023004,-0.058150417142549864,-0.029633976049104952,-0.04135563824554053,P7 Mono:620,0.04135563824554053
6733,0.04903894136714952,0.01912487723674762,0.04218990016149699,0.050724388358681885,0.04545109333898292,0.04130584009261178,P2:5907,0.04130584009261178
11209,-0.028018077952385118,-0.04727136159890923,-0.04953237351920806,-0.043249920530233944,-0.038396222418810126,-0.0412935912039093,P1:84,0.0412935912039093
5699,-0.029032189250780282,-0.03954889954600975,-0.03350204384554609,-0.04083106898668498,-0.06349119550862646,-0.04128107942752951,P3:104,0.04128107942752951
1638,0.048076507523182536,0.04388461923354988,0.07211560100856668,0.02481097622145259,0.016862625174000292,0.0411500658321504,P6 earlyB:128,0.0411500658321504
1811,0.013483938367103243,0.08359758416694694,0.0650782477700265,0.01738203012064063,0.026208048689174247,0.04114996982277831,P5 gd:742,0.04114996982277831
12788,-0.023239695411949327,-0.02807778075701265,-0.05741852011881962,-0.0515275788927684,-0.0454808525832761,-0.041148885552765226,P1:25820,0.041148885552765226
10775,0.04023684460765388,0.03660747421127077,0.0460682919680416,0.04604022054670273,0.03678432766775714,0.041147431800285225,P1:9786,0.041147431800285225
3641,0.06303075574781235,0.05066025381300489,0.027769907690409122,0.04287298733412202,0.021286115753073584,0.04112400406768439,P3:9,0.04112400406768439
14530,0.05812536293781252,0.029999439485039317,0.05294571101623608,0.03060540099539797,0.033941785459964485,0.041123539978890074,P1:2063,0.041123539978890074
1627,0.048173060310021235,0.028243773509133627,0.08789244042058661,0.023258892345329088,0.017842072996701947,0.041082047916354496,P6 earlyB:152,0.041082047916354496
15860,0.07016475841175834,0.008485983252397905,0.028306912409356965,0.05327941568509752,0.04509220006014488,0.04106585396375113,MFI:224,0.04106585396375113
3066,-0.032513332162893385,-0.05191567800142185,-0.030164646292068727,-0.04999682451301,-0.040304790593131815,-0.04097905431250515,P4:5535,0.04097905431250515
6191,0.03682000723484763,0.06067646282997902,0.0,0.05013263792856039,0.057110988822894615,0.04094801936325633,P2:8669,0.04094801936325633
4648,0.05610695063411009,0.03724342312531265,0.05810655976019263,0.05307171585963513,0.0,0.0409057298758501,P3:5511,0.0409057298758501
3435,0.05566405197688899,0.031147400480316362,0.04254919512650625,0.02914196355602243,0.045747623597136425,0.04085004694737408,P4:3630,0.04085004694737408
15245,-0.038298968207921745,-0.029495854791500697,-0.056691074737803465,-0.02176902393675856,-0.05797938327384989,-0.04084686098956687,P1:11557,0.04084686098956687
2365,-0.056246975405998545,-0.01376617306249745,-0.04204769313581795,-0.04807992973226447,-0.04404405172928107,-0.0408369646131719,P5 gd:1518,0.0408369646131719
6931,0.052337841652363624,0.021617870200130156,0.04478441397590462,0.044244890528240745,0.04106104455365918,0.04080921218205966,P2:4514,0.04080921218205966
11785,-0.04603034316041864,-0.038763125911348985,-0.05108380469625748,-0.013736228085275394,-0.05443068490562472,-0.040808837351785046,P1:6052,0.040808837351785046
2777,-0.026946518140749005,-0.0452876158744375,-0.04346221537404443,-0.05089627805153017,-0.037332604648291606,-0.04078504641781054,P4:70,0.04078504641781054
6809,0.04175851001635354,0.02681081310557836,0.053588669864380656,0.03919833983944194,0.04241178703162462,0.04075362397147582,P2:5231,0.04075362397147582
6415,-0.04259341962377073,-0.028101201727516446,-0.04909606122146072,-0.048717947007842176,-0.035190069507123355,-0.04073973981754268,P2:7749,0.04073973981754268
14901,-0.034387314684910485,-0.04181381756722531,-0.04115498745704409,-0.044037156175106694,-0.04222818381264771,-0.040724291939386856,P1:13576,0.040724291939386856
3714,-0.031146040023240715,-0.06901593917836281,-0.038220855216467974,-0.032554511545279705,-0.03228962458230228,-0.04064539410913069,P3:863,0.04064539410913069
8610,0.05333475918734995,0.03301616380709512,0.026364098907082002,0.05553901087881829,0.034826153881466954,0.040616037332362465,P2:23641,0.040616037332362465
11177,-0.008852649141120208,-0.04489613806312208,-0.04618475016703668,-0.05390162536980495,-0.04905330083587889,-0.04057769271539256,P1:8516,0.04057769271539256
9826,0.042489782810796246,0.06161035962940515,0.046763632369785466,0.051907800287863105,0.0,0.04055431501956999,P2:20478,0.04055431501956999
12368,0.04736440425881471,0.03771739058294172,0.01675533369556756,0.054561141471565565,0.04635354730202993,0.040550363462183894,P1:3562,0.040550363462183894
11788,-0.051783651376189295,-0.02918513350624824,-0.04102796203172208,-0.038845544837154904,-0.041818858756404655,-0.04053223010154383,P1:6041,0.04053223010154383
5467,-0.02718768870177902,-0.0344522773893933,-0.04012365917927973,-0.05467401963685787,-0.045893187408129144,-0.04046616646308781,P3:2565,0.04046616646308781
15981,0.02730183164607649,0.0,0.06830666619155036,0.04721201894965429,0.05941165398886091,0.04044643415522841,Lin:50,0.04044643415522841
1746,-0.015991277563173697,-0.045871342251658974,-0.055747506171424537,-0.030352993259630773,-0.054256217535042665,-0.04044386735618613,P5 gd:84,0.04044386735618613
7160,0.030032079868390064,0.0512316089457157,0.026410467940139976,0.052725543444409585,0.041712128290841595,0.04042236569789938,P2:329,0.04042236569789938
13742,-0.05105399421930246,-0.04257936499166625,-0.02912091232781977,-0.03991730535160678,-0.039345949391229505,-0.040403505256324954,P1:22934,0.040403505256324954
1033,0.0,0.024669038432572326,0.0449577544530132,0.04941455189649862,0.08269509181325878,0.04034728731906858,P7 Mono:3738,0.04034728731906858
6760,0.031000953228731646,0.057301801252584564,0.03524329041268555,0.03570517869299226,0.04236271552781586,0.040322787822961975,P2:5690,0.040322787822961975
6997,-0.03476587102306071,-0.05897448181963025,-0.037291238379176826,-0.03260693283027973,-0.03784891438580577,-0.04029748768759066,P2:4261,0.04029748768759066
11423,0.027859364219349494,0.052483468996810285,0.03645104658695223,0.04388372220638673,0.040795971021870624,0.040294714606273874,P1:7538,0.040294714606273874
11782,-0.040804298990920355,-0.02431481466300707,-0.05406660837307332,-0.03405640187276266,-0.04794605600481325,-0.04023763598091533,P1:6059,0.04023763598091533
4511,-0.040857289713516806,-0.045714696561724256,-0.037049077186777475,-0.0374009897021207,-0.04015756428928876,-0.040235923490685596,P3:6001,0.040235923490685596
15806,-0.0619160986918381,-0.048259274639345824,-0.01412097376723169,-0.03338223613348968,-0.043406378172134046,-0.04021699228080787,MFI:276,0.04021699228080787
121,0.032840556374636364,0.05874977962680015,0.016772171060971664,0.06372086755953052,0.029000830934633466,0.040216841111314426,P7:217,0.040216841111314426
5044,-0.04588956299722877,-0.04994448102384988,-0.04106587062282493,-0.024498381326035885,-0.039566600928883665,-0.040192979379764626,P3:399,0.040192979379764626
8013,-0.0376784061082908,-0.04131114075917524,-0.07648689583942818,-0.028809575954498266,-0.0166463558998947,-0.04018647491225743,P2:25057,0.04018647491225743
5412,0.055096230330495086,0.03576373369849434,0.055474924548058135,0.054453214981281244,0.0,0.040157620711665766,P3:285,0.040157620711665766
15858,0.04037042205946726,0.010741315797072824,0.057318765483699394,0.023404797814038647,0.06871347644648661,0.040109755520152945,MFI:226,0.040109755520152945
15742,-0.023404299538380087,-0.05322670914866448,-0.03274705434169599,-0.032573748234375956,-0.05858051520291866,-0.040106465293207036,MFI:399,0.040106465293207036
