,coef_weight_0,coef_weight_1,coef_weight_2,coef_weight_3,coef_weight_4,coef_weight_mean,label,abs(cwm)
3071,0.39169270654323946,0.2608370198588525,0.22610572700440357,0.24126188163116521,0.20151519846574448,0.264282506700681,P4:5530,0.264282506700681
2915,0.2471091596978804,0.2947482951376846,0.15279422114745564,0.21000381817234015,0.02494760851919879,0.18592062053491193,P4:6227,0.18592062053491193
1884,0.2347726182510919,0.14863261207366332,0.15103507698694651,0.16516571223597604,0.17182185314927462,0.17428557453939048,P5 gd:632,0.17428557453939048
3045,-0.12982860251166328,-0.19639516386110853,-0.18945327663540987,-0.21754402875727943,-0.09182263758467331,-0.1650087418700269,P4:5572,0.1650087418700269
3085,-0.1156101131776125,-0.21276077655091494,-0.18976168735969434,-0.22208145884734248,-0.082337831950766,-0.16451037357726603,P4:5491,0.16451037357726603
2315,-0.20375423189061684,-0.08807912711358579,-0.20062271479521654,-0.08044853708792797,-0.17051504900314735,-0.1486839319780989,P5 gd:1727,0.1486839319780989
2250,-0.07537062995526884,-0.1327803356020275,-0.1870653530239676,-0.09478334387038227,-0.2176159940146978,-0.14152313129326882,P5 gd:1867,0.14152313129326882
2258,0.06203639128805063,0.1456072981201598,0.17274702749277204,0.09647237639165789,0.22229810868667252,0.13983224039586256,P5 gd:1852,0.13983224039586256
14624,-0.19272367077850383,-0.15685754478333533,-0.06967551025888988,-0.08599797090154325,-0.19359799760220917,-0.1397705388648963,P1:20365,0.1397705388648963
1844,0.16505794685263406,0.1557338190900698,0.1484015427197161,0.09539703790918537,0.13053542049156414,0.13902515341263388,P5 gd:692,0.13902515341263388
3062,0.23376598347395783,0.22430872946202693,0.050313133438984664,0.07558996000035247,0.09883375292161055,0.1365623118593865,P4:5539,0.1365623118593865
1838,0.16294025538573026,0.11260484457546426,0.13790678796454164,0.12371986351222455,0.14310142650029006,0.13605463558765013,P5 gd:7,0.13605463558765013
15497,-0.15583591271573352,-0.04403430587698243,-0.1837164746454383,-0.1251229014211601,-0.11558866073648603,-0.12485965107916006,MFI:92,0.12485965107916006
1850,0.18257886932764375,0.08235532180503954,0.16724946273231026,0.07864998373506873,0.10979657564308179,0.12412604264862881,P5 gd:683,0.12412604264862881
1940,0.13040255722217137,0.10813276476813531,0.0,0.2056933340654706,0.16805326719557553,0.12245638465027057,P5 gd:524,0.12245638465027057
2254,-0.10627441081425221,-0.09390709314376727,-0.15443885627436624,-0.07974875275157929,-0.17738648223642658,-0.12235111904407832,P5 gd:1859,0.12235111904407832
1924,0.1634563418423622,0.1688579144063941,0.044036876890512895,0.10128676417916477,0.10445836319406548,0.1164192521024999,P5 gd:551,0.1164192521024999
2368,0.16675352300177507,0.06928274858555164,0.048043817077250354,0.12011096406075757,0.17307173355305372,0.11545255725567767,P5 gd:1513,0.11545255725567767
15691,-0.04614542465026631,-0.14936416928279006,-0.09422772174181196,-0.148144494548519,-0.12917348522612013,-0.1134110590899015,MFI:469,0.1134110590899015
3110,-0.05804139215813506,-0.15153683510796798,-0.17781109855928434,-0.14284687121829615,-0.036473618691364,-0.1133419631470095,P4:5329,0.1133419631470095
13978,-0.13983983813414816,-0.00706814560793505,-0.07467171257481005,-0.1480450461392042,-0.18371566029269495,-0.11066808054975848,P1:22213,0.11066808054975848
2235,-0.04552591507557609,-0.1009087669703298,-0.16031775777744398,-0.07660217090027895,-0.1482368499497541,-0.10631829213467658,P5 gd:1895,0.10631829213467658
2334,-0.06627973108804745,-0.09151219764603064,-0.14020343103117497,-0.055158753821466726,-0.15864343672283956,-0.10235951006191187,P5 gd:1640,0.10235951006191187
1903,0.12509841844006597,0.07991953554139827,0.08758932488339925,0.09914655664838216,0.1042055867360485,0.09919188444985884,P5 gd:596,0.09919188444985884
1622,0.06078608870981268,0.0899981182928797,0.09853588875575747,0.1582993060652716,0.0842079172862769,0.09836546382199968,P6 earlyB:166,0.09836546382199968
15730,0.16736751424786292,0.09739546700347432,0.04736506314630649,0.060237082571302496,0.11884034475716339,0.09824109434522192,MFI:414,0.09824109434522192
2337,0.021635078623010277,0.055733755339004126,0.1728846795632397,0.069940537272139,0.16178811502583076,0.09639643316464477,P5 gd:1625,0.09639643316464477
1109,-0.0652606970976961,-0.053816190077172796,-0.18246041098847812,-0.1490575847956035,0.0,-0.0901189765917901,P7 Mono:3409,0.0901189765917901
2584,0.16468297707656174,0.07143478739893404,0.08193676717607305,0.03572625849837498,0.09630373929436091,0.09001690588886094,P5 NKT:96,0.09001690588886094
9845,-0.08219663051384407,-0.1954734391808957,-0.06975192690569988,-0.0180604967822452,-0.08456959253487481,-0.09001041718351192,P2:20434,0.09001041718351192
3144,0.007189700928443197,0.054077105869915536,0.1153503622716408,0.14272494382537415,0.1293660068858388,0.0897416239562425,P4:4904,0.0897416239562425
3046,-0.03466633376576824,-0.08442722877991453,-0.13582994265934062,-0.1259873542396801,-0.06591284076990549,-0.0893647400429218,P4:5571,0.0893647400429218
14639,-0.18015984945596764,-0.08235712613727991,-0.03732492580511573,-0.055087054261107375,-0.09052278817329325,-0.08909034876655278,P1:20308,0.08909034876655278
3167,0.000915455008073039,0.061256934400342286,0.10849842616790148,0.1180311353832255,0.1546811513807523,0.08867662046805894,P4:4669,0.08867662046805894
15792,0.09842948756654549,0.07291416269379392,0.1115681595564485,0.0883053626361224,0.07043695175276032,0.08833082484113412,MFI:291,0.08833082484113412
2370,0.09998813989662113,0.08075091811034872,0.07636099622521003,0.0879100590755515,0.09447952668335236,0.08789792799821675,P5 gd:1510,0.08789792799821675
2048,0.11228509577247152,0.01621134571535309,0.005876122849437687,0.14363455608944228,0.14046266966343166,0.08369395801802726,P5 gd:297,0.08369395801802726
2298,-0.10609626962415823,-0.08035335158378665,-0.08575564530421567,-0.08189142155397668,-0.053765618469510945,-0.08157246130712964,P5 gd:177,0.08157246130712964
5035,-0.16142255031455102,-0.09668324737673493,0.0,-0.12892323256759253,-0.002653174883645616,-0.07793644102850482,P3:4024,0.07793644102850482
1915,0.07243351764270087,0.09721705050457126,0.09149689978424748,0.04272644952656137,0.07546573739631024,0.07586793097087824,P5 gd:565,0.07586793097087824
10916,0.10576225236332325,0.08744728553218961,0.052415791558355844,0.08861483738190953,0.04276198699398993,0.07540043076595364,P1:9358,0.07540043076595364
2081,0.03126360922694536,0.10025712929813453,0.0,0.11881180825290676,0.1203267177207815,0.07413185289975363,P5 gd:2176,0.07413185289975363
3159,-0.009639097526737708,-0.08532565107380857,-0.10434833706762692,-0.10627428454813335,-0.05595668591600391,-0.07230881122646209,P4:4790,0.07230881122646209
10729,0.06904461400866278,0.08048277126564539,0.04400464196887229,0.05732406471909442,0.10965960847871482,0.07210314008819793,P1:9919,0.07210314008819793
15596,0.14897862692538885,0.055706479229628826,0.13861718348369365,0.0027552574178395465,0.014440962608324708,0.07209970193297513,MFI:587,0.07209970193297513
14609,-0.14366502562881658,-0.10274277483633079,0.0,-0.03374170716539228,-0.07818431228652473,-0.07166676398341287,P1:20392,0.07166676398341287
2561,0.0,-0.07829165704519363,-0.0765179823525764,-0.12535789765553526,-0.07809867961263761,-0.0716532433331886,P5 gd:1121,0.0716532433331886
15434,-0.08458035549823617,-0.05652145411673327,-0.037696385621572306,-0.10057887527652436,-0.07256403297129495,-0.0703882206968722,P1:10321,0.0703882206968722
15658,-0.0829792068868895,-0.12545726169536126,-0.09422357774262659,-0.04658870058555407,0.0,-0.0698497493820863,MFI:510,0.0698497493820863
15326,-0.08930283862410064,-0.0417536780617089,-0.04028067635372948,-0.08921946696182982,-0.08581911710700281,-0.06927515542167433,P1:11047,0.06927515542167433
15071,0.0,-0.1401157665002541,-0.05740363432137005,-0.11645718774768116,-0.024947635299698623,-0.06778484477380078,P1:12687,0.06778484477380078
13822,-0.11819819234005938,-0.08399088172390896,-0.053912456030428456,-0.013603728788547393,-0.0689270200190826,-0.06772645578040534,P1:22700,0.06772645578040534
15396,-0.07364454969398998,-0.049702459648144334,-0.038077987696800465,-0.07462133958893567,-0.0936016481475225,-0.06592959695507858,P1:10563,0.06592959695507858
2582,-0.14620702821868894,-0.02560623231660966,-0.06928526557731832,-0.014868960239150247,-0.07298013634968767,-0.06578952454029097,P5 NKT:98,0.06578952454029097
15174,-0.049962647093282936,-0.16495762046433457,0.0,-0.016004489948406263,-0.0939698932261489,-0.06497893014643454,P1:12022,0.06497893014643454
2224,0.035630744416303595,0.11802599114354324,0.10640927233674684,0.044920598691064045,0.01461697024545349,0.06392071536662225,P5 gd:1927,0.06392071536662225
2006,0.0,0.0,0.13788091254093773,0.11346732288549423,0.0669826649798101,0.06366618008124841,P5 gd:396,0.06366618008124841
3605,0.061749540404418705,0.07535590860789615,0.044227595120638084,0.042310236327070226,0.09421821918071278,0.0635722999281472,P3:979,0.0635722999281472
1813,0.04399964574061924,0.06620371602143653,0.09413885064447262,0.054843493671715204,0.058525050737375205,0.06354215136312376,P5 gd:74,0.06354215136312376
2327,-0.038894915457708464,-0.031972323084132864,-0.13941577145676157,-0.01527751767329127,-0.08981903458594731,-0.0630759124515683,P5 gd:1667,0.0630759124515683
2471,-0.007165260000570976,-0.08664271346861026,-0.07791132509735073,-0.12824128886015138,-0.013283847620574041,-0.06264888700945147,P5 gd:1328,0.06264888700945147
2017,0.03708283385873332,0.0,0.020401781729634843,0.12504959902595403,0.1273742201227725,0.061981686947418936,P5 gd:370,0.061981686947418936
2078,0.02245671786544897,0.12113001315479252,0.0,0.09393176598076573,0.06848824809208329,0.06120134901861811,P5 gd:2179,0.06120134901861811
15673,-0.12029604799102306,-0.017636293135479267,-0.039769274946239164,-0.09370635634290155,-0.030227236442316056,-0.060327041771591816,MFI:488,0.060327041771591816
1543,0.02576957757889175,0.037190760571258905,0.0349973619992103,0.16145248144730562,0.04187069795307747,0.060256175909948806,P6 earlyB:82,0.060256175909948806
1932,0.08960477867136069,0.05935670485849026,0.047948034529338456,0.029696683246519067,0.07101953990011714,0.05952514824116513,P5 gd:538,0.05952514824116513
2369,0.11183049088773549,0.003363359891484767,0.0,0.026786552409070227,0.1547259268578583,0.05934126600922975,P5 gd:1512,0.05934126600922975
14751,-0.06538267042269456,-0.00793458005718969,-0.0522610186937932,-0.08010129129044415,-0.0884084896327246,-0.05881761001936925,P1:20030,0.05881761001936925
2204,-0.08138968459397002,-0.04760065494527518,-0.06877781799106752,-0.042514600327066325,-0.05102273732985794,-0.058261099037447396,P5 gd:1976,0.058261099037447396
15476,-0.03487241314803036,-0.1125357288894541,0.0,-0.08264700920706664,-0.06105776345725958,-0.05822258294036213,P1:10096,0.05822258294036213
10694,0.1266289334869521,0.036668576297246375,0.10126129222009664,0.023269282850079898,0.0,0.057565616970875,P1:9993,0.057565616970875
14387,-0.12318051452067665,-0.04491365520714621,0.0,-0.03717746602283048,-0.08224657619449945,-0.05750364238903055,P1:21080,0.05750364238903055
15951,0.0923601415104977,0.0,0.1944915718342398,0.0,0.0,0.05737034266894749,MFI:131,0.05737034266894749
3111,0.0,-0.054271565145538096,-0.12133491663387978,-0.07068049484922916,-0.03980184966289531,-0.05721776525830846,P4:5325,0.05721776525830846
2905,0.07002453051366028,0.1020715129040891,0.0,0.09169880679316736,0.017349396667595732,0.056228849375702494,P4:6239,0.056228849375702494
15700,0.008667339739247841,0.1107376820924502,0.031045678129929075,0.07516072753830368,0.05533734860653804,0.05618975522129377,MFI:457,0.05618975522129377
1680,-0.08477611086707033,0.0,-0.11322204972651895,0.0,-0.08239388514690431,-0.056078409148098717,P5 gd:95,0.056078409148098717
3807,0.06588420462598571,0.0,0.03827008997398579,0.09432917771743775,0.07990577370815749,0.05567784920511335,P3:8432,0.05567784920511335
7746,0.016838640322208824,0.0,0.05348613007726917,0.09020916177408157,0.10875154316903929,0.05385709506851977,P2:25498,0.05385709506851977
15162,0.0,-0.10972432465181688,-0.05723090219368591,-0.07579612694682843,-0.020418987409743166,-0.052634068240414875,P1:12212,0.052634068240414875
7488,-0.09629900160750225,0.0,-0.016791144905805997,-0.07694686256999873,-0.07050572755107429,-0.05210854732687625,P2:26004,0.05210854732687625
15959,0.06370264214185176,0.0,0.1958243443005857,0.0,0.0,0.05190539728848749,MFI:122,0.05190539728848749
4552,0.06385717065970281,0.07225606992180555,0.08298147295957108,0.0004326766302457557,0.03969980284234446,0.05184543860273394,P3:5906,0.05184543860273394
2256,-0.10782782351051261,0.0,-0.019523369595136855,-0.09911182138366163,-0.026704695289025686,-0.05063354195566736,P5 gd:1855,0.05063354195566736
2684,0.0,-0.03652486408119646,-0.0583055635643726,-0.04951438392048321,-0.10663041683950952,-0.05019504568111236,P5 CD8:42,0.05019504568111236
7434,0.0,0.10235475334164915,0.023185280873803414,0.05449424213267896,0.06710924816551025,0.049428704902728354,P2:26079,0.049428704902728354
12418,0.0,-0.04604056058050127,0.0,-0.1219920238514882,-0.07823603543985966,-0.04925372397436983,P1:3292,0.04925372397436983
3843,0.0711482011884,0.0,0.02911149524220721,0.07476830236868988,0.0708086852377341,0.04916733680740624,P3:8354,0.04916733680740624
1866,-0.02988070058551662,-0.02574761820099124,-0.14489095619057088,-0.044219306702177864,0.0,-0.04894771633585132,P5 gd:66,0.04894771633585132
6155,-0.020632989567789747,-0.04071143709228883,-0.07002946144427574,-0.029810629772153933,-0.08265424152688212,-0.04876775188067808,P2:876,0.04876775188067808
15547,-0.15052285735327348,-0.016898415515152792,0.0,0.0,-0.07637437275879576,-0.0487591291254444,MFI:662,0.0487591291254444
1922,-0.024739221445248503,0.0,0.0,-0.12191746055461974,-0.09602876744973982,-0.048537089889921614,P5 gd:553,0.048537089889921614
3401,-0.0718619640820204,-0.05450049789567267,-0.026133343718754632,-0.05068179572958651,-0.03930903398043169,-0.04849732708129319,P4:3728,0.04849732708129319
1945,0.10216527642910177,0.0212679062945802,0.03412969409930088,0.058904440139213025,0.02448213458178039,0.04818989030879525,P5 gd:515,0.04818989030879525
6245,-0.06253673589468678,0.0,0.0,-0.09543820138770845,-0.08254628407880085,-0.048104244272239215,P2:8556,0.048104244272239215
15801,0.017564904067453695,0.06778920219313338,0.08431331215791468,0.04138771728894104,0.026970480391490807,0.047605123219786716,MFI:282,0.047605123219786716
2581,0.07455371625418039,0.05983557632501802,0.0,0.08052096499692567,0.021971307474037343,0.047376313010032284,P5 NKT:99,0.047376313010032284
1575,0.03127651796598865,0.015980272292306336,0.1194640413006512,0.06614060389037012,0.002003940633175132,0.04697307521649829,P6 earlyB:4,0.04697307521649829
1898,0.025861049676434305,0.0,0.0,0.11432307649847213,0.09377470268751145,0.046791765772483576,P5 gd:605,0.046791765772483576
11119,0.025567100203716456,0.07807121118197582,0.023180975777789853,0.0,0.10676802288227356,0.04671746200915113,P1:8703,0.04671746200915113
15489,-0.04173526568291651,-0.08844062787147466,0.0,-0.0020609592701748025,-0.10050973915001676,-0.04654931839491655,P1:10012,0.04654931839491655
15395,0.0,-0.07003118102262279,0.0,-0.11994825716584102,-0.04185412661314552,-0.04636671296032187,P1:10564,0.04636671296032187
1883,0.06307096400779885,0.14884427273547607,0.019808690042691368,0.0,0.0,0.04634478535719326,P5 gd:633,0.04634478535719326
16017,0.0,-0.09963216628270492,-0.04102179181108981,0.0,-0.09046730835512594,-0.046224253289784134,Lin:17,0.046224253289784134
15310,0.0,-0.03101481838161702,0.0,-0.10790864159091841,-0.08758659076610031,-0.045302010147727154,P1:1109,0.045302010147727154
9854,-0.050393912552783915,-0.10390600206558435,-0.032953037096755726,0.0,-0.03546759890583239,-0.04454411012419128,P2:20410,0.04454411012419128
3080,0.09445757248772672,0.0,0.06690484647590965,0.060444213582468626,0.0,0.044361326509221,P4:5521,0.044361326509221
1936,-0.01847693607082891,-0.06876566119100115,0.0,-0.11224703977847347,-0.022194511879534907,-0.04433682978396769,P5 gd:53,0.04433682978396769
15324,-0.07262388607903741,-0.026089643181674865,-0.02804677622631668,-0.05520932927937031,-0.035491638053227484,-0.043492254563925345,P1:11050,0.043492254563925345
3740,0.07670531343686326,0.0,0.038937408331644045,0.07731359868787648,0.02230786019023167,0.04305283612932309,P3:8587,0.04305283612932309
2264,0.10934368218951462,0.028496695635992025,0.07190363658253053,0.0,0.005495208815981628,0.04304784464480376,P5 gd:1846,0.04304784464480376
269,-0.09129319188986576,0.0,-0.008622667643126903,-0.05738856369781658,-0.05697184913057636,-0.042855254472277116,P7 Mono:91,0.042855254472277116
209,0.025467649682138282,0.0,0.07792296589397954,0.09883641222679546,0.0077247753919733346,0.04199036063897733,P7:110,0.04199036063897733
15437,-0.02751224888028594,-0.030378673310268993,-0.06257321356617875,-0.055613738865177544,-0.03356583924049845,-0.04192874277248193,P1:10294,0.04192874277248193
3069,-0.06044706462709904,-0.05265577762619775,-0.08483648572330386,-0.011335784321429388,0.0,-0.041855022459606005,P4:5532,0.041855022459606005
2666,-0.08324284561917034,-0.06326664311675595,-0.024247631577160214,-0.030527374422788446,-0.006627566625974208,-0.04158241227236983,P5 CD8:63,0.04158241227236983
1974,0.021969446896506116,0.0343993251909474,0.039441082138916596,0.026830538737199646,0.08511614083699892,0.04155130676011374,P5 gd:457,0.04155130676011374
1250,-0.06283076395414491,0.0,0.0,-0.07180757825300013,-0.07181745728964122,-0.041291159899357256,P7 Mono:2087,0.041291159899357256
2587,-0.040164837973197184,-0.07763024590594372,-0.02723337002211291,-0.010782944881837458,-0.04498860561802052,-0.040160000880222355,P5 NKT:92,0.040160000880222355
10750,-0.044458995354338594,-0.11069711690294837,0.0,0.0,-0.04423272115662185,-0.039877766682781764,P1:9859,0.039877766682781764
15491,0.0,0.07669864039517148,0.12209587356892632,0.0,0.0,0.03975890279281956,MFI:98,0.03975890279281956
10814,-0.05576417426978825,-0.0716819409286875,0.0,-0.027155253166696175,-0.04173440960886225,-0.039267155594806834,P1:9627,0.039267155594806834
2268,-0.03674129236989445,-0.04521268622111602,-0.05919557166805627,0.0,-0.051682620999571466,-0.03856643425172764,P5 gd:1832,0.03856643425172764
1927,0.10787759401265833,0.04468666830197798,0.0,0.020933200302602033,0.0189654705384846,0.03849258663114459,P5 gd:548,0.03849258663114459
15183,0.0,-0.12816418478199632,0.0,-0.06045622984736934,-0.0032499247761560903,-0.038374067881104354,P1:11989,0.038374067881104354
14356,-0.021829509542592215,-0.0672241043296326,-0.0639959399064802,0.0,-0.038633880296714204,-0.03833668681508384,P1:2114,0.03833668681508384
3601,0.04374146352882089,0.0622283398905429,0.018394487708617274,0.032913168029829236,0.032204148373711786,0.03789632150630442,P3:985,0.03789632150630442
11366,-0.08296169010324632,-0.037106405835398704,0.0,-0.009136719170688751,-0.058799865409576685,-0.03760093610378209,P1:7771,0.03760093610378209
2329,-0.015135555316989405,0.0,-0.10302690264682911,0.0,-0.0696216215768256,-0.03755681590812882,P5 gd:1658,0.03755681590812882
8492,-0.07382012557723082,0.0,-0.027934840957696373,-0.021031683856152367,-0.06437752290217598,-0.037432834658651104,P2:23913,0.037432834658651104
6328,-0.04360069544072275,0.0,0.0,-0.046364345146120214,-0.09499107541318945,-0.03699122320000649,P2:8313,0.03699122320000649
1834,0.04433408713870987,0.0,0.09124907884845429,0.025306752255990463,0.023307660800230636,0.03683951580867705,P5 gd:706,0.03683951580867705
2533,0.05261725429747006,0.07127906861605776,0.0601956986216509,0.0,0.0,0.03681840430703574,P5 gd:1190,0.03681840430703574
3149,-0.07070769095320088,-0.0006848411643245195,0.0,-0.09058757177842786,-0.0212391946119244,-0.03664385970157553,P4:4838,0.03664385970157553
15332,-0.041115058229543706,-0.02102567734993896,-0.08720256189325502,-0.020673544226011215,-0.012665339816135218,-0.03653643630297683,P1:11023,0.03653643630297683
2633,-0.06385119396663062,-0.06059487618575894,-0.05785816547228524,0.0,0.0,-0.036460847124934956,P5 CD8:99,0.036460847124934956
1566,-0.07850409651425852,-0.009750221174850042,-0.007913303450450744,-0.021677504916914777,-0.06375863585101336,-0.03632075238149749,P6 earlyB:52,0.03632075238149749
2689,0.0,-0.06884640645645498,-0.04838895935323826,0.0,-0.0633536037843068,-0.036117793918800004,P5 CD8:35,0.036117793918800004
9987,0.0,-0.01280390806246876,-0.030328328716314877,-0.06598345830626863,-0.07125613615419087,-0.03607436624784863,P2:154,0.03607436624784863
15992,0.0,0.14789372165277187,0.0,0.0,0.030740700621426052,0.03572688445483958,Lin:40,0.03572688445483958
15881,0.013051461019600231,0.07228641261881005,0.05780267911616514,0.0,0.03501217277037122,0.03563054510498933,MFI:205,0.03563054510498933
2770,-0.035318158231521714,-0.04063166236441901,0.0,-0.09115189293058494,-0.010292344518630802,-0.03547881160903129,P4:82,0.03547881160903129
12180,-0.07710436296383308,-0.046739662867497984,0.0,0.0,-0.05312162274052793,-0.03539312971437179,P1:44,0.03539312971437179
15989,0.03245798849157368,0.14332074183983756,0.0,0.0,0.0,0.035155746066282245,Lin:43,0.035155746066282245
2602,0.0,0.02462715279470048,0.09416923966132236,0.055420165308619256,0.0,0.03484331155292842,P5 NKT:73,0.03484331155292842
3157,0.03320136782412319,0.0,0.05162883980560012,0.06612225444919728,0.022778146546676935,0.034746121725119504,P4:4823,0.034746121725119504
10922,0.07382263854982912,0.021305870282856656,0.0,0.07628272684554523,0.0,0.034282247135646204,P1:9349,0.034282247135646204
7507,-0.01605004532696761,0.0,-0.04461504194063814,-0.06042249380591384,-0.049732196260654844,-0.034163955466834886,P2:25977,0.034163955466834886
3552,0.04124099535711069,0.07288413078912569,0.05655275348221608,0.0,0.0,0.03413557592569049,P4:3224,0.03413557592569049
15972,0.0,0.02795343937151017,0.10914212834685019,0.031723125338717274,0.0,0.03376373861141553,MFI:102,0.03376373861141553
15502,-0.06248939533023385,0.0,-0.06587286476121827,0.0,-0.039389804002874916,-0.03355041281886541,MFI:88,0.03355041281886541
4956,-0.011835610134195765,-0.10980305698741949,0.0,-0.0376479215093001,-0.007197659677937054,-0.03329684966177048,P3:4238,0.03329684966177048
1801,0.05640767306228173,0.04991260966177612,0.0,0.013182425901485446,0.04674651973689403,0.03324984567248747,P5 gd:765,0.03324984567248747
15734,-0.1419152764009643,-0.018241923205009253,0.0,0.0,-0.005942262274248802,-0.03321989237604447,MFI:410,0.03321989237604447
14543,-0.0788944175599379,-0.06307792169717058,-0.006303178897670706,0.0,-0.01766162310375235,-0.03318742825170631,P1:20604,0.03318742825170631
1551,-0.0010818787542581836,0.0,-0.09700697380596265,-0.04380790409272929,-0.023360412960015387,-0.033051433922593104,P6 earlyB:72,0.033051433922593104
1746,0.0,-0.05384331780738195,0.0,-0.07228623185521912,-0.03868760050240189,-0.03296343003300059,P5 gd:84,0.03296343003300059
3696,0.044196408462160545,0.0,0.02654966214686075,0.06299105493932561,0.03047366230261473,0.03284215757019233,P3:8659,0.03284215757019233
3072,0.05884016965018698,0.00016085030627945805,0.0,0.06330538719497604,0.04127753158641242,0.03271678774757098,P4:5529,0.03271678774757098
2217,-0.04138129090674945,-0.06417308311976667,-0.0387760317715551,0.0,-0.01701458603540606,-0.03226899836669546,P5 gd:1949,0.03226899836669546
5008,-0.038969559375753055,-0.0370063479000637,-0.01243916572209158,-0.0706088022751721,0.0,-0.03180477505461608,P3:4100,0.03180477505461608
1889,0.021598057577635308,0.1339737806619459,0.0,0.0,0.0,0.031114367647916242,P5 gd:624,0.031114367647916242
211,-0.013141562520402975,0.0,-0.06292902322998542,-0.0793019835255699,0.0,-0.03107451385519166,P7:108,0.03107451385519166
3171,0.04548930217649182,0.0,0.04867038521225095,0.02986587354072626,0.03049201759387352,0.03090351570466851,P4:4597,0.03090351570466851
2530,-0.08001002216308256,0.0,-0.01794279992811007,-0.055859163414565614,0.0,-0.03076239710115165,P5 gd:1199,0.03076239710115165
1896,-0.03557302223932245,0.0,0.0,-0.05656641136554758,-0.061317871187677085,-0.030691460958509425,P5 gd:607,0.030691460958509425
9591,0.0,-0.023530795810967335,-0.060457546030307244,0.0,-0.06836864862093224,-0.03047139809244136,P2:21115,0.03047139809244136
2372,0.046547897365882676,0.01934973088364241,0.015457381048177432,0.0,0.07051282102675685,0.03037356606489187,P5 gd:1509,0.03037356606489187
1452,-0.002303222173789782,0.0,0.0,-0.0017492335610111828,-0.14618744173154882,-0.030047979493269955,P6:248,0.030047979493269955
1977,0.0,-0.06283049402600024,0.0,-0.07105748506675413,-0.0161688928262179,-0.030011374383794455,P5 gd:451,0.030011374383794455
2567,0.0,-0.04401536923426981,-0.02058193319104865,-0.053455885978462875,-0.031071762268645536,-0.029824990134485373,P5 gd:1094,0.029824990134485373
15069,0.0,-0.07653421717415047,-0.006813419195648928,-0.06522336921610813,0.0,-0.029714201117181503,P1:12696,0.029714201117181503
15803,0.0,0.057979558752580186,0.008085249168055144,0.059536758313854854,0.022605719324041956,0.029641457111706432,MFI:280,0.029641457111706432
6131,0.0,-0.12457933834916256,0.0,-0.021592706579059553,0.0,-0.029234408985644424,P2:8824,0.029234408985644424
2675,-0.06258209991786183,0.0,-0.08339428130804556,0.0,0.0,-0.02919527624518148,P5 CD8:53,0.02919527624518148
3172,0.0,-0.05525332859391261,-0.05377913857386631,-0.035199631588497135,0.0,-0.028846419751255216,P4:4566,0.028846419751255216
14593,0.0,-0.053595541054276975,-0.020429842831259336,-0.028778753319338,-0.03971426509857204,-0.028503680460689275,P1:20426,0.028503680460689275
70,0.047973562784036736,0.0,0.007469828921253981,0.08651176869053945,0.0,0.028391032079166035,P7:31,0.028391032079166035
3479,-0.033188555957013074,0.0,0.0,-0.0697049989946487,-0.03901102059915984,-0.02838091511016432,P4:3484,0.02838091511016432
2591,0.0,0.0,0.12444076616628272,0.01580474478629965,0.0,0.028049102190516473,P5 NKT:87,0.028049102190516473
15380,0.06366176271962333,0.0,0.0,0.0,0.07565853751791084,0.027864060047506835,P1:10737,0.027864060047506835
811,-0.05181022866231894,0.0,-0.02579128594632562,0.0,-0.061658092503055685,-0.027851921422340047,P7 Mono:4938,0.027851921422340047
676,-0.05703329883592362,0.0,0.0,0.0,-0.08209461154636595,-0.02782558207645791,P7 Mono:5608,0.02782558207645791
1942,0.021717436002910755,0.0,0.0,0.07472866631183113,0.042389209572567234,0.02776706237746182,P5 gd:521,0.02776706237746182
14685,0.0,0.0,-0.029097739359263918,-0.10934484092131411,0.0,-0.0276885160561156,P1:20192,0.0276885160561156
6019,0.0,-0.13752018208455372,0.0,0.0,0.0,-0.027504036416910745,P2:9176,0.027504036416910745
14014,-0.0038122252624890177,0.0,0.0,-0.07788460018656784,-0.05515169369238802,-0.027369703828288978,P1:22132,0.027369703828288978
13505,0.0,-0.001640126518156632,0.0,-0.037167566415313734,-0.09793326528041318,-0.027348191642776708,P1:23871,0.027348191642776708
1461,0.0,-0.0794895766133635,-0.05653449703683712,0.0,0.0,-0.027204814730040126,P6:232,0.027204814730040126
7577,0.0,0.066076220225247,0.04003307000143997,0.0,0.026301922977502144,0.026482242640837823,P2:25844,0.026482242640837823
7487,-0.04886972395717917,0.0,0.0,-0.04206756772386172,-0.04062011910169567,-0.02631148215654731,P2:26005,0.02631148215654731
15657,0.017461120997081636,0.0,0.0,0.11377928267942988,0.0,0.026248080735302305,MFI:511,0.026248080735302305
15021,0.0,-0.0630080289902706,-0.01802231158322067,-0.049575737711593945,0.0,-0.026121215657017038,P1:12933,0.026121215657017038
2252,-0.07885671563721543,0.0,-0.05165976086884871,0.0,0.0,-0.026103295301212824,P5 gd:1863,0.026103295301212824
1407,0.012015448274238002,0.048094060085207016,0.0,0.06999391231335107,0.0003810748943118281,0.026096899113421584,P6:35,0.026096899113421584
6069,0.0,-0.13019454143774573,0.0,0.0,0.0,-0.026038908287549144,P2:9051,0.026038908287549144
10106,0.04435453808529323,0.0,0.07625850629109793,0.0,0.009415488357614531,0.02600570654680114,P2:13324,0.02600570654680114
2686,-0.013579723109217689,-0.06879850641737206,-0.005835838840043825,0.0,-0.041742541827507224,-0.025991322038828157,P5 CD8:40,0.025991322038828157
1623,0.0,0.05031539571677472,0.020699472752134077,0.05351977705843408,0.004092503001782841,0.025725429705825142,P6 earlyB:165,0.025725429705825142
2236,0.0,0.0,-0.07103012812757929,0.0,-0.05519063000079606,-0.02524415162567507,P5 gd:1894,0.02524415162567507
984,0.009157679657551519,0.0,0.05849561575074643,0.058458125354558965,0.0,0.025222284152571384,P7 Mono:4178,0.025222284152571384
6666,0.010039955876130338,0.060020887553061994,0.0,0.05598775668365802,0.0,0.02520972002257007,P2:6412,0.02520972002257007
15778,-0.006612317442598492,-0.06161980402923804,0.0,-0.027200216296905798,-0.03047701274007574,-0.025181870101763613,MFI:311,0.025181870101763613
3153,0.05406274121411436,0.0,0.0,0.012020092286995755,0.059588900581223174,0.025134346816466657,P4:4832,0.025134346816466657
2457,0.0,-0.031901924714620965,0.0,-0.09006320734508673,-0.0034110662904676473,-0.025075239670035065,P5 gd:1356,0.025075239670035065
3087,0.0,-0.01623984379774491,-0.0455526808742327,-0.04152245666124823,-0.020410459552598622,-0.024745088177164892,P4:5481,0.024745088177164892
8255,0.0,0.0,-0.043744319905003305,0.0,-0.0789643064004762,-0.024541725261095902,P2:24485,0.024541725261095902
1636,0.0,0.0,0.000758031744350543,0.05999459408621536,0.06193993812460222,0.024538512791033622,P6 earlyB:130,0.024538512791033622
15019,0.0,-0.06696440922926884,0.0,-0.05473944031310481,0.0,-0.02434076990847473,P1:12942,0.02434076990847473
15922,0.0,0.0,0.08733044296674791,0.0,0.03347861897030326,0.024161812387410237,MFI:161,0.024161812387410237
7210,0.005695139570067969,0.0,0.09432850121835028,0.02068807369089906,0.0,0.02414234289586346,P2:2909,0.02414234289586346
4660,0.0,-0.03906086840584895,0.0,-0.0404425032294981,-0.04011500054164266,-0.02392367443539794,P3:5451,0.02392367443539794
14953,0.0,-0.016756385781902326,-0.00453224739671864,-0.03952360024408175,-0.058218595861556255,-0.023806165856851795,P1:1335,0.023806165856851795
2225,0.0,0.05606800403762577,0.06279334218661839,0.0,0.0,0.02377226924484883,P5 gd:1926,0.02377226924484883
8198,-0.0038427227047805237,-0.05686277577511031,0.0,0.0,-0.05745111510998411,-0.023631322717974988,P2:24666,0.023631322717974988
10459,-0.06734095762015073,-0.013715742867426982,-0.011607390244775166,-0.02462649111991414,0.0,-0.0234581163704534,P2:11445,0.0234581163704534
4703,0.0,0.01171952937083932,0.02228838890677862,0.06668172506393895,0.01641270726805018,0.023420470121921413,P3:5067,0.023420470121921413
2289,0.0,0.0,-0.04538440870009049,0.0,-0.06930345082871478,-0.022937571905761053,P5 gd:1786,0.022937571905761053
2781,0.035780898061502114,0.07769846929156037,0.0,0.0,0.0,0.022695873470612495,P4:66,0.022695873470612495
15443,-0.022726357670196564,0.0,-0.08307260650217763,-0.0073969469388067005,0.0,-0.022639182222236178,P1:10222,0.022639182222236178
5641,0.04587640723061772,0.0,0.037833011313131416,0.029478173214969414,0.0,0.02263751835174371,P3:1816,0.02263751835174371
5236,0.0,-0.04006592731284719,0.0,-0.05775438154348559,-0.01515098519273558,-0.022594258809813673,P3:348,0.022594258809813673
11349,-0.05078830608199238,0.0,-0.0056221233332051845,0.0,-0.0564709272281991,-0.022576271328679336,P1:7836,0.022576271328679336
15994,0.0,-0.10938696583090624,0.0,0.0,-0.0024802150300443984,-0.022373436172190127,Lin:39,0.022373436172190127
7153,0.0,-0.043421492926393364,-0.029595482704149984,0.0,-0.037468820050925875,-0.022097159136293846,P2:338,0.022097159136293846
1780,0.0165007533541336,0.054330112059173,0.02939802449448131,0.00035421577637841816,0.009422230691654031,0.022001067275164075,P5 gd:792,0.022001067275164075
10693,0.07018462850125796,0.0,0.02810733710423379,0.011580337836425647,0.0,0.02197446068838348,P1:9994,0.02197446068838348
5773,0.005830821913821513,0.0,0.019666404335498322,0.0,0.08405688840421117,0.021910822930706203,P2:9861,0.021910822930706203
12782,0.0,0.0,0.05111567126485965,0.0570855561737305,0.0,0.021640245487718028,P1:25832,0.021640245487718028
10646,0.0,0.0,0.0,0.07895621812762717,0.029154325226729418,0.021622108670871318,P2:10424,0.021622108670871318
2536,0.0,0.048407391919793305,0.0,0.0,0.059396141345309676,0.021560706653020595,P5 gd:1187,0.021560706653020595
5646,0.0,0.0,0.048845105063394206,0.05836959904752099,0.0,0.021442940822183038,P3:1798,0.021442940822183038
171,0.0,0.0,0.10719300022428671,0.0,0.0,0.021438600044857342,P7:155,0.021438600044857342
14597,0.0,-0.02608696606019494,-0.01849190554973579,-0.014968852097903525,-0.047277234662886886,-0.02136499167414423,P1:20420,0.02136499167414423
3564,0.0,0.034614637334578716,0.018680234328615784,0.053398850472598854,0.0,0.02133874442715867,P4:3143,0.02133874442715867
3478,-0.043147977845032146,-0.008398024753889715,-0.020211152650954228,-0.03461208954813415,0.0,-0.02127384895960205,P4:3485,0.02127384895960205
10394,0.0,-0.011543847749137772,-0.0668796646888533,0.0,-0.027564860064031988,-0.021197674500404613,P2:11881,0.021197674500404613
13895,0.0,-0.001182672500686312,-0.03768293990733617,-0.01362154662706495,-0.053468364259377885,-0.021191104658893064,P1:22455,0.021191104658893064
15990,-0.004738209687720218,-0.10046990791366404,0.0,0.0,0.0,-0.02104162352027685,Lin:42,0.02104162352027685
3066,-0.04204009916385076,0.0,0.0,-0.043527163198218685,-0.018741859007076422,-0.020861824273829172,P4:5535,0.020861824273829172
10454,-0.04695488156913547,-0.035586295249666944,0.0,-0.018140208380151648,-0.0030855270091040905,-0.02075338244161163,P2:11457,0.02075338244161163
15846,0.0,0.046811472555494615,0.031949597503939074,0.024897476443367653,0.0,0.02073170930056027,MFI:238,0.02073170930056027
10455,-0.08157011368632995,-0.008411559505475284,0.0,-0.013333840453718241,0.0,-0.020663102729104696,P2:11454,0.020663102729104696
2031,0.05092253062123545,0.018958530179903156,0.0,0.0,0.03303256132434015,0.02058272442509575,P5 gd:333,0.02058272442509575
11423,-0.03344259787022428,0.0,-0.015564584547139354,-0.04315544636155579,-0.01033011293771346,-0.020498548343326577,P1:7538,0.020498548343326577
7922,0.0,0.0560823085651342,0.0004092655786741287,0.0,0.044726275537102456,0.020243569936182156,P2:25246,0.020243569936182156
3168,0.0,0.0,0.014982163407931685,0.05108195258391717,0.03476110177454734,0.02016504355327924,P4:4668,0.02016504355327924
14598,0.0,-0.04693948845479074,-0.03365937270917108,0.0,-0.01871413318941482,-0.01986259887067533,P1:20417,0.01986259887067533
5962,-0.03707125141892234,0.0,0.0,-0.06195339370406396,0.0,-0.01980492902459726,P2:9310,0.01980492902459726
15955,0.023213177826596012,0.01739254215363967,0.0,0.0577885926199237,0.0,0.019678862520031877,MFI:127,0.019678862520031877
2543,0.0,0.0,-0.010592584043252747,-0.05743273423116958,-0.029927155218196076,-0.01959049469852368,P5 gd:1171,0.01959049469852368
2492,0.0,0.0,0.012229668698712408,0.05923880157795616,0.026277772116291453,0.019549248478592005,P5 gd:129,0.019549248478592005
5771,0.0,0.0,0.07497002584875707,0.022772361239514177,0.0,0.01954847741765425,P2:9864,0.01954847741765425
2392,0.012505543330724178,4.8079003223735133e-05,0.0,0.0325975633737675,0.05212657964298624,0.01945555307014033,P5 gd:1480,0.01945555307014033
15046,0.025094325233127775,0.0,0.0,0.036745578580072887,0.03535758534736142,0.019439497832112417,P1:12827,0.019439497832112417
1907,-0.047647050350317605,0.0,-0.04943574980859124,0.0,0.0,-0.019416560031781768,P5 gd:580,0.019416560031781768
4551,0.0376174754177133,0.013910283744230341,0.04535207091776873,0.0,0.0,0.019375966015942474,P3:5907,0.019375966015942474
14986,-0.01897768918462648,-0.03500759193941612,0.0,-0.04235471375250918,0.0,-0.019267998975310358,P1:13149,0.019267998975310358
6488,0.0,0.00686474534257023,0.02618329119228115,0.06290139986474332,0.0,0.019189887279918938,P2:7231,0.019189887279918938
2507,0.0337634391504398,0.010339133006198282,0.0,0.05080733792750329,0.0,0.018981982016828276,P5 gd:1262,0.018981982016828276
10458,-0.03533112654114061,-0.02631731645487372,0.0,-0.03230254151142438,0.0,-0.01879019690148774,P2:11448,0.01879019690148774
1638,-0.05213315422426716,0.0,0.0,-0.012000564557387676,-0.02912334324478911,-0.018651412405288788,P6 earlyB:128,0.018651412405288788
7709,-0.049255210295587507,0.0,-0.00457174482555262,-0.039309073091077944,0.0,-0.018627205642443613,P2:25541,0.018627205642443613
9028,0.0,0.0,0.0,0.043333940176282455,0.04967944965996208,0.018602677967248907,P2:22646,0.018602677967248907
2497,0.0,0.018734455790212268,0.0,0.07356081069544478,0.0,0.01845905329713141,P5 gd:128,0.01845905329713141
11650,0.0,-0.04721860404134976,0.0,0.0,-0.04476730880624561,-0.018397182569519076,P1:660,0.018397182569519076
7619,0.0,0.0,-0.00903067972728445,-0.04549618173925367,-0.037040541735620894,-0.0183134806404318,P2:25744,0.0183134806404318
6114,0.0,-0.0913859386344347,0.0,0.0,0.0,-0.01827718772688694,P2:8929,0.01827718772688694
15403,0.0,0.0,-0.0408116380271144,-0.04798061013900343,-0.0025794482435246967,-0.018274339281928505,P1:10536,0.018274339281928505
15494,-0.034004752951074704,0.0,0.0,0.0,-0.057137657635435865,-0.018228482117302113,MFI:95,0.018228482117302113
15983,0.06208825803751773,0.0,0.028762617666223164,0.0,0.0,0.01817017514074818,Lin:49,0.01817017514074818
1908,0.0,0.0,-0.04163681688556298,-0.04796688164613879,0.0,-0.017920739706340356,P5 gd:58,0.017920739706340356
1931,0.06968884902783863,0.00954935168130226,0.004227280768778132,0.005977929635098048,0.0,0.017888682222603418,P5 gd:542,0.017888682222603418
15518,0.0,0.042681149333571027,0.04597945348252706,0.0,0.0,0.017732120563219617,MFI:73,0.017732120563219617
14365,0.0,-0.029799950100190677,-0.05868297117057318,0.0,0.0,-0.017696584254152773,P1:2113,0.017696584254152773
173,0.0,0.0,-0.08831471069205797,0.0,0.0,-0.017662942138411596,P7:153,0.017662942138411596
3410,0.0,0.0,0.04642033646773742,0.04160188940866855,0.0,0.017604445175281196,P4:3712,0.017604445175281196
8256,0.0,0.0,-0.031006820523385267,0.0,-0.05649826337064704,-0.01750101677880646,P2:24484,0.01750101677880646
10700,0.012387092858578985,0.0,0.0,0.0,0.07511757635102435,0.01750093384192067,P1:9982,0.01750093384192067
15942,0.0,0.0,0.08747069567795092,0.0,0.0,0.017494139135590184,MFI:141,0.017494139135590184
10744,-0.016590710919169034,-0.0589892843550855,0.0,0.0,-0.011797687112699021,-0.01747553647739071,P1:9868,0.01747553647739071
10414,0.019619947598859325,0.029421173200712126,0.038225189715385605,0.0,0.0,0.01745326210299141,P2:11635,0.01745326210299141
13657,0.0,0.0,-0.07104775033921239,-0.01591079628101045,0.0,-0.017391709324044567,P1:23378,0.017391709324044567
7868,0.0,0.010731139537290857,0.03831193378542391,0.0,0.0378883127540876,0.017386277215360475,P2:25327,0.017386277215360475
674,-0.03581841408971669,0.0,0.0,-0.050266034526918996,0.0,-0.01721688972332714,P7 Mono:5614,0.01721688972332714
9077,0.0,0.04315086635417273,0.0,0.03664312137015711,0.006019025601295457,0.017162602665125058,P2:22526,0.017162602665125058
15828,0.0,0.05926990477120682,0.02653198365064741,0.0,0.0,0.017160377684370846,MFI:255,0.017160377684370846
3402,-0.04404410543595438,-0.02868205478712176,0.0,-0.006273671100928103,-0.006494514152555645,-0.017098869095311976,P4:3724,0.017098869095311976
13828,-0.03018074680168859,0.0,-0.04074701586225596,0.0,-0.014333782183757832,-0.017052308969540474,P1:22691,0.017052308969540474
6001,-0.030210086618519996,0.0,0.0,-0.044386709030351634,-0.010534531644443556,-0.017026265458663037,P2:9233,0.017026265458663037
15984,-0.04983530282432985,0.0,-0.03516484980672872,0.0,0.0,-0.017000030526211712,Lin:48,0.017000030526211712
11383,0.014496604172988804,0.000326348624083542,0.015232513463936786,0.05472190493006482,0.0,0.01695547423821479,P1:773,0.01695547423821479
15321,-0.04455355353776792,0.0,-0.0022645651262910675,-0.020553004271157537,-0.01713825319469492,-0.016901875225982292,P1:11056,0.016901875225982292
11369,-0.08044121883652643,-0.0033275103404967385,0.0,0.0,0.0,-0.01675374583540463,P1:7768,0.01675374583540463
578,0.011760373116769182,0.0,0.013784487176167107,0.0,0.05799677312245675,0.016708326683078607,P7 Mono:593,0.016708326683078607
15125,0.0,0.0,0.030723490191742742,0.005974779777922352,0.04675544639918887,0.01669074327377079,P1:12337,0.01669074327377079
2794,0.0,0.0,0.0,0.0,0.08330337863236799,0.016660675726473596,P4:6542,0.016660675726473596
1678,0.05810848548862846,0.0,0.0,0.025091519454732494,0.0,0.01664000098867219,P5 gd:954,0.01664000098867219
6419,0.0,0.01691183047304362,0.022147023047323272,0.0,0.042684223232371206,0.01634861535054762,P2:7661,0.01634861535054762
3105,0.0,0.00896201505855008,0.040396667778081215,0.0,0.03168984050766759,0.016209704668859775,P4:5373,0.016209704668859775
4502,0.028652812445523566,0.004018529298949936,0.0,0.0481157703794848,0.0,0.01615742242479166,P3:6010,0.01615742242479166
847,0.0,0.0,0.0,0.0,0.08056950674287354,0.016113901348574707,P7 Mono:4767,0.016113901348574707
1626,0.0,0.010660340399045868,0.0215829824576106,0.04650810976470863,0.0,0.01575028652427302,P6 earlyB:153,0.01575028652427302
8990,0.0,0.0,-0.06126838921277024,0.0,-0.016976155355308508,-0.01564890891361575,P2:227,0.01564890891361575
3147,0.0,-0.029923605781703163,0.0,-0.048007884042584915,0.0,-0.015586297964857615,P4:4847,0.015586297964857615
8279,0.0,-0.03566250516978732,0.0,0.0,-0.041648145302852185,-0.0154621300945279,P2:24431,0.0154621300945279
2435,0.015131811134493352,0.0,0.0,0.043957618509372444,0.01804373899311027,0.015426633727395212,P5 gd:1408,0.015426633727395212
217,0.003992208704935523,0.0,0.015686230741094098,0.05735064380750453,0.0,0.01540581665070683,P7 Mono:999,0.01540581665070683
14816,0.0,0.0,-0.07631487870134775,0.0,0.0,-0.015262975740269549,P1:1873,0.015262975740269549
10506,0.0,0.0,-0.06903273197087395,-0.006667196444884761,0.0,-0.015139985683151742,P2:11170,0.015139985683151742
8191,0.0,0.030835230696486412,0.0,0.04484474213192898,0.0,0.015135994565683078,P2:24682,0.015135994565683078
15627,0.019987913108030178,0.0,0.011190461482717755,0.043810973625118474,0.0,0.01499786964317328,MFI:556,0.01499786964317328
1951,-0.03751655295509819,0.0,-0.0373800450851123,0.0,0.0,-0.014979319608042097,P5 gd:499,0.014979319608042097
1245,0.00040484146015076067,0.0,0.0,0.07430610232035167,0.0,0.014942188756100486,P7 Mono:2113,0.014942188756100486
13595,-0.023577070517273046,0.0,0.0,-0.02987096651796623,-0.020826617383142683,-0.014854930883676393,P1:23547,0.014854930883676393
1782,0.0,0.07421309181671641,0.0,0.0,0.0,0.014842618363343283,P5 gd:789,0.014842618363343283
2663,0.0,0.0,-0.019328107631277392,-0.054810426827286485,0.0,-0.014827706891712774,P5 CD8:66,0.014827706891712774
8558,-0.0645674275700564,0.0,0.0,-0.009373124717775516,0.0,-0.014788110457566384,P2:2378,0.014788110457566384
15392,0.0,-0.00017799102098871257,0.0,-0.069952858829049,-0.0035359410177287025,-0.014733358173553285,P1:10573,0.014733358173553285
10818,-0.03617582551818141,-0.020895799446043233,0.0,0.0,-0.016265830622050483,-0.014667491117255026,P1:9619,0.014667491117255026
6112,0.0,-0.0732029668528875,0.0,0.0,0.0,-0.014640593370577501,P2:8934,0.014640593370577501
15325,-0.07306472590469237,0.0,0.0,0.0,0.0,-0.014612945180938475,P1:11049,0.014612945180938475
10422,-0.04470460326429418,-0.013812740573448829,0.0,0.0,-0.014054390788095771,-0.014514346925167756,P2:11555,0.014514346925167756
6070,0.0,0.0301405015033409,0.003835967943981556,0.03801648876168619,0.0,0.014398591641801729,P2:905,0.014398591641801729
5796,0.0,-0.03749565140615269,0.0,-0.018996383019622934,-0.01542695478666293,-0.014383797842487712,P2:9807,0.014383797842487712
14388,-0.04876634947129095,0.0,0.0,0.0,-0.023142717919009768,-0.014381813478060144,P1:21079,0.014381813478060144
15823,0.0,0.03882914719725493,0.03290243241651742,0.0,0.0,0.014346315922754472,MFI:26,0.014346315922754472
1565,-0.04106512778322609,0.0,0.0,0.0,-0.030622804577169142,-0.014337586472079045,P6 earlyB:55,0.014337586472079045
15868,0.0,0.06888427522245598,0.0026894269521463027,0.0,0.0,0.014314740434920457,MFI:217,0.014314740434920457
4505,0.031033122573063596,0.0,0.0,0.04050125164066945,0.0,0.01430687484274661,P3:6007,0.01430687484274661
7219,0.0,0.0,0.0,0.0,0.07146406490587202,0.014292812981174404,P2:289,0.014292812981174404
4925,-0.0281078114168349,-0.04327918251353535,0.0,0.0,0.0,-0.01427739878607405,P3:4319,0.01427739878607405
945,0.0,0.0006728691157737181,0.0,0.07031159693602744,0.0,0.014196893210360231,P7 Mono:4272,0.014196893210360231
7583,0.0,0.0,-0.006363454808700277,-0.06405634884379612,0.0,-0.014083960730499279,P2:25836,0.014083960730499279
1679,0.06606255121796678,0.0,0.0,0.004142870662403218,0.0,0.014041084376074,P5 gd:953,0.014041084376074
15156,0.0,-0.0432116039906735,0.0,0.0,-0.026951015219429685,-0.014032523842020639,P1:12229,0.014032523842020639
2716,0.0,0.0,0.04824455303029261,0.0,0.02190874632720569,0.01403065987149966,P5 CD8:224,0.01403065987149966
1595,0.0,0.026003776309368464,0.04413295142408097,0.0,0.0,0.014027345546689888,P6 earlyB:234,0.014027345546689888
9164,0.013203343641554946,0.04266232715388337,0.0,0.0,0.014154527274145894,0.01400403961391684,P2:22155,0.01400403961391684
13977,-0.03356447839893122,0.0,0.0,0.0,-0.035958060713762556,-0.013904507822538756,P1:22214,0.013904507822538756
15032,0.06951673829442644,0.0,0.0,0.0,0.0,0.013903347658885287,P1:12855,0.013903347658885287
15850,0.0,0.03290808459722084,0.020100519092294728,0.016372642258200926,0.0,0.0138762491895433,MFI:234,0.0138762491895433
5973,0.0,0.0,0.0,-0.0691061268650143,0.0,-0.01382122537300286,P2:9297,0.01382122537300286
2000,0.009369139881869545,0.0,0.014537820982281138,0.042137478697757684,0.002673048330018823,0.013743497578385439,P5 gd:403,0.013743497578385439
14608,-0.03707001091710822,-0.03112514480043515,0.0,0.0,0.0,-0.013639031143508673,P1:20393,0.013639031143508673
9157,0.0,0.0,0.0,-0.04494433655275486,-0.023216253675947138,-0.0136321180457404,P2:222,0.0136321180457404
15386,0.0,0.0,0.0,0.0678653960122932,0.0,0.01357307920245864,P1:10697,0.01357307920245864
230,0.017980715048182355,0.0022991514252200256,0.0,0.047390419223268775,0.0,0.013534057139334232,P7 Mono:975,0.013534057139334232
12427,0.0,0.0,0.0,-0.0675435596502683,0.0,-0.01350871193005366,P1:3238,0.01350871193005366
12430,0.0,0.0,-0.028335429617653507,0.0,-0.039178037696094174,-0.013502693462749538,P1:3213,0.013502693462749538
15708,0.06721195469481399,0.0,0.0,0.0,0.0,0.013442390938962798,MFI:435,0.013442390938962798
5965,0.0,0.0,0.0,-0.06637299855821188,0.0,-0.013274599711642377,P2:9307,0.013274599711642377
15320,-0.045559045414574284,0.0,-0.008057138475996829,-0.012694841975800689,0.0,-0.013262205173274361,P1:11059,0.013262205173274361
15949,0.0,-0.021516736485314648,-0.04470034949155366,0.0,0.0,-0.01324341719537366,MFI:134,0.01324341719537366
2542,0.0,-0.020834261798194576,0.0,0.0,-0.045361349363915,-0.013239122232421916,P5 gd:1174,0.013239122232421916
15388,-0.05642278420740154,0.0,0.0,-0.009394927229418638,0.0,-0.013163542287364036,P1:1063,0.013163542287364036
15830,0.0,0.011739150819953137,0.01761639048989672,0.0,0.03623513851742609,0.013118135965455188,MFI:253,0.013118135965455188
15037,0.06545798423571807,0.0,0.0,0.0,0.0,0.013091596847143613,P1:12846,0.013091596847143613
3115,-0.04776787216573831,0.0,0.0,-0.0018164672246095389,-0.01582287581466114,-0.013081443041001797,P4:53,0.013081443041001797
15257,0.02869414368862969,0.0,0.0,0.03655700622444851,0.0,0.013050229982615642,P1:11528,0.013050229982615642
1471,0.0,0.05303717242832506,0.0,0.011946728473491108,0.0,0.012996780180363234,P6:219,0.012996780180363234
11302,0.03745858503385772,4.332172084071522e-05,0.015432492581528753,0.012002935067541541,0.0,0.012987466880753746,P1:8011,0.012987466880753746
15519,0.0,0.0,0.0,0.0,0.06450659794095569,0.012901319588191138,MFI:72,0.012901319588191138
2200,0.0,0.0,-0.01783266893431566,-0.045968772374385784,0.0,-0.012760288261740287,P5 gd:1982,0.012760288261740287
7823,0.0,0.0,0.0,0.06363723559041469,0.0,0.012727447118082939,P2:25390,0.012727447118082939
1019,0.04436382442405353,0.005409664040800288,0.0,0.0,0.013155300106019539,0.012585757714174672,P7 Mono:4037,0.012585757714174672
6352,0.0,0.0,0.0,-0.035599211888039654,-0.02710938554215419,-0.012541719486038768,P2:8255,0.012541719486038768
8591,-0.06246756739058085,0.0,0.0,0.0,0.0,-0.01249351347811617,P2:2369,0.01249351347811617
15253,0.024302753461896174,0.0,0.0,0.0380906923481322,0.0,0.012478689162005674,P1:11537,0.012478689162005674
1983,0.0,-0.0620955195288183,0.0,0.0,0.0,-0.012419103905763661,P5 gd:441,0.012419103905763661
15634,0.0,0.0,0.0,0.061973719482073295,0.0,0.01239474389641466,MFI:546,0.01239474389641466
2688,-0.018704725580761743,-0.01036289383670499,0.0,0.0,-0.03288806494993807,-0.01239113687348096,P5 CD8:39,0.01239113687348096
14313,-0.01473783635134755,-0.02604859530066025,0.0,0.0,-0.02069085057650768,-0.012295456445703096,P1:21323,0.012295456445703096
49,0.0,0.0,0.0,0.061421318988912364,0.0,0.012284263797782472,P7:51,0.012284263797782472
59,0.0,0.0,0.06135976896954255,0.0,0.0,0.01227195379390851,P7:42,0.01227195379390851
8130,0.0,0.0,0.010849078307611327,0.01902792916388849,0.03075129381224615,0.012125660256749193,P2:24782,0.012125660256749193
15074,0.0,-0.008180099876334944,-0.029513170010774723,-0.022586466172658755,0.0,-0.012055947211953685,P1:12659,0.012055947211953685
3563,0.0,0.0,0.0,0.060264628898510815,0.0,0.012052925779702163,P4:3144,0.012052925779702163
10775,0.0,-0.06014425999960112,0.0,0.0,0.0,-0.012028851999920225,P1:9786,0.012028851999920225
3081,0.0,0.0,0.0,0.05960118898078622,0.0,0.011920237796157244,P4:5520,0.011920237796157244
12484,0.0,0.0,0.0,0.05898922040603963,0.0,0.011797844081207926,P1:3028,0.011797844081207926
2531,0.0,0.0,-0.020371648827459603,-0.03860339145175408,0.0,-0.011795008055842738,P5 gd:1198,0.011795008055842738
10641,-0.009064182264291178,0.0,-0.01137501401756887,0.0,-0.038460070639850685,-0.011779853384342147,P2:10454,0.011779853384342147
12476,0.0,0.0,0.0,0.05881377234337623,0.0,0.011762754468675246,P1:3054,0.011762754468675246
3459,0.0,0.0,0.0,-0.05859761025297033,0.0,-0.011719522050594065,P4:3556,0.011719522050594065
5964,-0.011961073905512973,0.0,0.0,-0.04661742354806491,0.0,-0.011715699490715577,P2:9309,0.011715699490715577
3805,0.013374096943713975,0.0,0.0,0.028071913051484144,0.017092999128302824,0.011707801824700189,P3:8435,0.011707801824700189
12975,0.03984075142013446,0.01851207191881759,0.0,0.0,0.0,0.011670564667790411,P1:25402,0.011670564667790411
4014,0.02836952565379409,0.0,0.0,0.029959692153925625,0.0,0.011665843561543942,P3:7900,0.011665843561543942
213,0.0,-0.025211393166997713,0.0,-0.032736026369859006,0.0,-0.011589483907371344,P7:105,0.011589483907371344
15797,0.0,0.057908071462271934,0.0,0.0,0.0,0.011581614292454388,MFI:286,0.011581614292454388
1958,0.0,0.0,0.02926587979049238,0.0,0.02856040926931881,0.011565257811962238,P5 gd:484,0.011565257811962238
7220,0.0,0.0,0.057721787098089526,0.0,0.0,0.011544357419617905,P2:2886,0.011544357419617905
3375,-0.00921506952342145,0.0,0.0,-0.04836982670938394,0.0,-0.011516979246561077,P4:3799,0.011516979246561077
4602,0.0,0.0,0.0,0.0,-0.057508175816629266,-0.011501635163325852,P3:5693,0.011501635163325852
14773,-0.0040869248018873,0.0,-0.05305067878769453,0.0,0.0,-0.011427520717916365,P1:19981,0.011427520717916365
3007,-0.007187714679734823,-0.005070319826949771,0.0,0.0,-0.04457886152649873,-0.011367379206636666,P4:5769,0.011367379206636666
2664,0.0,0.0,-0.04136813824843976,0.0,-0.015360802780784007,-0.011345788205844753,P5 CD8:65,0.011345788205844753
11422,-0.020811038374626906,0.0,-0.009327643932236333,0.0,-0.02615193174188019,-0.011258122809748685,P1:7539,0.011258122809748685
2736,0.0,0.0,0.02713589111966635,0.0,0.028212292036217078,0.011069636631176685,P5 CD8:147,0.011069636631176685
15659,0.0,0.0,0.0,0.055202054967606586,0.0,0.011040410993521318,MFI:508,0.011040410993521318
12478,0.0,0.0,0.0,0.05508642556754749,0.0,0.011017285113509499,P1:3051,0.011017285113509499
10726,-0.024553913956404324,0.0,0.0,0.0,-0.030510740448472608,-0.011012930880975385,P1:993,0.011012930880975385
7582,0.0,0.0,0.0,-0.05485869598269785,0.0,-0.01097173919653957,P2:25837,0.01097173919653957
14686,0.0,0.0,-0.032582335809138004,-0.022017530013047685,0.0,-0.010919973164437139,P1:20191,0.010919973164437139
15772,0.030713258773954085,0.023868736312439964,0.0,0.0,0.0,0.01091639901727881,MFI:323,0.01091639901727881
9029,0.0,0.0,0.0046521526334584225,0.021044724909657395,0.028562108463769297,0.010851797201377023,P2:22643,0.010851797201377023
5012,-0.015709885874807178,-0.004525896341767357,0.0,-0.03362326220938848,0.0,-0.010771808885192604,P3:4092,0.010771808885192604
1466,-0.0018702278615251396,0.0,0.0,-0.05184050348792978,0.0,-0.010742146269890984,P6:227,0.010742146269890984
3145,0.0,0.0,0.002309655549318613,0.05139027776571606,0.0,0.010739986663006934,P4:4903,0.010739986663006934
14985,0.0,0.0,0.04583964326503726,0.0,0.007811244953049806,0.010730177643617413,P1:13150,0.010730177643617413
12024,0.0,-0.05361270233468108,0.0,0.0,0.0,-0.010722540466936216,P1:507,0.010722540466936216
11424,-0.028183728495804035,0.0,0.0,-0.005082283684851887,-0.020261000482325205,-0.010705402532596225,P1:7534,0.010705402532596225
15121,0.018422824830874575,0.0,0.02399731533213548,0.008213250057013321,0.0028399737877543275,0.010694672801555543,P1:12355,0.010694672801555543
8354,-0.0321698717673861,0.0,-0.021285921188450317,0.0,0.0,-0.010691158591167284,P2:24147,0.010691158591167284
7652,0.0,0.0,0.053354533874576164,0.0,0.0,0.010670906774915234,P2:25659,0.010670906774915234
4613,0.03902141307447782,0.0,0.014161913219608344,0.0,0.0,0.010636665258817232,P3:5664,0.010636665258817232
1965,0.0,-0.05297748774787032,0.0,0.0,0.0,-0.010595497549574064,P5 gd:472,0.010595497549574064
817,-0.0477394044838934,0.0,0.0,0.0,-0.004734898727808394,-0.010494860642340358,P7 Mono:4911,0.010494860642340358
3986,0.015280268350666508,0.0,0.0,0.0369886309295771,0.0,0.010453779856048721,P3:7978,0.010453779856048721
15996,0.0,0.0,0.030045131295910178,0.021810432110358848,0.0,0.010371112681253805,Lin:37,0.010371112681253805
4557,0.0,0.026156434623366625,0.01657673195238803,0.0,0.009060617273531671,0.010358756769857265,P3:5896,0.010358756769857265
9857,0.0,0.0,0.0,0.0,0.05177466964698476,0.010354933929396952,P2:20352,0.010354933929396952
11365,-0.026712858439428944,0.0,0.0,0.0,-0.024887090562045286,-0.010319989800294846,P1:7773,0.010319989800294846
2247,0.03585778210290422,0.015601191280084388,0.0,0.0,0.0,0.01029179467659772,P5 gd:1873,0.01029179467659772
12007,0.0,-0.03886589577062542,0.0,-0.01247543008985157,0.0,-0.010268265172095397,P1:52,0.010268265172095397
2085,0.0,0.02738682960021662,0.0,0.02364735825752346,0.0,0.010206837571548017,P5 gd:2172,0.010206837571548017
993,0.0,0.0,-0.021256566267628174,0.0,-0.029533279676977584,-0.01015796918892115,P7 Mono:4160,0.01015796918892115
15512,0.0,-0.035009657267354125,-0.015422576539324368,0.0,0.0,-0.010086446761335698,MFI:79,0.010086446761335698
6947,-0.05016364307101196,0.0,0.0,0.0,0.0,-0.010032728614202392,P2:4462,0.010032728614202392
4511,0.025950419907753524,0.002688696222527405,0.0,0.021092624263911824,0.0,0.009946348078838551,P3:6001,0.009946348078838551
7705,-0.022994300008331033,0.0,0.0,-0.026472327148065904,0.0,-0.009893325431279387,P2:25547,0.009893325431279387
15100,0.0,0.0,0.0,0.04922344735729753,0.0,0.009844689471459505,P1:12521,0.009844689471459505
15670,0.0,-0.017072028104596616,0.0,-0.032093836256409644,0.0,-0.009833172872201252,MFI:491,0.009833172872201252
2529,0.0,-0.010320662233921064,0.0,0.0,-0.03877104595662237,-0.009818341638108687,P5 gd:1202,0.009818341638108687
15969,0.04897046962420906,0.0,0.0,0.0,0.0,0.009794093924841813,MFI:105,0.009794093924841813
2199,0.0,-0.005595899785203537,-0.013733034310613963,-0.02958276999018364,0.0,-0.009782340817200228,P5 gd:1983,0.009782340817200228
5374,0.0,0.0,0.0,0.0,-0.048780018604067124,-0.009756003720813426,P3:30,0.009756003720813426
745,0.0,0.0,-0.04213576694962907,0.0,-0.00657551281258202,-0.009742255952442217,P7 Mono:5154,0.009742255952442217
15127,0.0,0.0,0.0,-0.04870159706574988,0.0,-0.009740319413149975,P1:1233,0.009740319413149975
481,0.0,0.0,0.0,-0.04861525264409786,0.0,-0.009723050528819572,P7 Mono:6322,0.009723050528819572
2182,0.01495301423139189,0.0,0.0,0.0335890261745791,0.0,0.009708408081194199,P5 gd:201,0.009708408081194199
1686,0.0,0.0,0.03370569104953518,0.0,0.014830198217495883,0.009707177853406213,P5 gd:937,0.009707177853406213
9957,-0.039830871736753024,0.0,0.0,-0.008622666913415206,0.0,-0.009690707730033646,P2:1657,0.009690707730033646
15049,0.0,0.0,0.0,0.048272261932234994,0.0,0.009654452386446999,P1:12818,0.009654452386446999
15716,0.0,-0.03579871357308298,-0.01231243383648585,0.0,0.0,-0.009622229481913765,MFI:428,0.009622229481913765
1213,0.0,0.0,0.0,0.04797120555348515,0.0,0.00959424111069703,P7 Mono:224,0.00959424111069703
3119,0.0,0.0,0.0,-0.04787980411138044,0.0,-0.009575960822276087,P4:5292,0.009575960822276087
15592,0.029537036811208672,0.0,0.018278012661855872,0.0,0.0,0.009563009894612909,MFI:61,0.009563009894612909
944,0.0,0.015287074852174173,0.0,0.032439821792257566,0.0,0.009545379328886347,P7 Mono:4275,0.009545379328886347
11428,0.0,0.0,0.0,-0.02196320067351548,-0.025680858742547916,-0.009528811883212678,P1:7520,0.009528811883212678
6386,0.0,0.0,0.0,-0.031053657114761705,-0.016448900161856232,-0.009500511455323588,P2:8012,0.009500511455323588
12771,0.0,0.012667861636559617,0.0,0.03448015244655176,0.0,0.009429602816622275,P1:25850,0.009429602816622275
8938,0.0,0.04711225198096079,0.0,0.0,0.0,0.009422450396192158,P2:22885,0.009422450396192158
8677,-0.04693983330732525,0.0,0.0,0.0,0.0,-0.00938796666146505,P2:2342,0.00938796666146505
9593,0.0,-0.04659181298750824,0.0,0.0,0.0,-0.009318362597501647,P2:21112,0.009318362597501647
1384,0.0,-0.03132971576689591,-0.015106722932309895,0.0,0.0,-0.00928728773984116,P6:57,0.00928728773984116
15329,-0.004072520899456548,0.0,-0.04226289269805968,0.0,0.0,-0.009267082719503246,P1:11032,0.009267082719503246
14615,-0.016643739629002476,0.0,0.0,-0.014075204136809556,-0.015467628482552797,-0.009237314449672965,P1:20380,0.009237314449672965
14570,0.0,0.0,0.04606257424882041,0.0,0.0,0.009212514849764082,P1:20505,0.009212514849764082
15639,0.0,-0.034599632805366785,0.0,0.0,-0.01115815816989323,-0.009151558195052003,MFI:537,0.009151558195052003
10759,0.0,-0.04574819645131909,0.0,0.0,0.0,-0.009149639290263818,P1:9841,0.009149639290263818
2532,-0.04564677874747324,0.0,0.0,0.0,0.0,-0.009129355749494649,P5 gd:1196,0.009129355749494649
3511,0.0,0.0,0.0,0.045295771425497504,0.0,0.009059154285099501,P4:3383,0.009059154285099501
205,0.0,0.0,-0.044784321171441814,0.0,0.0,-0.008956864234288363,P7:115,0.008956864234288363
10699,0.0,0.0,0.044765754115204046,0.0,0.0,0.008953150823040809,P1:9984,0.008953150823040809
9590,0.0,0.0,-0.03175532063820971,0.0,-0.012989920612482955,-0.008949048250138533,P2:21116,0.008949048250138533
477,0.0,0.0,0.0,0.0,-0.044724760604804126,-0.008944952120960825,P7 Mono:6332,0.008944952120960825
14590,0.0,0.0,0.0,-0.033037858429414604,-0.011405141375806723,-0.008888599961044266,P1:20430,0.008888599961044266
15068,0.0,-0.044246010264874555,0.0,0.0,0.0,-0.008849202052974911,P1:12698,0.008849202052974911
14719,0.0,0.0,0.0,-0.03511573746504661,-0.008887385956695385,-0.0088006246843484,P1:20126,0.0088006246843484
7749,0.0,0.004054938662789745,0.010383803560576731,0.0009263297806530724,0.028522798927928052,0.00877757418638952,P2:25495,0.00877757418638952
10387,0.0,-0.010241001420320804,0.0,0.0,-0.033602982693818964,-0.008768796822827954,P2:11950,0.008768796822827954
1530,-0.02583235702184011,0.0,0.0,0.0,-0.017515484732617503,-0.008669568350891523,P6 earlyB:98,0.008669568350891523
2952,0.0,0.0,-0.0432606176136104,0.0,0.0,-0.00865212352272208,P4:6038,0.00865212352272208
6090,0.0,0.0,0.0,0.0,-0.0432353076074454,-0.00864706152148908,P2:90,0.00864706152148908
2218,0.0,-0.008130704876900256,-0.01022659251019886,0.0,-0.02482236621308694,-0.008635932720037213,P5 gd:1948,0.008635932720037213
14612,-0.003429868920731386,-0.029377870344512284,0.0,-0.010333288222951393,0.0,-0.008628205497639013,P1:20384,0.008628205497639013
10825,0.0,0.0,0.0,-0.03409027056113326,-0.008782796915362748,-0.008574613495299201,P1:9600,0.008574613495299201
9610,0.0,0.0,0.0,0.0,0.0428296889483919,0.00856593778967838,P2:21077,0.00856593778967838
6259,0.0,0.0,-0.00522232070934657,0.0,-0.037471752203053536,-0.008538814582480021,P2:853,0.008538814582480021
1775,0.0,0.0,-0.04255969821992107,0.0,0.0,-0.008511939643984213,P5 gd:799,0.008511939643984213
9751,0.0,0.0,0.04023868082374772,0.0,0.002272826976350709,0.008502301560019685,P2:20584,0.008502301560019685
6287,0.0,0.0,0.0,0.0,0.0423277388246197,0.00846554776492394,P2:8440,0.00846554776492394
248,0.0,0.0,0.0,-0.04221132920130651,0.0,-0.008442265840261302,P7 Mono:95,0.008442265840261302
12417,0.0,0.0,-0.03506999514102063,0.0,-0.0070639687715777855,-0.008426792782519683,P1:3294,0.008426792782519683
15393,-0.0420874032867224,0.0,0.0,0.0,0.0,-0.008417480657344479,P1:10572,0.008417480657344479
2690,-0.010633159878088135,-0.022543193451570104,-0.008756651147938424,0.0,0.0,-0.008386600895519332,P5 CD8:34,0.008386600895519332
3802,0.0,0.0,0.0,0.0,0.04189130234334939,0.008378260468669877,P3:844,0.008378260468669877
2600,0.0,0.0,0.0,0.04175230922267034,0.0,0.008350461844534068,P5 NKT:76,0.008350461844534068
11864,0.0,0.0,0.0,-0.029132945092269314,-0.012401020184370238,-0.00830679305532791,P1:579,0.00830679305532791
567,0.0,0.0,0.0,0.0,-0.041445646333510174,-0.008289129266702035,P7 Mono:6070,0.008289129266702035
5639,0.0,0.0,0.025732640114971908,0.015593883878773791,0.0,0.00826530479874914,P3:1825,0.00826530479874914
179,0.0,0.0,0.041307268305863794,0.0,0.0,0.008261453661172759,P7:148,0.008261453661172759
2305,0.0,0.0,-0.0008538676747990763,0.0,-0.040329660914601044,-0.008236705717880025,P5 gd:1759,0.008236705717880025
10395,0.0,0.0,-0.041040666127928234,0.0,0.0,-0.008208133225585647,P2:11877,0.008208133225585647
6474,-0.038522615609015896,0.0,0.0,0.0,-0.0023379100210100833,-0.008172105126005195,P2:7285,0.008172105126005195
14813,0.0,0.0,-0.040754144239486916,0.0,0.0,-0.008150828847897383,P1:1900,0.008150828847897383
13430,0.0,0.0,0.0,0.04065419988429051,0.0,0.008130839976858102,P1:24145,0.008130839976858102
2645,0.0,0.0,0.0,0.04052210275751716,0.0,0.00810442055150343,P5 CD8:87,0.00810442055150343
1101,-0.013545391147402167,0.0,-0.019347067604878164,0.0,-0.0072591176143767195,-0.008030315273331411,P7 Mono:3431,0.008030315273331411
174,0.0,-0.03349521876307641,-0.006647780684605477,0.0,0.0,-0.008028599889536376,P7:152,0.008028599889536376
5842,0.0,0.0,0.0,0.03995272614331524,0.0,0.007990545228663049,P2:9698,0.007990545228663049
4668,0.03992908095464097,0.0,0.0,0.0,0.0,0.007985816190928193,P3:5421,0.007985816190928193
2959,0.0,0.02979787826711932,0.0,0.010075977812313158,0.0,0.007974771215886495,P4:6012,0.007974771215886495
15979,0.0,0.0,0.0,0.0,0.03982310670036511,0.007964621340073022,Lin:7,0.007964621340073022
14411,0.0,0.0,0.0,0.0,-0.03969190796544677,-0.007938381593089353,P1:20930,0.007938381593089353
12539,0.0,0.0,-0.039499012614424116,0.0,0.0,-0.007899802522884823,P1:2811,0.007899802522884823
1694,0.03911880863219943,0.0,0.0,0.0,0.0,0.007823761726439886,P5 gd:927,0.007823761726439886
13885,-0.038155307756989706,-0.0008581120770925777,0.0,0.0,0.0,-0.007802683966816456,P1:22471,0.007802683966816456
2064,0.0,-0.02855074619664157,0.0,-0.010434578652460351,0.0,-0.007797064969820385,P5 gd:235,0.007797064969820385
1846,0.0,0.03886847633418147,0.0,0.0,0.0,0.007773695266836295,P5 gd:689,0.007773695266836295
5109,-0.02502803822206595,0.0,0.0,0.0,-0.01381037605660335,-0.007767682855733859,P3:386,0.007767682855733859
1969,0.0,-0.02543060582428415,0.0,-0.012968967875444722,0.0,-0.007679914739945774,P5 gd:468,0.007679914739945774
4681,0.03814679534050975,0.0,0.0,0.0,0.0,0.00762935906810195,P3:5385,0.00762935906810195
2038,0.023979356020220728,0.0,0.01167165251666701,0.0,0.002486793535965631,0.007627560414570675,P5 gd:311,0.007627560414570675
14386,0.0,0.0,0.0,-0.037801609081233215,0.0,-0.007560321816246643,P1:21081,0.007560321816246643
4601,0.0,0.0,0.0,0.0,-0.03774743611747561,-0.007549487223495121,P3:5694,0.007549487223495121
14576,0.0,0.0,0.037714274539519047,0.0,0.0,0.007542854907903809,P1:20478,0.007542854907903809
714,0.0,0.0,-0.03760488595530668,0.0,0.0,-0.007520977191061336,P7 Mono:5462,0.007520977191061336
2658,-0.01163205974481399,-0.025888537823148376,0.0,0.0,0.0,-0.007504119513592473,P5 CD8:72,0.007504119513592473
1745,0.03748389976395252,0.0,0.0,0.0,0.0,0.007496779952790504,P5 gd:840,0.007496779952790504
9626,0.0,0.0,0.0,0.0,0.03740701609527507,0.007481403219055013,P2:21050,0.007481403219055013
13529,0.0,0.0,0.0,0.03700126278287025,0.0,0.007400252556574049,P1:23770,0.007400252556574049
6346,0.0,0.0,0.0,-0.022488403562320864,-0.014357442342599093,-0.007369169180983992,P2:8273,0.007369169180983992
1917,0.0,0.03669130256666088,0.0,0.0,0.0,0.007338260513332176,P5 gd:561,0.007338260513332176
6864,0.0,0.035264635232197,0.0013678375775662457,0.0,0.0,0.00732649456195265,P2:5,0.00732649456195265
11705,0.0,0.0,-0.0364493651796209,0.0,0.0,-0.00728987303592418,P1:64,0.00728987303592418
15432,-0.036354014006841386,0.0,0.0,0.0,0.0,-0.007270802801368277,P1:10329,0.007270802801368277
12297,-0.03620006840307471,0.0,0.0,0.0,0.0,-0.007240013680614941,P1:3866,0.007240013680614941
3520,0.0,0.0,0.0,0.0,0.03610077723299259,0.007220155446598518,P4:3333,0.007220155446598518
8711,0.0,0.010588091752610603,0.0,0.0032192632745933294,0.022226908411254635,0.007206852687691713,P2:23372,0.007206852687691713
2146,0.0,-0.008928824256310976,0.0,0.0,-0.0269552258898723,-0.007176810029236655,P5 gd:2067,0.007176810029236655
3015,0.0,0.0,0.0,0.0,-0.03577691546836898,-0.0071553830936737966,P4:5685,0.0071553830936737966
12455,-0.035746932433875236,0.0,0.0,0.0,0.0,-0.007149386486775047,P1:3131,0.007149386486775047
15496,-0.035571115025949944,0.0,0.0,0.0,0.0,-0.0071142230051899884,MFI:93,0.0071142230051899884
6810,-0.035517882946986795,0.0,0.0,0.0,0.0,-0.007103576589397359,P2:5227,0.007103576589397359
8263,0.0,0.03547770759752837,0.0,0.0,0.0,0.007095541519505674,P2:24464,0.007095541519505674
10703,0.03536315728259753,0.0,0.0,0.0,0.0,0.007072631456519506,P1:9976,0.007072631456519506
3897,-0.013259067680307088,0.0,-0.022049221170720508,0.0,0.0,-0.007061657770205519,P3:8193,0.007061657770205519
15112,0.017489494962252126,0.0,0.003441279624051316,0.0,0.013926828220251387,0.006971520561310967,P1:12410,0.006971520561310967
2195,0.0,0.0,-0.00717389166723486,-0.02750405517296532,0.0,-0.006935589368040037,P5 gd:1991,0.006935589368040037
3653,0.034639017421307323,0.0,0.0,0.0,0.0,0.006927803484261465,P3:874,0.006927803484261465
14375,0.034631245367394564,0.0,0.0,0.0,0.0,0.006926249073478913,P1:21112,0.006926249073478913
5700,0.02401336566311265,0.0,0.003996615916179525,0.006391036471086127,0.0,0.00688020361007566,P3:1026,0.00688020361007566
14939,0.0,-0.013258082843345396,0.0,-0.02100168813308061,0.0,-0.006851954195285201,P1:13384,0.006851954195285201
8321,0.034249814857526956,0.0,0.0,0.0,0.0,0.006849962971505391,P2:24240,0.006849962971505391
1902,0.0,0.034192965949241136,0.0,0.0,0.0,0.006838593189848227,P5 gd:597,0.006838593189848227
595,-0.03414881141107721,0.0,0.0,0.0,0.0,-0.006829762282215442,P7 Mono:5842,0.006829762282215442
10482,0.034093082254054774,0.0,0.0,0.0,0.0,0.006818616450810955,P2:11319,0.006818616450810955
6543,0.02077703921961194,0.0,0.0,0.013059420360726583,0.0,0.006767291916067705,P2:7016,0.006767291916067705
10930,0.0,0.01607088293172965,0.0,0.0,0.017707920848561532,0.006755760756058236,P1:9303,0.006755760756058236
1458,0.0,0.0,0.0,-0.003133780209919291,-0.030643291230223097,-0.006755414288028477,P6:237,0.006755414288028477
8914,0.0,0.0337309533765528,0.0,0.0,0.0,0.006746190675310559,P2:22965,0.006746190675310559
15034,0.01748159225960848,0.0,0.0,0.0,0.016228170468553592,0.006741952545632415,P1:12851,0.006741952545632415
7719,-0.023902951948673798,0.0,-0.009746225367627226,0.0,0.0,-0.0067298354632602045,P2:25530,0.0067298354632602045
13195,0.0,0.0,0.0,0.0,0.03353068678826753,0.006706137357653507,P1:24705,0.006706137357653507
6349,0.0,0.0,0.0,-0.033527934248399664,0.0,-0.006705586849679933,P2:8261,0.006705586849679933
371,0.0,0.0,-0.009277380642455582,0.0,-0.0241865265005417,-0.006692781428599456,P7 Mono:66,0.006692781428599456
753,0.0,0.00489697357773309,0.0,0.0,0.0284188071586569,0.006663156147277999,P7 Mono:512,0.006663156147277999
15205,0.0,-0.03324344009190427,0.0,0.0,0.0,-0.006648688018380854,P1:11778,0.006648688018380854
11085,-0.006082925515496501,0.0,-0.02707282562314201,0.0,0.0,-0.006631150227727702,P1:8886,0.006631150227727702
1429,0.0,0.0,0.0,0.0,-0.03270992118313575,-0.006541984236627151,P6:299,0.006541984236627151
6035,0.0,-0.03262693057497864,0.0,0.0,0.0,-0.0065253861149957276,P2:9141,0.0065253861149957276
13923,0.0,0.0,-0.03254119284917008,0.0,0.0,-0.0065082385698340154,P1:22371,0.0065082385698340154
10318,0.032534518003632204,0.0,0.0,0.0,0.0,0.0065069036007264405,P2:12551,0.0065069036007264405
10306,0.0,0.0,-0.02910085400221636,0.0,-0.0032687952867303054,-0.006473929857789333,P2:12578,0.006473929857789333
8835,0.0,0.03233495673027516,0.0,0.0,0.0,0.006466991346055032,P2:23128,0.006466991346055032
4625,0.024452477968706907,0.0,0.007613870990373072,0.0,0.0,0.006413269791815996,P3:5637,0.006413269791815996
5966,0.0,0.0,0.0,-0.031963014761909894,0.0,-0.006392602952381979,P2:9306,0.006392602952381979
2215,0.0,0.003809790420324248,0.018472295444182104,0.009663499304968527,0.0,0.006389117033894975,P5 gd:1954,0.006389117033894975
15763,0.0,-0.03193595218541263,0.0,0.0,0.0,-0.0063871904370825265,MFI:35,0.0063871904370825265
1558,0.0,0.0,0.0,0.0,-0.03187530982175912,-0.006375061964351824,P6 earlyB:64,0.006375061964351824
1955,0.0,0.0,-0.03183476653013112,0.0,0.0,-0.006366953306026224,P5 gd:490,0.006366953306026224
2890,0.0,0.0,-0.031553447125231435,0.0,0.0,-0.006310689425046287,P4:6268,0.006310689425046287
873,0.0,-0.03152157029130496,0.0,0.0,0.0,-0.006304314058260992,P7 Mono:4488,0.006304314058260992
2871,0.0,0.03147096762837579,0.0,0.0,0.0,0.006294193525675158,P4:6322,0.006294193525675158
1103,0.01603586455067678,0.0,0.0,0.0,0.01538769728834506,0.006284712367804368,P7 Mono:3419,0.006284712367804368
6466,0.0,-0.03131002629281372,0.0,0.0,0.0,-0.006262005258562744,P2:730,0.006262005258562744
15544,0.0,0.0,0.031096945445586974,0.0,0.0,0.0062193890891173945,MFI:665,0.0062193890891173945
10948,0.0,0.0,0.0,0.0,0.031061059540839417,0.006212211908167883,P1:9234,0.006212211908167883
752,-0.030736436429352296,0.0,0.0,0.0,0.0,-0.006147287285870459,P7 Mono:5121,0.006147287285870459
181,0.0,0.0,-0.030696688810239577,0.0,0.0,-0.006139337762047915,P7:146,0.006139337762047915
11361,-0.012467789730305746,-0.0034486638730799714,0.0,0.0,-0.014658239587985136,-0.006114938638274171,P1:7779,0.006114938638274171
684,0.0,0.0,0.03051161256515262,0.0,0.0,0.006102322513030524,P7 Mono:557,0.006102322513030524
3494,0.012109801677283582,0.01823828720568052,0.0,0.0,0.0,0.00606961777659282,P4:3464,0.00606961777659282
2291,0.0,0.0,0.0,-0.027210199702808725,-0.003085182581231384,-0.006059076456808022,P5 gd:1783,0.006059076456808022
15885,0.0,0.0,0.0,0.030226518415145096,0.0,0.006045303683029019,MFI:201,0.006045303683029019
7825,0.0,0.030151269190849057,0.0,0.0,0.0,0.0060302538381698115,P2:25387,0.0060302538381698115
15023,0.0,-0.029930707582230213,0.0,0.0,0.0,-0.0059861415164460426,P1:12929,0.0059861415164460426
7712,-0.02985378935679107,0.0,0.0,0.0,0.0,-0.005970757871358214,P2:25538,0.005970757871358214
11235,0.0,0.0,0.0,0.029664631254034297,0.0,0.0059329262508068595,P1:8280,0.0059329262508068595
11702,0.0,0.0,0.0,-0.02950193498476057,0.0,-0.005900386996952113,P1:641,0.005900386996952113
9558,0.0,-0.029440235284325492,0.0,0.0,0.0,-0.005888047056865098,P2:21193,0.005888047056865098
2049,0.0,0.0,0.029156683361567407,0.0,0.0,0.005831336672313481,P5 gd:291,0.005831336672313481
4926,0.0,-0.029114221021104083,0.0,0.0,0.0,-0.005822844204220816,P3:4318,0.005822844204220816
3142,0.0,0.0,0.0,0.018695061738512625,0.010414814100291799,0.005821975167760884,P4:4913,0.005821975167760884
13270,0.0,0.0,0.0,0.0,0.02905546879171469,0.005811093758342939,P1:24397,0.005811093758342939
2510,-0.029005415041746488,0.0,0.0,0.0,0.0,-0.005801083008349297,P5 gd:1253,0.005801083008349297
6146,-0.025053237162800224,0.0,0.0,-0.0038477184643220088,0.0,-0.0057801911254244465,P2:8781,0.0057801911254244465
5912,-0.028858367272645503,0.0,0.0,0.0,0.0,-0.005771673454529101,P2:9381,0.005771673454529101
10338,0.02882990210547565,0.0,0.0,0.0,0.0,0.00576598042109513,P2:124,0.00576598042109513
6065,0.0,-0.028769705088906,0.0,0.0,0.0,-0.0057539410177812,P2:9060,0.0057539410177812
10336,0.0,0.0,0.028750165757673952,0.0,0.0,0.005750033151534791,P2:12402,0.005750033151534791
15159,0.0,0.0,0.0,0.0,-0.028676575322215205,-0.005735315064443041,P1:12225,0.005735315064443041
1770,0.0,0.0,-0.028624189140362737,0.0,0.0,-0.005724837828072547,P5 gd:807,0.005724837828072547
4501,0.02859014026803601,0.0,0.0,0.0,0.0,0.005718028053607202,P3:6011,0.005718028053607202
15181,0.0,-0.028573943278265262,0.0,0.0,0.0,-0.005714788655653053,P1:11996,0.005714788655653053
13267,0.0,0.0,0.0,0.0,0.02846274515369701,0.005692549030739402,P1:24433,0.005692549030739402
9592,0.0,-0.028391321394442833,0.0,0.0,0.0,-0.0056782642788885665,P2:21113,0.0056782642788885665
2756,0.0,-0.028312741484351093,0.0,0.0,0.0,-0.005662548296870218,P5 CD8:102,0.005662548296870218
11391,-0.02829712311645095,0.0,0.0,0.0,0.0,-0.00565942462329019,P1:764,0.00565942462329019
12041,0.0,0.0,0.0,0.02828815657623132,0.0,0.005657631315246265,P1:4981,0.005657631315246265
121,0.0,0.0,0.0,-0.02822302411443906,0.0,-0.005644604822887813,P7:217,0.005644604822887813
15070,0.0,-0.028062226722128582,0.0,0.0,0.0,-0.005612445344425716,P1:12689,0.005612445344425716
16012,0.0,0.0,0.0,0.028027214116964776,0.0,0.005605442823392955,Lin:21,0.005605442823392955
1665,-0.0280146966685909,0.0,0.0,0.0,0.0,-0.00560293933371818,P5 gd:972,0.00560293933371818
15417,0.027746268777860537,0.0,0.0,0.0,0.0,0.005549253755572107,P1:10455,0.005549253755572107
11013,-0.005779640437578926,0.0,-0.021749864779624435,0.0,0.0,-0.005505901043440673,P1:9116,0.005505901043440673
11363,-0.027511404585729322,0.0,0.0,0.0,0.0,-0.0055022809171458645,P1:7777,0.0055022809171458645
6778,0.0,0.0,0.0,0.027504056077654958,0.0,0.005500811215530992,P2:54,0.005500811215530992
21,0.0,0.027366110340051313,0.0,0.0,0.0,0.005473222068010262,P7:78,0.005473222068010262
15413,5.680189475104463e-07,0.0,0.0,0.027205001404061714,0.0,0.005441113884601845,P1:10482,0.005441113884601845
12506,0.0,0.0,0.0,0.027159723061234115,0.0,0.005431944612246823,P1:2899,0.005431944612246823
11117,0.0,0.0,0.0,-0.026951286956753,0.0,-0.0053902573913506,P1:8705,0.0053902573913506
175,0.0,0.0,0.026917446439923696,0.0,0.0,0.005383489287984739,P7:151,0.005383489287984739
15473,0.0,0.0,0.0,-0.026915094861024842,0.0,-0.005383018972204968,P1:10099,0.005383018972204968
1772,0.0,0.0,-0.02685116441288004,0.0,0.0,-0.005370232882576008,P5 gd:803,0.005370232882576008
9143,0.0,-0.026799644087540576,0.0,0.0,0.0,-0.005359928817508115,P2:22276,0.005359928817508115
15982,-0.02671686804343407,0.0,0.0,0.0,0.0,-0.005343373608686814,Lin:5,0.005343373608686814
2148,0.0,0.0,-0.012640954363807825,0.0,-0.013941428869843378,-0.005316476646730241,P5 gd:2064,0.005316476646730241
5029,-0.0016793873576106072,0.0,0.0,-0.024803005028019718,0.0,-0.0052964784771260655,P3:404,0.0052964784771260655
15383,0.02646260444295578,0.0,0.0,0.0,0.0,0.005292520888591156,P1:10729,0.005292520888591156
5721,0.0,0.0,0.0,0.0,-0.026454166285133904,-0.005290833257026781,P2:9964,0.005290833257026781
2434,0.0,0.0,0.0,0.026416940803563112,0.0,0.005283388160712622,P5 gd:1409,0.005283388160712622
434,-0.02640716165991631,0.0,0.0,0.0,0.0,-0.005281432331983262,P7 Mono:6426,0.005281432331983262
10762,0.0,-0.020859419178340423,0.0,-0.0054446110550992995,0.0,-0.005260806046687944,P1:9838,0.005260806046687944
8,0.025245667417549623,0.0,0.0008849664643925258,0.0,0.0,0.0052261267763884294,P7:91,0.0052261267763884294
13856,0.0,0.0,-0.02611871001789775,0.0,0.0,-0.00522374200357955,P1:22610,0.00522374200357955
9648,0.0,0.026118501342931512,0.0,0.0,0.0,0.005223700268586302,P2:21008,0.005223700268586302
15405,0.0,-0.003302576270046075,-0.022684654434489217,0.0,0.0,-0.005197446140907058,P1:10534,0.005197446140907058
15889,-0.025877675387147327,0.0,0.0,0.0,0.0,-0.005175535077429466,MFI:199,0.005175535077429466
11373,-0.025855618893273334,0.0,0.0,0.0,0.0,-0.0051711237786546665,P1:7762,0.0051711237786546665
13423,0.0,0.003775771377296559,0.0,0.021914467163988687,0.0,0.005138047708257049,P1:24156,0.005138047708257049
10764,0.0,-0.023822278983681233,0.0,-0.0018635577854124623,0.0,-0.005137167353818739,P1:9834,0.005137167353818739
6686,0.0,0.015062672873992159,0.0,0.010568333962364843,0.0,0.0051262013672714,P2:6322,0.0051262013672714
8226,0.0,0.0,-0.025614796423626362,0.0,0.0,-0.005122959284725273,P2:24566,0.005122959284725273
15908,0.0,0.0,0.0,0.0,-0.025577591849748706,-0.005115518369949741,MFI:180,0.005115518369949741
13255,0.0,0.0,0.0,0.0,0.02547629843139959,0.005095259686279918,P1:24487,0.005095259686279918
2055,0.0,0.0,0.0252887197219872,0.0,0.0,0.00505774394439744,P5 gd:265,0.00505774394439744
16015,0.0,0.0,0.007975176835869017,0.016977184734909872,0.0,0.004990472314155778,Lin:19,0.004990472314155778
15771,0.0,0.0,0.018226998790223953,0.0,0.006654386294229984,0.004976277016890787,MFI:324,0.004976277016890787
1289,0.0,0.0,0.0,0.0,-0.024879095890194696,-0.004975819178038939,P7 Mono:1780,0.004975819178038939
2634,-0.01048334388721778,-0.014254868354818139,0.0,0.0,0.0,-0.004947642448407183,P5 CD8:98,0.004947642448407183
13774,0.0,0.0,0.0,0.0,0.02466095000162839,0.004932190000325678,P1:22807,0.004932190000325678
7445,0.0,0.0,-0.014973726107424758,-0.009648579222925524,0.0,-0.004924461066070056,P2:26063,0.004924461066070056
15333,0.0,0.0,-0.02456029924815942,0.0,0.0,-0.004912059849631884,P1:11020,0.004912059849631884
15795,0.0,0.0045047787183386066,0.02003704787388105,0.0,0.0,0.004908365318443931,MFI:288,0.004908365318443931
486,0.0,0.0,0.0,-0.024529012692546738,0.0,-0.004905802538509347,P7 Mono:6313,0.004905802538509347
15622,0.0,0.0,0.0,0.0,-0.02450923758664259,-0.004901847517328518,MFI:562,0.004901847517328518
2672,0.0,0.0,-0.02219241826750031,0.0,-0.002311188069591445,-0.004900721267418351,P5 CD8:56,0.004900721267418351
12437,0.0,-0.024404536346380203,0.0,0.0,0.0,-0.004880907269276041,P1:319,0.004880907269276041
10999,0.0,0.014715453644028015,0.0,0.00966716215097588,0.0,0.0048765231590007785,P1:9139,0.0048765231590007785
2033,0.024345592361712343,0.0,0.0,0.0,0.0,0.0048691184723424685,P5 gd:330,0.0048691184723424685
1909,-0.015465288811008964,0.0,-0.008878846020660665,0.0,0.0,-0.004868826966333926,P5 gd:576,0.004868826966333926
12411,0.0,0.0,0.0,-0.02417430261349344,0.0,-0.004834860522698688,P1:3321,0.004834860522698688
15255,0.0,0.0,0.0,0.02408265573478923,0.0,0.004816531146957846,P1:11534,0.004816531146957846
15640,0.0,0.0,0.0,0.023949582058520116,0.0,0.004789916411704023,MFI:535,0.004789916411704023
15179,0.0,-0.023834977686012518,0.0,0.0,0.0,-0.004766995537202503,P1:12008,0.004766995537202503
1340,0.0,0.02374396777034676,0.0,0.0,0.0,0.004748793554069352,P7 Mono:1287,0.004748793554069352
160,0.0,0.0,0.0,0.023682887895141284,0.0,0.004736577579028256,P7:169,0.004736577579028256
7001,0.0,-0.023674388333296752,0.0,0.0,0.0,-0.00473487766665935,P2:4255,0.00473487766665935
15504,-0.013007461933353877,0.0,0.0,-0.010659177122190087,0.0,-0.004733327811108792,MFI:86,0.004733327811108792
8582,-0.023539745082359457,0.0,0.0,0.0,0.0,-0.004707949016471891,P2:23698,0.004707949016471891
11906,0.0,0.0,0.0,-0.023501873141595915,0.0,-0.004700374628319183,P1:554,0.004700374628319183
6977,0.0,0.0,0.0,0.0,-0.023368311420870234,-0.004673662284174047,P2:434,0.004673662284174047
1980,0.0,0.0,0.023270754614573445,0.0,0.0,0.004654150922914689,P5 gd:448,0.004654150922914689
7978,0.0,0.02317899684206663,0.0,0.0,0.0,0.004635799368413325,P2:25147,0.004635799368413325
3368,0.0,0.0,0.0,-0.023044352479315442,0.0,-0.004608870495863089,P4:3809,0.004608870495863089
3052,0.0,0.0,-0.0021735816764707453,0.0,-0.020811098092133485,-0.004596935953720846,P4:5561,0.004596935953720846
7560,0.0,0.0,0.02298194642434529,0.0,0.0,0.004596389284869058,P2:25877,0.004596389284869058
1398,0.0,0.0,0.0,0.0,-0.022978652661688557,-0.004595730532337711,P6:44,0.004595730532337711
15633,0.022862935902948273,0.0,0.0,0.0,0.0,0.004572587180589655,MFI:547,0.004572587180589655
6494,0.0,0.0,0.0,0.022808113475538665,0.0,0.004561622695107733,P2:7222,0.004561622695107733
2744,-0.008522992248357363,0.0,-0.014247220675506666,0.0,0.0,-0.004554042584772806,P5 CD8:125,0.004554042584772806
2735,0.0,0.0,0.0012006087815976789,0.0,0.021476349580984676,0.004535391672516471,P5 CD8:148,0.004535391672516471
2203,0.0,-0.022673016744240826,0.0,0.0,0.0,-0.0045346033488481655,P5 gd:1979,0.0045346033488481655
1763,0.022637301190427676,0.0,0.0,0.0,0.0,0.004527460238085535,P5 gd:815,0.004527460238085535
1811,0.022537503674204724,0.0,0.0,0.0,0.0,0.004507500734840944,P5 gd:742,0.004507500734840944
2320,0.0,0.0,0.0,0.022516993515647118,0.0,0.004503398703129423,P5 gd:1698,0.004503398703129423
15295,0.0,0.0,-0.022432863387262254,0.0,0.0,-0.004486572677452451,P1:11262,0.004486572677452451
12555,0.0,0.0,0.0,0.02242290324211114,0.0,0.004484580648422228,P1:2707,0.004484580648422228
1603,0.0,0.0,0.022325275969308195,0.0,0.0,0.004465055193861639,P6 earlyB:212,0.004465055193861639
1643,0.0,0.0,0.0,-0.022316523035249752,0.0,-0.004463304607049951,P6 earlyB:111,0.004463304607049951
9612,0.0,0.0,0.0,0.0,0.022218548923716174,0.0044437097847432345,P2:21073,0.0044437097847432345
1959,0.0,0.02187460615561934,0.0,0.0,0.0,0.004374921231123869,P5 gd:483,0.004374921231123869
12276,0.0,0.0,-0.021778809116900742,0.0,0.0,-0.0043557618233801484,P1:397,0.0043557618233801484
10660,0.021696021949958857,0.0,0.0,0.0,0.0,0.004339204389991772,P2:10239,0.004339204389991772
8491,-0.016287753446759073,0.0,0.0,0.0,-0.005270787435728052,-0.004311708176497425,P2:23914,0.004311708176497425
14490,0.0,0.0,0.0,0.0,-0.021527522541617734,-0.004305504508323546,P1:20779,0.004305504508323546
5146,0.0,0.0,0.0,0.021445768007713962,0.0,0.0042891536015427926,P3:3720,0.0042891536015427926
15840,0.0,0.02136821813312264,0.0,0.0,0.0,0.004273643626624528,MFI:244,0.004273643626624528
15877,0.0,0.0,-0.021344980056743502,0.0,0.0,-0.0042689960113487,MFI:209,0.0042689960113487
4559,0.004648732920981076,0.0,0.016670072463103824,0.0,0.0,0.0042637610768169795,P3:5880,0.0042637610768169795
807,-0.012307386177662496,0.0,-0.003924219311632646,0.0,-0.004933109688939877,-0.004232943035647004,P7 Mono:4947,0.004232943035647004
14095,0.0,0.0,0.0,0.02116205937309991,0.0,0.004232411874619982,P1:21968,0.004232411874619982
1364,0.0,0.0,0.0,-0.02112500782759838,0.0,-0.004225001565519676,P6:80,0.004225001565519676
8222,0.0,0.0,-0.007106527856759749,-0.013940682666515068,0.0,-0.004209442104654963,P2:24574,0.004209442104654963
7610,0.0,0.0,0.0,-0.02068836936383323,0.0,-0.004137673872766646,P2:25769,0.004137673872766646
1578,-0.015908055075074104,0.0,0.0,-0.0046506730697567136,0.0,-0.004111745628966164,P6 earlyB:35,0.004111745628966164
359,0.0,0.0,-0.02045213767561958,0.0,0.0,-0.004090427535123916,P7 Mono:69,0.004090427535123916
9034,0.0,0.0,0.0,0.0,0.020425747269921413,0.004085149453984282,P2:22634,0.004085149453984282
6486,0.0,0.0,0.0,0.02036618464760889,0.0,0.004073236929521778,P2:7234,0.004073236929521778
3163,0.0,0.0,0.0,0.0,0.020306169697770552,0.004061233939554111,P4:4690,0.004061233939554111
2102,0.0,-0.02027699186807943,0.0,0.0,0.0,-0.004055398373615886,P5 gd:2136,0.004055398373615886
10754,0.0,-0.020256885874330145,0.0,0.0,0.0,-0.004051377174866029,P1:9853,0.004051377174866029
2314,-0.01977364526443944,0.0,0.0,0.0,0.0,-0.003954729052887887,P5 gd:1728,0.003954729052887887
1261,0.0,0.0,0.0,-0.019755560960278237,0.0,-0.003951112192055647,P7 Mono:2060,0.003951112192055647
1544,0.0,0.0,0.0,0.019677049102799177,0.0,0.003935409820559835,P6 earlyB:81,0.003935409820559835
15548,0.0,-0.019478768335350716,0.0,0.0,0.0,-0.003895753667070143,MFI:661,0.003895753667070143
15648,0.019435090166900728,0.0,0.0,0.0,0.0,0.0038870180333801458,MFI:524,0.0038870180333801458
4553,0.0,0.01255149381665538,0.006848336665988642,0.0,0.0,0.0038799660965288044,P3:5904,0.0038799660965288044
12257,0.01354998810978785,0.0,0.0009876017558102317,0.0,0.004847220821176993,0.003876962137355015,P1:403,0.003876962137355015
9962,-0.01923916952234689,0.0,0.0,0.0,0.0,-0.0038478339044693776,P2:1633,0.0038478339044693776
14176,0.0,0.0,0.0,0.0,-0.019143262342373644,-0.0038286524684747287,P1:21716,0.0038286524684747287
521,0.0,0.0,0.0,0.0,-0.019123966330893357,-0.0038247932661786715,P7 Mono:6224,0.0038247932661786715
6007,-0.018930829762765337,0.0,0.0,0.0,0.0,-0.0037861659525530674,P2:9224,0.0037861659525530674
8832,0.0,0.01887436394193731,0.0,0.0,0.0,0.0037748727883874624,P2:23131,0.0037748727883874624
7907,0.0,0.0,0.0,-0.01884999557434061,0.0,-0.0037699991148681224,P2:25271,0.0037699991148681224
182,0.0,0.0,0.0188321192798499,0.0,0.0,0.0037664238559699803,P7:145,0.0037664238559699803
6481,0.018804265450398722,0.0,0.0,0.0,0.0,0.0037608530900797446,P2:7243,0.0037608530900797446
5828,0.0,0.0,0.0,0.0,-0.018696257472146767,-0.0037392514944293532,P2:9726,0.0037392514944293532
958,0.0,0.0,0.0,0.0,-0.018414085862545927,-0.0036828171725091854,P7 Mono:4241,0.0036828171725091854
35,0.0,0.0,0.0,-0.018396180547010164,0.0,-0.003679236109402033,P7:64,0.003679236109402033
15412,0.0,0.0,0.0,0.01833886883610758,0.0,0.003667773767221516,P1:10484,0.003667773767221516
1663,0.0,0.0,0.0,0.0,-0.018326153531488417,-0.0036652307062976833,P5 gd:975,0.0036652307062976833
6529,0.01831949802473753,0.0,0.0,0.0,0.0,0.003663899604947506,P2:7073,0.003663899604947506
16018,0.0,0.0,0.0,0.0,0.01821228211488285,0.00364245642297657,Lin:16,0.00364245642297657
3521,0.0,0.0,0.0,0.0,0.018095961972356397,0.0036191923944712797,P4:3332,0.0036191923944712797
14269,-0.0073068667980487265,0.0,-0.0107209757334168,0.0,0.0,-0.0036055685062931055,P1:2143,0.0036055685062931055
4598,0.0,0.0,0.0,0.0,-0.01792356964656678,-0.003584713929313356,P3:5697,0.003584713929313356
7831,0.0,0.01781199097972123,0.0,0.0,0.0,0.003562398195944246,P2:25378,0.003562398195944246
12509,0.0,-0.017783870782565724,0.0,0.0,0.0,-0.003556774156513145,P1:289,0.003556774156513145
8098,0.0,0.0,0.0,-0.01764742417983946,0.0,-0.0035294848359678924,P2:24826,0.0035294848359678924
3120,0.01756431919579531,0.0,0.0,0.0,0.0,0.003512863839159062,P4:5290,0.003512863839159062
12665,0.0,0.0,0.0,0.017508418013317557,0.0,0.0035016836026635113,P1:26067,0.0035016836026635113
3647,0.0,0.0,0.0,0.0,-0.017484278732709035,-0.0034968557465418068,P3:88,0.0034968557465418068
2100,0.0,0.017403883821234593,0.0,0.0,0.0,0.0034807767642469184,P5 gd:2146,0.0034807767642469184
589,-0.01738353434622329,0.0,0.0,0.0,0.0,-0.0034767068692446576,P7 Mono:5869,0.0034767068692446576
10619,0.0,0.0,0.0,0.0,-0.017296206065312188,-0.0034592412130624375,P2:10675,0.0034592412130624375
5144,0.0,-0.017285067014181574,0.0,0.0,0.0,-0.0034570134028363148,P3:373,0.0034570134028363148
6243,0.0,0.0,0.0,0.0,-0.01716466601052817,-0.0034329332021056343,P2:8560,0.0034329332021056343
11421,0.0,0.0,0.0,0.0,-0.017067373822948526,-0.003413474764589705,P1:7540,0.003413474764589705
14825,0.0,0.0,-0.017026756263019825,0.0,0.0,-0.003405351252603965,P1:1792,0.003405351252603965
1797,0.016988537455576193,0.0,0.0,0.0,0.0,0.0033977074911152386,P5 gd:769,0.0033977074911152386
3510,0.0,0.0,0.0,0.016982903121148994,0.0,0.0033965806242297987,P4:3386,0.0033965806242297987
7617,0.0,0.016904988261442596,0.0,0.0,0.0,0.0033809976522885194,P2:25752,0.0033809976522885194
1539,0.0,0.0,0.0,0.016867136851749485,0.0,0.003373427370349897,P6 earlyB:89,0.003373427370349897
7899,0.0,0.0,0.0,-0.016841167844785735,0.0,-0.003368233568957147,P2:25280,0.003368233568957147
10756,0.0,-0.016653398576316175,0.0,0.0,0.0,-0.003330679715263235,P1:9847,0.003330679715263235
6504,0.0,0.0,0.0,0.016345551572137285,0.0,0.003269110314427457,P2:716,0.003269110314427457
15198,0.0,0.0,-0.016330600900482058,0.0,0.0,-0.0032661201800964117,P1:11865,0.0032661201800964117
10063,0.0,0.0,0.0,0.0,-0.01630435269403253,-0.0032608705388065063,P2:13500,0.0032608705388065063
8182,0.0,0.01623203944029815,0.0,0.0,0.0,0.00324640788805963,P2:24703,0.00324640788805963
8241,0.0,0.0,0.0,0.0,-0.01613412905146712,-0.003226825810293424,P2:24511,0.003226825810293424
15358,0.0,0.0,0.0,-0.01607208041608272,0.0,-0.003214416083216544,P1:10828,0.003214416083216544
9655,0.0,0.0,0.003095711093154203,0.0,0.012933533075046402,0.0032058488336401208,P2:20968,0.0032058488336401208
14676,0.0,0.0,0.0,-0.015843399613861227,0.0,-0.0031686799227722455,P1:20204,0.0031686799227722455
2599,0.0,0.0,0.0,0.0,-0.015640053172709664,-0.0031280106345419325,P5 NKT:77,0.0031280106345419325
15492,0.015595880217974978,0.0,0.0,0.0,0.0,0.0031191760435949956,MFI:97,0.0031191760435949956
14817,0.0,0.0,-0.01557160365007219,0.0,0.0,-0.003114320730014438,P1:1871,0.003114320730014438
15693,0.0,0.010907993636560268,0.0,0.0,0.004431389608480111,0.0030678766490080758,MFI:467,0.0030678766490080758
10392,0.0,0.0,-0.015332603647787492,0.0,0.0,-0.0030665207295574983,P2:11907,0.0030665207295574983
12930,0.0,0.0,-0.015327243898422485,0.0,0.0,-0.003065448779684497,P1:25501,0.003065448779684497
10346,0.0,0.0,-0.015309260634620183,0.0,0.0,-0.0030618521269240367,P2:12293,0.0030618521269240367
10499,0.0,0.0,0.015229432928073112,0.0,0.0,0.0030458865856146226,P2:11233,0.0030458865856146226
705,0.0,0.0,0.0,-0.01515182629459081,0.0,-0.0030303652589181622,P7 Mono:5503,0.0030303652589181622
8375,0.0,0.0,-0.014928092491803551,0.0,0.0,-0.00298561849836071,P2:24121,0.00298561849836071
9756,0.0,0.0,0.014832393866257414,0.0,0.0,0.0029664787732514826,P2:20575,0.0029664787732514826
8353,-0.014762944703940071,0.0,0.0,0.0,0.0,-0.0029525889407880142,P2:24148,0.0029525889407880142
2133,0.0,0.0,0.0,0.0,0.014749179483120722,0.0029498358966241443,P5 gd:209,0.0029498358966241443
7596,0.0,0.0,0.0,-0.014708793091167677,0.0,-0.0029417586182335356,P2:25810,0.0029417586182335356
5583,0.0,0.0,0.0,-0.014696416942443565,0.0,-0.002939283388488713,P3:2098,0.002939283388488713
13758,0.0,0.0,0.0,-0.0016608408965776077,-0.012998693781952213,-0.0029319069357059643,P1:22902,0.0029319069357059643
16001,0.0,0.0,0.0,0.014598548169276164,0.0,0.0029197096338552326,Lin:32,0.0029197096338552326
11426,-0.014547756401148599,0.0,0.0,0.0,0.0,-0.00290955128022972,P1:7532,0.00290955128022972
14692,0.0,0.0,0.0,-0.014450263211066117,0.0,-0.0028900526422132233,P1:20183,0.0028900526422132233
13642,0.0,0.0,-0.014332294584657236,0.0,0.0,-0.002866458916931447,P1:23420,0.002866458916931447
13212,0.0,0.0,0.0,0.0,0.01427056873994385,0.00285411374798877,P1:24662,0.00285411374798877
10028,0.0,-0.014117611026199357,0.0,0.0,0.0,-0.0028235222052398713,P2:13580,0.0028235222052398713
6076,0.0,-0.01405271343627721,0.0,0.0,0.0,-0.002810542687255442,P2:9024,0.002810542687255442
15382,0.0,0.0,0.0,0.014043754726506801,0.0,0.0028087509453013602,P1:10733,0.0028087509453013602
11004,-0.005557151508875285,0.0,-0.008477818582187787,0.0,0.0,-0.0028069940182126147,P1:9134,0.0028069940182126147
2667,-0.013896293721973535,0.0,0.0,0.0,0.0,-0.002779258744394707,P5 CD8:62,0.002779258744394707
6470,-0.013882674766092453,0.0,0.0,0.0,0.0,-0.0027765349532184905,P2:7294,0.0027765349532184905
3598,0.0,0.0,0.0,0.0,0.013806157737919943,0.002761231547583989,P3:993,0.002761231547583989
7495,0.0,0.013720183972587048,0.0,0.0,0.0,0.0027440367945174094,P2:25998,0.0027440367945174094
10661,0.0,0.013705542396137492,0.0,0.0,0.0,0.0027411084792274983,P2:10229,0.0027411084792274983
2747,0.0,-0.013647591807205997,0.0,0.0,0.0,-0.0027295183614411992,P5 CD8:12,0.0027295183614411992
10391,0.0,0.0,-0.013620312204489074,0.0,0.0,-0.002724062440897815,P2:11908,0.002724062440897815
7730,0.0,0.013614856881430586,0.0,0.0,0.0,0.002722971376286117,P2:25517,0.002722971376286117
5942,0.0,0.0,0.0,-0.013600644420975444,0.0,-0.0027201288841950887,P2:9343,0.0027201288841950887
1002,0.0,0.0,0.0,0.0,-0.013526131435484583,-0.0027052262870969164,P7 Mono:4127,0.0027052262870969164
83,0.0,0.013470242530216345,0.0,0.0,0.0,0.002694048506043269,P7:26,0.002694048506043269
2241,0.0,0.013428421316365461,0.0,0.0,0.0,0.0026856842632730924,P5 gd:1882,0.0026856842632730924
4097,-0.013170594654230143,0.0,0.0,0.0,0.0,-0.0026341189308460287,P3:7651,0.0026341189308460287
12444,-0.013048699248077852,0.0,0.0,0.0,0.0,-0.0026097398496155704,P1:3160,0.0026097398496155704
629,0.0,0.0,0.0,-0.01292797100268599,0.0,-0.002585594200537198,P7 Mono:5732,0.002585594200537198
640,0.0,0.0,0.0,-0.01292797100268599,0.0,-0.002585594200537198,P7 Mono:5705,0.002585594200537198
7971,0.0,0.0,0.012921424096732921,0.0,0.0,0.002584284819346584,P2:25160,0.002584284819346584
10666,0.0,0.009904812269450178,0.002989282008943603,0.0,0.0,0.0025788188556787562,P2:10189,0.0025788188556787562
8660,0.0,0.0,0.012875143158415531,0.0,0.0,0.002575028631683106,P2:23471,0.002575028631683106
2391,0.0,0.0,0.0,0.012856002384750176,0.0,0.002571200476950035,P5 gd:1481,0.002571200476950035
15904,0.0,0.012845351145595377,0.0,0.0,0.0,0.0025690702291190754,MFI:184,0.0025690702291190754
688,0.0,0.0,-0.012839368898161427,0.0,0.0,-0.0025678737796322854,P7 Mono:5543,0.0025678737796322854
6431,0.0,0.0,0.0,-0.0023563294505981663,-0.010381727456586403,-0.0025476113814369137,P2:7549,0.0025476113814369137
8376,0.0,0.0,-0.012725101574732207,0.0,0.0,-0.0025450203149464416,P2:24120,0.0025450203149464416
10239,0.0,0.0,-0.012565239020065512,0.0,0.0,-0.0025130478040131026,P2:12807,0.0025130478040131026
15270,-0.012489977047408183,0.0,0.0,0.0,0.0,-0.0024979954094816363,P1:11328,0.0024979954094816363
2778,0.0,0.0,0.0,-0.012485156938779666,0.0,-0.002497031387755933,P4:7,0.002497031387755933
8143,-0.01246583465664825,0.0,0.0,0.0,0.0,-0.00249316693132965,P2:24765,0.00249316693132965
10822,0.0,-0.012407646917329629,0.0,0.0,0.0,-0.002481529383465926,P1:9607,0.002481529383465926
14319,-0.00043454724791794905,0.0,0.0,0.0,-0.011830869911863948,-0.0024530834319563795,P1:21313,0.0024530834319563795
6821,-0.01214310562242989,0.0,0.0,0.0,0.0,-0.002428621124485978,P2:5200,0.002428621124485978
8034,0.0,0.0,0.0,0.0,-0.012063098161463765,-0.0024126196322927533,P2:250,0.0024126196322927533
11913,0.0,0.0,0.0,0.0,-0.012024478376099858,-0.0024048956752199717,P1:55,0.0024048956752199717
15367,0.0,0.0,0.0,0.011979809376468113,0.0,0.0023959618752936226,P1:10805,0.0023959618752936226
16020,0.0,0.011961504113219992,0.0,0.0,0.0,0.0023923008226439985,Lin:14,0.0023923008226439985
1397,0.0,0.0,0.0,0.0,-0.011867106428255942,-0.002373421285651188,P6:45,0.002373421285651188
13916,-0.01185006646329778,0.0,0.0,0.0,0.0,-0.002370013292659556,P1:22390,0.002370013292659556
13979,0.0,0.0,0.0,-0.009852510177806681,-0.0019628879013471566,-0.0023630796158307676,P1:22212,0.0023630796158307676
5958,0.0,0.0,0.0,-0.011698733624637388,0.0,-0.0023397467249274776,P2:9319,0.0023397467249274776
6129,0.0,-0.005669349231926667,0.0,-0.0060244034856806175,0.0,-0.0023387505435214567,P2:8833,0.0023387505435214567
2562,0.0,0.0,0.0,-0.011640233845638724,0.0,-0.002328046769127745,P5 gd:1118,0.002328046769127745
15991,0.0,0.0,0.0,0.011544724780930996,0.0,0.002308944956186199,Lin:41,0.002308944956186199
3693,0.0005056454523260798,0.0,0.0,0.010938206998339894,0.0,0.0022887704901331947,P3:8662,0.0022887704901331947
15815,0.0,0.011405653000535157,0.0,0.0,0.0,0.0022811306001070315,MFI:267,0.0022811306001070315
8489,0.0,0.0,0.0,0.011307560476234138,0.0,0.0022615120952468276,P2:23916,0.0022615120952468276
6119,0.0,-0.01129308454365134,0.0,0.0,0.0,-0.002258616908730268,P2:8897,0.002258616908730268
1953,0.0,0.0,0.01125133265321199,0.0,0.0,0.002250266530642398,P5 gd:493,0.002250266530642398
2382,0.0,0.0,0.0,0.011190850415802662,0.0,0.0022381700831605325,P5 gd:1491,0.0022381700831605325
15506,0.0,0.0,-0.01090153549922546,0.0,0.0,-0.002180307099845092,MFI:84,0.002180307099845092
3051,0.0,-0.0006268693633097393,0.0,-0.010254559812952757,0.0,-0.002176285835252499,P4:5563,0.002176285835252499
2896,0.0,0.0,-0.010879689930393916,0.0,0.0,-0.002175937986078783,P4:6256,0.002175937986078783
5654,0.0,0.0,0.0,0.01081934259559491,0.0,0.002163868519118982,P3:165,0.002163868519118982
3430,-0.010662109437802342,0.0,0.0,0.0,0.0,-0.0021324218875604685,P4:3644,0.0021324218875604685
1629,0.0,0.0,-0.010531966793177975,0.0,0.0,-0.002106393358635595,P6 earlyB:15,0.002106393358635595
8300,0.0,0.0,0.0,0.0,0.01048493925332132,0.0020969878506642637,P2:24326,0.0020969878506642637
12680,0.0,0.0,-0.010400906175762928,0.0,0.0,-0.0020801812351525857,P1:2605,0.0020801812351525857
473,0.0,0.0,0.0,0.0,-0.010381342183248706,-0.002076268436649741,P7 Mono:6341,0.002076268436649741
15958,0.0,0.0,-0.010248664154046168,0.0,0.0,-0.0020497328308092333,MFI:123,0.0020497328308092333
5775,0.0,0.0,0.0,0.0,0.010218172930617286,0.002043634586123457,P2:9858,0.002043634586123457
4510,0.010125399816733317,0.0,0.0,0.0,0.0,0.0020250799633466632,P3:6002,0.0020250799633466632
10636,0.0,0.01010027191798921,0.0,0.0,0.0,0.002020054383597842,P2:10481,0.002020054383597842
10743,0.0,-0.010051798127259565,0.0,0.0,0.0,-0.002010359625451913,P1:9869,0.002010359625451913
3553,0.0,0.010040516678415207,0.0,0.0,0.0,0.0020081033356830415,P4:3221,0.0020081033356830415
4767,0.010036127874800238,0.0,0.0,0.0,0.0,0.0020072255749600475,P3:4628,0.0020072255749600475
13193,0.0,0.0,-0.009969334297182827,0.0,0.0,-0.0019938668594365653,P1:24734,0.0019938668594365653
6162,0.0,0.0,0.0,0.0,-0.009875940242621622,-0.0019751880485243244,P2:8723,0.0019751880485243244
1285,-0.009846656902641788,0.0,0.0,0.0,0.0,-0.0019693313805283575,P7 Mono:1816,0.0019693313805283575
15973,0.0,0.0,0.00973902582276528,0.0,0.0,0.001947805164553056,MFI:101,0.001947805164553056
10146,0.0,0.0,0.009719405115553794,0.0,0.0,0.001943881023110759,P2:13152,0.001943881023110759
5017,0.0,0.0,-0.009545539346832844,0.0,0.0,-0.001909107869366569,P3:4082,0.001909107869366569
1777,0.0,-0.003488135102216663,-0.006039815297098685,0.0,0.0,-0.0019055900798630697,P5 gd:796,0.0019055900798630697
6939,-0.00950319070156803,0.0,0.0,0.0,0.0,-0.0019006381403136059,P2:4498,0.0019006381403136059
14630,-0.003323311977870221,0.0,-0.006178285702117531,0.0,0.0,-0.0019003195359975505,P1:2035,0.0019003195359975505
1906,-0.009307205580351188,0.0,0.0,0.0,0.0,-0.0018614411160702375,P5 gd:588,0.0018614411160702375
9061,0.0,0.009197140999483867,0.0,0.0,0.0,0.0018394281998967733,P2:22562,0.0018394281998967733
1805,0.0,0.0,-0.009194839695335298,0.0,0.0,-0.0018389679390670595,P5 gd:758,0.0018389679390670595
14096,0.0,0.0,0.0,0.009172465109690279,0.0,0.0018344930219380557,P1:21966,0.0018344930219380557
2010,0.009096206515810678,0.0,0.0,0.0,0.0,0.0018192413031621357,P5 gd:383,0.0018192413031621357
2638,0.0,0.0,0.0,0.009065242879850003,0.0,0.0018130485759700007,P5 CD8:94,0.0018130485759700007
1252,0.0,0.0,0.0,0.0,-0.009028921851589026,-0.001805784370317805,P7 Mono:2080,0.001805784370317805
14790,0.0,-0.008032701813975878,-0.0009934632254796694,0.0,0.0,-0.0018052330078911095,P1:19956,0.0018052330078911095
10497,0.0,-0.009022455119017305,0.0,0.0,0.0,-0.001804491023803461,P2:11242,0.001804491023803461
2718,0.0,0.0,0.0,0.008998495818659318,0.0,0.0017996991637318637,P5 CD8:218,0.0017996991637318637
1023,-0.008985484578849217,0.0,0.0,0.0,0.0,-0.0017970969157698434,P7 Mono:3972,0.0017970969157698434
136,0.0,0.0,-0.008891284301158339,0.0,0.0,-0.0017782568602316678,P7:20,0.0017782568602316678
691,0.0,0.0,0.008885875025332637,0.0,0.0,0.0017771750050665273,P7 Mono:554,0.0017771750050665273
15517,0.0,0.008870353289164778,0.0,0.0,0.0,0.0017740706578329556,MFI:74,0.0017740706578329556
11615,0.0,-0.0040188373319201085,-0.00471364404744411,0.0,0.0,-0.0017464962758728434,P1:67,0.0017464962758728434
2459,0.0,0.0,-0.008671556682450834,0.0,0.0,-0.0017343113364901668,P5 gd:1353,0.0017343113364901668
