,coef_weight_0,coef_weight_1,coef_weight_2,coef_weight_3,coef_weight_4,coef_weight_mean,label,abs(cwm)
15691,-0.5079656178251055,-0.6583188868053453,-0.6537080475136299,-0.6861871617683561,-0.6454152599224191,-0.6303189947669712,MFI:469,0.6303189947669712
2315,-0.1601190146852879,-0.23437144696739265,-0.11273814177597782,-0.22769347875822657,-0.21355152865049923,-0.18969472216747682,P5 gd:1727,0.18969472216747682
13978,-0.18972377951605648,-0.09830797222539808,-0.17526272248458208,-0.232635156989637,-0.23789888034908496,-0.18676570231295173,P1:22213,0.18676570231295173
2337,0.18162395570683276,0.13979489778721715,0.10946732356983223,0.19449704663883602,0.19820413532941553,0.16471747180642674,P5 gd:1625,0.16471747180642674
16002,0.16463367009795024,0.20171950020574728,0.2050090507489391,0.15727318838501347,0.033735676359286704,0.15247421715938736,Lin:31,0.15247421715938736
14014,-0.12412301270280852,-0.09242212903771312,-0.13615322881401265,-0.1855750299476423,-0.206757525552477,-0.1490061852109307,P1:22132,0.1490061852109307
2794,0.1463872990103163,0.10515961844952548,0.14048738034375524,0.10816181888094922,0.24082382268917973,0.1482039878747452,P4:6542,0.1482039878747452
3105,0.10587938151101563,0.12300553356546252,0.19021858976178824,0.09239890100239795,0.20590353345728352,0.14348118785958958,P4:5373,0.14348118785958958
1109,-0.1276155974655489,-0.18761426366169992,-0.18091497987315244,-0.12372805209483262,-0.09561860417832083,-0.14309829945471092,P7 Mono:3409,0.14309829945471092
13977,-0.11653475570444922,-0.08779353696453558,-0.14136439414127128,-0.16015549221583927,-0.17012675871275448,-0.13519498754776998,P1:22214,0.13519498754776998
70,0.17627635007123943,0.04059783513222575,0.14719504277041062,0.09960727331334324,0.1792627262654249,0.1285878455105288,P7:31,0.1285878455105288
14751,-0.12382723591444571,-0.07162444597962002,-0.11999902431210469,-0.1519409401333685,-0.14210744829822577,-0.12189981892755294,P1:20030,0.12189981892755294
2258,0.11804371568685086,0.12444380805175248,0.09923859155674963,0.1039410705979697,0.1413559398667995,0.11740462515202443,P5 gd:1852,0.11740462515202443
15939,-0.15266094105124253,-0.06378290223027416,-0.09840367863161611,-0.10657136401596337,-0.15329872141283654,-0.11494352146838653,MFI:144,0.11494352146838653
2250,-0.10862782988624863,-0.1205666521878482,-0.09202370139858192,-0.10216782997866515,-0.12250077290151888,-0.10917735727057254,P5 gd:1867,0.10917735727057254
15174,-0.1295904568986516,-0.08228004667444545,-0.12945449355915364,-0.07042590565458859,-0.11724042913998776,-0.10579826638536542,P1:12022,0.10579826638536542
6486,0.053132832242758464,0.09710740483848704,0.04017064047883951,0.1827205332526851,0.14311733759568404,0.10324974968169083,P2:7234,0.10324974968169083
14013,-0.05721133790173099,-0.08379394117994947,-0.10214909775865443,-0.12284872583044551,-0.1472538813971496,-0.102651396813586,P1:22133,0.102651396813586
2052,0.11797520265746875,0.060241947907384276,0.15274594728185847,0.1362150288642432,0.04036874263810179,0.10150937386981129,P5 gd:275,0.10150937386981129
236,0.10770810011869256,0.1293992631043566,0.1285974160400154,0.05546819911946428,0.07877276503983181,0.09998914868447213,P7 Mono:966,0.09998914868447213
15675,-0.07744846338520425,-0.05644464669276347,-0.12697241763259867,-0.078358302180666,-0.15768028920367982,-0.09938082381898243,MFI:486,0.09938082381898243
9349,-0.06871588930561552,-0.07520217404425311,-0.10307426594953793,-0.12069074434297979,-0.11703903822370292,-0.09694442237321785,P2:2168,0.09694442237321785
10814,-0.13735804653330927,-0.05802673198329094,-0.1404756923552489,-0.06088400881254411,-0.08573870211295352,-0.09649663635946935,P1:9627,0.09649663635946935
1680,-0.0829915745079005,-0.10189097027998978,-0.03347348583970915,-0.13937449486295714,-0.11006116704156854,-0.09355833850642503,P5 gd:95,0.09355833850642503
14624,-0.13765054322917397,-0.09967721134052789,-0.06581002753544973,-0.08430461213092996,-0.07381871690569604,-0.09225222222835551,P1:20365,0.09225222222835551
15753,-0.10315220047390929,-0.02480408041499211,-0.07403566631222012,-0.14080526625805595,-0.10088404721357026,-0.08873625213454954,MFI:389,0.08873625213454954
9611,-0.051364610845000186,-0.1656264555324593,0.0,-0.14812910217877145,-0.07766417920908779,-0.08855686955306376,P2:21075,0.08855686955306376
14728,-0.07118929023621053,-0.06305997234482273,-0.09801270893994647,-0.10692566559485568,-0.10080850381144499,-0.08799922818545607,P1:20103,0.08799922818545607
2870,0.054643859960991505,0.08685248151500048,0.045723124108726046,0.12245614600475138,0.11585211135801494,0.08510554458949687,P4:6323,0.08510554458949687
2471,-0.06117781019739906,-0.09093726495927687,0.0,-0.15078817606153289,-0.12159836051294691,-0.08490032234623116,P5 gd:1328,0.08490032234623116
2873,0.06759464025696757,0.033236980930862504,0.047470426993692465,0.11597940345805403,0.15809708066083134,0.08447570646008158,P4:6320,0.08447570646008158
3160,-0.05172507697597185,-0.11525245242244173,-0.004863002580612957,-0.1768053450502784,-0.06867849546625918,-0.08346487449911281,P4:4754,0.08346487449911281
3037,0.0729277378249669,0.07110700580915166,0.13606210901959878,0.0005019641283318107,0.12807230045381685,0.0817342234471732,P4:5616,0.0817342234471732
3011,-0.054219769959306906,-0.07861614846282533,-0.09910341999961068,-0.10058040872143849,-0.07239905557838508,-0.08098376054431329,P4:5725,0.08098376054431329
108,0.11297842152421632,0.0,0.06290970844995147,0.05973265554101263,0.16839401862378287,0.08080296082779266,P7:23,0.08080296082779266
13915,-0.07163384438669594,-0.08014491934310326,-0.026473881784592434,-0.14761573534642888,-0.07626393736398646,-0.0804264636449614,P1:22391,0.0804264636449614
15392,-0.08492507803261617,-0.10319369796226986,-0.042845298010120846,-0.059775713007862934,-0.10139628123883447,-0.07842721365034086,P1:10573,0.07842721365034086
3089,-0.04176896900589676,-0.07452783424098425,-0.11504597065843215,-0.016690154406105117,-0.13701104537041717,-0.07700879473636708,P4:5451,0.07700879473636708
949,-0.0918878702774543,-0.06423986393948039,-0.06406901375618931,-0.014749121767031546,-0.14973233745680445,-0.076935641439392,P7 Mono:4261,0.076935641439392
15235,-0.07791689304276578,0.0,-0.14023859910243527,-0.09356327222616392,-0.06990468457548873,-0.07632468978937075,P1:11613,0.07632468978937075
8953,0.15332687327141145,0.07107817490345932,0.06741842494161444,0.08954149945346707,0.0,0.07627299451399046,P2:22839,0.07627299451399046
2334,-0.10722276179039338,-0.08942318190022072,-0.041440416638508476,-0.07775073441595941,-0.06336686286593225,-0.07584079152220284,P5 gd:1640,0.07584079152220284
3144,0.007790239550449246,0.006758185735129654,0.092189496557026,0.09491627500673583,0.17200345969404787,0.07473153130867771,P4:4904,0.07473153130867771
245,0.062241616855658106,0.11872440402055066,0.08640565889654055,0.05284964061555043,0.04928471377053348,0.07390120683176664,P7 Mono:957,0.07390120683176664
11423,-0.11988848740684191,-0.05713578337639018,-0.09195776939959331,-0.06739622479516118,-0.03176462540055259,-0.07362857807570783,P1:7538,0.07362857807570783
8353,-0.08677637041753099,-0.0736896937597434,-0.09831205060807961,-0.024953220927025982,-0.08212699189871764,-0.07317166552221951,P2:24148,0.07317166552221951
3453,-0.04421358674256677,-0.05348770036794476,-0.12005181008506298,-0.03140594412658555,-0.10813129436136748,-0.07145806713670551,P4:3562,0.07145806713670551
1280,0.01920375296965958,0.11127683185754542,0.09048980912722247,0.057593165136914225,0.07139354446510272,0.06999142071128887,P7 Mono:1897,0.06999142071128887
187,0.09002587876024112,0.10899558074381739,0.0707005116408126,0.002069025665479067,0.07384733954674973,0.06912766727141997,P7:140,0.06912766727141997
13899,-0.0766711336317439,-0.10940173876177275,-0.09151098907266758,0.0,-0.06433773294455945,-0.06838431888214874,P1:22442,0.06838431888214874
10775,-0.0995800319728587,-0.05692686400235452,-0.08610711744809484,-0.046950585552291084,-0.050182937725562426,-0.06794950734023232,P1:9786,0.06794950734023232
13740,-0.12379662731253066,-0.08226911975133985,0.0,-0.07069124147973266,-0.05508698827274862,-0.06636879536327037,P1:22942,0.06636879536327037
15395,-0.07395927702196353,-0.07301771334110194,-0.04536045297562631,-0.04504409219558104,-0.08890054145418656,-0.06525641539769188,P1:10564,0.06525641539769188
14652,-0.055404998147523504,-0.07760272083433052,-0.02288149784915853,-0.09192986622671255,-0.05798083119961545,-0.061159982851468106,P1:20261,0.061159982851468106
15670,0.0,-0.10393591248689685,-0.12284118633900769,-0.04504308827958825,-0.032632589305982534,-0.060890555282295054,MFI:491,0.060890555282295054
6488,0.02121386895655255,0.05850276912451349,0.004357027779458651,0.12430515682486355,0.09509492590972209,0.06069474971902207,P2:7231,0.06069474971902207
13657,-0.06177841338221902,-0.07177704136069678,-0.09576468317656762,-0.0599139921932167,-0.013162774512374943,-0.060479380925015015,P1:23378,0.060479380925015015
2684,-0.034019017345019345,0.0,-0.06312596208455454,-0.08296519597892724,-0.12108176772635446,-0.060238388626971104,P5 CD8:42,0.060238388626971104
13904,-0.04154759624461027,-0.11181322461422599,-0.07504556733744538,0.0,-0.0711958684611322,-0.05992045133148277,P1:22433,0.05992045133148277
2048,0.09142755291327843,0.0,0.0,0.13646344145872755,0.06252918475251637,0.05808403582490447,P5 gd:297,0.05808403582490447
2235,0.0,-0.05862316639982677,-0.097035875302808,-0.051608938711027556,-0.07898630295412513,-0.05725085667355749,P5 gd:1895,0.05725085667355749
10759,-0.12234760801730964,-0.09183815744477683,-0.010567938014618241,-0.02634951297341494,-0.030305314848997164,-0.05628170625982336,P1:9841,0.05628170625982336
13885,-0.09689324823868802,-0.04270348824198249,0.0,-0.07697795979750416,-0.061594945463431645,-0.05563392834832126,P1:22471,0.05563392834832126
13767,-0.03064377648107945,-0.11776621610636592,-0.04568751542750372,-0.02669047967152546,-0.04575877237092337,-0.053309352011479585,P1:22835,0.053309352011479585
7380,-0.08587392798674888,0.0,-0.043098464318286976,-0.03216189803729248,-0.10194174254792078,-0.05261520657804982,P2:26147,0.05261520657804982
1473,0.12456909030650193,0.07617783418284897,0.0,0.06006136711149079,0.0,0.052161658320168336,P6:216,0.052161658320168336
7219,0.004452817422384195,0.1591797894519858,0.008073974149322514,0.0,0.08894888025541729,0.05213109225582195,P2:289,0.05213109225582195
8857,0.12076763500364127,0.08782743952465939,0.00042070501029452685,0.05058390271367032,0.0,0.051919936450453105,P2:23091,0.051919936450453105
13883,-0.06663216133476563,-0.05821764086804962,0.0,-0.06577166226421638,-0.06629332631778229,-0.05138295815696279,P1:22474,0.05138295815696279
726,-0.10237171357038372,-0.03881358198706192,-0.059850462826141926,-0.025382956485580456,-0.030175641681747103,-0.05131887131018302,P7 Mono:5421,0.05131887131018302
1339,0.06246183806998599,0.06994551210605691,0.08592496407907206,0.010831506421799125,0.02421766448652331,0.05067629703268748,P7 Mono:1290,0.05067629703268748
14650,-0.06960367349118039,0.0,-0.0006346910031865503,-0.16614624603391545,-0.01595730403023312,-0.0504683829117031,P1:20270,0.0504683829117031
3125,0.04956388550248064,0.03784581857301299,0.09851444275261956,0.0,0.06439326195006659,0.05006348175563595,P4:5280,0.05006348175563595
15071,-0.022377455110199663,-0.068328317678757,-0.11123872981006305,0.0,-0.04747055277391707,-0.049883011074587355,P1:12687,0.049883011074587355
2770,-0.019693467091743886,-0.04464163856360459,-0.11072850734034476,-0.03469920592543934,-0.03861454593162763,-0.04967547297055204,P4:82,0.04967547297055204
87,0.052732955660457125,0.06842092539687684,0.0,0.1254184489547642,0.0,0.049314466002419635,P7:252,0.049314466002419635
3163,0.0,0.026893358334079253,0.04852953163794846,0.06911835514038958,0.10166330597800104,0.04924091021808367,P4:4690,0.04924091021808367
2320,0.0,0.05895913584152708,0.020413974098089878,0.026796621504944603,0.13181282999309477,0.04759651228753127,P5 gd:1698,0.04759651228753127
13916,-0.062457595148974816,-0.030289250928124536,-0.028518718703596284,-0.08659404768270987,-0.027814529163495555,-0.04713482832538021,P1:22390,0.04713482832538021
172,-0.05624050534283489,-0.08903789211765813,-0.028667076477647525,0.0,-0.061558422725347665,-0.04710077933269764,P7:154,0.04710077933269764
1122,0.07047530036995116,0.09994256322560795,0.057872040587271044,0.0,0.006086027955886423,0.04687518642774331,P7 Mono:3332,0.04687518642774331
209,0.0,0.040041119029511955,0.1069006986160876,0.0,0.08171907565128761,0.04573217865937743,P7:110,0.04573217865937743
8859,0.10332016460376195,0.07682412508315573,0.009214472355478993,0.039073540940738685,0.0,0.045686460596627065,P2:23088,0.045686460596627065
7379,-0.07852180023120658,0.0,-0.030949353198870162,-0.02578992939709266,-0.09028807524653734,-0.045109831614741344,P2:26148,0.045109831614741344
15181,-0.05790452940401378,-0.06925388768390267,-0.05327403626062249,0.0,-0.04325384299784343,-0.04473725926927648,P1:11996,0.04473725926927648
1896,-0.05728752906140667,0.0,-0.034655537247596006,-0.11869839780423258,-0.011944375047009268,-0.044517167832048905,P5 gd:607,0.044517167832048905
948,-0.047959914550557876,-0.004563966153191291,-0.03900862589979772,0.0,-0.1279692274296181,-0.043900346806633,P7 Mono:4262,0.043900346806633
15297,0.07546638725895032,0.014075923069652408,0.0,0.09929109727943201,0.029202509045627573,0.04360718333073246,P1:11255,0.04360718333073246
13822,-0.07218944569899854,-0.05045224126854233,-0.07808980648580366,-0.015984599453493804,0.0,-0.04334321858136767,P1:22700,0.04334321858136767
4554,0.0,0.0,0.07358768697475082,0.05136899654087417,0.09161640479275551,0.0433146176616761,P3:5903,0.0433146176616761
1272,0.0,0.07105281511793879,0.09568406908575511,0.03348620905412966,0.01545076237907567,0.043134771127379845,P7 Mono:1987,0.043134771127379845
15255,0.0,0.010597890347545586,0.07535352604100702,0.08903675233211654,0.040061992576268655,0.04301003225938756,P1:11534,0.04301003225938756
709,-0.12314174699543118,-0.0043756429499576845,-0.0424874644907475,-0.0010679563853380487,-0.04292948983476436,-0.042800460131247754,P7 Mono:5494,0.042800460131247754
1362,-0.09352701121763583,0.0,-0.05091394029559279,-0.06288342981258783,-0.0044823663324116995,-0.04236134953164562,P6:83,0.04236134953164562
13833,-0.01038990060010963,-0.06686033792014015,-0.06558467647262523,0.0,-0.06804707542401849,-0.0421763980833787,P1:22676,0.0421763980833787
725,-0.08445571940650493,-0.0351119903378727,-0.0533114628829336,0.0,-0.03490843608926069,-0.04155752174331438,P7 Mono:5422,0.04155752174331438
2218,-0.05649226765141121,-0.10231595522563365,0.0,-0.021818379424613107,-0.026417115105595846,-0.04140874348145076,P5 gd:1948,0.04140874348145076
86,0.04809491612334243,0.04437110412823828,0.0,0.11347235099950663,0.0,0.041187674250217465,P7:254,0.041187674250217465
15950,-0.01793728777798732,-0.049019739132712965,-0.03958642943912527,-0.0957980915902747,0.0,-0.04046830958802005,MFI:133,0.04046830958802005
2050,0.051002657635461794,0.0,0.08749864453794816,0.06152967107606803,0.0,0.04000619464989559,P5 gd:284,0.04000619464989559
12024,-0.05299296641900777,-0.0019517446815351868,-0.07914899194892176,-0.0035349839047551616,-0.06230758858653105,-0.03998725510815018,P1:507,0.03998725510815018
4552,0.026833077357650913,0.0,0.07336911437578521,0.03898339229833013,0.0596536238204827,0.03976784157044978,P3:5906,0.03976784157044978
7324,-0.07460586218846592,-0.048915351807766794,-0.028295707664048705,0.0,-0.04549119145113604,-0.03946162262228349,P2:26212,0.03946162262228349
10396,-0.036397771419985694,-0.03205294561205522,-0.0868595940182526,0.0,-0.04166874246394696,-0.0393958107028481,P2:11875,0.0393958107028481
2779,-0.010295564970672562,0.0,-0.06712411646605816,-0.004503137123130908,-0.11434161285847047,-0.039252886283666424,P4:69,0.039252886283666424
5374,-0.12978502016369867,-0.02156308782456063,-0.000817730652152387,0.0,-0.044054658802654384,-0.03924409948861321,P3:30,0.03924409948861321
7920,-0.03567613473532192,0.0,-0.06578740622831146,-0.09467454010406258,0.0,-0.03922761621353919,P2:25248,0.03922761621353919
2562,0.0,-0.01080495554148585,-0.04332081985613313,-0.05631927938729855,-0.0851710330503029,-0.03912321756704409,P5 gd:1118,0.03912321756704409
16003,-0.01135280427780128,-0.07539401076148991,-0.041843316654624756,-0.06600394134404926,0.0,-0.03891881460759304,Lin:30,0.03891881460759304
13768,-0.05263362553178793,-0.08415782061655644,-0.009506214813547914,0.0,-0.04594193727470567,-0.03844791964731959,P1:22834,0.03844791964731959
13763,-0.03770516876399696,-0.0763476712011165,-0.012758080265259451,-0.04569686037765594,-0.019271533659380315,-0.03835586285348183,P1:22862,0.03835586285348183
3167,0.0,0.0029456610578467634,0.05526938182369794,0.014409746916176623,0.11867782492559383,0.038260522944663033,P4:4669,0.038260522944663033
14912,0.03612899551156752,0.006138753936471382,0.07927732839344702,0.06357182387320026,0.005118007204505652,0.03804698178383837,P1:13482,0.03804698178383837
1940,0.017010358853721454,0.0,0.0,0.11947444320981959,0.053152886163600095,0.03792753764542823,P5 gd:524,0.03792753764542823
1002,-0.041008951472036106,-0.0917022223393792,-0.00447353147480603,0.0,-0.05083152977837035,-0.03760324701291834,P7 Mono:4127,0.03760324701291834
4097,-0.08508815425342127,-0.02218114105366284,0.0,-0.012349063679546607,-0.06392982581804538,-0.036709636960935224,P3:7651,0.036709636960935224
3547,0.022249280415021725,0.0,0.06393010713415671,0.0,0.09704506652980477,0.03664489081579664,P4:3231,0.03664489081579664
15958,0.0,-0.1358317951114802,-0.04678891132235524,0.0,0.0,-0.036524141286767085,MFI:123,0.036524141286767085
14007,-0.044433451510741455,0.0,0.0,-0.08097693018459272,-0.054580496484710556,-0.03599817563600895,P1:22142,0.03599817563600895
1278,0.0,0.05907451093996962,0.05103910789561866,0.013513349195993144,0.05450172775290493,0.035625739156897276,P7 Mono:1924,0.035625739156897276
15183,-0.012657437662331844,-0.08367188274642427,-0.057635774920823175,-0.0014728299717323,-0.020995463251264206,-0.035286677710515156,P1:11989,0.035286677710515156
4557,0.005771516961967042,0.0,0.052557897376838275,0.030948045402455184,0.08421433013270903,0.034698357974793904,P3:5896,0.034698357974793904
449,-0.05605921592078987,-0.11722404983903048,0.0,0.0,0.0,-0.03465665315196407,P7 Mono:64,0.03465665315196407
10743,-0.059275229434045625,-0.015707185340756744,-0.05533776296321145,-0.012139901015711765,-0.030640360208055994,-0.03462008779235632,P1:9869,0.03462008779235632
3124,0.08611841224565037,0.0,0.05300221627786842,0.0,0.033292106965654704,0.0344825470978347,P4:5281,0.0344825470978347
14481,-0.03490598579641589,-0.06357676746743128,-0.026079476247386064,-0.04776996139370931,0.0,-0.034466438180988504,P1:20793,0.034466438180988504
2327,0.0,-0.017158463989470126,-0.0696357599708995,-0.05097953797253738,-0.03329766632518938,-0.03421428565161928,P5 gd:1667,0.03421428565161928
15655,0.07905647195777411,0.0,0.0,0.0883060741577383,0.0,0.033472509223102485,MFI:515,0.033472509223102485
1016,0.0,0.08063169327620723,0.05960889007666949,0.01570023734181155,0.01000057751660515,0.033188279642258685,P7 Mono:4060,0.033188279642258685
170,-0.03563276712669183,-0.015407604648800267,0.0,-0.0385577695904638,-0.07607615576218316,-0.03313485942562781,P7:156,0.03313485942562781
15743,-0.040905194183832365,0.0,0.0,-0.0218500412196804,-0.10119392224645275,-0.03278983152999311,MFI:398,0.03278983152999311
8013,-0.06410138637869461,-0.03421221248821377,-0.025812183924670197,-0.03952367529875619,0.0,-0.032729891618066956,P2:25057,0.032729891618066956
8347,-0.05505586726494043,0.0,-0.008128251580284544,-0.035467594040208376,-0.06377221890776412,-0.032484786358639495,P2:24157,0.032484786358639495
3085,0.0,-0.09472957280480909,-0.03385465459734326,-0.033654111279989414,0.0,-0.032447667736428355,P4:5491,0.032447667736428355
13830,-0.023270533194714647,-0.04525716788323922,-0.054815326241250496,0.0,-0.0376516225468794,-0.03219892997321675,P1:22685,0.03219892997321675
10858,-0.03160079924219269,0.0,-0.03778427683668317,-0.054052870832029434,-0.03727606279946067,-0.032142801942073196,P1:9465,0.032142801942073196
157,0.0,-0.03576275987488389,-0.026611364134620372,-0.09575376052934259,0.0,-0.03162557690776937,P7:172,0.03162557690776937
2502,0.0,0.10306750619964199,0.0,0.004814962054093427,0.04978348931882046,0.03153319151451118,P5 gd:1268,0.03153319151451118
15878,0.0049868818483285345,0.11886070072628001,0.0,0.008413632733243,0.02294260018982999,0.031040763099536305,MFI:208,0.031040763099536305
6088,-0.009561196160416535,0.0,0.0,-0.1162999623482615,-0.02867579703045144,-0.030907391107825893,P2:9002,0.030907391107825893
14482,-0.05545550172215044,-0.04900239652872227,0.0,-0.049720245188530514,0.0,-0.030835628687880645,P1:20792,0.030835628687880645
15386,0.0,0.013210703720944642,0.03984053611223277,0.10109062368691081,0.0,0.030828372704017643,P1:10697,0.030828372704017643
6568,0.06238139438644536,0.0,0.09067476618809098,0.0009439349985729708,0.0,0.030800019114621862,P2:6919,0.030800019114621862
9931,-0.005755585890519036,-0.010033467797188162,-0.021131801067664557,-0.046778004810372156,-0.06891169101503533,-0.030522110116155847,P2:1844,0.030522110116155847
30,0.025926004044895548,0.06358809195849216,0.0,0.008275758304805144,0.05473986275567433,0.03050594341277344,P7:7,0.03050594341277344
11383,0.01213251045844858,0.030589389376033036,0.0,0.09092819717060081,0.017921970617766163,0.030314413524569716,P1:773,0.030314413524569716
730,-0.07537805418159724,-0.004280079604787144,-0.03461263830723328,0.0,-0.037141440244708175,-0.030282442467665167,P7 Mono:5412,0.030282442467665167
2605,0.0,0.0,0.11670093245369155,0.032060581868574155,0.0,0.02975230286445314,P5 NKT:67,0.02975230286445314
2599,0.020502500635075287,0.017091497438855744,0.0,0.10750041043835246,0.0,0.0290188817024567,P5 NKT:77,0.0290188817024567
4193,-0.04919796454552576,-0.035338450957845595,0.0,-0.008326752494665971,-0.05157990611165081,-0.028888614821937626,P3:7139,0.028888614821937626
1942,0.059260666274452804,0.0,0.0,0.08491600674290253,0.0,0.02883533460347107,P5 gd:521,0.02883533460347107
6713,0.03695108549667062,0.0,0.1068156145431395,0.0,0.0,0.028753340007962026,P2:6210,0.028753340007962026
2089,0.0,-0.12995513663918365,0.0,0.0,-0.011099085871257889,-0.028210844502088307,P5 gd:2167,0.028210844502088307
2536,0.017855586712221178,0.10376252367226012,0.0,0.0,0.01853431724327901,0.02803048552555206,P5 gd:1187,0.02803048552555206
7325,-0.05973220634558688,-0.019772468088448833,-0.0293838376234932,0.0,-0.03070393385568738,-0.02791848918264326,P2:26211,0.02791848918264326
2563,0.0,0.0,-0.013704441743853603,-0.05370715557862907,-0.07186634845278864,-0.02785558915505426,P5 gd:1115,0.02785558915505426
4059,-0.0724306434978847,-0.01451118153004118,0.0,-0.007907607354907887,-0.04411834237562773,-0.0277935549516923,P3:7758,0.0277935549516923
16005,0.0,0.10103154255016362,0.03591922115783401,0.0,0.0,0.027390152741599526,Lin:28,0.027390152741599526
10888,0.017478946130219282,0.0,0.01529851092982054,0.0,0.10397593467800592,0.027350678347609146,P1:9424,0.027350678347609146
15141,0.03956149111615394,0.0,0.01620107319844934,0.0,0.07943368094986944,0.027039249052894544,P1:12275,0.027039249052894544
15625,-0.09155923351290073,-0.042490325942462805,0.0,0.0,0.0,-0.026809911891072707,MFI:558,0.026809911891072707
10797,-0.031908694802182364,-0.0035363423323685906,-0.043183161878178826,-0.017191818163849387,-0.03773083463782058,-0.026710170362879947,P1:9699,0.026710170362879947
8041,-0.06913460086653198,0.0,-0.04719392950878452,-0.01666381883525662,0.0,-0.02659846984211462,P2:24976,0.02659846984211462
211,0.0,-0.011691355013683902,-0.0628415638625487,0.0,-0.05718637939338623,-0.026343859653923767,P7:108,0.026343859653923767
15367,0.0,0.0,0.06585620058923204,0.06465467682763938,0.0,0.026102175483374283,P1:10805,0.026102175483374283
3104,0.0,0.018569218071716437,0.045326359967446245,0.0,0.06530167314418757,0.025839450236670048,P4:5374,0.025839450236670048
3552,0.0,0.0,0.12789489320828332,0.0,0.0,0.025578978641656664,P4:3224,0.025578978641656664
13739,-0.03193846233269073,-0.050080421535937406,-0.005986038070282346,-0.0397907360574387,0.0,-0.025559131599269834,P1:22943,0.025559131599269834
15296,0.04648329012724415,0.0011196217005339417,0.0,0.08011443838495699,0.0,0.025543470042547017,P1:11256,0.025543470042547017
3040,0.04125610750901891,0.0,0.04635719812041485,0.0,0.04009484209060081,0.025541629544006916,P4:5611,0.025541629544006916
2990,-0.007137903185990662,0.0,-0.025148857463692848,-0.07567180907118622,-0.019198429319901407,-0.025431399808154224,P4:5806,0.025431399808154224
3824,0.0,0.0493686379841161,0.02040648122609549,0.0,0.05628237719874703,0.025211499281791727,P3:8394,0.025211499281791727
4558,0.0,0.0,0.12522988683850364,0.0,0.0,0.025045977367700728,P3:5886,0.025045977367700728
8410,-0.052392256912484766,0.0,-0.0202781084210246,-0.0033273815786716635,-0.04898528881424759,-0.024996607145285725,P2:24073,0.024996607145285725
15548,0.0,-0.12413814628059915,0.0,0.0,0.0,-0.02482762925611983,MFI:661,0.02482762925611983
6755,-0.011442847114463186,-0.03428081590259755,-0.023635126403466565,-0.029741928848269678,-0.024804748109535802,-0.024781093275666556,P2:575,0.024781093275666556
10729,0.027742410267223197,0.033716468674460334,0.003931706282414118,0.03173919833758296,0.02640795512392051,0.024707547737120222,P1:9919,0.024707547737120222
15648,0.058981662305699595,0.0,0.0,0.06336632551644869,0.0,0.02446959756442966,MFI:524,0.02446959756442966
13655,0.0,0.04551082600987295,0.0,0.01646834200741371,0.059969081746662045,0.024389649952789742,P1:23382,0.024389649952789742
137,0.0,0.06229958503987262,0.0,0.0,0.05891944615335982,0.024243806238646488,P7:2,0.024243806238646488
1954,0.0,0.10274023423476851,0.0057599261709418825,0.011576351122802728,0.0,0.024015302305702625,P5 gd:492,0.024015302305702625
8411,-0.04989704073284287,0.0,-0.03173108667041249,0.0,-0.038211632073008824,-0.02396795189525284,P2:24072,0.02396795189525284
77,-0.007120171848664697,-0.018314051918231246,0.0,-0.09400197042163139,0.0,-0.023887238837705466,P7:268,0.023887238837705466
14657,-0.005357775634637788,-0.014202613272380092,0.0,-0.09956710025121109,0.0,-0.02382549783164579,P1:20243,0.02382549783164579
15069,-0.0056727334022490476,-0.055779296104933165,-0.03790611823560983,0.0,-0.019313309140748934,-0.023734291376708194,P1:12696,0.023734291376708194
9609,0.0,-0.06402028320793948,0.0,-0.05401654931251646,0.0,-0.023607366504091187,P2:21078,0.023607366504091187
15702,0.0,0.0,0.04607969952991777,0.06927733214698699,0.0026585396109732114,0.023603114257575594,MFI:441,0.023603114257575594
11369,-0.055075799669983286,-0.03485809568511275,0.0,0.0,-0.027690759151816926,-0.023524930901382593,P1:7768,0.023524930901382593
104,0.049656351934156864,0.041159338140082255,0.005701810833108771,0.020587404853483413,0.0,0.023420981152166263,P7:235,0.023420981152166263
2915,0.0,0.0635348979444516,0.0,0.053492511966431476,0.0,0.023405481982176613,P4:6227,0.023405481982176613
15778,-0.05602965779136842,0.0,0.0,-0.03996893610622946,-0.02058878998953547,-0.023317476777426672,MFI:311,0.023317476777426672
2236,0.0,0.0,-0.07950165664537967,-0.006728724326947688,-0.02868910841013404,-0.022983897876492278,P5 gd:1894,0.022983897876492278
15771,0.02576302399095278,0.0,0.0,0.027862801063044628,0.06111233340891839,0.02294763169258316,MFI:324,0.02294763169258316
11173,0.0,0.007547367680567832,0.02972358355397194,0.021820780468379364,0.05508913627812376,0.022836173596208577,P1:8525,0.022836173596208577
14472,-0.040723521857322614,-0.02377433348729746,0.0,-0.04943847710946698,0.0,-0.022787266490817408,P1:20819,0.022787266490817408
52,0.0,0.0,-0.019953045983527377,-0.09344038785333814,0.0,-0.022678686767373103,P7:49,0.022678686767373103
676,-0.01476841747071164,0.0,-0.03487009274198947,0.0,-0.06346615538018308,-0.022620933118576835,P7 Mono:5608,0.022620933118576835
1364,-0.019963010530649417,0.0,-0.002221903467553149,-0.09055570946159713,0.0,-0.02254812469195994,P6:80,0.02254812469195994
15796,-0.10052285042436424,0.0,0.0,-0.012114297934651425,0.0,-0.022527429671803132,MFI:287,0.022527429671803132
2370,0.01731632511027135,0.0,0.0,0.0947421937299253,0.0,0.02241170376803933,P5 gd:1510,0.02241170376803933
2575,0.0,0.06976581957258667,0.0,0.0,0.03958827644378325,0.021870819203273984,P5 gd:1032,0.021870819203273984
6725,0.028890994089560692,0.0,0.07931480560495838,0.0,0.0,0.021641159938903816,P2:5945,0.021641159938903816
10495,0.0,-0.048405251445065356,0.0,-0.05969968454863771,0.0,-0.021620987198740612,P2:11248,0.021620987198740612
13752,-0.017423673195103236,-0.0653431462705643,-0.0214121080427063,-0.003199779725072565,0.0,-0.021475741446689282,P1:22916,0.021475741446689282
8354,-0.029634644027184572,0.0,-0.07443306957917699,0.0,-0.0027023474544193137,-0.021354012212156177,P2:24147,0.021354012212156177
3545,0.0,0.030272235145678904,0.07597346683712367,0.0,0.0,0.021249140396560513,P4:3233,0.021249140396560513
88,-0.03642036880239536,-0.0020731225123486133,0.0,0.0,-0.06773389670363054,-0.021245477603674904,P7:251,0.021245477603674904
5785,0.0,0.014218288299871028,0.014268497598649803,0.0512631208786668,0.026190740739412136,0.02118812950331995,P2:9833,0.02118812950331995
4029,-0.06795796401758215,0.0,0.0,-0.0037552294307452794,-0.03415114362165421,-0.02117286741399633,P3:7830,0.02117286741399633
5817,0.0,0.023150148303787064,0.0,0.04516766171771538,0.037285243259684735,0.021120610656237437,P2:9752,0.021120610656237437
3118,0.028057709340553138,0.010509182443315328,0.06371332592863992,0.0,0.0030262894828298544,0.021061301439067648,P4:5293,0.021061301439067648
2880,0.0015898680812288701,0.02803728155778368,0.0,0.016320387722863944,0.058363073293199216,0.020862122131015143,P4:6311,0.020862122131015143
8838,0.0,0.0,-0.048353712557296334,-0.05551849651766921,0.0,-0.02077444181499311,P2:23125,0.02077444181499311
15678,0.0,0.0,-0.04170271640960229,-0.011118562008153103,-0.050308050462107706,-0.02062586577597262,MFI:481,0.02062586577597262
1123,0.05763383557702896,0.016628345987350815,0.028859382424679406,0.0,0.0,0.020624312797811836,P7 Mono:3329,0.020624312797811836
198,0.0,0.0,0.0,0.0,0.10265982506283268,0.020531965012566537,P7:126,0.020531965012566537
705,-0.06958967869592758,-0.002226167501952869,-0.014768462391337387,-0.015619435519269946,0.0,-0.02044074882169756,P7 Mono:5503,0.02044074882169756
11018,0.023613096509934914,0.0,0.003365926310459797,0.07416122976064438,0.0,0.020228050516207817,P1:9100,0.020228050516207817
11362,-0.05135648653627547,-0.022028348659548305,-0.016752051075474818,-0.010408718525471547,0.0,-0.020109120959354028,P1:7778,0.020109120959354028
6504,0.0,0.0,0.0,0.07308603352537343,0.02686458821594572,0.019990124348263832,P2:716,0.019990124348263832
834,-0.024275031223310834,0.0,-0.048385700607419646,0.0,-0.026902310567958245,-0.019912608479737744,P7 Mono:4830,0.019912608479737744
4546,0.0,0.0,0.06181196034179765,0.0,0.03724038672043414,0.01981046941244636,P3:5915,0.01981046941244636
1953,0.015224428856946021,0.0,0.03826060568218752,0.04490215067746771,0.0,0.01967743704332025,P5 gd:493,0.01967743704332025
5771,0.024063720327434722,0.0,0.01740594061993128,0.05552423173135673,0.0,0.019398778535744548,P2:9864,0.019398778535744548
14631,-0.053483356614062914,0.0,0.0,-0.029108946798213207,-0.014184363090122819,-0.01935533330047979,P1:20342,0.01935533330047979
15477,-0.05349268979511228,-0.04304336410680919,0.0,0.0,0.0,-0.019307210780384294,P1:10084,0.019307210780384294
721,-0.046243138790589444,-0.03554345958602919,-0.014308844892969758,0.0,0.0,-0.01921908865391768,P7 Mono:5431,0.01921908865391768
9047,0.0,-0.09596920039943797,0.0,0.0,0.0,-0.019193840079887593,P2:22601,0.019193840079887593
1636,0.0,0.0,0.02277131186045502,0.035723800387278744,0.03680056161584941,0.019059134772716636,P6 earlyB:130,0.019059134772716636
6769,0.019524678528803102,0.0,0.07555529034235778,0.0,0.0,0.019015993774232177,P2:5510,0.019015993774232177
2017,0.029858933883655406,0.0,0.0,0.04332730883681354,0.021851144162096745,0.01900747737651314,P5 gd:370,0.01900747737651314
15923,0.04595575127674187,0.021532480226737125,0.0,0.026954574878555487,0.0,0.018888561276406896,MFI:160,0.018888561276406896
811,-0.011962961628962019,0.0,-0.047240322791321815,0.0,-0.03345633317667551,-0.01853192351939187,P7 Mono:4938,0.01853192351939187
12848,-0.09208638565543414,0.0,0.0,-0.00038867037255404515,0.0,-0.01849501120559764,P1:25715,0.01849501120559764
1471,0.0,0.0,0.0,0.09240275437426411,0.0,0.01848055087485282,P6:219,0.01848055087485282
10348,0.0,-0.03718583584017568,-0.01682789042244111,0.0,-0.037421139962567566,-0.01828697324503687,P2:12284,0.01828697324503687
9987,0.0,0.0,-0.030232119564428346,-0.036072207400558574,-0.024492920680329093,-0.018159449529063204,P2:154,0.018159449529063204
15680,0.0,0.0,-0.09061147058291563,0.0,0.0,-0.018122294116583126,MFI:479,0.018122294116583126
9856,0.0,-0.07263221497051604,0.0,-0.01790532291964338,0.0,-0.018107507578031885,P2:20372,0.018107507578031885
13837,0.0,-0.08816702560304261,0.0,0.0,-0.0021938053752529533,-0.01807216619565911,P1:22648,0.01807216619565911
202,0.024759657244270043,0.0,0.003989625785342815,0.018089958694731196,0.04105506999681835,0.017578862344232483,P7:119,0.017578862344232483
14911,0.0,0.0,0.03228192994816482,0.05463207314881844,0.0,0.017382800619396652,P1:13483,0.017382800619396652
1968,-0.04279402179594651,-0.044114235994164246,0.0,0.0,0.0,-0.01738165155802215,P5 gd:47,0.01738165155802215
2529,0.0,-0.08670880103807009,0.0,0.0,0.0,-0.017341760207614017,P5 gd:1202,0.017341760207614017
998,0.0,0.05083562645344455,0.03583144765219294,0.0,0.0,0.017333414821127498,P7 Mono:4142,0.017333414821127498
1001,0.0,0.07533618861127843,0.009389006635069417,0.0016339407734678923,0.0,0.01727182720396315,P7 Mono:4133,0.01727182720396315
2620,-0.02483485033287919,0.0,-0.06052920386214159,0.0,0.0,-0.01707281083900416,P5 NKT:123,0.01707281083900416
12437,-0.033132527109945104,-0.05160472134604221,0.0,0.0,0.0,-0.016947449691197464,P1:319,0.016947449691197464
3246,0.0,-0.0013495051983605376,-0.016357231927313285,-0.06664012830136,0.0,-0.016869373085406765,P4:4329,0.016869373085406765
2031,0.021346992810600693,0.06294173155067982,0.0,0.0,0.0,0.0168577448722561,P5 gd:333,0.0168577448722561
15982,-0.047216463284667144,-0.03663956248917307,0.0,0.0,0.0,-0.016771205154768043,Lin:5,0.016771205154768043
7018,0.08369757666317292,0.0,0.0,0.0,0.0,0.016739515332634583,P2:4177,0.016739515332634583
1396,0.0,0.022492907061303486,0.04490670219534756,0.016252371933359763,0.0,0.01673039623800216,P6:46,0.01673039623800216
6484,0.0,0.0,0.0,0.058667131709788545,0.024687435300564657,0.016670913402070643,P2:7237,0.016670913402070643
13651,0.0,-0.02806963547367732,-0.02352268081642754,-0.03164666179736306,0.0,-0.016647795617493584,P1:23405,0.016647795617493584
15260,0.0,0.0,0.0,0.08259099830261876,0.0,0.01651819966052375,P1:11417,0.01651819966052375
56,0.0408845431092966,0.0,0.004485113010071515,0.0,0.03718115066156346,0.016510161356186315,P7:45,0.016510161356186315
4915,0.06046853295094279,0.0,0.0,0.0,0.021902102851398143,0.016474127160468185,P3:4336,0.016474127160468185
434,0.0,0.0,0.0,-0.03579829344497819,-0.04602127637573626,-0.01636391396414289,P7 Mono:6426,0.01636391396414289
15230,0.0,0.0,-0.0449261988173565,-0.036824493677012245,0.0,-0.01635013849887375,P1:11638,0.01635013849887375
10825,-0.02955832845834393,0.0,-0.01795366759062358,0.0,-0.034221049572285486,-0.0163466091242506,P1:9600,0.0163466091242506
10597,-0.0220654033993464,0.0,0.0,0.0,-0.05940682673222139,-0.01629444602631356,P2:10774,0.01629444602631356
4624,0.0,0.0,0.0,0.0,0.08144907509551012,0.016289815019102025,P3:5647,0.016289815019102025
11234,0.0,0.018024698810744817,0.007640145889480567,0.014625396052548317,0.04096159800814777,0.016250367752184296,P1:8281,0.016250367752184296
2329,0.0,0.0,-0.02889365630730987,-0.02477248024182961,-0.02711569859213785,-0.016156367028255465,P5 gd:1658,0.016156367028255465
212,0.0,0.0,0.0,0.008540830715154164,0.07184219944415163,0.016076606031861156,P7:106,0.016076606031861156
3220,0.027229977909100676,0.0,0.0,0.0531468427430451,0.0,0.016075364130429155,P4:4408,0.016075364130429155
2601,0.0,0.0,0.030832015082866877,0.0493410328002336,0.0,0.016034609576620097,P5 NKT:74,0.016034609576620097
4014,0.04820884232178917,0.0,0.0,0.03172289526783274,0.0,0.015986347517924382,P3:7900,0.015986347517924382
2418,0.04563715727382285,0.0,0.0,0.03409154421795606,0.0,0.01594574029835578,P5 gd:1435,0.01594574029835578
4547,0.0,0.0,0.07959184880405504,0.0,0.0,0.015918369760811006,P3:5913,0.015918369760811006
6501,0.07883726923555423,0.0,0.0,0.0,0.0,0.015767453847110847,P2:7167,0.015767453847110847
10799,-0.023409822839000744,-0.020260700768160864,-0.016222185997544776,0.0,-0.01886958247713767,-0.01575245841636881,P1:9697,0.01575245841636881
82,0.07836944458108921,0.0,0.0,0.0,0.0,0.01567388891621784,P7:260,0.01567388891621784
6792,0.013065179962891454,0.0,0.06496006348782962,0.0,0.0,0.015605048690144216,P2:5279,0.015605048690144216
15434,-0.028096373046635453,0.0,0.0,-0.0009847599437685364,-0.04857205582062551,-0.0155306377622059,P1:10321,0.0155306377622059
817,-0.02942590136403249,0.0,-0.023335521310920277,0.0,-0.024707058515988613,-0.015493696238188276,P7 Mono:4911,0.015493696238188276
3119,0.0,0.0039004194284775317,0.07346736810435406,0.0,0.0,0.015473557506566319,P4:5292,0.015473557506566319
2689,-0.010030855681820864,0.0,0.0,0.0,-0.06670620304358509,-0.015347411745081191,P5 CD8:35,0.015347411745081191
2368,0.0,0.0,0.0,0.07643083611176608,0.0,0.015286167222353217,P5 gd:1513,0.015286167222353217
13753,-0.03539711454914599,-0.0408898979562873,0.0,0.0,0.0,-0.015257402501086658,P1:22915,0.015257402501086658
4921,0.05742074741774762,0.018547517911454998,0.0,0.0,0.0,0.015193653065840524,P3:4327,0.015193653065840524
2587,0.0,0.0,0.0,0.0,0.07586321945214573,0.015172643890429147,P5 NKT:92,0.015172643890429147
7246,0.0,0.0,-0.074270708947893,-0.0007252902335821625,0.0,-0.014999199836295033,P2:2811,0.014999199836295033
7316,-0.045493383833456316,0.0,0.0,-0.0057465443329442565,-0.023717917361426345,-0.014991569105565383,P2:26220,0.014991569105565383
2088,0.0,-0.07464045127382493,0.0,0.0,0.0,-0.014928090254764987,P5 gd:2168,0.014928090254764987
15662,0.06949499074184243,0.0,0.0,0.004679696504671296,0.0,0.014834937449302745,MFI:503,0.014834937449302745
1882,0.0,0.0,0.0,-0.07407849252908846,0.0,-0.014815698505817692,P5 gd:634,0.014815698505817692
3099,0.0,0.0,0.005235977323701648,0.008496844294354362,0.05907393819491137,0.014561351962593477,P4:5382,0.014561351962593477
15708,0.013473602362551577,0.059244084080548536,0.0,0.0,0.0,0.014543537288620022,MFI:435,0.014543537288620022
13693,-0.02723496374056643,0.0,-0.0017344070956936781,-0.04363150385568001,0.0,-0.014520174938388022,P1:23174,0.014520174938388022
2877,0.0,0.047835652281316865,0.0,0.017138209002590166,0.007485297600737278,0.014491831776928862,P4:6314,0.014491831776928862
7404,-0.010409707296029736,-0.02542364176766299,0.0,-0.035999097656844066,-0.0004215454592714835,-0.014450798435961653,P2:26118,0.014450798435961653
1945,0.048099857452333625,0.0,0.0,0.024111732288761963,0.0,0.01444231794821912,P5 gd:515,0.01444231794821912
15793,-0.047468812325914225,0.0,-0.007193393756730679,-0.017360710602823716,0.0,-0.014404583337093723,MFI:290,0.014404583337093723
2583,0.0,0.031013419539008012,0.0,0.0,0.040907377444345944,0.014384159396670792,P5 NKT:97,0.014384159396670792
3012,-0.006232692550802727,0.0,0.0,-0.012008122734750293,-0.053597427801744764,-0.014367648617459556,P4:5715,0.014367648617459556
3166,0.0,0.0,0.028613530782885664,0.0038046417544702824,0.039220557058101395,0.014327745919091467,P4:4680,0.014327745919091467
8176,0.0,-0.05876607345535285,0.0,-0.012601335062040937,0.0,-0.014273481703478757,P2:24713,0.014273481703478757
13232,0.0,-0.04363753509683564,-0.027352002919168623,0.0,0.0,-0.014197907603200855,P1:24597,0.014197907603200855
2913,0.0,0.0,0.0,0.07096258357542977,0.0,0.014192516715085954,P4:6229,0.014192516715085954
2102,0.0,-0.07070399992591646,0.0,0.0,0.0,-0.014140799985183292,P5 gd:2136,0.014140799985183292
3015,0.0,-0.034476378670483365,0.0,0.0,-0.03620441046053728,-0.01413615782620413,P4:5685,0.01413615782620413
15588,0.0,-0.07049864951979107,0.0,0.0,0.0,-0.014099729903958214,MFI:623,0.014099729903958214
605,0.0,-0.039668482342364614,0.0,0.0,-0.030413934325495124,-0.014016483333571948,P7 Mono:581,0.014016483333571948
2959,0.0,0.007175627678471435,0.0,0.06262617191861247,0.0,0.01396035991941678,P4:6012,0.01396035991941678
13325,0.0,-0.015970287591902815,-0.05376525220285566,0.0,0.0,-0.013947107958951696,P1:24318,0.013947107958951696
15494,0.0,0.0,0.0693741969898052,0.0,0.0,0.013874839397961039,MFI:95,0.013874839397961039
5067,0.03010833667235163,0.0,0.01854949492280212,0.020310257245678472,0.0,0.013793617768166445,P3:3938,0.013793617768166445
10506,0.0,0.0,-0.022936429171605977,-0.04576867771460444,0.0,-0.013741021377242082,P2:11170,0.013741021377242082
1536,-0.03145120475714572,0.0,0.0,0.0,-0.03718189592133923,-0.013726620135696987,P6 earlyB:91,0.013726620135696987
7954,0.0,0.0685186301268748,0.0,0.0,0.0,0.01370372602537496,P2:25187,0.01370372602537496
8373,-0.05181440507723989,0.0,0.0,0.0,-0.01596575722676882,-0.013556032460801743,P2:24127,0.013556032460801743
6551,-0.05105385152214069,0.0,0.0,-0.01656514244936083,0.0,-0.013523798794300304,P2:7,0.013523798794300304
8605,0.045180649709370795,0.022435637297381236,0.0,0.0,0.0,0.013523257401350405,P2:23646,0.013523257401350405
1635,0.0,0.0,0.0,0.0,0.06686487625604137,0.013372975251208275,P6 earlyB:135,0.013372975251208275
10792,-0.04715352277244579,0.0,-0.01913000016533599,0.0,0.0,-0.013256704587556355,P1:9706,0.013256704587556355
3036,0.0,0.006738239787947334,0.033597249938938256,0.0,0.025300357917301976,0.013127169528837513,P4:5617,0.013127169528837513
1008,-0.001529369040040118,-0.06376450503402953,0.0,0.0,0.0,-0.013058774814813929,P7 Mono:4109,0.013058774814813929
14908,0.0,0.0,0.04213370584902833,0.022517587888224673,0.0,0.012930258747450601,P1:13488,0.012930258747450601
15382,0.0,0.0,0.05830649882065913,0.0056882787998200485,0.0,0.012798955524095833,P1:10733,0.012798955524095833
15784,-0.06382657270159976,0.0,0.0,0.0,0.0,-0.012765314540319952,MFI:299,0.012765314540319952
12388,0.03938558203291705,0.02396852495665858,0.0,0.0,0.0,0.012670821397915127,P1:3450,0.012670821397915127
7321,-0.0207106201649899,0.0,-0.0423524618688598,0.0,0.0,-0.012612616406769939,P2:26215,0.012612616406769939
10846,0.0,0.0,-0.03931438315521859,0.0,-0.023354606868391838,-0.012533798004722086,P1:9519,0.012533798004722086
10390,0.0,-0.016103312481060027,-0.03775270174270345,0.0,-0.008788185383664174,-0.01252883992148553,P2:11911,0.01252883992148553
1588,0.0,0.024958731961934207,0.009864913105602384,0.027680646477275053,0.0,0.012500858308962328,P6 earlyB:242,0.012500858308962328
7098,0.0,-0.05698074739764058,0.0,0.0,-0.0051425105058712705,-0.01242465158070237,P2:3713,0.01242465158070237
227,0.0,0.04628579267898307,0.01223910852228828,0.0,0.0035707006524715503,0.01241912037074858,P7 Mono:984,0.01241912037074858
10167,0.0,0.0,0.0,-0.062092938431482246,0.0,-0.012418587686296449,P2:13028,0.012418587686296449
14471,-0.002326545913738232,-0.027421409728245832,0.0,-0.032047241435424305,0.0,-0.012359039415481674,P1:20820,0.012359039415481674
14326,-0.05525228778990921,0.0,0.0,-0.006529471213697744,0.0,-0.01235635180072139,P1:21297,0.01235635180072139
15418,0.006597773497402355,0.007325116833267072,0.007720534190260173,0.04010543712788777,0.0,0.012349772329763474,P1:10446,0.012349772329763474
203,0.0,0.0,0.0,-0.0009164186443970054,-0.060721456694703975,-0.012327575067820196,P7:118,0.012327575067820196
3122,0.028721262690757633,0.0,0.015541511038654796,0.0,0.017169287432794778,0.012286412232441441,P4:5284,0.012286412232441441
11376,-0.061308392842886,0.0,0.0,0.0,0.0,-0.0122616785685772,P1:7750,0.0122616785685772
11366,-0.03226341182374296,-0.010345224969296562,0.0,0.0,-0.018665266772311253,-0.012254780713070155,P1:7771,0.012254780713070155
11235,0.0,0.04187306145819405,0.0,0.01900774529271325,0.0,0.01217616135018146,P1:8280,0.01217616135018146
11224,0.0,0.0,-0.06070501186239085,0.0,0.0,-0.01214100237247817,P1:83,0.01214100237247817
1904,0.042413441232108225,0.0,0.01813633764265528,0.0,0.0,0.012109955774952701,P5 gd:592,0.012109955774952701
8898,0.0,0.0,0.0,0.06041562440554618,0.0,0.012083124881109237,P2:23010,0.012083124881109237
9625,0.0,-0.04178680774541614,0.0,-0.018203706438059342,0.0,-0.011998102836695095,P2:21051,0.011998102836695095
13689,-0.019264889249140604,-0.014539261632539378,-0.0019097046009759252,0.0,-0.024263657441111988,-0.01199550258475358,P1:23185,0.01199550258475358
11364,-0.04287154877688291,-0.015436835096565588,-0.001634543814192265,0.0,0.0,-0.011988585537528153,P1:7776,0.011988585537528153
216,0.012341019637095194,0.0,0.0,0.014575624683005151,0.032927104417149945,0.011968749747450057,P7:100,0.011968749747450057
2561,0.0,-0.0008457033532633043,-0.03645027033622782,0.0,-0.02247311249157538,-0.011953817236213301,P5 gd:1121,0.011953817236213301
15326,0.0,0.0,-0.028246943861019544,0.0,-0.031454695444545974,-0.011940327861113103,P1:11047,0.011940327861113103
3101,0.0,0.0,0.0,0.03315024273510903,0.02645905137386636,0.011921858821795079,P4:5379,0.011921858821795079
15387,0.0,0.0,0.0,0.05956919348519128,0.0,0.011913838697038256,P1:10688,0.011913838697038256
6709,0.009844386340378855,0.0,0.049629220300504616,0.0,0.0,0.011894721328176695,P2:6219,0.011894721328176695
59,0.0,-0.059158716169993804,0.0,0.0,0.0,-0.01183174323399876,P7:42,0.01183174323399876
6032,0.0,-0.058909877806157446,0.0,0.0,0.0,-0.011781975561231488,P2:9147,0.011781975561231488
8617,0.013233882175583194,0.04535752895710305,0.0,0.0,0.0,0.011718282226537249,P2:23619,0.011718282226537249
15698,0.0,0.05846662720404293,0.0,0.0,0.0,0.011693325440808585,MFI:460,0.011693325440808585
2905,0.0,0.0,0.0,0.05843387522240844,0.0,0.011686775044481689,P4:6239,0.011686775044481689
8349,-0.03449000469240833,0.0,0.0,0.0,-0.023654714299823312,-0.011628943798446329,P2:24154,0.011628943798446329
2581,0.0,0.0,-0.04839694404126081,0.0,-0.00962558278748473,-0.01160450536574911,P5 NKT:99,0.01160450536574911
703,0.0,-0.05783631621121515,0.0,0.0,0.0,-0.011567263242243029,P7 Mono:551,0.011567263242243029
2494,-0.05763369771698651,0.0,0.0,0.0,0.0,-0.011526739543397302,P5 gd:1284,0.011526739543397302
1342,0.0,0.04811774243083442,0.009466243500986248,0.0,0.0,0.011516797186364133,P7 Mono:1281,0.011516797186364133
3745,0.0,0.05733931718712186,0.0,0.0,0.0,0.011467863437424373,P3:858,0.011467863437424373
10793,-0.014582192665776036,0.0,-0.04080582128088718,-0.001889717324969798,0.0,-0.011455546254326604,P1:9705,0.011455546254326604
8875,0.001476215858370935,0.05543339131520975,0.0,0.0,0.0,0.011381921434716138,P2:23064,0.011381921434716138
6419,0.01106236755712282,0.0025133878728079992,0.0,0.0,0.042980522120303635,0.011311255510046891,P2:7661,0.011311255510046891
1866,0.0,0.0,-0.05611274634806662,0.0,0.0,-0.011222549269613325,P5 gd:66,0.011222549269613325
2568,0.0,0.0,0.0,-0.022743087326190216,-0.03290469072353954,-0.01112955560994595,P5 gd:1091,0.01112955560994595
6503,0.04618248882777307,0.006071449764314327,0.0,0.0033236458039136913,0.0,0.011115516879200218,P2:7165,0.011115516879200218
7347,-0.04130501172681633,-0.013876118147918181,0.0,0.0,0.0,-0.011036225974946903,P2:26189,0.011036225974946903
8431,-0.0023132396342226825,-0.0367955834335228,0.0,-0.0160440921180074,0.0,-0.011030583037150576,P2:24043,0.011030583037150576
3860,0.0,0.05508147226568921,0.0,0.0,0.0,0.011016294453137843,P3:831,0.011016294453137843
14009,-0.028654992323159517,0.0,0.0,0.0,-0.02607294727590214,-0.010945587919812332,P1:22139,0.010945587919812332
1554,0.0,0.0,0.0,0.0,-0.054672196403986933,-0.010934439280797386,P6 earlyB:68,0.010934439280797386
3752,0.027451702311126577,0.027070799873752476,0.0,0.0,0.0,0.01090450043697581,P3:857,0.01090450043697581
854,0.0,0.0,-0.04592120535793496,0.0,-0.008243122575199883,-0.01083286558662697,P7 Mono:4749,0.01083286558662697
131,0.0,0.0,0.05117055429060789,0.0,0.002931280248929806,0.01082036690790754,P7:205,0.01082036690790754
2055,0.0,0.041198956352327426,0.012606560993996428,0.0,0.0,0.01076110346926477,P5 gd:265,0.01076110346926477
3170,0.0,0.0,0.04516781989006735,0.0,0.008428831057310708,0.010719330189475611,P4:4599,0.010719330189475611
13255,0.0,0.0,0.0,0.0,0.052787051575360136,0.010557410315072027,P1:24487,0.010557410315072027
3781,0.0,0.0,0.052776961747376186,0.0,0.0,0.010555392349475237,P3:85,0.010555392349475237
15162,0.0,-0.033345455760993535,-0.01932572464648723,0.0,0.0,-0.010534236081496154,P1:12212,0.010534236081496154
15644,0.052554867223722,0.0,0.0,0.0,0.0,0.0105109734447444,MFI:530,0.0105109734447444
1533,0.0,0.0,0.0,0.0,-0.052369718380919535,-0.010473943676183907,P6 earlyB:95,0.010473943676183907
11361,-0.03402301224393264,-0.011187746873685747,0.0,0.0,-0.006942802335651923,-0.010430712290654062,P1:7779,0.010430712290654062
3121,0.0,0.016399505965921494,0.0,0.0,0.035148850500321814,0.010309671293248663,P4:5289,0.010309671293248663
13812,-0.03241290343845185,-0.0004799505446694371,0.0,-0.018119021507192225,0.0,-0.010202375098062702,P1:22714,0.010202375098062702
3123,0.0,0.003695389957272924,0.04728119426584398,0.0,0.0,0.01019531684462338,P4:5283,0.01019531684462338
1340,0.008315603373597812,0.0,0.04246150757330234,0.0,0.0,0.01015542218938003,P7 Mono:1287,0.01015542218938003
11179,0.0,0.03865091628586542,0.0,0.01172239251339258,0.0,0.0100746617598516,P1:8511,0.0100746617598516
1639,0.0,0.0,0.0,0.0,0.05032680767619999,0.010065361535239998,P6 earlyB:126,0.010065361535239998
890,0.0,0.0,0.0,-0.04578902772813357,-0.004514719074110596,-0.010060749360448833,P7 Mono:4442,0.010060749360448833
6001,0.0,0.0,0.0,-0.04899982233163059,-0.0012783874076670407,-0.010055641947859526,P2:9233,0.010055641947859526
8375,-0.009486083853114783,-0.027732783989546338,0.0,0.0,-0.012941812067615452,-0.010032135982055315,P2:24121,0.010032135982055315
14986,0.0,0.0,-0.035880057537611025,0.0,-0.014213925057518373,-0.01001879651902588,P1:13149,0.01001879651902588
11918,0.0,0.0,0.0,0.0,-0.05006781244100121,-0.010013562488200243,P1:5472,0.010013562488200243
6308,0.0,0.0,0.0,0.04584015786256868,0.0041843222692362556,0.010004896026360987,P2:837,0.010004896026360987
2254,0.0,-0.011087089326919762,-0.001704674985715658,0.0,-0.03707891205002485,-0.009974135272532055,P5 gd:1859,0.009974135272532055
7705,-0.04978921604850216,0.0,0.0,0.0,0.0,-0.009957843209700432,P2:25547,0.009957843209700432
10497,0.0,-0.012929451937233083,0.0,-0.03626139280799912,0.0,-0.009838168949046442,P2:11242,0.009838168949046442
208,0.0,0.0,0.0,0.0,-0.04879255889699544,-0.009758511779399088,P7:111,0.009758511779399088
3544,0.0,0.0,0.022826539683034004,0.0,0.025872320034599786,0.009739771943526758,P4:3234,0.009739771943526758
9631,0.0,-0.04163125196958359,0.0,-0.007061482501601441,0.0,-0.009738546894237006,P2:21039,0.009738546894237006
8880,0.013133955474878018,0.03368876751624171,0.001868441767092263,0.0,0.0,0.009738232951642398,P2:23052,0.009738232951642398
14305,0.0,0.0,0.048545136953250495,0.0,0.0,0.0097090273906501,P1:2134,0.0097090273906501
207,0.0,0.0,0.0,0.0,-0.04851963002696317,-0.009703926005392634,P7:112,0.009703926005392634
1922,0.0,0.0,0.0,-0.04843871027245752,0.0,-0.009687742054491504,P5 gd:553,0.009687742054491504
6146,0.0,0.0,0.0,-0.04827885359695658,0.0,-0.009655770719391315,P2:8781,0.009655770719391315
833,0.0,0.0,-0.04797819298460016,0.0,0.0,-0.009595638596920033,P7 Mono:4839,0.009595638596920033
5569,0.0,0.047842389717671734,0.0,0.0,0.0,0.009568477943534347,P3:224,0.009568477943534347
3437,0.0,0.0,0.0,0.0,-0.0478281628967939,-0.009565632579358779,P4:3629,0.009565632579358779
3151,0.0,0.0,0.0,-0.047470351349371165,0.0,-0.009494070269874233,P4:4835,0.009494070269874233
7939,0.0,0.046683235266539815,0.0,0.0,0.0,0.009336647053307962,P2:25214,0.009336647053307962
2588,0.0,0.0,0.0,0.04641827968142605,0.0,0.009283655936285209,P5 NKT:91,0.009283655936285209
15417,0.0,0.0,0.0,0.04630053166052839,0.0,0.009260106332105677,P1:10455,0.009260106332105677
15843,-0.046276438084794466,0.0,0.0,0.0,0.0,-0.009255287616958893,MFI:241,0.009255287616958893
7919,0.0,0.0,-0.03559698469310779,-0.010399734067450402,0.0,-0.009199343752111639,P2:25249,0.009199343752111639
2579,0.0,0.03652429949451783,0.0,0.0,0.00935351299893825,0.009175562498691217,P5 gd:1010,0.009175562498691217
12942,0.0,0.04568285775814221,0.0,0.0,0.0,0.009136571551628442,P1:25469,0.009136571551628442
13828,-0.022497696899722197,0.0,-0.012341442405499614,-0.010774290105265228,0.0,-0.009122685882097407,P1:22691,0.009122685882097407
2590,0.0,0.0,0.045444925304624635,0.0,0.0,0.009088985060924927,P5 NKT:88,0.009088985060924927
263,-0.03542495291185822,0.0,-0.009316335066186227,0.0,-0.00037901109508639997,-0.00902405981462617,P7 Mono:92,0.00902405981462617
1130,0.0,0.04460495867539371,0.0,0.0,0.0,0.008920991735078742,P7 Mono:3170,0.008920991735078742
14269,0.0,0.0,0.04438686419828263,0.0,0.0,0.008877372839656526,P1:2143,0.008877372839656526
258,0.0,-0.0441832694822479,0.0,0.0,0.0,-0.00883665389644958,P7 Mono:933,0.00883665389644958
67,0.0,0.0,0.0,-0.002165222571051268,-0.04185869230314588,-0.00880478297483943,P7:35,0.00880478297483943
91,-0.017323985793523653,-0.021205318989324748,0.0,-0.005379224324685263,0.0,-0.008781705821506733,P7:249,0.008781705821506733
78,0.0,0.0,0.0,-0.043739269282007366,0.0,-0.008747853856401474,P7:267,0.008747853856401474
13764,-0.030308303895575508,-0.011190978230311044,0.0,0.0,-0.0022161134547461292,-0.008743079116126536,P1:22861,0.008743079116126536
8792,0.0,-0.04370239573744406,0.0,0.0,0.0,-0.008740479147488812,P2:2319,0.008740479147488812
9314,0.0,0.0,-0.043659099503806566,0.0,0.0,-0.008731819900761313,P2:21753,0.008731819900761313
7893,-0.007923082468514562,-0.004522933676992767,0.0,-0.030561263845055617,0.0,-0.00860145599811259,P2:25291,0.00860145599811259
1025,0.0,-0.04293263631005012,0.0,0.0,0.0,-0.008586527262010025,P7 Mono:3812,0.008586527262010025
15019,0.0,-0.04259731830269461,0.0,0.0,0.0,-0.008519463660538922,P1:12942,0.008519463660538922
171,0.0,-0.04255952515031772,0.0,0.0,0.0,-0.008511905030063544,P7:155,0.008511905030063544
8019,0.0,-0.020078565530958742,-0.01876935146673769,-0.0037087428953765326,0.0,-0.008511331978614593,P2:25030,0.008511331978614593
12532,0.0,0.0,0.04253948756169575,0.0,0.0,0.00850789751233915,P1:2832,0.00850789751233915
14939,0.0,0.0,-0.02195522047672962,0.0,-0.01993355749913067,-0.008377755595172056,P1:13384,0.008377755595172056
7487,0.0,0.0,0.0,0.0,-0.04187517787941646,-0.008375035575883292,P2:26005,0.008375035575883292
6571,0.0,0.0,0.0418357428577108,0.0,0.0,0.00836714857154216,P2:6910,0.00836714857154216
15393,-0.01728453913033044,0.0,0.0,-0.024480070936655066,0.0,-0.008352922013397102,P1:10572,0.008352922013397102
173,0.0,0.0,-0.04174536060834943,0.0,0.0,-0.008349072121669885,P7:153,0.008349072121669885
15250,0.0,0.0,0.04164775459623853,0.0,0.0,0.008329550919247707,P1:11543,0.008329550919247707
9001,0.0,-0.041203139894814896,0.0,0.0,0.0,-0.008240627978962979,P2:22682,0.008240627978962979
7126,0.0,0.0,-0.041190584065960975,0.0,0.0,-0.008238116813192194,P2:3562,0.008238116813192194
13882,0.0,-0.012939322268624709,0.0,-0.028185230892062242,0.0,-0.00822491063213739,P1:22475,0.00822491063213739
2119,-0.02490463368495552,0.0,0.0,0.0,-0.016137382693228727,-0.00820840327563685,P5 gd:2108,0.00820840327563685
8249,0.0,0.04094116049631699,0.0,0.0,0.0,0.008188232099263398,P2:24496,0.008188232099263398
7865,0.0,-0.040870709119573426,0.0,0.0,0.0,-0.008174141823914686,P2:25330,0.008174141823914686
3007,0.0,-0.023120858100501813,0.0,0.0,-0.017509343630071922,-0.008126040346114746,P4:5769,0.008126040346114746
1203,0.0,0.0,0.0,-0.040617343797454256,0.0,-0.00812346875949085,P7 Mono:2265,0.00812346875949085
1090,0.0,0.0,0.0,0.0,-0.040244349312205295,-0.00804886986244106,P7 Mono:3485,0.00804886986244106
2093,0.0,-0.04011645691613509,0.0,0.0,0.0,-0.008023291383227018,P5 gd:2158,0.008023291383227018
1662,-0.04007584267954936,0.0,0.0,0.0,0.0,-0.008015168535909872,P5 gd:976,0.008015168535909872
15257,0.0,0.0,0.0,0.03972124804634499,0.0,0.007944249609268999,P1:11528,0.007944249609268999
12030,0.0,0.0,0.03967993367560171,0.0,0.0,0.007935986735120342,P1:5014,0.007935986735120342
12948,0.03945683927329733,0.0,0.0,0.0,0.0,0.007891367854659466,P1:25458,0.007891367854659466
14900,0.0,0.0,0.0,0.03937758853674858,0.0,0.007875517707349716,P1:13578,0.007875517707349716
12264,0.0,0.0,0.03932492154683617,0.0,0.0,0.007864984309367235,P1:4014,0.007864984309367235
1678,0.025838398942662634,0.0,0.0,0.013221999176003476,0.0,0.007812079623733222,P5 gd:954,0.007812079623733222
4239,0.03905770375009513,0.0,0.0,0.0,0.0,0.0078115407500190265,P3:6938,0.0078115407500190265
7236,0.0,0.0,-0.0389129438218518,0.0,0.0,-0.00778258876437036,P2:2838,0.00778258876437036
14355,0.0,0.01600942175157975,0.022871421464200643,0.0,0.0,0.007776168643156079,P1:21140,0.007776168643156079
7709,0.0,0.0,-0.0386101492830488,0.0,0.0,-0.007722029856609761,P2:25541,0.007722029856609761
6491,0.0,0.0,0.0,0.03856159827259005,0.0,0.00771231965451801,P2:7228,0.00771231965451801
13034,0.03837002357028248,0.0,0.0,0.0,0.0,0.007674004714056495,P1:25206,0.007674004714056495
2217,-0.006680801253236748,-0.03158853298936139,0.0,0.0,0.0,-0.0076538668485196274,P5 gd:1949,0.0076538668485196274
8787,0.0,-0.03826689805887151,0.0,0.0,0.0,-0.007653379611774302,P2:23201,0.007653379611774302
8855,-0.0368790153746026,-0.0013243070157641455,0.0,0.0,0.0,-0.007640664478073348,P2:23093,0.007640664478073348
8027,0.0,0.0,-0.03797285545641746,0.0,0.0,-0.007594571091283492,P2:25009,0.007594571091283492
15259,0.0,0.0,0.0,0.037960195187795524,0.0,0.007592039037559105,P1:11525,0.007592039037559105
238,0.0100049215864756,0.0,0.02789108716113346,0.0,0.0,0.007579201749521812,P7 Mono:963,0.007579201749521812
15496,0.0,0.0,0.03774292903480827,0.0,0.0,0.007548585806961654,MFI:93,0.007548585806961654
10861,-0.006966772779219961,0.0,-0.030565290572711814,0.0,0.0,-0.007506412670386355,P1:9462,0.007506412670386355
2437,0.0,0.0,-0.037525837013718165,0.0,0.0,-0.007505167402743633,P5 gd:1403,0.007505167402743633
2473,0.0,-0.01193096589587963,0.0,-0.025582598115261982,0.0,-0.007502712802228323,P5 gd:1321,0.007502712802228323
13910,-0.006089253859189797,-0.014678623275291338,0.0,-0.016717073842880473,0.0,-0.007496990195472323,P1:22402,0.007496990195472323
2207,0.0,0.0,0.0,0.0,-0.037421478384683,-0.007484295676936601,P5 gd:1966,0.007484295676936601
12923,0.0,0.0,-0.023406536104673137,-0.01397240006131687,0.0,-0.007475787233198002,P1:25528,0.007475787233198002
8877,0.0,-0.029179890883282832,0.0,-0.008078144516568438,0.0,-0.007451607079970254,P2:23060,0.007451607079970254
2204,0.0,-0.021932569541691004,-0.014824457450647857,0.0,0.0,-0.007351405398467773,P5 gd:1976,0.007351405398467773
15812,0.0,0.01506048830966617,0.011782646465621136,0.00986825711116702,0.0,0.007342278377290864,MFI:27,0.007342278377290864
3977,-0.0036665801908015933,0.0,0.0,-0.02568471993245397,-0.007219648071267044,-0.007314189638904521,P3:7993,0.007314189638904521
8825,0.0,-0.03644575771485781,0.0,0.0,0.0,-0.007289151542971562,P2:23141,0.007289151542971562
15833,-0.036411915695209185,0.0,0.0,0.0,0.0,-0.007282383139041837,MFI:250,0.007282383139041837
80,-0.036363123712390866,0.0,0.0,0.0,0.0,-0.007272624742478173,P7:262,0.007272624742478173
5976,0.0,-0.023089100059389717,-0.01325160494442553,0.0,0.0,-0.00726814100076305,P2:9293,0.00726814100076305
13947,0.0,0.0,-0.03601960382987973,0.0,0.0,-0.007203920765975947,P1:22300,0.007203920765975947
3142,0.0,0.0,0.0,0.005371545021523755,0.030554585472163463,0.007185226098737443,P4:4913,0.007185226098737443
15414,0.0,0.004412724877862301,0.0,0.031501245708661536,0.0,0.007182794117304768,P1:10475,0.007182794117304768
13642,-0.027194860963781778,0.0,-0.007444873051889439,-0.0006641878790386355,0.0,-0.007060784378941971,P1:23420,0.007060784378941971
8157,0.0,-0.035201099490556644,0.0,0.0,0.0,-0.007040219898111329,P2:24740,0.007040219898111329
1519,0.0,0.0,0.034794448962940004,0.0,0.0,0.006958889792588001,P6:123,0.006958889792588001
6621,0.0,0.0,0.0,0.0,-0.034732422543486824,-0.006946484508697365,P2:660,0.006946484508697365
14008,0.0,0.0,0.0,-0.016919145434532837,-0.017680483712200885,-0.0069199258293467444,P1:22141,0.0069199258293467444
11251,0.0,0.0,0.021600277792557118,0.012894185137419049,0.0,0.0068988925859952335,P1:824,0.0068988925859952335
2150,0.0,0.0,0.0,0.03444863486054186,0.0,0.006889726972108372,P5 gd:206,0.006889726972108372
6890,0.014173911945851096,0.0,0.01997858880259312,0.0,0.0,0.006830500149688843,P2:4828,0.006830500149688843
3032,0.0,0.031043519301551612,0.0,0.0,0.0028834466200744957,0.006785393184325221,P4:5622,0.006785393184325221
2796,0.0,0.0,0.0,0.0,0.03381354078151676,0.006762708156303351,P4:6538,0.006762708156303351
7618,0.0336958549328529,0.0,0.0,0.0,0.0,0.0067391709865705805,P2:25751,0.0067391709865705805
14068,-0.033521499133899645,0.0,0.0,0.0,0.0,-0.006704299826779929,P1:22031,0.006704299826779929
10662,0.03348604040236697,0.0,0.0,0.0,0.0,0.006697208080473393,P2:102,0.006697208080473393
1993,0.0,0.0,0.0,0.033485383402838964,0.0,0.006697076680567793,P5 gd:421,0.006697076680567793
6631,0.0,0.0,0.0,0.019060379319770237,0.014322028402792649,0.006676481544512577,P2:6553,0.006676481544512577
8052,0.0,0.033076139363247506,0.0,0.0,0.0,0.006615227872649501,P2:24932,0.006615227872649501
1394,0.0,0.0,-0.03297534226775939,0.0,0.0,-0.006595068453551877,P6:48,0.006595068453551877
2621,0.0,0.0,-0.03291821486008881,0.0,0.0,-0.006583642972017761,P5 NKT:122,0.006583642972017761
828,0.0,0.0,-0.032778345365545775,0.0,0.0,-0.006555669073109155,P7 Mono:4857,0.006555669073109155
2501,0.0,0.009019048866668499,0.0,0.0,0.023750140132299216,0.006553837799793544,P5 gd:1270,0.006553837799793544
11443,-0.0009418986238967443,0.0,-0.031810070120929804,0.0,0.0,-0.00655039374896531,P1:740,0.00655039374896531
1124,0.03253059090968063,0.0,0.0,0.0,0.0,0.006506118181936126,P7 Mono:3328,0.006506118181936126
999,0.0,-0.03237348156954518,0.0,0.0,0.0,-0.006474696313909035,P7 Mono:4136,0.006474696313909035
12803,-0.022721412308124352,0.0,0.0,-0.00960461696656346,0.0,-0.0064652058549375625,P1:25790,0.0064652058549375625
5638,0.03208682295015788,0.0,0.0,0.0,0.0,0.006417364590031576,P3:183,0.006417364590031576
6287,0.0,0.0,0.0,0.006461607904920435,0.02554327625677689,0.006400976832339466,P2:8440,0.006400976832339466
9142,0.0,0.0,0.0,0.03193020779560283,0.0,0.006386041559120566,P2:22281,0.006386041559120566
4674,0.0,0.0,0.0,0.0,-0.03178078134396827,-0.006356156268793654,P3:5409,0.006356156268793654
8049,-0.03178074394502444,0.0,0.0,0.0,0.0,-0.006356148789004888,P2:24949,0.006356148789004888
7496,0.0,-0.010295077216262395,-0.020499318544915827,0.0,-0.0009694275907877629,-0.006352764670393196,P2:25997,0.006352764670393196
10938,0.0,0.0,0.0,0.031741685464028876,0.0,0.006348337092805775,P1:9243,0.006348337092805775
14357,0.0,0.0,0.0,0.0,0.03160407474119295,0.00632081494823859,P1:21139,0.00632081494823859
7862,0.0,-0.03157843594441279,0.0,0.0,0.0,-0.006315687188882558,P2:25333,0.006315687188882558
15637,0.03141629017880945,0.0,0.0,0.0,0.0,0.006283258035761891,MFI:539,0.006283258035761891
2542,0.0,-0.0312575900446172,0.0,0.0,0.0,-0.00625151800892344,P5 gd:1174,0.00625151800892344
13707,0.0,0.0,0.0,-0.03123089867513619,0.0,-0.006246179735027238,P1:23123,0.006246179735027238
6118,0.0,-0.018475372533605004,0.0,-0.012635627751520676,0.0,-0.006222200057025136,P2:89,0.006222200057025136
195,0.0,0.0,0.0,0.0,0.031051573181867336,0.006210314636373468,P7:129,0.006210314636373468
8002,0.0,-0.030870207917796776,0.0,0.0,0.0,-0.006174041583559355,P2:25090,0.006174041583559355
1525,-0.007486304233022648,0.0,0.0,-0.023342593570098682,0.0,-0.006165779560624266,P6:109,0.006165779560624266
2228,0.0,0.0,0.023748557250273302,0.0,0.006890607611881033,0.0061278329724308665,P5 gd:1909,0.0061278329724308665
14003,-0.01761753783046326,0.0,0.0,0.0,-0.01292369266265111,-0.006108246098622874,P1:22148,0.006108246098622874
13390,0.0,0.0,0.0,0.0,-0.03044823429426486,-0.006089646858852972,P1:24213,0.006089646858852972
8937,0.0,0.0,-0.030332375385889603,0.0,0.0,-0.00606647507717792,P2:22886,0.00606647507717792
148,0.02185623410419012,0.008360025194704242,0.0,0.0,0.0,0.006043251859778873,P7:186,0.006043251859778873
1773,0.0,-0.02987987392056928,0.0,0.0,0.0,-0.005975974784113856,P5 gd:80,0.005975974784113856
6739,0.0,0.0,-0.029653316937839236,0.0,0.0,-0.005930663387567847,P2:585,0.005930663387567847
4157,-0.01560135617694713,-0.013964277527283638,0.0,0.0,0.0,-0.005913126740846154,P3:7408,0.005913126740846154
674,-0.025711391311417097,0.0,0.0,-0.0038343110155572755,0.0,-0.005909140465394874,P7 Mono:5614,0.005909140465394874
13391,0.0,0.0,0.0,0.0,-0.029510029125218554,-0.0059020058250437105,P1:24212,0.0059020058250437105
12930,0.0,0.0,-0.02949159600142844,0.0,0.0,-0.005898319200285688,P1:25501,0.005898319200285688
5091,-0.029460694014286224,0.0,0.0,0.0,0.0,-0.005892138802857245,P3:389,0.005892138802857245
3159,0.0,-0.029410554910199997,0.0,0.0,0.0,-0.005882110982039999,P4:4790,0.005882110982039999
2530,-0.013124316948374636,0.0,0.0,-0.016225948673547635,0.0,-0.005870053124384454,P5 gd:1199,0.005870053124384454
11432,-0.010143397577418306,0.0,0.0,-0.018972150624499754,0.0,-0.005823109640383612,P1:7514,0.005823109640383612
15712,0.0,0.0,0.0,0.0,-0.029021684684910818,-0.005804336936982164,MFI:431,0.005804336936982164
3986,0.028999454092883334,0.0,0.0,0.0,0.0,0.005799890818576667,P3:7978,0.005799890818576667
7341,-0.028950436505117406,0.0,0.0,0.0,0.0,-0.0057900873010234815,P2:26195,0.0057900873010234815
6569,0.005778785410780443,0.0,0.022775515276018964,0.0,0.0,0.005710860137359881,P2:6916,0.005710860137359881
11414,0.0,0.0,0.0,0.0,0.028465560193194222,0.005693112038638844,P1:7585,0.005693112038638844
7083,-0.028243650565389095,0.0,0.0,0.0,0.0,-0.005648730113077819,P2:3776,0.005648730113077819
13956,0.0,0.0,0.0,0.0,0.028147728222410174,0.005629545644482035,P1:22251,0.005629545644482035
1460,0.0,0.0,0.0,0.0,-0.02814052669279744,-0.005628105338559488,P6:234,0.005628105338559488
12007,0.0,-0.028010602406930676,0.0,0.0,0.0,-0.005602120481386135,P1:52,0.005602120481386135
2586,0.0,0.0,0.02794263414494291,0.0,0.0,0.005588526828988582,P5 NKT:94,0.005588526828988582
7510,-0.019694730208846933,0.0,0.0,0.0,-0.008198994587286701,-0.005578744959226727,P2:25974,0.005578744959226727
1523,0.0,0.0,0.027851706511649768,0.0,0.0,0.005570341302329954,P6:115,0.005570341302329954
15443,0.0,0.0,-0.015782884581237028,0.0,-0.01200930593889871,-0.005558438104027148,P1:10222,0.005558438104027148
2069,0.0,0.019131262821353807,0.008598358304535906,0.0,0.0,0.005545924225177942,P5 gd:229,0.005545924225177942
1011,0.0,-0.027719554647556984,0.0,0.0,0.0,-0.005543910929511397,P7 Mono:4099,0.005543910929511397
2531,0.0,0.0,0.0,-0.027680972340590266,0.0,-0.005536194468118053,P5 gd:1198,0.005536194468118053
9090,0.0,0.0,0.0276006807938989,0.0,0.0,0.00552013615877978,P2:22486,0.00552013615877978
2916,0.0,0.0,0.0,0.027597114484970656,0.0,0.005519422896994131,P4:6226,0.005519422896994131
85,0.027401196176929123,0.0,0.0,0.0,0.0,0.005480239235385825,P7:257,0.005480239235385825
11177,0.0,0.0,0.0,0.006813630168745866,0.020304494137252188,0.005423624861199611,P1:8516,0.005423624861199611
2871,0.0,0.012311264415513197,0.0,0.014799252165368744,0.0,0.005422103316176388,P4:6322,0.005422103316176388
4225,0.0,0.0,0.0,0.00016795521586403795,0.02692949062149677,0.005419489167472162,P3:7,0.005419489167472162
15626,-0.018232582821882344,-0.008797803790283965,0.0,0.0,0.0,-0.005406077322433261,MFI:557,0.005406077322433261
13895,0.0,0.0,0.0,-0.01789995320174083,-0.008961342041171202,-0.005372259048582406,P1:22455,0.005372259048582406
177,0.0,0.0,0.0,0.0,-0.02685420501650381,-0.005370841003300762,P7:15,0.005370841003300762
10795,0.0,0.0,0.0,-0.02681734199504506,0.0,-0.005363468399009012,P1:9700,0.005363468399009012
15334,0.026681715422604883,0.0,0.0,0.0,0.0,0.0053363430845209765,P1:11013,0.0053363430845209765
15142,0.00383617954041384,0.0,0.0,0.0,0.022678147327575227,0.005302865373597814,P1:12273,0.005302865373597814
7120,0.0,0.0,0.0,0.0,-0.026422110916213333,-0.005284422183242666,P2:3604,0.005284422183242666
11178,0.0,0.026347173369263486,0.0,0.0,0.0,0.0052694346738526975,P1:8514,0.0052694346738526975
15323,0.0,0.01181628637474172,0.014527028926750186,0.0,0.0,0.0052686630602983816,P1:11051,0.0052686630602983816
3696,0.0262760956943936,0.0,0.0,0.0,0.0,0.00525521913887872,P3:8659,0.00525521913887872
3045,0.0,-0.01573349261037366,0.0,-0.010409353868358473,0.0,-0.005228569295746427,P4:5572,0.005228569295746427
13842,0.0,0.0,0.0,-0.026019822998391492,0.0,-0.0052039645996782985,P1:22637,0.0052039645996782985
11925,0.0,-0.025944436513331316,0.0,0.0,0.0,-0.005188887302666263,P1:546,0.005188887302666263
1575,0.0,0.0,0.025744194551995545,0.0,0.0,0.005148838910399109,P6 earlyB:4,0.005148838910399109
2500,0.0,0.019559022286948106,0.0,0.0,0.006134285666417512,0.005138661590673123,P5 gd:1271,0.005138661590673123
6602,0.0,0.0,-0.025665296460582483,0.0,0.0,-0.0051330592921164965,P2:6658,0.0051330592921164965
6878,0.0,0.0,0.0,-0.02526131372162261,0.0,-0.005052262744324522,P2:491,0.005052262744324522
7286,0.025130871320078987,0.0,0.0,0.0,0.0,0.0050261742640157975,P2:2647,0.0050261742640157975
14628,0.0,0.0,0.0,-0.024909361515901608,0.0,-0.004981872303180321,P1:20351,0.004981872303180321
6406,0.0,0.02485003053915563,0.0,0.0,0.0,0.004970006107831126,P2:7848,0.004970006107831126
4211,-0.02321741348032407,0.0,0.0,0.0,-0.0015152647953000846,-0.004946535655124831,P3:7052,0.004946535655124831
260,0.02453442548059594,0.0,0.0,0.0,0.0,0.004906885096119188,P7 Mono:930,0.004906885096119188
2286,0.0,0.024495879038812056,0.0,0.0,0.0,0.004899175807762411,P5 gd:1794,0.004899175807762411
2958,0.0,0.0,0.0,0.024481909398036662,0.0,0.004896381879607332,P4:6015,0.004896381879607332
2688,0.0,0.0,0.0,-0.00880324727240004,-0.015560092392374093,-0.004872667932954827,P5 CD8:39,0.004872667932954827
2622,0.0,0.0,0.0,-0.024055798842028523,0.0,-0.004811159768405704,P5 NKT:120,0.004811159768405704
2906,0.0,0.0,0.0,0.023942405402337445,0.0,0.004788481080467489,P4:6238,0.004788481080467489
2712,0.0,0.0,0.0,0.023494436347172767,0.00037034394545135775,0.004772956058524825,P5 CD8:229,0.004772956058524825
15081,0.0,0.0,0.0,-0.023456878753843027,0.0,-0.0046913757507686055,P1:12612,0.0046913757507686055
7312,-0.010615310258669537,0.0,-0.0017382478455345916,0.0,-0.011086763679607243,-0.004688064356762274,P2:26224,0.004688064356762274
4070,-0.023438219405184375,0.0,0.0,0.0,0.0,-0.004687643881036875,P3:7732,0.004687643881036875
1464,0.0,0.0,0.02333938311740064,0.0,0.0,0.004667876623480128,P6:23,0.004667876623480128
2335,0.0,0.0,0.0,0.007464926290815754,0.015847123916939612,0.004662410041551073,P5 gd:1628,0.004662410041551073
1371,0.0,0.0,-0.023241560280631447,0.0,0.0,-0.004648312056126289,P6:74,0.004648312056126289
11300,0.0,0.0,0.0,0.02319653331828095,0.0,0.00463930666365619,P1:8021,0.00463930666365619
7769,-0.02308074396057003,0.0,0.0,0.0,0.0,-0.004616148792114006,P2:25464,0.004616148792114006
10587,0.0,0.023065459364264268,0.0,0.0,0.0,0.004613091872852854,P2:10793,0.004613091872852854
2033,0.023026238397070402,0.0,0.0,0.0,0.0,0.00460524767941408,P5 gd:330,0.00460524767941408
13856,0.0,0.0,-0.022977937991286213,0.0,0.0,-0.004595587598257242,P1:22610,0.004595587598257242
2030,0.0,0.022903674570069872,0.0,0.0,0.0,0.004580734914013974,P5 gd:334,0.004580734914013974
15225,0.0,0.0,0.0,0.0,0.02277431013311269,0.004554862026622538,P1:11676,0.004554862026622538
11378,-0.022747615852299216,0.0,0.0,0.0,0.0,-0.004549523170459843,P1:7749,0.004549523170459843
13324,-0.0030485409997951236,0.0,0.0,0.0,-0.019524676534865115,-0.004514643506932048,P1:24319,0.004514643506932048
15412,0.0,0.0,0.0,0.022502661585127023,0.0,0.004500532317025405,P1:10484,0.004500532317025405
7293,0.0,0.0,0.0,-0.02229780551689131,0.0,-0.0044595611033782625,P2:2627,0.0044595611033782625
2351,0.0,0.022205238227553874,0.0,0.0,0.0,0.004441047645510775,P5 gd:1573,0.004441047645510775
6554,0.0,0.0,-0.022009748877764725,0.0,0.0,-0.004401949775552945,P2:699,0.004401949775552945
10307,0.0,-0.021988011391891653,0.0,0.0,0.0,-0.00439760227837833,P2:12572,0.00439760227837833
14827,0.0,0.02191034852246952,0.0,0.0,0.0,0.004382069704493904,P1:1769,0.004382069704493904
15473,-0.021576433659646295,0.0,0.0,0.0,0.0,-0.004315286731929259,P1:10099,0.004315286731929259
10756,0.0,-0.021493586619139447,0.0,0.0,0.0,-0.0042987173238278895,P1:9847,0.0042987173238278895
14267,0.0,0.0,0.012915207297337219,0.008530631821862892,0.0,0.004289167823840022,P1:2146,0.004289167823840022
1987,0.0,0.0,0.0,0.021225922006091667,0.0,0.004245184401218334,P5 gd:430,0.004245184401218334
7906,0.0,0.0,-0.021223293925571454,0.0,0.0,-0.0042446587851142905,P2:25272,0.0042446587851142905
12552,0.0,0.011799035716205766,0.0,0.009404240415707098,0.0,0.004240655226382573,P1:273,0.004240655226382573
1270,0.0,0.0,0.021070630301684275,0.0,0.0,0.004214126060336855,P7 Mono:2013,0.004214126060336855
11244,0.0,0.0,0.0,0.0,0.021069188221311555,0.004213837644262311,P1:8269,0.004213837644262311
15963,0.0,0.0,0.0,0.0,-0.020859558794355932,-0.004171911758871187,MFI:110,0.004171911758871187
4328,0.0,0.0,-0.020835350370224607,0.0,0.0,-0.004167070074044921,P3:6604,0.004167070074044921
5072,0.0017326308990412145,0.0,0.0,0.019054315945725413,0.0,0.004157389368953325,P3:3929,0.004157389368953325
13844,0.0,0.0,0.0,-0.020784390556252644,0.0,-0.004156878111250529,P1:22633,0.004156878111250529
7943,0.0,0.020770694289291545,0.0,0.0,0.0,0.004154138857858309,P2:25202,0.004154138857858309
11673,0.0,-0.02018585919686095,0.0,0.0,0.0,-0.004037171839372191,P1:6538,0.004037171839372191
8319,0.0,0.0,0.0,-0.020143303014141644,0.0,-0.004028660602828329,P2:24242,0.004028660602828329
3561,0.0,0.0,0.020086059734179578,0.0,0.0,0.004017211946835916,P4:3152,0.004017211946835916
10924,0.0,0.0,0.0,0.020018944111368647,0.0,0.0040037888222737295,P1:9344,0.0040037888222737295
221,0.0,0.0,0.019267712133785635,0.0,0.0006945362861344866,0.003992449683984024,P7 Mono:993,0.003992449683984024
2766,0.0,0.0,0.0,0.0,0.019897380159490365,0.003979476031898073,P4:88,0.003979476031898073
2328,0.0,0.014637765400770008,0.00522685434453442,0.0,0.0,0.003972923949060886,P5 gd:166,0.003972923949060886
1250,0.0,0.0,0.0,0.0,-0.01969780420218932,-0.003939560840437864,P7 Mono:2087,0.003939560840437864
6128,0.0,0.0,0.0,-0.019558686883023237,0.0,-0.003911737376604647,P2:8839,0.003911737376604647
15567,0.0,-0.01954970257495931,0.0,0.0,0.0,-0.003909940514991862,MFI:643,0.003909940514991862
3062,0.0,0.0,-0.019541545481563186,0.0,0.0,-0.003908309096312637,P4:5539,0.003908309096312637
6806,0.0,0.019365401790628088,0.0,0.0,0.0,0.003873080358125618,P2:5236,0.003873080358125618
3869,0.0,0.019340022145703357,0.0,0.0,0.0,0.0038680044291406713,P3:828,0.0038680044291406713
13297,0.0,0.0,-0.019332485213057735,0.0,0.0,-0.003866497042611547,P1:24364,0.003866497042611547
14609,-0.019278845227890615,0.0,0.0,0.0,0.0,-0.003855769045578123,P1:20392,0.003855769045578123
2522,0.0,-0.01909754490447243,0.0,0.0,0.0,-0.0038195089808944855,P5 gd:1229,0.0038195089808944855
6105,0.0,0.0,-0.019014266921694674,0.0,0.0,-0.003802853384338935,P2:8958,0.003802853384338935
7402,-0.00697791325264192,0.0,0.0,0.0,-0.011943052360486156,-0.003784193122625615,P2:26121,0.003784193122625615
3078,0.0,0.0,0.018841773208046062,0.0,0.0,0.0037683546416092126,P4:5523,0.0037683546416092126
2372,0.0,0.0,0.0,0.01873917434082159,0.0,0.003747834868164318,P5 gd:1509,0.003747834868164318
10545,0.0,0.0,0.0,-0.018602236991367708,0.0,-0.0037204473982735417,P2:10999,0.0037204473982735417
10760,-0.018601908879591542,0.0,0.0,0.0,0.0,-0.0037203817759183084,P1:9840,0.0037203817759183084
11563,0.0,0.010673733468802661,0.0,0.00791741679772979,0.0,0.0037182300533064898,P1:6936,0.0037182300533064898
15687,0.0,0.01855777949196142,0.0,0.0,0.0,0.003711555898392284,MFI:472,0.003711555898392284
15696,0.0,-0.01851443171596292,0.0,0.0,0.0,-0.0037028863431925836,MFI:464,0.0037028863431925836
228,-0.018476512542268744,0.0,0.0,0.0,0.0,-0.003695302508453749,P7 Mono:98,0.003695302508453749
15021,0.0,-0.009302997935693879,-0.009118447641357606,0.0,0.0,-0.003684289115410297,P1:12933,0.003684289115410297
6489,0.0,0.01838646592386066,0.0,0.0,0.0,0.003677293184772132,P2:7230,0.003677293184772132
1603,0.0,0.0,0.018134195414867944,0.0,0.0,0.0036268390829735887,P6 earlyB:212,0.0036268390829735887
2627,0.0,0.0,-0.018071341893516498,0.0,0.0,-0.0036142683787032995,P5 NKT:109,0.0036142683787032995
11314,-0.01747317626118462,-0.00036028655818798897,0.0,0.0,0.0,-0.003566692563874522,P1:7979,0.003566692563874522
7322,0.0,0.0,-0.01775178638112566,0.0,0.0,-0.0035503572762251323,P2:26214,0.0035503572762251323
26,0.0,0.0,0.0,0.0,-0.017601715875589667,-0.0035203431751179336,P7:73,0.0035203431751179336
14375,0.0,0.0,0.0,0.0,0.017581387263941196,0.003516277452788239,P1:21112,0.003516277452788239
1472,0.0,0.0,0.0,0.017386902384662364,0.0,0.0034773804769324726,P6:218,0.0034773804769324726
3521,0.017357366178507184,0.0,0.0,0.0,0.0,0.0034714732357014368,P4:3332,0.0034714732357014368
2543,0.0,0.0,0.0,-0.017291798064997477,0.0,-0.003458359612999495,P5 gd:1171,0.003458359612999495
3548,0.0,0.0014021978859560516,0.0,0.0,0.0158576492121207,0.0034519694196153508,P4:3230,0.0034519694196153508
6463,0.0,0.016892238425483864,0.0,0.0,0.0,0.003378447685096773,P2:7303,0.003378447685096773
11174,0.0,0.01684650383832902,0.0,0.0,0.0,0.0033693007676658037,P1:8523,0.0033693007676658037
2024,0.01675508208377372,0.0,0.0,0.0,0.0,0.0033510164167547445,P5 gd:352,0.0033510164167547445
2185,-0.016741827208065694,0.0,0.0,0.0,0.0,-0.0033483654416131387,P5 gd:2005,0.0033483654416131387
6114,0.0,-0.0165658405140278,0.0,0.0,0.0,-0.00331316810280556,P2:8929,0.00331316810280556
12524,0.0,0.0,0.01653443619204491,0.0,0.0,0.0033068872384089823,P1:2859,0.0033068872384089823
14463,0.0,0.0,0.0,0.0,0.01645767922908344,0.003291535845816688,P1:20851,0.003291535845816688
2904,0.0,0.0,0.0,0.016414451407521385,0.0,0.003282890281504277,P4:6242,0.003282890281504277
1927,0.016318885269453874,0.0,0.0,0.0,0.0,0.003263777053890775,P5 gd:548,0.003263777053890775
3740,0.016244285204860574,0.0,0.0,0.0,0.0,0.0032488570409721146,P3:8587,0.0032488570409721146
1368,0.0,0.0,-0.016196687058887754,0.0,0.0,-0.0032393374117775505,P6:77,0.0032393374117775505
6653,0.0,0.01618412200806641,0.0,0.0,0.0,0.0032368244016132823,P2:6468,0.0032368244016132823
12413,0.0,0.0,0.0,-0.016117277509137704,0.0,-0.0032234555018275405,P1:3316,0.0032234555018275405
15372,0.0,0.0,0.0,0.016066927495346234,0.0,0.003213385499069247,P1:10796,0.003213385499069247
13236,0.0,-0.016027893309802487,0.0,0.0,0.0,-0.0032055786619604974,P1:24569,0.0032055786619604974
15031,0.0,0.0,0.0,0.0,0.01600544319687422,0.003201088639374844,P1:12856,0.003201088639374844
1111,0.0,0.01599272291589941,0.0,0.0,0.0,0.0031985445831798818,P7 Mono:3404,0.0031985445831798818
13423,0.0,0.007086598511673157,0.0,0.008793869805269312,0.0,0.003176093663388494,P1:24156,0.003176093663388494
7488,0.0,0.0,0.0,0.0,-0.01578122215898051,-0.0031562444317961022,P2:26004,0.0031562444317961022
1106,0.0,0.01572891935212191,0.0,0.0,0.0,0.003145783870424382,P7 Mono:3413,0.003145783870424382
3029,0.0,0.015721159114280073,0.0,0.0,0.0,0.0031442318228560146,P4:5626,0.0031442318228560146
15636,0.0,-0.01568920482480604,0.0,0.0,0.0,-0.0031378409649612084,MFI:541,0.0031378409649612084
6840,0.0,0.015689137800336865,0.0,0.0,0.0,0.003137827560067373,P2:5074,0.003137827560067373
11242,0.0,0.0,0.0,0.0,0.01562792441337493,0.003125584882674986,P1:8270,0.003125584882674986
3926,0.007092054535568336,0.008524861096073552,0.0,0.0,0.0,0.0031233831263283774,P3:8099,0.0031233831263283774
6561,0.015433776350382964,0.0,0.0,0.0,0.0,0.0030867552700765927,P2:6938,0.0030867552700765927
1480,0.0,0.0,0.0,0.015320401914869795,0.0,0.0030640803829739592,P6:198,0.0030640803829739592
7448,0.0,0.0,-0.013054124073561452,-0.002213955916356808,0.0,-0.0030536159979836523,P2:2606,0.0030536159979836523
5047,0.0,0.0,0.015133716583735999,0.0,0.0,0.0030267433167472,P3:3965,0.0030267433167472
496,0.0,-0.015120601175264174,0.0,0.0,0.0,-0.0030241202350528348,P7 Mono:6290,0.0030241202350528348
12982,0.0,0.015074040871129034,0.0,0.0,0.0,0.003014808174225807,P1:25385,0.003014808174225807
1357,0.0,0.0,0.0,0.0,0.015039617821959865,0.003007923564391973,P6:91,0.003007923564391973
2046,0.0,0.0,0.014902542758308587,0.0,0.0,0.0029805085516617174,P5 gd:3,0.0029805085516617174
2801,0.0,0.011193880836643938,0.0,0.0,0.0036664769834427492,0.0029720715640173373,P4:6529,0.0029720715640173373
3221,0.014548011484851452,0.0,0.0,0.0,0.0,0.0029096022969702902,P4:4405,0.0029096022969702902
3605,0.014504147086162872,0.0,0.0,0.0,0.0,0.0029008294172325746,P3:979,0.0029008294172325746
8307,0.0,0.0,0.0,-0.014348712503331607,0.0,-0.0028697425006663215,P2:24286,0.0028697425006663215
2293,0.0,0.0,0.014100850804394058,0.0,0.0,0.0028201701608788115,P5 gd:178,0.0028201701608788115
269,-0.007285295294489766,0.0,0.0,0.0,-0.006704801860662644,-0.002798019431030482,P7 Mono:91,0.002798019431030482
11080,0.0,0.0,0.013980482496680153,0.0,0.0,0.0027960964993360305,P1:8896,0.0027960964993360305
2582,0.0,0.0,0.0,0.0,0.013957489968616694,0.002791497993723339,P5 NKT:98,0.002791497993723339
15676,0.0,0.0,0.0,0.0,-0.01385363660675546,-0.0027707273213510917,MFI:483,0.0027707273213510917
14408,-0.01379983075824016,0.0,0.0,0.0,0.0,-0.0027599661516480322,P1:20970,0.0027599661516480322
15553,0.0,0.0,-0.013731350860732187,0.0,0.0,-0.002746270172146437,MFI:657,0.002746270172146437
10876,0.0,0.0,-0.013664785347748612,0.0,0.0,-0.002732957069549722,P1:9437,0.002732957069549722
15437,0.0,0.0,0.0,0.0,-0.013624377565885472,-0.0027248755131770944,P1:10294,0.0027248755131770944
3030,0.0,0.013600860409473628,0.0,0.0,0.0,0.0027201720818947257,P4:5625,0.0027201720818947257
7386,-0.013565345675333748,0.0,0.0,0.0,0.0,-0.0027130691350667497,P2:26141,0.0027130691350667497
6259,0.0,0.0,0.0,-0.013454490529841646,0.0,-0.0026908981059683293,P2:853,0.0026908981059683293
73,0.0,0.0,0.0,-0.013352122903330271,0.0,-0.002670424580666054,P7:29,0.002670424580666054
15411,0.0,0.0,0.0,-0.013308504744324658,0.0,-0.0026617009488649314,P1:10489,0.0026617009488649314
14893,0.0,0.0,0.0,0.010801681127307216,0.0024682573968206546,0.002653987704825574,P1:13601,0.002653987704825574
57,0.0,0.0,0.0,-0.01322894180800343,0.0,-0.002645788361600686,P7:44,0.002645788361600686
15281,0.0,0.0,0.0,0.0,-0.013108016906783418,-0.0026216033813566833,P1:11302,0.0026216033813566833
11781,0.0,0.0,-0.013055336072137127,0.0,0.0,-0.0026110672144274254,P1:6061,0.0026110672144274254
3435,0.0,0.0,0.0,0.0,-0.012987822233545993,-0.0025975644467091984,P4:3630,0.0025975644467091984
3955,-0.012940686005530033,0.0,0.0,0.0,0.0,-0.0025881372011060068,P3:8043,0.0025881372011060068
6092,0.0,0.0,0.0,-0.012937644329257748,0.0,-0.0025875288658515497,P2:8996,0.0025875288658515497
13943,0.0,0.0,-0.012844165997335144,0.0,0.0,-0.002568833199467029,P1:22309,0.002568833199467029
7405,0.0,0.0,0.0,-0.012722649732213171,0.0,-0.002544529946442634,P2:26117,0.002544529946442634
9367,0.0,-0.01257551361352067,0.0,0.0,0.0,-0.002515102722704134,P2:2162,0.002515102722704134
14459,0.0,0.0,0.0,0.0,0.012520845111782862,0.0025041690223565724,P1:20860,0.0025041690223565724
1903,0.012458881261711094,0.0,0.0,0.0,0.0,0.0024917762523422185,P5 gd:596,0.0024917762523422185
175,0.0,-0.012371275301315859,0.0,0.0,0.0,-0.002474255060263172,P7:151,0.002474255060263172
3520,0.012324039626001369,0.0,0.0,0.0,0.0,0.002464807925200274,P4:3333,0.002464807925200274
7497,0.0,0.0,0.0,-0.012230366090330015,0.0,-0.002446073218066003,P2:25996,0.002446073218066003
11076,0.0,0.0,0.012147227140669542,0.0,0.0,0.0024294454281339082,P1:8904,0.0024294454281339082
14741,0.0,0.0,0.0,-0.01213875650251432,0.0,-0.002427751300502864,P1:20067,0.002427751300502864
6541,0.0,0.0,-0.012043341483395434,0.0,0.0,-0.0024086682966790868,P2:702,0.0024086682966790868
2281,0.0,0.0,0.0,0.0,-0.011757766559740172,-0.0023515533119480344,P5 gd:1807,0.0023515533119480344
1407,0.0,0.0,0.0,0.011737888273689172,0.0,0.0023475776547378343,P6:35,0.0023475776547378343
6558,0.006753212381829535,0.004940148985924743,0.0,0.0,0.0,0.0023386722735508556,P2:6958,0.0023386722735508556
247,0.0,-0.01165831052836498,0.0,0.0,0.0,-0.002331662105672996,P7 Mono:951,0.002331662105672996
1622,0.0,0.0,0.011641117072979906,0.0,0.0,0.002328223414595981,P6 earlyB:166,0.002328223414595981
10300,0.0,-0.011630972971841734,0.0,0.0,0.0,-0.002326194594368347,P2:12608,0.002326194594368347
993,0.0,0.011526093114833458,0.0,0.0,0.0,0.0023052186229666916,P7 Mono:4160,0.0023052186229666916
6656,0.0,0.011511060464861311,0.0,0.0,0.0,0.0023022120929722624,P2:6459,0.0023022120929722624
13691,-0.005256807654602048,0.0,0.0,0.0,-0.006233972841397974,-0.002298156099200004,P1:23183,0.002298156099200004
946,0.0,0.0,0.0,0.0,-0.011393715728468716,-0.0022787431456937433,P7 Mono:4271,0.0022787431456937433
14442,0.0,0.0,0.0,0.0,0.01139225189515662,0.002278450379031324,P1:20887,0.002278450379031324
3970,0.0,0.0,0.0,-0.011296576835058154,0.0,-0.0022593153670116307,P3:8002,0.0022593153670116307
15362,0.0,-0.011184146290365838,0.0,0.0,0.0,-0.0022368292580731675,P1:10819,0.0022368292580731675
12947,0.007808154694596914,0.0,0.0,0.0031535782180926977,0.0,0.0021923465825379224,P1:25460,0.0021923465825379224
6768,0.0,0.0,0.01087077864016982,0.0,0.0,0.002174155728033964,P2:5519,0.002174155728033964
8,0.010778564443834569,0.0,0.0,0.0,0.0,0.002155712888766914,P7:91,0.002155712888766914
3348,0.0,0.010752609310802344,0.0,0.0,0.0,0.0021505218621604687,P4:3938,0.0021505218621604687
6086,0.0,0.0,0.0,-0.010605507003488848,0.0,-0.0021211014006977695,P2:9005,0.0021211014006977695
15120,0.0,0.009015483837114532,0.0,0.0015695022033533183,0.0,0.00211699720809357,P1:12356,0.00211699720809357
3003,0.0,0.0,0.0,0.0,-0.010552761453052043,-0.0021105522906104085,P4:5775,0.0021105522906104085
7078,0.0,-0.01052292541195372,0.0,0.0,0.0,-0.002104585082390744,P2:3794,0.002104585082390744
13742,0.0,0.0,0.0,-0.010489612777733803,0.0,-0.002097922555546761,P1:22934,0.002097922555546761
1663,0.0,-0.010480864814195207,0.0,0.0,0.0,-0.0020961729628390414,P5 gd:975,0.0020961729628390414
13233,0.0,-0.010458024981554738,0.0,0.0,0.0,-0.0020916049963109478,P1:24596,0.0020916049963109478
1242,0.0,0.0,0.0,0.0,-0.010387901782102806,-0.0020775803564205613,P7 Mono:2123,0.0020775803564205613
851,0.0,0.0,-0.01030444793788505,0.0,0.0,-0.0020608895875770103,P7 Mono:4758,0.0020608895875770103
6073,0.0,-0.010108258052147222,0.0,0.0,0.0,-0.0020216516104294446,P2:9039,0.0020216516104294446
15199,0.0,0.0,-0.009990023991827354,0.0,0.0,-0.001998004798365471,P1:11851,0.001998004798365471
12959,0.009984464739069792,0.0,0.0,0.0,0.0,0.0019968929478139585,P1:25431,0.0019968929478139585
3956,-0.009977283018002566,0.0,0.0,0.0,0.0,-0.0019954566036005134,P3:8039,0.0019954566036005134
12643,0.0,0.0,0.0,0.009842938580177043,0.0,0.0019685877160354084,P1:26114,0.0019685877160354084
11236,0.0,0.0,0.0,0.0,0.009833893736749522,0.0019667787473499044,P1:8278,0.0019667787473499044
12175,0.006329234749989238,0.0034125026597560497,0.0,0.0,0.0,0.0019483474819490573,P1:4422,0.0019483474819490573
2114,0.0,0.0,0.0,-0.00944248909247191,0.0,-0.0018884978184943821,P5 gd:2115,0.0018884978184943821
1708,0.0,-0.009295209846720814,0.0,0.0,0.0,-0.0018590419693441627,P5 gd:903,0.0018590419693441627
15525,0.0,-0.009135390892596079,0.0,0.0,0.0,-0.0018270781785192157,MFI:682,0.0018270781785192157
6986,0.0,0.0,-0.009116052283931517,0.0,0.0,-0.0018232104567863032,P2:4295,0.0018232104567863032
10732,0.0,0.0,0.009042617705337494,0.0,0.0,0.0018085235410674988,P1:9910,0.0018085235410674988
1998,0.0,0.00897639781980503,0.0,0.0,0.0,0.001795279563961006,P5 gd:411,0.001795279563961006
2593,0.0,0.0,0.008856981821524753,0.0,0.0,0.0017713963643049505,P5 NKT:85,0.0017713963643049505
8940,0.0,0.0,0.0,-0.008674355164654163,0.0,-0.0017348710329308328,P2:22882,0.0017348710329308328
1932,0.0,0.0,0.0,0.008638944983369227,0.0,0.0017277889966738455,P5 gd:538,0.0017277889966738455
2983,0.0,0.0,0.0,0.007915362731323636,0.000624962296675033,0.0017080650055997337,P4:5853,0.0017080650055997337
4682,-0.008496878076579504,0.0,0.0,0.0,0.0,-0.0016993756153159008,P3:53,0.0016993756153159008
181,0.0,0.008439369899041283,0.0,0.0,0.0,0.0016878739798082566,P7:146,0.0016878739798082566
13869,0.0,0.0,-0.008317280899570624,0.0,0.0,-0.0016634561799141248,P1:22543,0.0016634561799141248
7315,-0.008235378804032738,0.0,0.0,0.0,0.0,-0.0016470757608065476,P2:26221,0.0016470757608065476
15092,0.0,0.0,0.0,0.0081726470395289,0.0,0.00163452940790578,P1:12569,0.00163452940790578
1325,0.0,0.0,0.0,0.0,-0.008055686468396562,-0.0016111372936793125,P7 Mono:1434,0.0016111372936793125
3077,0.007994769663278794,0.0,0.0,0.0,0.0,0.0015989539326557588,P4:5524,0.0015989539326557588
133,0.0,0.0,-0.007987620136005177,0.0,0.0,-0.0015975240272010354,P7:203,0.0015975240272010354
6239,0.0,0.0,0.0,0.0,-0.007978374076630082,-0.0015956748153260164,P2:8570,0.0015956748153260164
3,0.0,0.0,0.0,0.0,-0.007881926202152209,-0.0015763852404304419,P7:96,0.0015763852404304419
11315,-0.007873355583029786,0.0,0.0,0.0,0.0,-0.0015746711166059572,P1:7978,0.0015746711166059572
15614,0.0,0.0,0.0,0.0,0.007852497993738728,0.0015704995987477458,MFI:570,0.0015704995987477458
4237,0.007823528953500794,0.0,0.0,0.0,0.0,0.0015647057907001588,P3:6941,0.0015647057907001588
8269,0.0,-0.00762903218825428,0.0,0.0,0.0,-0.001525806437650856,P2:24455,0.001525806437650856
3646,0.0,0.0,-0.0076231596188631534,0.0,0.0,-0.0015246319237726307,P3:881,0.0015246319237726307
11020,0.0,0.0,0.0,0.007496948715030393,0.0,0.0014993897430060786,P1:9098,0.0014993897430060786
6297,0.0,0.0,0.0,-0.007440128009028205,0.0,-0.001488025601805641,P2:841,0.001488025601805641
9156,-0.007376704798567077,0.0,0.0,0.0,0.0,-0.0014753409597134154,P2:2220,0.0014753409597134154
6378,0.0,0.0,0.0,0.0,-0.007160983880418562,-0.0014321967760837124,P2:8066,0.0014321967760837124
433,0.0,0.0,0.0,0.0,-0.007159625620245835,-0.001431925124049167,P7 Mono:6427,0.001431925124049167
5997,0.0,0.007155039337464726,0.0,0.0,0.0,0.001431007867492945,P2:924,0.001431007867492945
3463,0.0,0.0,0.0,0.0,0.007027309320006012,0.0014054618640012024,P4:3549,0.0014054618640012024
1545,0.0,0.006845496897333752,0.0,0.0,0.0,0.0013690993794667505,P6 earlyB:8,0.0013690993794667505
12202,0.0,0.0,0.006780827616794502,0.0,0.0,0.0013561655233589004,P1:4257,0.0013561655233589004
10151,0.0,0.0,0.0,-0.006756798057872888,0.0,-0.0013513596115745778,P2:13114,0.0013513596115745778
2221,0.0,0.0,0.0,0.0,0.006622835770176419,0.0013245671540352837,P5 gd:1936,0.0013245671540352837
15068,0.0,-0.006571660016569715,0.0,0.0,0.0,-0.001314332003313943,P1:12698,0.001314332003313943
13429,0.0,0.0,0.0,0.006514974537951129,0.0,0.0013029949075902257,P1:24147,0.0013029949075902257
2369,0.0,0.0,0.0,0.006481566543358093,0.0,0.0012963133086716185,P5 gd:1512,0.0012963133086716185
1129,-0.0064137534688332295,0.0,0.0,0.0,0.0,-0.001282750693766646,P7 Mono:3238,0.001282750693766646
12102,0.0,0.0,0.006365285478856107,0.0,0.0,0.0012730570957712214,P1:4734,0.0012730570957712214
8417,-0.006223901128253626,0.0,0.0,0.0,0.0,-0.0012447802256507251,P2:24066,0.0012447802256507251
15036,0.0,0.0,0.0,0.003806180442772751,0.002387240940437699,0.0012386842766420902,P1:12847,0.0012386842766420902
477,0.0,0.0,0.0,0.0,-0.0061567171134808436,-0.0012313434226961686,P7 Mono:6332,0.0012313434226961686
2205,0.0,0.0,0.0,0.0,-0.006086116621916991,-0.001217223324383398,P5 gd:1975,0.001217223324383398
4680,0.0,0.0,0.0,0.0,-0.006055125922474108,-0.0012110251844948217,P3:5388,0.0012110251844948217
11302,0.0050855238218315505,0.0,0.0,0.0,0.000854721511201075,0.001188049066606525,P1:8011,0.001188049066606525
10336,0.0,0.0,0.005925531537612005,0.0,0.0,0.001185106307522401,P2:12402,0.001185106307522401
6805,0.0,0.005891653705458751,0.0,0.0,0.0,0.00117833074109175,P2:5240,0.00117833074109175
3422,0.0,0.0,0.0,0.0,-0.005878532320000542,-0.0011757064640001084,P4:3666,0.0011757064640001084
11207,0.0,0.0,0.0,0.00581698096450065,0.0,0.00116339619290013,P1:8403,0.00116339619290013
14170,0.0,0.0,0.005594150353202404,0.0,0.0,0.0011188300706404808,P1:21728,0.0011188300706404808
8783,0.0,0.0,0.0,-0.005591877016924282,0.0,-0.0011183754033848563,P2:23206,0.0011183754033848563
5073,0.0,0.0,0.0,0.005567863866244235,0.0,0.001113572773248847,P3:3928,0.001113572773248847
3433,0.0,0.0,0.0,0.0,-0.005523227061078976,-0.0011046454122157954,P4:3638,0.0011046454122157954
12535,0.0,0.0,0.005411842857477529,0.0,0.0,0.0010823685714955059,P1:2829,0.0010823685714955059
98,0.0,0.0,0.0,0.0,-0.005262049721811388,-0.0010524099443622776,P7:240,0.0010524099443622776
197,0.0,0.0,0.0,0.0,-0.005244642752683112,-0.0010489285505366223,P7:127,0.0010489285505366223
15396,0.0,0.0,0.0,-0.002427360144777503,-0.002783541663364107,-0.0010421803616283219,P1:10563,0.0010421803616283219
1563,0.0,0.0,0.0,0.0,0.005195573717950718,0.0010391147435901437,P6 earlyB:57,0.0010391147435901437
14639,-0.005192122825663629,0.0,0.0,0.0,0.0,-0.0010384245651327258,P1:20308,0.0010384245651327258
7910,0.0,-0.005165637944640426,0.0,0.0,0.0,-0.0010331275889280851,P2:25264,0.0010331275889280851
3120,0.005143145447196088,0.0,0.0,0.0,0.0,0.0010286290894392176,P4:5290,0.0010286290894392176
10802,0.0,0.0,0.0,0.0,-0.005129687646493534,-0.0010259375292987068,P1:9691,0.0010259375292987068
1225,0.0,0.0,0.0,0.0,-0.005115578677306529,-0.0010231157354613058,P7 Mono:2196,0.0010231157354613058
1532,0.0,0.0,0.0,0.0,-0.005101179659616336,-0.0010202359319232673,P6 earlyB:96,0.0010202359319232673
9895,0.0,0.0,-0.005068174882770707,0.0,0.0,-0.0010136349765541414,P2:20170,0.0010136349765541414
7124,0.0,0.005067627768991934,0.0,0.0,0.0,0.0010135255537983869,P2:3579,0.0010135255537983869
4027,-0.0050117752247566425,0.0,0.0,0.0,0.0,-0.0010023550449513286,P3:7839,0.0010023550449513286
12981,0.0,0.004975396682776981,0.0,0.0,0.0,0.0009950793365553962,P1:25388,0.0009950793365553962
8499,0.0,0.0,0.0,-0.004972455721158929,0.0,-0.000994491144231786,P2:23907,0.000994491144231786
12320,0.0,0.0,0.0,-0.004840235343503453,0.0,-0.0009680470687006906,P1:3812,0.0009680470687006906
15115,0.0,0.0,-0.004802675573836542,0.0,0.0,-0.0009605351147673084,P1:12372,0.0009605351147673084
7284,0.0,-0.004687354777465423,0.0,0.0,0.0,-0.0009374709554930846,P2:2653,0.0009374709554930846
1403,-0.004630377300467113,0.0,0.0,0.0,0.0,-0.0009260754600934225,P6:39,0.0009260754600934225
15047,0.0,0.0,0.0,0.004628733077893792,0.0,0.0009257466155787583,P1:12820,0.0009257466155787583
10320,-0.004483266486327061,0.0,0.0,0.0,0.0,-0.0008966532972654121,P2:12545,0.0008966532972654121
1341,0.0,0.0,0.004479562944318217,0.0,0.0,0.0008959125888636434,P7 Mono:1286,0.0008959125888636434
2057,0.0,0.004452054739925757,0.0,0.0,0.0,0.0008904109479851514,P5 gd:255,0.0008904109479851514
1589,0.0,0.004387929304706677,0.0,0.0,0.0,0.0008775858609413354,P6 earlyB:241,0.0008775858609413354
5527,0.0,0.0043639082348568515,0.0,0.0,0.0,0.0008727816469713703,P3:240,0.0008727816469713703
3137,0.0,0.0,0.003344593698022705,0.0,0.0009315490612422957,0.0008552285518530001,P4:4937,0.0008552285518530001
6975,0.0,0.004230684378933918,0.0,0.0,0.0,0.0008461368757867836,P2:4344,0.0008461368757867836
15320,-0.004069881874564363,0.0,0.0,0.0,0.0,-0.0008139763749128726,P1:11059,0.0008139763749128726
1946,0.0,0.0,0.0,0.003950868247555811,0.0,0.0007901736495111621,P5 gd:511,0.0007901736495111621
6492,0.0,0.0,0.0,0.003740217735492166,0.0,0.0007480435470984332,P2:7225,0.0007480435470984332
1713,0.0,0.0,0.0,0.0,-0.0037390836492644255,-0.000747816729852885,P5 gd:899,0.000747816729852885
7161,0.0,0.0,0.0,0.0,-0.0037348748881772136,-0.0007469749776354427,P2:328,0.0007469749776354427
15983,0.0,0.0,0.0,0.0,0.00353532675242228,0.000707065350484456,Lin:49,0.000707065350484456
10115,0.0,-0.0034684273065638143,0.0,0.0,0.0,-0.0006936854613127628,P2:13305,0.0006936854613127628
2716,0.0015136937727727238,0.0,0.0,0.0017404601299711442,0.00018755766447299709,0.000688342313443373,P5 CD8:224,0.000688342313443373
2600,0.0,0.0034373444138102133,0.0,0.0,0.0,0.0006874688827620426,P5 NKT:76,0.0006874688827620426
15407,0.0,0.0,0.0,0.003219438411311363,0.0,0.0006438876822622726,P1:10526,0.0006438876822622726
4910,0.0,0.0,-0.0031519028880169432,0.0,0.0,-0.0006303805776033887,P3:435,0.0006303805776033887
2072,0.0,0.0,0.0,0.00303544963632314,0.0,0.000607089927264628,P5 gd:22,0.000607089927264628
6848,0.0,0.0,0.0,0.002994691038760526,0.0,0.0005989382077521052,P2:5045,0.0005989382077521052
12964,0.0,0.0,0.0,0.002914102625420128,0.0,0.0005828205250840256,P1:25424,0.0005828205250840256
89,0.0,0.0,0.0,0.0,-0.0029119748075673306,-0.0005823949615134661,P7:250,0.0005823949615134661
4669,0.0,0.0,0.0,0.0,-0.0028826868173723545,-0.0005765373634744709,P3:5420,0.0005765373634744709
5914,0.0,0.0,0.0,0.0,-0.002825889416985566,-0.0005651778833971132,P2:938,0.0005651778833971132
7388,-0.002823164229370503,0.0,0.0,0.0,0.0,-0.0005646328458741006,P2:26139,0.0005646328458741006
8793,0.0,-0.0028085091233646746,0.0,0.0,0.0,-0.0005617018246729349,P2:23189,0.0005617018246729349
4143,-0.0028062912015068436,0.0,0.0,0.0,0.0,-0.0005612582403013687,P3:7488,0.0005612582403013687
2567,0.0,0.0,0.0,0.0,-0.0027940223624522147,-0.0005588044724904429,P5 gd:1094,0.0005588044724904429
14869,0.0,0.0,0.0026677734996928115,0.0,0.0,0.0005335546999385623,P1:1446,0.0005335546999385623
11449,0.0,0.0,0.0,0.002623955408163522,0.0,0.0005247910816327044,P1:7374,0.0005247910816327044
2298,0.0,-0.0025808086118391947,0.0,0.0,0.0,-0.000516161722367839,P5 gd:177,0.000516161722367839
6256,0.0,0.0,0.0025177362872070897,0.0,0.0,0.0005035472574414179,P2:8535,0.0005035472574414179
239,0.0,0.0,0.0024594342464547125,0.0,0.0,0.0004918868492909424,P7 Mono:962,0.0004918868492909424
8132,0.0,0.0,0.0,0.0,-0.0023216404275092227,-0.00046432808550184455,P2:24779,0.00046432808550184455
1072,0.0,0.0,0.0,0.0,-0.0021887454944919545,-0.0004377490988983909,P7 Mono:3557,0.0004377490988983909
2508,0.0,0.0021568856673302764,0.0,0.0,0.0,0.0004313771334660553,P5 gd:1261,0.0004313771334660553
4359,0.0,0.0,-0.0020853520787588054,0.0,0.0,-0.0004170704157517611,P3:6529,0.0004170704157517611
130,0.0,0.0,-0.002012026248382092,0.0,0.0,-0.00040240524967641837,P7:206,0.00040240524967641837
2629,0.0,0.0,-0.001959077456231617,0.0,0.0,-0.00039181549124632346,P5 NKT:106,0.00039181549124632346
10106,0.0019124148898074706,0.0,0.0,0.0,0.0,0.00038248297796149414,P2:13324,0.00038248297796149414
13489,0.0,0.0,0.0,0.0018321087833399624,0.0,0.0003664217566679925,P1:2390,0.0003664217566679925
7263,0.0,0.0,-0.0018039944693813634,0.0,0.0,-0.00036079889387627265,P2:2728,0.00036079889387627265
9428,0.0,0.0,-0.0017916809182085113,0.0,0.0,-0.0003583361836417023,P2:21445,0.0003583361836417023
15679,0.0,0.0017840882012787166,0.0,0.0,0.0,0.00035681764025574333,MFI:480,0.00035681764025574333
6888,0.0016612073904326396,0.0,0.0,0.0,0.0,0.00033224147808652793,P2:4834,0.00033224147808652793
14886,0.0,0.0,0.0015701589551101523,0.0,0.0,0.00031403179102203047,P1:13610,0.00031403179102203047
14726,-0.0015483076637710683,0.0,0.0,0.0,0.0,-0.00030966153275421366,P1:20107,0.00030966153275421366
8466,0.0,-0.0014836059175537747,0.0,0.0,0.0,-0.00029672118351075494,P2:23962,0.00029672118351075494
13511,0.0,0.0,0.0014707235392262673,0.0,0.0,0.0002941447078452535,P1:2386,0.0002941447078452535
4737,0.0,0.0,0.0,0.0,0.001438829051617921,0.0002877658103235842,P3:4843,0.0002877658103235842
1844,0.0013818098804713858,0.0,0.0,0.0,0.0,0.00027636197609427716,P5 gd:692,0.00027636197609427716
957,0.0,0.0,0.0,0.0,-0.001297730284157218,-0.00025954605683144356,P7 Mono:4242,0.00025954605683144356
13277,0.0,0.0,0.0,-0.0012485907640772682,0.0,-0.00024971815281545366,P1:24390,0.00024971815281545366
12998,0.0,0.001203219484040804,0.0,0.0,0.0,0.0002406438968081608,P1:25358,0.0002406438968081608
