,coef_weight_0,coef_weight_1,coef_weight_2,coef_weight_3,coef_weight_4,coef_weight_mean,label,abs(cwm)
15691,-0.08294297349672006,-0.12733990007950446,-0.11318283789500265,-0.1211498356466478,-0.08696382820419922,-0.10631587506441484,MFI:469,0.10631587506441484
150,-0.11760102252795246,-0.1354820522031702,-0.08679714039448644,-0.09873244491727617,-0.06640977563288078,-0.10100448713515323,P7:184,0.10100448713515323
2915,0.060332996315139206,0.10870748562455289,0.1018580959892014,0.08267120512266596,0.06533729738905701,0.0837814160881233,P4:6227,0.0837814160881233
211,-0.046334977010619276,-0.06113578546120714,-0.11362958704199766,-0.07494893507198351,-0.09193802342321399,-0.07759746160180432,P7:108,0.07759746160180432
3071,0.07129150964191755,0.08247047471248381,0.08381197768512184,0.09735273434651252,0.04613580855714201,0.07621250098863555,P4:5530,0.07621250098863555
2873,0.09078642782685119,0.04484025298213996,0.07269225868778725,0.0699588155962445,0.06412766088924143,0.06848108319645287,P4:6320,0.06848108319645287
40,-0.08287064882392611,-0.08841672651598466,-0.06367013885002577,-0.0639965110571321,-0.04310160549680211,-0.06841112614877415,P7:6,0.06841112614877415
213,-0.03633879499157775,-0.055064766923900166,-0.09098951698156375,-0.06219652824265144,-0.09038105565489672,-0.06699413255891797,P7:105,0.06699413255891797
3062,0.03786239753695354,0.0824963449012345,0.08879432485155492,0.07872107341063528,0.03534064727334602,0.06464295759474485,P4:5539,0.06464295759474485
2781,0.04095531835833563,0.08123521325896084,0.0796776387820476,0.06679214661639687,0.04366921880005734,0.06246590716315966,P4:66,0.06246590716315966
11,-0.07606343588216409,-0.07000311907018289,-0.05757361743677209,-0.054173338013622785,-0.04606429554140606,-0.06077556118882958,P7:89,0.06077556118882958
2328,0.022408959300008,0.09851922930016138,0.08322476022468882,0.07433254279570316,0.019951107990685574,0.059687319922249384,P5 gd:166,0.059687319922249384
148,0.07728169603556953,0.09461752112839922,0.04431315743823083,0.05955626099025964,0.01978167342264843,0.05911006180302153,P7:186,0.05911006180302153
15972,-0.015582632190020271,-0.08142388522779309,-0.0617433820793686,-0.06885701834625942,-0.054519013925553896,-0.05642518635379906,MFI:102,0.05642518635379906
15720,-0.105817149590907,-0.014500057553029718,-0.027033892022483883,-0.08067216398845815,-0.0472159800223007,-0.055047848635435895,MFI:424,0.055047848635435895
15734,0.01922850392503985,0.0025166956684128166,0.06236857771484648,0.0981489653254129,0.0750500888893454,0.05146256630461149,MFI:410,0.05146256630461149
1922,-0.03927247964056769,-0.05318336909804658,-0.051544100726518764,-0.05053282143658102,-0.056940565447634386,-0.05029466726986968,P5 gd:553,0.05029466726986968
3459,-0.027771949439586698,-0.05070031131872181,-0.05691519494224433,-0.0653451198002122,-0.04554816284358921,-0.049256147668870855,P4:3556,0.049256147668870855
3995,-0.07029468356164778,-0.04490279717827393,-0.03773808860714727,-0.05048421083701026,-0.03515529546621875,-0.0477150151300596,P3:7962,0.0477150151300596
15726,-0.06678399389678857,-0.042727925149655836,-0.033942688872400574,-0.0658989819810137,-0.02710259774524927,-0.04729123752902159,MFI:418,0.04729123752902159
452,0.07619810898462376,0.04782123931842955,0.018640131982810032,0.05080126446740878,0.0426386135967246,0.047219871669999344,P7 Mono:6394,0.047219871669999344
70,0.04626432092346695,0.020736695041428756,0.07555900871422933,0.03945631600585929,0.04389427484062224,0.04518212310512132,P7:31,0.04518212310512132
15687,0.04149840752549236,0.046989278561571035,0.045473940025473586,0.06222685665842335,0.025893561679286893,0.04441640889004944,MFI:472,0.04441640889004944
205,-0.02712095274522272,-0.03463261716615872,-0.05715344126689216,-0.04884238627807395,-0.04915116546693446,-0.0433801125846564,P7:115,0.0433801125846564
13978,-0.04553313173662345,-0.04085851601196319,-0.038721439224493885,-0.04745165905693079,-0.04212679446724772,-0.0429383080994518,P1:22213,0.0429383080994518
3494,0.0,-0.05962720293980552,-0.0301217001095361,-0.05369579853925966,-0.0706091302606759,-0.04281076636985544,P4:3464,0.04281076636985544
260,0.05485647302657167,0.045415653030852904,0.027926519475211874,0.05403985030959099,0.029302741834742803,0.04230824753539405,P7 Mono:930,0.04230824753539405
1007,0.03647350762769192,0.060193170136569656,0.040848215817152464,0.04242477807939273,0.031461711717198276,0.04228027667560101,P7 Mono:4115,0.04228027667560101
3066,-0.04337571670436856,-0.04406872951646489,-0.033530383894522765,-0.047129983227496244,-0.04303008595030917,-0.042226979858632316,P4:5535,0.042226979858632316
1923,-0.05700869467891463,-0.029497290784545133,-0.029226806660349592,-0.04102070552275354,-0.052165665555442726,-0.04178383264040112,P5 gd:552,0.04178383264040112
14014,-0.05095025550134637,-0.040347716711956826,-0.036405478008438595,-0.03851620432278065,-0.0422343255133149,-0.041690796011567464,P1:22132,0.041690796011567464
3149,-0.03917071487966658,-0.04741201073646001,-0.02628612433411294,-0.04379060682653818,-0.050733229057960516,-0.041478537166947646,P4:4838,0.041478537166947646
1873,0.03261203740480608,0.05172416194931278,0.05718583094742978,0.03263307954691713,0.03214210946996314,0.04125944386368578,P5 gd:648,0.04125944386368578
6840,0.023294015956111705,0.02850764851864924,0.048975315136809916,0.045686057647575676,0.05679315903958258,0.04065123925974583,P2:5074,0.04065123925974583
136,-0.02148165205071978,-0.030191162141666415,-0.05136333895511524,-0.043281776750382826,-0.052572590107968976,-0.03977810400117064,P7:20,0.03977810400117064
1926,-0.055329997745674465,-0.03757604412161278,-0.029795722324015707,-0.03160506618869856,-0.043064051595304825,-0.03947417639506126,P5 gd:549,0.03947417639506126
546,-0.01949476007592824,-0.06063529664867585,-0.024256844447600807,-0.050142547520066486,-0.042481645905692055,-0.03940221891959268,P7 Mono:616,0.03940221891959268
15796,-0.04307531360124688,-0.013933451411606998,-0.03631570746892403,-0.06719993040154806,-0.03558185464492557,-0.03922125150565031,MFI:287,0.03922125150565031
13657,-0.03743713950560432,-0.03049215442522257,-0.04154140525401282,-0.0328221205939438,-0.05129791591979299,-0.038718147139715296,P1:23378,0.038718147139715296
5954,0.04405558048064608,0.020884993035138025,0.04056613704526853,0.03302001055464033,0.05471402450796775,0.03864814912473215,P2:9324,0.03864814912473215
640,0.06533784026381276,0.03730430303758197,0.010320706701751852,0.04734477778432732,0.0313991605727864,0.03834135767205206,P7 Mono:5705,0.03834135767205206
5952,0.049578478256564314,0.015206168860157738,0.028195120703075557,0.03860287310858293,0.060113264283894546,0.03833918104245502,P2:9329,0.03833918104245502
6470,0.04749984895214354,0.03813502220284267,0.029297409566647073,0.029822359972970135,0.042858689516191234,0.03752266604215893,P2:7294,0.03752266604215893
3503,0.0,0.05023094886602421,0.036134350624413794,0.05033540376608442,0.05057394906354632,0.03745493046401375,P4:3402,0.03745493046401375
126,-0.023877519989392797,-0.040250182612043606,-0.04575209096665467,-0.0328727078613815,-0.04421279212118827,-0.03739305871013217,P7:210,0.03739305871013217
3477,0.0,0.044533423886694026,0.03553481261309001,0.04716405007646273,0.05971340116322685,0.037389137547894725,P4:3486,0.037389137547894725
2664,-0.02951599044659226,-0.024772861055015936,-0.057512440890108624,-0.04813616889328476,-0.02656535913571165,-0.037300564084142646,P5 CD8:65,0.037300564084142646
57,-0.03292627168389113,-0.029522797156985355,-0.03827777090033989,-0.05171816735949351,-0.03373927853072157,-0.037236857126286285,P7:44,0.037236857126286285
43,-0.028866995355503442,-0.03811165517771805,-0.03199823816420608,-0.05160462666188014,-0.03339591420997878,-0.0367954859138573,P7:57,0.0367954859138573
6496,0.04013590491926933,0.04053303171820455,0.03841641085203805,0.030505018498018347,0.03378902665388725,0.03667587852828351,P2:7212,0.03667587852828351
8669,0.026607775828474237,0.034535345757484764,0.05612465934587403,0.036386529923220716,0.029349908706721724,0.03660084391235509,P2:23438,0.03660084391235509
209,0.007208154911115709,0.02115832261198706,0.0725647315870991,0.03670779149079318,0.045221630834095354,0.03657212628701808,P7:110,0.03657212628701808
3529,-0.013303683330513856,-0.04099939026621281,-0.04564201147490991,-0.04565026660683032,-0.03624387570153492,-0.03636784547600036,P4:3313,0.03636784547600036
2960,-0.013560892329584006,-0.041630613053768674,-0.03511834148796289,-0.04681205372764658,-0.044222704097352496,-0.03626892093926293,P4:60,0.03626892093926293
5828,-0.03357753715569118,-0.024192090103843763,-0.05385856018707979,-0.03738282916366284,-0.03096544506687093,-0.0359952923354297,P2:9726,0.0359952923354297
2026,0.01010041168951936,0.062796185645171,0.04821233313781948,0.04324488602408799,0.013535365226650201,0.0355778363446496,P5 gd:343,0.0355778363446496
14013,-0.03572424373773352,-0.03483529403459556,-0.03451129705451319,-0.034173102737323297,-0.03815182603095647,-0.03547915271902441,P1:22133,0.03547915271902441
15909,-0.038891791107943996,-0.04852196273848855,-0.043989386916901234,-0.04155644560358665,-0.002923319598049786,-0.03517658119299404,MFI:179,0.03517658119299404
3375,-0.023391326843409062,-0.031367558148925306,-0.037794964436764555,-0.05580231775484823,-0.027392264872125597,-0.03514968641121455,P4:3799,0.03514968641121455
6810,0.04380061424996292,0.035630369841315374,0.027663396803326027,0.027528775113386268,0.0401023930287956,0.03494510980735724,P2:5227,0.03494510980735724
15515,0.027575531808865836,0.04266647392568944,0.027576965200722656,0.0559033870675895,0.020610688871837552,0.034866609374941,MFI:76,0.034866609374941
2331,0.01795510849184734,0.051907025892217185,0.04832735251829571,0.029920256449558858,0.026178404818886076,0.03485762963416104,P5 gd:165,0.03485762963416104
16007,-0.04336383654104195,0.0,-0.04499619873766638,-0.03365371712101903,-0.05198993543337193,-0.03480073756661986,Lin:26,0.03480073756661986
107,-0.03910035108697592,-0.03217168777519864,-0.02316138710748008,-0.0421396054061126,-0.037001238454344595,-0.03471485396602238,P7:230,0.03471485396602238
9532,0.05177345118034774,0.0,0.04928956086853814,0.03780192165821258,0.03370102019310252,0.03451319078004019,P2:21230,0.03451319078004019
13977,-0.02690569961384841,-0.030929398244250603,-0.03478490202690639,-0.04030615505090652,-0.0392742854766904,-0.03444008808252046,P1:22214,0.03444008808252046
133,-0.0006857222649997791,-0.04136270075304195,-0.06958791863651143,-0.0226802815554175,-0.03778407795122033,-0.0344201402322382,P7:203,0.0344201402322382
6474,0.048225841818224216,0.03520688456083572,0.027821406180476384,0.024405225170509113,0.03545603890747979,0.03422307932750504,P2:7285,0.03422307932750504
5796,-0.04608061611096964,-0.022493782040252028,-0.022909854818510204,-0.026361891455225064,-0.05120767511209476,-0.033810763907410335,P2:9807,0.033810763907410335
440,0.06176706892711816,0.030995078937653554,0.003114218079517234,0.046687516046268515,0.025626277419045503,0.03363803188192059,P7 Mono:6412,0.03363803188192059
15511,0.05444180546149419,0.07432345029520594,0.0,0.038660201718181145,0.0,0.03348509149497626,MFI:8,0.03348509149497626
112,-0.023421096891407915,-0.02870695099000285,-0.03558160364122479,-0.04714159452921527,-0.029632571261535068,-0.03289676346267718,P7:226,0.03289676346267718
3542,0.0,0.03532966719944032,0.030820589439614413,0.03675396361109313,0.059881120173291655,0.032557068084687904,P4:3243,0.032557068084687904
1623,-0.04011569433311623,-0.041727863731218826,0.0,-0.051648650073688546,-0.02838424071488302,-0.03237528977058132,P6 earlyB:165,0.03237528977058132
3552,-0.006076424610262829,-0.04053750355170009,-0.01746707344950962,-0.04285439155355475,-0.0548662476722743,-0.03236032816746032,P4:3224,0.03236032816746032
5797,-0.05391046983219222,-0.02564863109009674,-0.020896933852545704,-0.01730619397983524,-0.04371091766442909,-0.0322946292838198,P2:9806,0.0322946292838198
2794,0.038079281269712134,0.0341593063462131,0.03081490014227132,0.007520001771594427,0.05045193317078631,0.03220508454011546,P4:6542,0.03220508454011546
2259,-0.022564619243731012,-0.05184363041776478,-0.00691641537580254,-0.02574585800982181,-0.05357438079449199,-0.03212898076832242,P5 gd:1851,0.03212898076832242
3465,-0.010901428924979781,-0.04082700676709108,-0.027936332688286995,-0.044678190090436415,-0.036196334500232866,-0.03210785859420543,P4:3544,0.03210785859420543
6489,0.020553913178182878,0.024682774607795915,0.03219948810588595,0.0351445988210819,0.04765630735729806,0.03204741641404894,P2:7230,0.03204741641404894
6847,0.010810544195776348,0.016300132649662298,0.050355615625072334,0.036006281991972804,0.04510049837344266,0.03171461456718529,P2:5047,0.03171461456718529
6508,0.009342294513095064,0.02859003523923979,0.046874348835437486,0.037402416009631456,0.035576893385947744,0.031557197596670306,P2:7148,0.031557197596670306
9443,-0.0296538887454722,-0.0410191919875425,-0.039855556721101464,-0.029968056583582477,-0.01704063712889107,-0.031507466233317946,P2:2135,0.031507466233317946
2257,-0.03657670084206632,-0.04847843756026283,-9.549533966789215e-05,-0.028780899322094548,-0.042261842520106965,-0.03123867511683971,P5 gd:1854,0.03123867511683971
6842,0.007814789659480015,0.028819850015313085,0.04702428966019221,0.0371053444479809,0.035394162495927736,0.031231687255778788,P2:5065,0.031231687255778788
3491,0.0,-0.035211854565553195,-0.0172473384528355,-0.03952692321770473,-0.06405875258910255,-0.031208973765039193,P4:3467,0.031208973765039193
1957,0.03730666577863477,0.028215994191732437,0.035662991703172844,0.013197258303178874,0.03716701801658185,0.030309985598660154,P5 gd:488,0.030309985598660154
2665,-0.02163054315542842,-0.027389758437333007,-0.046018463846701656,-0.02744909239391451,-0.02728596681543243,-0.029954764929762002,P5 CD8:64,0.029954764929762002
2155,-0.010941988267266547,-0.034177676190624194,-0.012159506226315646,-0.04469532653596784,-0.046970495767592074,-0.02978899859755326,P5 gd:2051,0.02978899859755326
1622,-0.03896548929070787,-0.0304211989731557,-0.007167528815612391,-0.04469383373232299,-0.027625398383388042,-0.0297746898390374,P6 earlyB:166,0.0297746898390374
15990,-0.06022493960176203,-0.007635221323996615,-0.009288525580853026,-0.03267899104601385,-0.03870015474750091,-0.029705566460025284,Lin:42,0.029705566460025284
629,0.054162797697359155,0.026597801625496235,0.0,0.04734477778432732,0.020295009348504145,0.029680077291137374,P7 Mono:5732,0.029680077291137374
15552,0.04396178944692977,0.0240515758035818,0.02251723025679683,0.027332402433521898,0.029315467603130214,0.029435693108792106,MFI:658,0.029435693108792106
193,-0.020510733388689483,-0.014226265179957657,-0.03836573969943828,-0.04488650932178712,-0.028959005181149276,-0.02938965055420436,P7:131,0.02938965055420436
1357,-0.04275332640583056,-0.016439865996259257,-0.05790937729762341,-0.015256711785821461,-0.014584508157095501,-0.02938875792852604,P6:91,0.02938875792852604
1844,0.03237119349318886,0.03455607903550698,0.026068284859734097,0.03881860059778117,0.014669969121197083,0.029296825421481636,P5 gd:692,0.029296825421481636
565,-0.020568508361525822,-0.049351129122901266,-0.018781753525147913,-0.025431923598401858,-0.03140960230129065,-0.029108583381853497,P7 Mono:608,0.029108583381853497
7263,-0.014270468341145221,-0.04481825132453736,-0.03824391537589483,-0.030154525674702733,-0.01757411159525094,-0.029012254462306215,P2:2728,0.029012254462306215
9240,0.05078543802953808,0.0,0.04612071450078778,0.04747474018244619,0.00037052112739598543,0.02895028276803361,P2:21911,0.02895028276803361
641,0.058157809709122786,0.026221947452031075,0.0,0.0404334262470278,0.019113073373353617,0.028785251356307058,P7 Mono:5702,0.028785251356307058
15553,-0.014032290916258995,-0.04147781744827648,-0.013786555647734962,-0.027964413096819844,-0.046094398734647456,-0.02867109516874755,MFI:657,0.02867109516874755
5942,0.032592013523418985,0.012857953668558419,0.02213766548863082,0.02356517039933486,0.050246517675307203,0.02827986415105006,P2:9343,0.02827986415105006
6653,0.01567545401826801,0.007420138303088682,0.03482264574368947,0.04009198090704666,0.0429798284966373,0.028198009493746023,P2:6468,0.028198009493746023
15722,-0.04206016695824486,-0.017954914260965526,-0.01753562809935679,-0.049927903917818615,-0.012933416849810466,-0.028082406017239252,MFI:421,0.028082406017239252
1466,-0.024024382096420743,0.0,-0.06369515544640053,-0.041753377745266565,-0.01074654837239917,-0.028043892732097404,P6:227,0.028043892732097404
144,-0.034577304248542495,-0.043806830868399635,-0.015073253617129868,-0.028517926545949236,-0.017936813964698848,-0.027982425848944014,P7:191,0.027982425848944014
9892,-0.03057469376177912,-0.031200428073406273,-0.030975514184949173,-0.024916563183626086,-0.021670775562530258,-0.027867594953258183,P2:2018,0.027867594953258183
6486,0.0,0.03860528136029408,0.015229824384106614,0.043189535640693784,0.0410057440596463,0.027606077088948154,P2:7234,0.027606077088948154
1463,-0.016623881975058593,-0.030637747572120205,-0.017518993156273553,-0.025181716586950793,-0.04747702575701927,-0.027487873009484486,P6:230,0.027487873009484486
1115,0.04722447402488738,0.03535708503641383,0.012554043336571808,0.0257326086764292,0.016318156167223794,0.027437273448305204,P7 Mono:3386,0.027437273448305204
6488,0.0,0.03658167394958683,0.011898730965491326,0.04348042599742422,0.04519685305272974,0.027431536793046423,P2:7231,0.027431536793046423
15396,-0.018802231382453433,-0.025709202093484554,-0.042342831607683706,-0.03354663022361029,-0.014241628458136736,-0.026928504753073745,P1:10563,0.026928504753073745
6881,0.040511037953953916,0.03735302020888641,0.0,0.020369431041413852,0.03626254503764899,0.02689920684838063,P2:4858,0.02689920684838063
2017,0.023368543413473424,0.0,0.030180176553918994,0.03821487402805302,0.041119706486440324,0.02657666009637715,P5 gd:370,0.02657666009637715
6763,0.018439295214044762,0.007952888662042657,0.04406016891763245,0.025594658538578553,0.03607994243270891,0.026425390753001467,P2:561,0.026425390753001467
15499,-0.057365045495266255,-0.030191772251940963,-0.006459943879697315,-0.014782751939817887,-0.02304121331996502,-0.026368145377337487,MFI:90,0.026368145377337487
6617,0.0366371001881117,0.02580473054815688,0.01384426052126184,0.030334706162447957,0.02493850260647663,0.026311860005291,P2:6621,0.026311860005291
9611,-0.02962020138780144,0.0,-0.05510627921104781,-0.045453309722950766,0.0,-0.026035958064360005,P2:21075,0.026035958064360005
15632,-0.017644462803090524,-0.017566639718074966,-0.026563298237942366,-0.03647466563544632,-0.0318949471161631,-0.026028802702143455,MFI:549,0.026028802702143455
6638,0.02519920907829749,0.023209032919378758,0.024177196622184566,0.03294018325692179,0.02446899867158877,0.025998924109674276,P2:6540,0.025998924109674276
10461,0.02418900223790278,0.01935818244014448,0.03325739891638677,0.028380697225837647,0.024488008942539465,0.02593465795256223,P2:11442,0.02593465795256223
6498,0.018667535302437827,0.022339161296362094,0.032061585532463424,0.025908315567454744,0.03008503336328721,0.02581232621240106,P2:7194,0.02581232621240106
192,-0.016958522215164064,-0.019079768667314437,-0.028285714746524065,-0.03878713364910066,-0.025301468853001108,-0.025682521626220867,P7:132,0.025682521626220867
15512,0.012796525798141209,0.057701745386159076,0.002500014845564012,0.04625573251825659,0.008767427580701537,0.025604289225764486,MFI:79,0.025604289225764486
15876,0.0,0.04843088882532974,0.027756680177923116,0.008451066867480801,0.04337424372374697,0.025602575918896125,MFI:21,0.025602575918896125
1010,0.020519722942945958,0.0399970739062926,0.020243343916634352,0.033029003540387195,0.013840858660802629,0.025526000593412545,P7 Mono:4106,0.025526000593412545
9987,-0.02312015263563278,-0.015476372596856356,-0.028393626259255095,-0.033524737502394805,-0.02693527277594992,-0.02549003235401779,P2:154,0.02549003235401779
9302,-0.014942898155157168,-0.03700335434330094,-0.017487444393087883,-0.05039082711709161,-0.006996900226340632,-0.025364284846995648,P2:21774,0.025364284846995648
15960,-0.036276980450303864,-0.008037937745930071,-0.020264926917466085,-0.039197689624572464,-0.02268228294355003,-0.025291963536364502,MFI:12,0.025291963536364502
2870,0.03569154157972507,0.017539058994197092,0.016565214059283784,0.016846768284310695,0.036664466322625,0.02466140984802833,P4:6323,0.02466140984802833
15009,0.03362173958488005,0.011427738065011912,0.0,0.03785636454663869,0.04033566302873535,0.0246483010450532,P1:12997,0.0246483010450532
2662,-0.005375580814547735,-0.028629368536387163,-0.027198570397648975,-0.019078558330882126,-0.04067552707336061,-0.02419152103056532,P5 CD8:67,0.02419152103056532
15994,-0.025287130621334464,-0.005685898738920605,-0.022633029977905457,-0.02429582832159056,-0.0430130312234016,-0.02418298377663054,Lin:39,0.02418298377663054
188,-0.021930954556108575,-0.010200090064220431,-0.03269169432201935,-0.03699088526756196,-0.019075139086936317,-0.024177752659369327,P7:137,0.024177752659369327
2943,0.04293178678460934,0.0,0.028615912513447618,0.03990598561574055,0.00849292177038029,0.02398932133683556,P4:6085,0.02398932133683556
1626,-0.02757742301786181,-0.03337183946873224,0.0,-0.04060417271752945,-0.01808933069638302,-0.023928553180101304,P6 earlyB:153,0.023928553180101304
13651,-0.020895392908342213,-0.016770197116514292,-0.02570937355353479,-0.020251686037360418,-0.03424542601491392,-0.02357441512613313,P1:23405,0.02357441512613313
15812,0.0026388625554259765,0.041547717932993805,0.018131124842769093,0.006272440380454082,0.0492051404807535,0.023559057238479293,MFI:27,0.023559057238479293
115,-0.022895787368563847,-0.004092861132374253,-0.015824354901775126,-0.03596141626489591,-0.03883285666074759,-0.023521455265671343,P7:222,0.023521455265671343
99,-0.01248401149128016,-0.021409566330033193,-0.025274029861359112,-0.02001976159861868,-0.03793024601373569,-0.023423523059005365,P7:24,0.023423523059005365
1117,0.0406811041645292,0.029297971234993767,0.0038445543150293793,0.03711630113833608,0.005785453519236595,0.023345076874425004,P7 Mono:3377,0.023345076874425004
7237,-0.012904223742692318,-0.032392770349414825,-0.03004289971980864,-0.028110940382099908,-0.013053382865382874,-0.023300843411879713,P2:2836,0.023300843411879713
6834,0.008664163614834207,0.013680559444588188,0.03151633615677476,0.02701995854787239,0.03544354276012763,0.023264912104839434,P2:5128,0.023264912104839434
15743,-0.04170765796621318,-0.018301758625084562,-0.017599448686806306,0.0,-0.038461243590169544,-0.023214021773654718,MFI:398,0.023214021773654718
1120,-0.039865250793495,-0.02918850079594514,-0.008995556446494739,-0.02961338499250613,-0.008384982783038253,-0.023209535162295854,P7 Mono:3355,0.023209535162295854
16,-0.029279888825373097,-0.034258290792884005,-0.023431658103930077,-0.017491111052738803,-0.011302709424155634,-0.023152731639816324,P7:82,0.023152731639816324
14751,-0.024865367209201693,-0.0270102389506132,-0.019068809071728466,-0.018553210062236383,-0.0259236054633423,-0.02308424615142441,P1:20030,0.02308424615142441
3078,0.0,-0.03406353839343988,-0.037689407613353376,-0.015213193138251492,-0.027292205724947022,-0.022851668973998353,P4:5523,0.022851668973998353
6350,-0.03626561168929368,-0.024320452333080576,-0.030418589643032297,-0.023070522362459343,0.0,-0.02281503520557318,P2:826,0.02281503520557318
15702,0.051734047347065534,0.0,0.05074181566739757,0.007525357227006971,0.003942097261960041,0.02278866350068602,MFI:441,0.02278866350068602
631,0.04781840480077256,0.016514847472023378,0.0,0.0404334262470278,0.008897028042166275,0.022732741312398004,P7 Mono:5729,0.022732741312398004
6821,0.025702141276468554,0.02053845157367966,0.019542662295269138,0.019723327608946094,0.02799793442079656,0.022700903435032005,P2:5200,0.022700903435032005
1527,-0.0071962324890911325,-0.02838301214106068,-0.02068721517761389,-0.01715817548412975,-0.039689156752285355,-0.022622758408836163,P6:101,0.022622758408836163
6296,-0.04537958742207596,-0.003727566056860451,-0.01214567734502215,-0.02747047072784105,-0.024382928344673503,-0.022621245979294623,P2:8413,0.022621245979294623
14728,-0.014244279711757016,-0.020572072623450646,-0.027029154480751136,-0.02452666419129743,-0.02670258398803702,-0.022614950999058647,P1:20103,0.022614950999058647
6731,0.0,0.0,0.030842142681994002,0.04532339610307635,0.036336617092302445,0.02250043117547456,P2:592,0.02250043117547456
1850,0.025346015810941327,0.029309886380847576,0.025228360194951095,0.031890528156429586,0.0006583737291113275,0.022486632854456182,P5 gd:683,0.022486632854456182
1367,-0.0001799437056594099,-0.03495966271705573,-0.02693768191020949,-0.023874078911428485,-0.026024129566153277,-0.022395099362101278,P6:78,0.022395099362101278
1734,-0.031887196561079946,-0.008336399298118665,-0.01787885865204827,-0.022194788348999527,-0.03143246334822924,-0.022345941241695127,P5 gd:856,0.022345941241695127
3119,-0.03925758375397983,-0.018674190527304287,-0.01488416505641614,-0.02601353671458549,-0.012599849051064309,-0.02228586502067001,P4:5292,0.02228586502067001
1973,0.021305687595012373,0.0035626524340530317,0.03176197897490672,0.02138878543943222,0.03321182754355511,0.02224618639739189,P5 gd:46,0.02224618639739189
7146,-0.024007390032641178,-0.02243716221389154,-0.014508566660914993,0.0,-0.050152879121603926,-0.022221199605810326,P2:3421,0.022221199605810326
15675,-0.012115054490502097,-0.026693550468483,-0.014454024686000454,-0.03289204128384806,-0.023119871716664415,-0.021854908529099604,MFI:486,0.021854908529099604
6975,0.015568973060869913,0.0,0.03122879932123433,0.028923380151516447,0.03351010773957655,0.02184625205463945,P2:4344,0.02184625205463945
1232,0.0,0.015058036410394332,0.00860676557372756,0.03235751517663611,0.05316999115025168,0.021838461662201936,P7 Mono:2179,0.021838461662201936
2773,-0.009900196208583631,-0.02386051733113532,-0.01713468443093909,-0.03637009099319264,-0.0211060758629296,-0.021674312965356053,P4:77,0.021674312965356053
116,0.01676355191936363,0.004737298773110549,0.011918795034946993,0.044374163459600505,0.030569678369205266,0.021672697511245387,P7:221,0.021672697511245387
6958,0.01790440088059459,0.019411075315697485,0.021619350394290318,0.028206822398369382,0.02116753961912118,0.021661837721614594,P2:4417,0.021661837721614594
15493,-0.01500947863961073,-0.03593247308573012,-0.02209459705865277,-0.022163863687279118,-0.012864658008177883,-0.021613014095890126,MFI:96,0.021613014095890126
11136,0.0,0.029126581759081588,0.027270388503117186,0.0244672152813254,0.026385189442273853,0.021449874997159606,P1:8661,0.021449874997159606
6560,0.03656393590956835,0.031124516808523073,0.0,0.012953293821948625,0.02607361196041962,0.021343071700091934,P2:6940,0.021343071700091934
10641,-0.019120505112017527,-0.010020840504718366,-0.04250726847186705,-0.022299100561823475,-0.012692243886694564,-0.0213279917074242,P2:10454,0.0213279917074242
15505,0.0,0.02055027801370347,0.04478159611862411,0.028077337548313094,0.01280283520147295,0.021242409376422723,MFI:85,0.021242409376422723
83,0.0,0.01610952860194418,0.041990762058191924,0.018198568663707615,0.02976056919183951,0.021211885703136646,P7:26,0.021211885703136646
3453,-0.0058477612154328945,-0.018931936213106453,-0.03608726854326435,-0.03408823906565352,-0.010585911550026215,-0.021108223317496688,P4:3562,0.021108223317496688
254,0.03629401333207192,0.025855524782883995,0.012665604261718552,0.019568480595670415,0.010955435011723606,0.021067811596813694,P7 Mono:939,0.021067811596813694
6873,0.034500516039356874,0.03103842072472501,0.0,0.006958197092998347,0.032416038137229514,0.02098263439886195,P2:4939,0.02098263439886195
15717,-0.04862044325873331,-0.003392029814878513,-0.006923192464275925,-0.04579561918090767,0.0,-0.020946256943759085,MFI:427,0.020946256943759085
5793,-0.017245162794539182,-0.002021218753508293,-0.030255695052547285,-0.019397714107351874,-0.03579224442136208,-0.020942407025861743,P2:9810,0.020942407025861743
15970,-0.007518653359681171,-0.02700451582149138,-0.025118907173203604,-0.03377871782738943,-0.011273149389233066,-0.02093878871419973,MFI:104,0.02093878871419973
10396,-0.01881113962203546,-0.0019992825851748394,-0.034794331347096384,-0.024116796119140936,-0.024623728530889132,-0.02086905564086735,P2:11875,0.02086905564086735
15403,-0.009398232745776731,-0.02583111953931623,-0.034360561632713865,-0.014848694745174675,-0.019230986553390464,-0.020733919043274394,P1:10536,0.020733919043274394
5080,0.026709017339098973,0.02581057032455254,0.0,0.018966885175437896,0.03212198833922989,0.020721692235663856,P3:3911,0.020721692235663856
3464,-0.007826790801110808,-0.036110866230379124,-0.005410397003730855,-0.032170358389164704,-0.020855280518912823,-0.020474738588659662,P4:3548,0.020474738588659662
3085,0.0,-0.05053851206058855,-0.025180646879818736,-0.01594387471063179,-0.009691924225463203,-0.020270991575300455,P4:5491,0.020270991575300455
532,0.0,-0.036247080858879475,-0.009558238502333186,-0.03152514818490255,-0.02334085098263856,-0.020134263705750756,P7 Mono:620,0.020134263705750756
2192,-0.001788135192854897,-0.00925103762779581,-0.01912992670305939,-0.018845082726477162,-0.051265369303650235,-0.020055910310767498,P5 gd:1999,0.020055910310767498
2505,0.03941610541067506,0.03132649634832672,0.023881529528435474,0.005071711019614125,0.0,0.019939168461410275,P5 gd:1264,0.019939168461410275
9428,-0.015645183289251265,-0.019564563737275883,-0.04432637131683646,-0.02006866962054641,0.0,-0.019920957592782,P2:21445,0.019920957592782
6463,0.01582404570734644,0.019264192460114096,0.009206622181393249,0.020301062015289688,0.03470302128472176,0.019859788729773044,P2:7303,0.019859788729773044
71,0.0,-0.012565714885435135,-0.040466795108618885,-0.007850699275222856,-0.038232620719000215,-0.019823165997655417,P7:30,0.019823165997655417
15679,-0.02237270668723003,0.0,-0.050148842017891784,-0.02565572487777747,0.0,-0.019635454716579855,MFI:480,0.019635454716579855
135,-0.005617490127820999,-0.01936996476510793,-0.02980483320028367,-0.007043094983452974,-0.03634076430670518,-0.01963522947667415,P7:200,0.01963522947667415
15294,-0.004078791865752231,-0.019460575183720814,-0.04487623629261715,-0.011742190568934604,-0.017823363120703133,-0.019596231406345588,P1:11265,0.019596231406345588
6631,0.0,0.009087516125097419,0.011868876715876156,0.04045353798436451,0.03626916968688631,0.019535820102444878,P2:6553,0.019535820102444878
15291,-0.0013400268576082071,-0.027785614640030234,-0.04217395146170701,-0.014169129579134326,-0.01218598330952599,-0.019530941169601152,P1:11283,0.019530941169601152
2336,-0.02082102774237993,-0.03596609028210974,0.0,-0.01009763447323994,-0.030755656157981908,-0.019528081731142306,P5 gd:1627,0.019528081731142306
6324,-0.015045610644884586,-0.007934551713894948,-0.037663520619070454,-0.0321820225509006,-0.004583157269336577,-0.01948177255961743,P2:8332,0.01948177255961743
13993,0.0,0.0,0.02473394601681531,0.03192678202407621,0.0405407641866626,0.019440298445510824,P1:22171,0.019440298445510824
6939,0.026683434502206168,0.01886945004117241,0.00838163674743149,0.023157516153665385,0.01950941991246519,0.01932029147138813,P2:4498,0.01932029147138813
945,0.029700337189743447,0.01956069411822732,0.014353242408782226,0.029114240222423815,0.0037264560116204736,0.019290993990159454,P7 Mono:4272,0.019290993990159454
6504,0.0,0.01399734246522973,0.020917029176815514,0.03178097609731368,0.029703505688060607,0.019279770685483904,P2:716,0.019279770685483904
8,0.03600910150572818,0.029675820879225167,0.015436028688724407,0.01500839502696492,0.0,0.019225869220128537,P7:91,0.019225869220128537
3714,-0.020842305671632342,-0.027967473185050738,-0.026034541666607427,-0.016296354002196922,-0.004912872845716589,-0.019210709474240806,P3:863,0.019210709474240806
6806,0.015305545273902033,0.01901644919184321,0.009572790940740927,0.01917217455882493,0.03268805297806744,0.01915100258867571,P2:5236,0.01915100258867571
3504,0.0,0.04205522959671008,0.0,0.027911225214242677,0.025545715947123775,0.01910243415161531,P4:3401,0.01910243415161531
2377,-0.008214152721248893,-0.004935949850913437,-0.020479415287337575,-0.027770851942197916,-0.03361557288005196,-0.019003188536349958,P5 gd:1500,0.019003188536349958
15491,-0.024113668531652713,-0.03583000590348962,0.0,-0.027652437591542452,-0.007063708077877194,-0.018931964020912396,MFI:98,0.018931964020912396
3063,0.003971660248036365,0.02754546731660643,0.022436467611091672,0.023849396337158876,0.016543290908048385,0.018869256484188347,P4:5538,0.018869256484188347
4619,-0.02680834562566317,-0.01572448911435304,-0.016864811698738144,-0.021499827708595067,-0.01279797380495568,-0.01873908959046102,P3:5657,0.01873908959046102
1716,0.0,-0.009545426966608308,-0.018478816946113308,-0.04431003105713706,-0.021313662628901428,-0.018729587519752018,P5 gd:890,0.018729587519752018
2536,0.0,0.0,-0.04293626500722399,-0.013283663521601013,-0.03725913705965112,-0.018695813117695227,P5 gd:1187,0.018695813117695227
2690,-0.02260061975747185,-0.007931867911826502,-0.020830589491555758,-0.01190985200457849,-0.02933547466844916,-0.018521680766776353,P5 CD8:34,0.018521680766776353
15398,-0.0024019939476285375,-0.02995457668444183,-0.029821146286285193,-0.015467436765522816,-0.014925218628380817,-0.01851407446245184,P1:10554,0.01851407446245184
15967,-0.0201074608318227,-0.025283330184540546,0.0,-0.023466696259034917,-0.02315707137724989,-0.01840291173052961,MFI:107,0.01840291173052961
1858,0.02819007107976218,0.02410262609208662,0.02379824158393463,0.015742202434019217,0.0,0.01836662823796053,P5 gd:669,0.01836662823796053
8986,0.005587766988873354,0.0024148321421543634,0.030307905449810445,0.008752866939026898,0.04466523579627025,0.01834572146322706,P2:22709,0.01834572146322706
13369,0.019454271300739952,0.0,0.017274203070028225,0.024957811677783135,0.029873675183358088,0.01831199224638188,P1:24252,0.01831199224638188
121,0.02158118848996727,0.007664473558064961,0.0,0.03369254809464017,0.028598223821118693,0.01830728679275822,P7:217,0.01830728679275822
2203,-0.0031492078430361684,-0.011062047192187376,-0.015060214343139007,-0.025680196976757455,-0.03655176136121162,-0.018300685543266325,P5 gd:1979,0.018300685543266325
7142,-0.007122974669152398,-0.03426965193129768,-0.025630554662401852,-0.0008247652913803971,-0.023536356970833557,-0.01827686070501318,P2:3448,0.01827686070501318
9834,0.025801456131588116,0.0,0.027066074217854164,0.0,0.03815471255041307,0.01820444857997107,P2:20455,0.01820444857997107
6955,0.006748341208310132,0.0,0.024795610094162295,0.028406358560596198,0.03013282788556486,0.018016627549726695,P2:4426,0.018016627549726695
1882,-0.007121525165660259,-0.034542734482981036,-0.010723382959352505,-0.024458213597719214,-0.013055632055394964,-0.017980297652221595,P5 gd:634,0.017980297652221595
125,-0.03131883774909118,-0.012401376339141136,-0.004625586648834428,-0.015331019429674715,-0.026137856428661437,-0.01796293531908058,P7:211,0.01796293531908058
10390,-0.015566048573840181,-0.003603031259420607,-0.030381271123484762,-0.02025870323994496,-0.019887138145370624,-0.01793923846841223,P2:11911,0.01793923846841223
15996,-0.0062645738769518435,-0.03175329606507163,-0.016674950145578644,-0.034921960008880586,0.0,-0.017922956019296537,Lin:37,0.017922956019296537
1969,-0.03238104938197707,0.0,-0.022428623247850343,-0.01171044194625825,-0.023065400834669014,-0.017917103082150936,P5 gd:468,0.017917103082150936
105,-0.01264210211074755,-0.013867325470166463,-0.02030139764141398,-0.028474239252594825,-0.013982154039372656,-0.017853443702859094,P7:232,0.017853443702859094
1956,0.026789077274234824,0.016257912334209795,0.017041775594285425,0.004201672323299064,0.02492556466847528,0.017843200438900874,P5 gd:489,0.017843200438900874
1097,-0.038281840035147924,-0.012250591518136018,-0.008218309821889279,-0.022498231865935595,-0.007067133224572051,-0.01766322129313617,P7 Mono:3440,0.01766322129313617
1966,-0.025353455060266237,0.0,-0.01750904219451105,-0.016882885848766804,-0.028291186981902364,-0.01760731401708929,P5 gd:471,0.01760731401708929
5527,0.020099796199672008,0.028047157888872007,0.0,0.012791753984165141,0.026982923026761974,0.017584326219894225,P3:240,0.017584326219894225
15287,-0.005707707155458166,-0.011525998146921223,-0.041240742120455795,-0.022882054164374086,-0.00610850332723266,-0.017493000982888383,P1:11292,0.017493000982888383
7485,-0.010349187648195294,-0.025538596255053003,-0.024110480531878607,-0.02031393929896171,-0.007015459689475647,-0.01746553268471285,P2:2601,0.01746553268471285
4495,0.0,0.0,0.043923505026353254,0.02899725231931212,0.014356222953534331,0.017455396059839944,P3:6017,0.017455396059839944
15713,-0.03496066506297239,-0.007709512909579861,-0.003839612479670449,-0.030950274670381247,-0.009644558014353903,-0.01742092462739157,MFI:430,0.01742092462739157
3708,-0.016641724431052253,-0.03123130096151219,-0.02369262023757777,-0.00892976316913595,-0.006462929133761851,-0.017391667586608005,P3:864,0.017391667586608005
559,-0.004600927596124321,-0.0367479614740085,-0.008460379027325682,-0.015633436487536685,-0.02115820904445356,-0.017320182725889748,P7 Mono:611,0.017320182725889748
3962,0.019372088732011645,0.02378209219611228,0.0,0.018954364299462817,0.023970470685675736,0.017215803182652496,P3:8028,0.017215803182652496
61,-0.02306133391063482,-0.03289557522455729,-0.005953148306413232,-0.015508935878105784,-0.008641198653208417,-0.017212038394583913,P7:40,0.017212038394583913
2880,0.041294396805662575,0.013519478895014021,0.0,0.015230838913943027,0.015929541840887414,0.01719485129110141,P4:6311,0.01719485129110141
2425,-0.002191967525177904,0.0,-0.014570085736732904,-0.029285804056903234,-0.03976408421649597,-0.017162388307062005,P5 gd:1424,0.017162388307062005
3478,0.0,0.03295136672835584,0.0,0.019572837980261996,0.03308218357641933,0.017121277657007432,P4:3485,0.017121277657007432
976,0.01706164055245447,0.03332683152194911,0.013697504792748219,0.021363599431396662,0.0,0.017089915259709692,P7 Mono:4196,0.017089915259709692
6656,0.0,0.010242860914532512,0.03264986147408652,0.027730985225258874,0.014737268624825184,0.017072195247740618,P2:6459,0.017072195247740618
5936,0.02203752443851465,0.0,0.012676571297943742,0.013958762087504847,0.03649377888144014,0.01703332734108068,P2:9353,0.01703332734108068
2190,0.0,0.0,-0.01358806614921799,-0.029364171580153975,-0.04166555163886738,-0.016923557873647868,P5 gd:2000,0.016923557873647868
10483,0.04060207952150144,0.0,0.003939881878298702,0.009137401310952711,0.030533003930606657,0.0168424733282719,P2:11314,0.0168424733282719
13678,-0.015660114772502304,-0.016959216973301095,-0.006961906802499099,-0.013670748616170444,-0.030745141554265203,-0.01679942574374763,P1:23297,0.01679942574374763
15701,-0.01968962353636264,-0.003083707275737064,-0.008583359058353772,-0.028193749541556366,-0.02392952985713899,-0.016695993853829767,MFI:45,0.016695993853829767
14137,0.020848447324495062,0.0,0.023041384976714416,0.017144321942111986,0.021699861205277695,0.016546803089719835,P1:21787,0.016546803089719835
3075,-0.00708045587438086,-0.023509415767566808,-0.018213394763282,-0.014079875682574853,-0.01958305385489017,-0.016493239188538938,P4:5526,0.016493239188538938
6662,0.0,0.004676238145177907,0.030024728826136684,0.02830664307861269,0.019313463573965857,0.016464214724778624,P2:6433,0.016464214724778624
6325,-0.018503927524249654,-0.015708594874752044,-0.02484066484405592,-0.01985474754092575,-0.003398024893166158,-0.016461191935429907,P2:832,0.016461191935429907
14868,0.014002312275491072,0.012888087959394058,0.03613948332924124,0.019256189405349775,0.0,0.01645721459389523,P1:1451,0.01645721459389523
2271,-0.015255406827530339,-0.03801323680554051,0.0,-0.018635911160931804,-0.00985189994655776,-0.016351290948112083,P5 gd:1827,0.016351290948112083
3493,0.0,-0.022238942225881794,0.0,-0.018642560637728622,-0.04059916651158211,-0.016296133875038504,P4:3465,0.016296133875038504
2770,-0.010497130561183971,-0.005287361956768919,-0.02757730598995187,-0.03565723464662079,-0.002444100927558901,-0.01629262681641689,P4:82,0.01629262681641689
15971,0.000707906338683436,0.029370355957040867,0.0,0.039063507830652947,0.012176769392026115,0.01626370790368067,MFI:103,0.01626370790368067
11135,0.0,0.028855512145926698,0.020625928039737944,0.014564672203607286,0.01691586319631371,0.016192395117117127,P1:8662,0.016192395117117127
6541,0.01616286795272922,0.01983405187132703,0.0,0.02410115698826313,0.02037894699906348,0.016095404762276572,P2:702,0.016095404762276572
1661,-0.008166708773925228,-0.006676638514278966,-0.01914469710299477,-0.020027033211524756,-0.02629304806565728,-0.016061625133676198,P5 gd:98,0.016061625133676198
1102,-0.017590918100282106,-0.027521531642484498,-0.007641447944900736,-0.011244282831868317,-0.016150326861228866,-0.016029701476152902,P7 Mono:3425,0.016029701476152902
2230,0.0,0.027907958546026325,0.02941238762643617,0.0,0.022552540465422138,0.015974577327576928,P5 gd:1904,0.015974577327576928
12954,-0.02355669123763157,-0.010558133954892092,-0.003044354329195295,-0.013599954451765763,-0.028638506493310237,-0.01587952809335899,P1:25447,0.01587952809335899
4050,0.01743522584179608,0.02281675271142811,0.0,0.01690852367183361,0.022208852638241888,0.015873870972659937,P3:7785,0.015873870972659937
2199,-0.007904678388316582,-0.002425088584269811,-0.02357553643810822,-0.023547363813521502,-0.021853257768098683,-0.01586118499846296,P5 gd:1983,0.01586118499846296
6634,0.007645869283023472,0.0,0.022610724143370307,0.02338528665180788,0.02500463572302816,0.015729303160245962,P2:6548,0.015729303160245962
3045,0.0,-0.053752854606756856,-0.01793079065989237,-0.006415544993318738,-0.0005153522730351718,-0.015722908506600627,P4:5572,0.015722908506600627
11794,-0.00850351584253621,-0.05068889297906898,0.0,0.0,-0.0188606153548637,-0.015610604835293779,P1:6021,0.015610604835293779
1739,-0.017849134157358292,-0.021307964185644214,-0.01273626406954433,-0.016321079869913522,-0.009553398905058219,-0.015553568237503711,P5 gd:849,0.015553568237503711
3553,0.0,-0.026454380266327748,-0.00996641019515939,-0.02264395188413884,-0.01844926967177067,-0.01550280240347933,P4:3221,0.01550280240347933
944,0.01761383665211017,0.031771509595727984,0.008328293204230326,0.01951058065739427,0.0,0.015444844021892551,P7 Mono:4275,0.015444844021892551
1245,0.03047227267583239,0.008472327534425136,0.006745531547687561,0.031232074192234987,0.0,0.015384441190036017,P7 Mono:2113,0.015384441190036017
15296,0.0,-0.02733506677570064,-0.036121888916792244,-0.0013392302699623251,-0.01211688289878598,-0.015382613772248237,P1:11256,0.015382613772248237
6632,0.0,0.0,0.019763849473004216,0.028353565779456205,0.02739204544587477,0.015101892139667039,P2:6552,0.015101892139667039
11451,0.0,0.033294972709374954,0.004452383327298847,0.012911851356519502,0.02453640529588696,0.015039122537816052,P1:7371,0.015039122537816052
2491,0.027701910173029268,0.021665096596337106,0.02571622141303071,0.0,0.0,0.015016645636479416,P5 gd:1291,0.015016645636479416
2427,0.0,0.0,-0.004803602003879436,-0.044897169712141305,-0.025095447022839376,-0.014959243747772022,P5 gd:1418,0.014959243747772022
53,0.008459220370217393,0.03263252528961388,0.01740795262235346,0.016267038140499707,0.0,0.01495334728453689,P7:48,0.01495334728453689
10633,-0.03318350398679722,-0.008466619189795894,-0.010952362676543632,-0.0033441820393513826,-0.018146710610261615,-0.01481867570054995,P2:10535,0.01481867570054995
1322,0.0,0.013477545145458134,0.022053694033175697,0.022014222249209167,0.016361892809779482,0.014781470847524496,P7 Mono:1507,0.014781470847524496
7022,-0.025053843503249046,0.0,0.0,0.0,-0.048231844107833204,-0.014657137522216451,P2:4150,0.014657137522216451
697,-0.020019883633036598,-0.0006286905955563355,-0.01915733414978336,-0.018300543007882152,-0.014908198584250305,-0.01460292999410175,P7 Mono:5523,0.01460292999410175
2380,-0.0038290618517016384,0.0,-0.013162031599174923,-0.023211063174574463,-0.032530482661013015,-0.014546527857292806,P5 gd:1497,0.014546527857292806
9626,-0.014810703042665423,-0.01889660892705536,-0.02665372448887378,-0.010244220774404792,-0.001962370825476623,-0.014513525611695194,P2:21050,0.014513525611695194
2070,-0.02676135555373548,0.0,-0.02352223264381373,-0.012871937334886667,-0.009379367962099068,-0.014506978698906988,P5 gd:225,0.014506978698906988
5174,0.02068547436044195,0.017589869798444076,0.0,0.012028060019956235,0.02223062318225614,0.014506805472219681,P3:3668,0.014506805472219681
8866,-0.019403197559696193,-0.009593300627914208,-0.014271313019695754,-0.013831798529536674,-0.015373973908650793,-0.014494716729098725,P2:23076,0.014494716729098725
111,-0.005878779048934603,-0.01564249813461202,-0.012070409522901393,-0.026503591909273753,-0.012359643130655509,-0.014490984349275458,P7:227,0.014490984349275458
9207,0.024656687051224237,0.006907890180650422,0.020061354888425073,0.020812194143452086,0.0,0.014487625252750363,P2:21983,0.014487625252750363
11726,-0.020657594053029603,-0.022684452879009935,-0.010171307487289666,-0.004362345153669309,-0.014364395987328239,-0.01444801911206535,P1:6300,0.01444801911206535
15592,-0.010529940884257105,-0.0014107684513367622,-0.0024962941814336663,-0.02752617085429153,-0.030100456165696707,-0.014412726107403153,MFI:61,0.014412726107403153
2423,-0.0037186616493270546,0.0,-0.012917352103682772,-0.023971064195162407,-0.031221486648755813,-0.014365712919385609,P5 gd:1427,0.014365712919385609
15501,0.0,0.0,0.03398164589874787,0.024866342271655052,0.012784194038450844,0.014326436441770753,MFI:89,0.014326436441770753
920,0.0,0.004248267255156376,0.0008450996660488526,0.025007687711018068,0.04134392535723336,0.014288995997891329,P7 Mono:4350,0.014288995997891329
15752,-0.019972998069511475,-0.004969525242370564,-0.017712386228052344,-0.017961330907366846,-0.010723465855759255,-0.014267941260612097,MFI:39,0.014267941260612097
1872,0.008496960546802056,0.027266531033079675,0.014530528833822835,0.012976906196679952,0.007886816928250138,0.01423154870772693,P5 gd:649,0.01423154870772693
2638,-0.024081860874286876,-0.003897917433399612,-0.016711886566831053,-0.014146312890927118,-0.012034740441323096,-0.014174543641353551,P5 CD8:94,0.014174543641353551
5671,-0.018423134441324995,-0.02179423015719067,-0.020598421091398762,-0.009525251588912223,0.0,-0.014068207455765331,P3:1484,0.014068207455765331
4871,0.003933648196361938,0.0,0.01570035205157343,0.020715602271408017,0.029652346247260056,0.014000389753320689,P3:4417,0.014000389753320689
7285,-0.0009884704176320136,-0.02185097118243553,-0.01987046784398575,-0.007017419532221675,-0.02023988010182755,-0.013993441815620502,P2:2649,0.013993441815620502
2382,0.0,0.0,-0.008118315417410956,-0.037571821804682964,-0.023873480802547236,-0.013912723604928231,P5 gd:1491,0.013912723604928231
6420,0.018800067553242338,0.020460205397666596,0.0,0.011654364977739452,0.0184892541140226,0.013880778408534198,P2:765,0.013880778408534198
16010,-0.016880349493142686,0.0,-0.007709689020664241,-0.014322463577543269,-0.03045243847852283,-0.013872988113974605,Lin:23,0.013872988113974605
15595,0.0,0.01923591304424765,0.031054573665244816,0.0,0.019043205933097582,0.01386673852851801,MFI:59,0.01386673852851801
8620,-0.004378512343855805,-0.013232306320776809,-0.013707940849815128,-0.034605403197515025,-0.0033674626439112627,-0.013858325071174807,P2:23615,0.013858325071174807
3155,0.0,-0.02533988808730226,-0.02423266676150555,-0.003570025126342931,-0.01613707574749723,-0.013855931144529593,P4:4826,0.013855931144529593
15710,-0.02968868645971744,0.0,-0.006555017869377481,-0.0246242437729974,-0.00784580118307349,-0.013742749857033162,MFI:433,0.013742749857033162
13129,0.02826437578075289,0.01517256016644328,0.0,0.022620744512448544,0.002653828638650339,0.013742301819659011,P1:24878,0.013742301819659011
3646,-0.023723896263811776,-0.019334991132639825,-0.019761058029237253,-0.005235327074985795,0.0,-0.013611054500134927,P3:881,0.013611054500134927
2048,0.0,0.0,0.01352781473701874,0.01676421215652736,0.037759392270010475,0.013610283832711314,P5 gd:297,0.013610283832711314
4387,-0.022100546318287097,-0.021374156184305274,-0.02267550861015514,-0.0018025633477342475,0.0,-0.013590554892096355,P3:645,0.013590554892096355
11206,0.022412707745554976,0.0,0.023233000513370742,0.02220369944133618,0.0,0.01356988154005238,P1:841,0.01356988154005238
8670,0.014097365882470542,0.0,0.02865557812149098,0.006686265706322492,0.018201762180308365,0.013528194378118478,P2:23437,0.013528194378118478
2200,-0.008732274967807523,0.0,-0.024508921864636227,-0.018029068432546126,-0.01615117531838919,-0.013484288116675814,P5 gd:1982,0.013484288116675814
6682,0.023183800310923215,0.012976732272455122,0.0,0.007802599804369215,0.0233764514821156,0.013467916773972632,P2:6337,0.013467916773972632
1983,-0.024671612114960717,0.0,-0.020739057898507635,-0.004028449438062206,-0.017551404142304546,-0.01339810471876702,P5 gd:441,0.01339810471876702
11729,-0.011051451715974565,-0.025350791437816957,-0.01779484129660872,0.0,-0.012608969443480954,-0.01336121077877624,P1:6291,0.01336121077877624
2654,-0.008832002813075281,-0.011408033860072461,-0.01659196201162843,-0.01689889614543869,-0.013014441903252056,-0.013349067346693383,P5 CD8:76,0.013349067346693383
7148,-0.01612511514875645,-0.00960819504063419,-0.00322735113154067,0.0,-0.0375578432216165,-0.013303700908509564,P2:3412,0.013303700908509564
521,-0.019409830255210432,0.0,-0.018168091849801792,-0.0165989470223619,-0.012017395383762737,-0.013238852902227372,P7 Mono:6224,0.013238852902227372
6487,0.0,0.011623022050082601,0.012525562071459839,0.018157986121322654,0.023717756078015326,0.013204865264176083,P2:7233,0.013204865264176083
13925,-0.002293497167190292,0.0,-0.046458523003505135,-0.01707525728679225,0.0,-0.013165455491497535,P1:22366,0.013165455491497535
1896,0.0,-0.03126355693983301,-0.009740426992927629,-0.01823553820386125,-0.0063284886507831446,-0.013113602157481008,P5 gd:607,0.013113602157481008
6954,0.0,0.0,0.016630705024660613,0.023823126485340122,0.024588412041119757,0.013008448710224097,P2:4429,0.013008448710224097
15599,-0.0193034770870365,0.0,-0.01345907958827996,-0.03209901631743602,0.0,-0.012972314598550496,MFI:584,0.012972314598550496
1066,0.029985395348332528,0.0,0.002089956442619453,0.01896661991480353,0.013702712414205865,0.012948936823992275,P7 Mono:3582,0.012948936823992275
2656,-0.011621224339661755,-0.0003620450593133358,-0.025125817533115005,-0.027518724015029708,0.0,-0.01292556218942396,P5 CD8:74,0.01292556218942396
10252,0.008378718612955846,0.02485761602439868,0.0,0.008573397393826489,0.022713132666861972,0.012904572939608597,P2:12783,0.012904572939608597
15103,0.02033830335095868,0.0,0.023906369032685133,0.02027499481943684,0.0,0.01290393344061613,P1:12512,0.01290393344061613
3,-0.02629949845560014,-0.011927693931061297,-0.008146767833168417,-0.010774433668741692,-0.007323899103593731,-0.012894458598433054,P7:96,0.012894458598433054
7625,-0.006281183794472462,-0.005933981676568664,-0.011818415836216805,-0.022668922125310124,-0.01776883399047719,-0.012894267484609052,P2:25725,0.012894267484609052
1396,0.021950849403449924,0.0030495540452032373,0.011705275069397992,0.027744399138683606,0.0,0.012890015531346952,P6:46,0.012890015531346952
5322,0.01459608163367462,0.021145168078935843,0.0,0.0161424476797391,0.012453543888160567,0.012867448256102027,P3:3185,0.012867448256102027
2527,0.023994592731553688,0.017699030055159132,0.022605632195584337,0.0,0.0,0.012859850996459431,P5 gd:1210,0.012859850996459431
7025,-0.02198958589855066,0.0,0.0,0.0,-0.04206334489618035,-0.012810586158946202,P2:4141,0.012810586158946202
3458,-0.006644451665569584,-0.03407356989645919,-0.0014087734400052836,-0.021518187288968937,0.0,-0.012728996458200598,P4:3557,0.012728996458200598
1717,-0.0029885149889779337,-0.009961332019753423,-0.016305911328387948,-0.02453059588953209,-0.009823370090491128,-0.012721944863428505,P5 gd:889,0.012721944863428505
8825,-0.023661713327341724,0.0,-0.02077022910673166,-0.01904859719115661,0.0,-0.012696107925046,P2:23141,0.012696107925046
12331,0.0,0.0091223412226374,0.03760912394759754,0.016658273668018104,0.0,0.01267794776765061,P1:3781,0.01267794776765061
10634,-0.023829637036071008,-0.004659416523663002,-0.0054430457132384,-0.007999315705071473,-0.021431790794111664,-0.012672641154431109,P2:10533,0.012672641154431109
11956,-0.0011558003762533711,-0.036392363326375514,0.0,0.0,-0.025774259544292546,-0.012664484649384286,P1:5367,0.012664484649384286
1540,-0.01179432843973442,0.0,-0.005242911739358498,-0.03197225994985001,-0.014276332511910727,-0.01265716652817073,P6 earlyB:88,0.01265716652817073
3070,0.0,-0.01557566265332263,-0.03577110824142076,-0.011926469262844347,0.0,-0.012654648031517548,P4:5531,0.012654648031517548
11951,-0.007147136086704397,-0.034053901934175276,-0.0019079847209040642,0.0,-0.02004195598618387,-0.012630195745593523,P1:5376,0.012630195745593523
1352,0.0,-0.01585560254272652,-0.008329715981409816,0.0,-0.03877784943738471,-0.012592633592304208,P6:98,0.012592633592304208
3947,0.010562162230726166,0.021005670829416633,0.0,0.010871717338966483,0.019892120045455118,0.01246633408891288,P3:8055,0.01246633408891288
6853,0.021612330140610012,0.017872365296594125,0.0,0.0,0.022789814301971984,0.012454901947835223,P2:5020,0.012454901947835223
9462,0.014959587200917078,0.0,0.023948511513476097,0.023065532739378142,0.0,0.012394726290754263,P2:21311,0.012394726290754263
4737,-0.03372271619669383,-0.006133049475841028,-0.01416020353879041,-0.007918501529544254,0.0,-0.012386894148173904,P3:4843,0.012386894148173904
2252,-0.010739823549103522,-0.042481902279423556,0.0,-0.008583182315531552,0.0,-0.012360981628811727,P5 gd:1863,0.012360981628811727
6537,0.021124738638975026,0.020133176747145758,0.0,0.0,0.020291052045759383,0.012309793486376033,P2:7033,0.012309793486376033
2645,-0.008484769792162911,-0.013572385519579415,-0.014012336225389636,-0.005267121599897322,-0.020071820640145135,-0.012281686755434885,P5 CD8:87,0.012281686755434885
7561,0.01333210836960134,0.022531216512077165,0.022539846418584066,0.0028509398770148204,0.0,0.012250822235455478,P2:25876,0.012250822235455478
12719,0.0014471435210882148,0.006160818806182959,0.03176270433524487,0.021725853524865786,0.0,0.012219304037476366,P1:25978,0.012219304037476366
8062,0.022421663569887996,0.017815577801346297,0.0,0.020686400081443696,0.0,0.012184728290535598,P2:24920,0.012184728290535598
12008,0.0,0.02914395634941853,0.0,0.02357427621674302,0.007855405830367757,0.012114727679305862,P1:519,0.012114727679305862
13712,0.016668925692032963,0.012198671161038642,0.030183294278665698,0.0,0.0014076884659836538,0.01209171591954419,P1:2310,0.01209171591954419
4628,-0.0209883880883628,0.0,-0.011320223725091583,-0.019927201535151828,-0.008204205575511216,-0.012088003784823484,P3:5630,0.012088003784823484
13673,-0.010519692827404838,0.0,-0.02434048439286678,-0.016731456983130985,-0.008831033171469998,-0.012084533474974521,P1:23335,0.012084533474974521
6818,0.005841931891442047,0.010211584896859173,0.006568386297415225,0.015120811851054117,0.02265931857100943,0.012080406701556,P2:5209,0.012080406701556
3159,0.0,-0.032801162141108786,-0.01613976539738064,-0.010101837710148474,-0.0012043647034268308,-0.012049425990412945,P4:4790,0.012049425990412945
10842,0.014011696292859015,0.0,0.0,0.019023025157564762,0.027204074954738203,0.012047759281032397,P1:954,0.012047759281032397
7026,0.025130357786038365,0.016431928192846366,0.0,0.00035065442910264393,0.01825245794778561,0.012033079671154596,P2:4132,0.012033079671154596
3543,0.0,0.01853814294790365,0.0,0.008662869095615056,0.032945810620504924,0.012029364532804726,P4:3242,0.012029364532804726
9107,-0.016950366054923213,-0.018750056983477748,-0.02350532587469689,0.0,-0.0009135599287968135,-0.012023861768378932,P2:22363,0.012023861768378932
15998,-0.006208039203191378,-0.01383061542462574,-0.006684519682391023,-0.020236907514430812,-0.01313347813361438,-0.012018711991650667,Lin:35,0.012018711991650667
1501,0.0,-0.021714733965571387,-0.024774334777475555,-0.007095068024813391,-0.006442615950510297,-0.012005350543674125,P6:16,0.012005350543674125
15997,0.0,-0.010669155871270881,-0.02350992459639716,-0.025826516509041175,0.0,-0.012001119395341844,Lin:36,0.012001119395341844
15950,0.0,-0.01879271922686543,-0.002957506177417534,-0.021063596821724057,-0.016985188102163,-0.011959802065634004,MFI:133,0.011959802065634004
493,0.0,0.029578257210563542,0.0008238142510074225,0.0,0.029390106672827515,0.011958435626879696,P7 Mono:6296,0.011958435626879696
4496,0.0,0.0,0.029546268081240976,0.020277935985533856,0.009897193677333854,0.011944279548821737,P3:6016,0.011944279548821737
9598,0.0,0.0,0.016953133584152014,0.01965465136449941,0.023097919281948924,0.01194114084612007,P2:21096,0.01194114084612007
5387,-0.01993578845060058,-0.012519588275038946,0.0,-0.010178952886336011,-0.0169684431258024,-0.011920554547555588,P3:2941,0.011920554547555588
2684,0.0,0.0,-0.024865087730009082,-0.024849747573367255,-0.00959388173070021,-0.011861743406815308,P5 CD8:42,0.011861743406815308
6867,-0.011634966729646,-0.002724954843809429,-0.015052526796723566,-0.021328869314232134,-0.00855947443476959,-0.011860158423836142,P2:4991,0.011860158423836142
2741,0.0,-0.008605406024771521,-0.016478261152635332,-0.0341926613554624,0.0,-0.01185526570657385,P5 CD8:138,0.01185526570657385
2695,0.004552888459514004,0.0,0.015333488735452861,0.017067805655792922,0.021964231477735355,0.011783682865699027,P5 CD8:28,0.011783682865699027
123,0.012634329841218407,0.009834763348663345,0.0,0.026207568996962086,0.010228290766163925,0.011780990590601554,P7:214,0.011780990590601554
9303,0.0,-0.025115295326695816,0.0,-0.0335267831646462,0.0,-0.011728415698268402,P2:21771,0.011728415698268402
1813,0.0010681756204335147,0.0120605884441244,0.028773415041605094,0.0167366135463981,0.0,0.011727758530512222,P5 gd:74,0.011727758530512222
6613,0.0,0.0,0.016557819830367384,0.02084465871076378,0.02122701277577739,0.01172589826338171,P2:6633,0.01172589826338171
3429,0.0,0.026510518022376018,0.0035315207002476552,0.027842557850930236,0.0006860860417415475,0.011714136523059093,P4:3645,0.011714136523059093
3490,0.0,-0.006673943735411819,0.0,-0.016127152504492016,-0.03568995192595723,-0.011698209633172214,P4:3468,0.011698209633172214
13516,0.0164892196224381,0.029394961248245532,0.011424044511088515,0.0,0.0010385362407683667,0.011669352324508104,P1:2382,0.011669352324508104
15844,0.0,0.0,0.030751639653985467,0.018378661196665747,0.009169010763296504,0.011659862322789543,MFI:24,0.011659862322789543
12896,0.02357830491615871,0.016627904362324572,0.0,0.01794291889708682,0.0,0.011629825635114022,P1:25603,0.011629825635114022
7257,-0.015217813789134949,-0.01280455692191587,-0.016603525888089696,-0.013278291933823152,0.0,-0.011580837706592734,P2:2746,0.011580837706592734
2727,-0.011333718291522103,-0.012224993151903034,-0.011036947174441158,-0.007667296472762631,-0.015559057537963873,-0.011564402525718559,P5 CD8:19,0.011564402525718559
1380,0.0,-0.0008685429655656197,-0.011396914900105212,-0.020125475075281476,-0.02535064809554801,-0.011548316207300064,P6:60,0.011548316207300064
13036,0.0,0.040482313681872203,0.006305526083368283,0.010763467550391714,0.0,0.011510261463126439,P1:25199,0.011510261463126439
512,-0.016826864786656067,-0.0069261846389759634,-0.005302650023773455,-0.013644289781003616,-0.01460687359529175,-0.011461372565140172,P7 Mono:6260,0.011461372565140172
1338,-0.029451199548638753,-0.010502300750303346,-0.0022001033683240463,-0.015100975179266939,0.0,-0.011450915769306616,P7 Mono:1314,0.011450915769306616
15974,0.0,-0.013424768139122027,-0.02267265423942372,-0.020991840006840096,0.0,-0.011417852477077169,MFI:100,0.011417852477077169
15400,-0.015377095753771901,-0.007348584750344824,-0.020926933268324076,-0.013306482332465685,0.0,-0.011391819220981297,P1:10551,0.011391819220981297
15854,-0.01354529236295231,-0.005260384263401436,-0.009065699069618375,-0.02904267538860488,0.0,-0.0113828102169154,MFI:23,0.0113828102169154
1828,0.01400098469157566,0.01380080411435962,0.01839178081042765,0.0,0.010554559989931992,0.011349625921258984,P5 gd:716,0.011349625921258984
7493,0.0076860042975323084,0.029632419771683245,0.017073169652525803,0.002355769204607398,0.0,0.011349472585269752,P2:26,0.011349472585269752
10475,0.0034910087209419163,0.004997474996597786,0.02615591537777089,0.017292899469228427,0.004539310760238363,0.011295321864955476,P2:11361,0.011295321864955476
8477,-0.0124308612290037,-0.01573757059805714,0.0,-0.028289691314084726,0.0,-0.011291624628229113,P2:23938,0.011291624628229113
924,0.030158863572381952,0.0,0.0,0.013847844227483247,0.012416688094197771,0.011284679178812594,P7 Mono:4338,0.011284679178812594
7551,0.013001031537238148,0.016030723781795386,0.027324198084209574,0.0,0.0,0.011271190680648621,P2:25899,0.011271190680648621
10499,0.029870962991368398,0.0,0.0,0.0014479859332963891,0.024884477732538022,0.011240685331440561,P2:11233,0.011240685331440561
1207,0.0,0.013740486351646864,0.0,0.014377143950579438,0.027924051708855698,0.011208336402216402,P7 Mono:2256,0.011208336402216402
15922,0.0,-0.05599255368193123,0.0,0.0,0.0,-0.011198510736386245,MFI:161,0.011198510736386245
1898,0.005425175223114057,0.0,0.015464786224115215,0.019602396045214136,0.015465397480451042,0.011191550994578891,P5 gd:605,0.011191550994578891
15982,-0.028242982685976463,0.0,0.0,-0.025525902998084125,-0.0021708088292632347,-0.011187938902664766,Lin:5,0.011187938902664766
1965,-0.007302458095867448,-0.001131511870076837,-0.018447091821899825,-0.006235985279452126,-0.022797677726681075,-0.011182944958795463,P5 gd:472,0.011182944958795463
1373,-0.016990542827415328,-0.005567077730180452,-0.03325746941976356,0.0,0.0,-0.011163017995471869,P6:69,0.011163017995471869
2657,-0.0073530177321119525,-0.004972896848577196,-0.02844820609950229,-0.014803064056221673,0.0,-0.011115436947282622,P5 CD8:73,0.011115436947282622
1370,0.0,-0.01947833771180156,-0.01144139550762286,-0.0010240621722513318,-0.023381993206420294,-0.011065157719619209,P6:75,0.011065157719619209
2483,0.02966961768422302,0.0,0.025559598346265602,0.0,0.0,0.011045843206097725,P5 gd:1300,0.011045843206097725
8774,0.004933478754939874,0.0,0.018223471821101418,0.0174540674943933,0.014122727159515699,0.01094674904599006,P2:23223,0.01094674904599006
909,0.01892932666620829,0.0,0.0032083273518299987,0.019193488469051046,0.013158298125440726,0.010897888122506012,P7 Mono:4383,0.010897888122506012
14332,-0.004508210118042951,-0.006448001584035881,-0.011946995209670411,-0.00930585875704483,-0.02206232854854032,-0.010854278843466878,P1:21282,0.010854278843466878
15406,0.0,-0.024285200454669198,-0.0164469855784381,-0.0016085220976515206,-0.011816602710863862,-0.010831462168324537,P1:10527,0.010831462168324537
1056,0.0,0.006313538326714398,0.02056027929201869,0.016340367385471448,0.010767574811337952,0.010796351963108498,P7 Mono:3630,0.010796351963108498
225,-0.005242630429665685,-0.024605647477671452,-0.00029171271191077465,-0.013557214027997444,-0.01021244143597128,-0.010781929216643327,P7 Mono:987,0.010781929216643327
9242,0.017542613528845726,0.0,0.017417218721520036,0.01747385040402915,0.0013669389844668289,0.010760124327772349,P2:21908,0.010760124327772349
1942,0.0,0.001760571278614221,0.014626282572035453,0.0203930774497636,0.016961447868764343,0.010748275833835525,P5 gd:521,0.010748275833835525
3116,0.0,0.018704453780544368,0.031258694768591506,0.0037067384173805396,0.0,0.010733977393303283,P4:5299,0.010733977393303283
9306,0.0,-0.0163325868358396,-0.004354088050255801,-0.032876438819693155,0.0,-0.010712622741157711,P2:21764,0.010712622741157711
13366,0.015353440223758587,0.0,0.007933714849432208,0.020507600386899902,0.009547467449031595,0.01066844458182446,P1:24255,0.01066844458182446
13138,0.020167277581539318,0.017213039121678684,0.0,0.01595161777580567,0.0,0.010666386895804734,P1:24861,0.010666386895804734
940,0.002003048751210634,0.010253254525585058,0.0184520434726117,0.0,0.022610550619728526,0.010663779473827184,P7 Mono:4284,0.010663779473827184
2140,-0.0017786198281607665,-0.0076091655689452765,0.0,-0.020104247328914974,-0.023713718940231006,-0.010641150333250405,P5 gd:2078,0.010641150333250405
1230,0.016820751661285823,0.008288972593959488,0.0,0.015093885712292324,0.01298292491567952,0.01063730697664343,P7 Mono:2182,0.01063730697664343
13802,0.016732038512070037,0.018714226369601447,0.0,0.01769543207578418,0.0,0.010628339391491133,P1:22731,0.010628339391491133
1834,0.0,0.00795973101250004,0.031361357303790194,0.013789910914096518,0.0,0.01062219984607735,P5 gd:706,0.01062219984607735
12726,0.005639296448629338,0.0,0.035943760435118835,0.011286779729955938,0.0,0.010573967322740822,P1:25970,0.010573967322740822
5081,0.014000320873452403,0.007995146997803614,0.0,0.011255843150387017,0.01954655314091929,0.010559572832512465,P3:3910,0.010559572832512465
15496,0.0,0.00046522121251713387,0.024973425787866835,0.009212408288480385,0.017926629741995947,0.01051553700617206,MFI:93,0.01051553700617206
6417,-0.03962623071200338,0.0,0.0,-0.004904595584289298,-0.007848994717731058,-0.010475964202804746,P2:7712,0.010475964202804746
8768,0.007801058053634574,0.0,0.01395430044443955,0.016456536457523735,0.014012978804970492,0.01044497475211367,P2:23242,0.01044497475211367
15988,0.03559547880986386,0.007472197242432956,0.0,0.0046836472889570475,0.00445067772432885,0.010440400213116542,Lin:44,0.010440400213116542
14892,-0.02682435108388672,-0.015460353175495092,0.0,-0.009768773463887418,0.0,-0.010410695544653846,P1:13602,0.010410695544653846
15658,-0.0281083222290427,0.0,0.0,0.0,-0.02391335145149369,-0.010404334736107277,MFI:510,0.010404334736107277
1678,0.0,0.0,-0.004694439431838484,-0.036649378199883786,-0.010549478397543485,-0.01037865920585315,P5 gd:954,0.01037865920585315
13611,-0.008258622195074266,-0.01455484008014206,-0.00662963911712979,-0.012549582078160633,-0.009580137397076471,-0.010314564173516646,P1:23499,0.010314564173516646
4886,0.0,0.0,0.01097177108970487,0.017347686970135213,0.02317263806568572,0.01029841922510516,P3:4390,0.01029841922510516
12897,0.018022012337772793,0.0,0.018848498476285717,0.004065186655494809,0.010454140121776763,0.010277967518266016,P1:256,0.010277967518266016
2946,0.03437290054356468,0.0,0.0,0.015735933807982515,0.0012749786170067779,0.010276762593710794,P4:6076,0.010276762593710794
2905,0.0,0.02678694411662893,0.0,0.0,0.02455307890424078,0.01026800460417394,P4:6239,0.01026800460417394
3559,0.0,0.019070044209640685,0.0,0.00771034167522828,0.024493352032113003,0.010254747583396394,P4:3158,0.010254747583396394
6864,-0.003618447158716849,-0.011819937252661835,-0.010806987110927055,-0.005035638869380737,-0.019891907489959934,-0.010234583576329281,P2:5,0.010234583576329281
1789,-0.002050220531124837,-0.01124054980553802,-0.01145258507115381,-0.018786703063982925,-0.007634051130793976,-0.010232821920518715,P5 gd:777,0.010232821920518715
5997,0.014379419594058508,0.007113676436596411,0.0,0.006854268928856366,0.022777133720738526,0.010224899736049963,P2:924,0.010224899736049963
7133,-0.0077759525949780495,-0.009116347137361614,-0.009095091839930382,0.0,-0.025002096490841463,-0.010197897612622301,P2:3502,0.010197897612622301
1798,0.0,-0.017694369318411136,-0.014085041981674165,-0.019169888616595715,0.0,-0.010189859983336203,P5 gd:768,0.010189859983336203
1684,0.0,0.015094475909641868,0.020883658744739932,0.0024066149857068955,0.012526709791209744,0.010182291886259687,P5 gd:940,0.010182291886259687
1913,0.019416979066754825,0.011570427542156637,0.007760232147769979,0.0,0.012156613869105425,0.010180850525157372,P5 gd:570,0.010180850525157372
9208,0.016830799531413622,0.002644338935701464,0.014185150726816849,0.01713771385791112,0.0,0.010159600610368611,P2:21982,0.010159600610368611
2269,0.0,0.013712088605542818,0.021561479837675014,0.002156960859689833,0.013298157633566812,0.010145737387294896,P5 gd:183,0.010145737387294896
8956,-0.011177194286391155,0.0,-0.008565153488354868,-0.015134078933272828,-0.015722377692415423,-0.010119760880086856,P2:22833,0.010119760880086856
1364,0.0,0.0034297498207241793,0.028303945279756767,0.0,0.01886233298412137,0.010119205616920464,P6:80,0.010119205616920464
15529,0.0,0.0,-0.03594104977208558,-0.012618887630523408,-0.002016785514960289,-0.010115344583513855,MFI:679,0.010115344583513855
764,0.0,-0.0265214395210757,-0.007326845627839614,-0.008079513228956128,-0.008494916502576062,-0.010084542976089501,P7 Mono:509,0.010084542976089501
14954,0.0,-0.02241226549748367,-0.02123629759954276,-0.006758725136222406,0.0,-0.010081457646649767,P1:13347,0.010081457646649767
8312,-0.029639635065011247,0.0,-0.012703770846220557,0.0,-0.00804749526311303,-0.010078180234868967,P2:24267,0.010078180234868967
5662,-0.020227803521879882,-0.0125144769510528,-0.015669458764538007,-0.0019291758018391565,0.0,-0.01006818300786197,P3:1567,0.01006818300786197
15903,-0.016006479556432477,-0.020549112586334118,-0.013733006365214602,0.0,0.0,-0.010057719701596239,MFI:185,0.010057719701596239
6683,0.01972215223387582,0.015356889382368032,0.0,0.0,0.015082953509661483,0.010032399025181066,P2:6336,0.010032399025181066
82,0.0,0.0,-0.026848499074422362,0.0,-0.02324789688008079,-0.010019279190900631,P7:260,0.010019279190900631
2154,0.0,-0.004195290178746193,-0.002236893723581667,-0.01767393186818409,-0.025976343914275325,-0.010016491936957455,P5 gd:2052,0.010016491936957455
2540,0.024345442800943348,0.017885445421879413,0.007756703025449082,0.0,0.0,0.009997518249654369,P5 gd:1183,0.009997518249654369
15682,0.0024028716906053537,0.007758870325871831,0.006919411541922982,0.028750308419868247,0.003940847799968664,0.009954461955647417,MFI:477,0.009954461955647417
12702,0.0,0.0,0.03127378321377141,0.018426466457559486,0.0,0.00994004993426618,P1:26006,0.00994004993426618
3679,0.015580009988438307,0.012743345683010275,0.0,0.006296806514472955,0.014840291322880353,0.009892090701760378,P3:8685,0.009892090701760378
2724,0.0024153161414447724,0.0,0.017149587913881187,0.013266030569898708,0.016529358500116727,0.00987205862506828,P5 CD8:200,0.00987205862506828
972,0.0,0.018862515793178904,0.013910609795949606,0.002240681381850339,0.014172856771569976,0.009837332748509764,P7 Mono:4205,0.009837332748509764
3046,0.0,-0.039742870268558,-0.008945344712147887,-0.00039930907853372394,0.0,-0.009817504811847922,P4:5571,0.009817504811847922
2692,-0.00552191022937265,-0.011286170435446732,-0.01004770569343366,-0.010138898919219406,-0.011973026929922302,-0.00979354244147895,P5 CD8:31,0.00979354244147895
1575,-0.018310910669123107,-0.022808590858995607,0.0,-0.00651743169539121,-0.0011697492824766992,-0.009761336501197326,P6 earlyB:4,0.009761336501197326
12217,0.003840436150067264,0.012290513351051892,0.01157422924154685,0.02107121963308707,0.0,0.009755279675150616,P1:4177,0.009755279675150616
8531,-0.013482110958367396,0.0,0.0,-0.03512125844068096,0.0,-0.009720673879809672,P2:23854,0.009720673879809672
6883,0.018839625479209136,0.016623959113961903,0.0,0.0,0.012957366670065576,0.009684190252647324,P2:4852,0.009684190252647324
1940,0.0,0.013023402284382082,0.015647428638500868,0.010148372492132723,0.009489042259989934,0.009661649135001121,P5 gd:524,0.009661649135001121
1002,-0.02216212861505646,-0.014613950452186145,-0.009445507082435044,0.0,-0.0020014292656183584,-0.009644603083059202,P7 Mono:4127,0.009644603083059202
2149,0.0,-0.019385355363493374,0.0,-0.012816032238392061,-0.015988887134202094,-0.009638054947217506,P5 gd:2061,0.009638054947217506
1544,-0.005749308056891054,0.0,-0.0009951488173919585,-0.03157324317481193,-0.00973767691225411,-0.00961107539226981,P6 earlyB:81,0.00961107539226981
3430,0.0,0.02949238978775215,0.0,0.018423359784527204,0.0,0.009583149914455871,P4:3644,0.009583149914455871
15958,0.0,-0.012262830507221906,-0.014515308885050914,-0.008970000337570143,-0.012151206290827238,-0.009579869204134039,MFI:123,0.009579869204134039
9840,0.017912068583515565,0.0,0.0,0.0,0.029934527330284157,0.009569319182759944,P2:20445,0.009569319182759944
13981,0.0,0.017181788077580716,0.0,0.013117646810493716,0.01753660499223378,0.009567207976061642,P1:22208,0.009567207976061642
9829,-0.005690660750827163,-0.013770852871050348,-0.015348184489843479,-0.0005563417073006491,-0.012428271522515992,-0.009558862268307527,P2:20474,0.009558862268307527
6934,0.0,0.0,0.014227109374655168,0.016866238156088034,0.016589892177221864,0.009536647941593012,P2:4507,0.009536647941593012
6642,0.017216107504811597,0.020494493138843998,0.0,0.009951666017719098,0.0,0.00953245333227494,P2:6531,0.00953245333227494
694,-0.015272273556998232,-0.0017004715534699281,-0.010643269076610245,-0.01815089143913437,-0.0018469055842091672,-0.009522762242084388,P7 Mono:5535,0.009522762242084388
2362,0.0,0.0,-0.021495385033810165,-0.026116563869874574,0.0,-0.009522389780736948,P5 gd:1521,0.009522389780736948
2007,0.0,-0.024319161928232132,0.0,-0.011225017570279886,-0.012058771175252333,-0.009520590134752871,P5 gd:39,0.009520590134752871
6620,0.023415472086113394,0.014336090777438627,0.0,0.007685959864085825,0.0021474640713469093,0.009516997359796952,P2:6612,0.009516997359796952
6603,0.009385739202768627,0.018940701329060255,0.0,0.0,0.019057262100069836,0.009476740526379743,P2:6657,0.009476740526379743
2153,0.0,-0.020343760729633908,0.0,-0.01940272658020696,-0.007630717740261162,-0.009475441010020406,P5 gd:2054,0.009475441010020406
8469,0.007097967419499586,0.0,0.0069065708597396795,0.018223563749930623,0.015141665112988305,0.00947395342843164,P2:23953,0.00947395342843164
7598,0.0,-0.009338468293419661,-0.006160383591007625,-0.013716316532716273,-0.01805896015921587,-0.009454825715271887,P2:25802,0.009454825715271887
9192,-0.01190293650746747,-0.00702483794211524,-0.015230729579509108,-0.0005986130510960526,-0.012334587987353707,-0.009418341013508316,P2:22020,0.009418341013508316
15744,-0.011331850452884137,-0.010986832882207651,0.0,-0.024633825892504457,0.0,-0.009390501845519249,MFI:397,0.009390501845519249
1,0.012718848987918219,0.02360288572660395,0.0,0.01061265481287525,0.0,0.009386877905479485,P7:98,0.009386877905479485
11781,-0.0013446285705675633,-0.028945718027498527,0.0,0.0,-0.01662504126404507,-0.009383077572422233,P1:6061,0.009383077572422233
15895,4.666299547693888e-05,0.007055824896193008,0.0,0.025073579867688885,0.014700378587774619,0.00937528926942669,MFI:193,0.00937528926942669
12361,0.013363314616290343,0.02141387272498297,0.0,0.011944938334417963,0.0,0.009344425135138255,P1:36,0.009344425135138255
3564,0.0,-0.00816829086589939,0.0,-0.012742709331846166,-0.025784563132630875,-0.009339112666075285,P4:3143,0.009339112666075285
3110,0.0,-0.03680259730952894,-0.0024311347007807413,-0.0074383166522235976,0.0,-0.009334409732506654,P4:5329,0.009334409732506654
2270,-0.009029395868999288,-0.024848308293477825,0.0,-0.005655362413695349,-0.007009514770714365,-0.009308516269377365,P5 gd:1828,0.009308516269377365
9530,0.014361678457799787,0.0,0.018106554502085648,0.0062588626994589175,0.007741851267812364,0.009293789385431343,P2:21233,0.009293789385431343
6455,0.025855639796445947,0.01612354103327631,0.0,0.0,0.004099881914111112,0.009215812548766673,P2:7320,0.009215812548766673
15292,-0.0036693746593895273,-0.008653718772615565,-0.017731267802967018,-0.015125739812967418,-0.0008117588451497087,-0.009198371978617847,P1:11282,0.009198371978617847
9571,0.01615926339839948,0.0,0.008629822766361536,0.0,0.02119386405280008,0.00919659004351222,P2:21154,0.00919659004351222
2671,0.0,-0.012204332834186206,-0.0069259556695396695,0.0,-0.026831494675245197,-0.009192356635794215,P5 CD8:58,0.009192356635794215
3486,0.0,0.0,-0.031997235706265094,-0.009180001994925241,-0.0047492032378698805,-0.009185288187812043,P4:3472,0.009185288187812043
2258,0.0,-0.006389328603604358,-0.012356698940875733,0.0,-0.027040720557704418,-0.009157349620436902,P5 gd:1852,0.009157349620436902
11774,-0.004748051367656874,-0.032794036035011,0.0,0.0,-0.008065756844301625,-0.009121568849393899,P1:6102,0.009121568849393899
10334,-0.004392243393286223,-0.008914244188500816,-0.011063119123358873,-0.01281062876556845,-0.0081938885689033,-0.009074824807923532,P2:12445,0.009074824807923532
1635,-0.009752029338987915,-0.014544294950627645,-0.007920085255782257,-0.013124289179377786,0.0,-0.009068139744955121,P6 earlyB:135,0.009068139744955121
6056,0.0,-0.02219014638099714,0.0,-0.02306177141893613,0.0,-0.009050383559986655,P2:9086,0.009050383559986655
583,0.0,-0.020827125084395333,-0.0116780046508977,0.0,-0.012733255314922134,-0.009047677010043035,P7 Mono:590,0.009047677010043035
12923,-0.008664922823418084,-0.0030740441795317343,-0.011014544000687085,-0.00584329991288709,-0.01651101074677038,-0.009021564332658875,P1:25528,0.009021564332658875
2959,0.0,0.024278848500290728,0.00206416118415943,0.0013621654626681382,0.017373763666632097,0.00901578776275008,P4:6012,0.00901578776275008
1981,-0.00839420348975081,0.0,-0.01203849136421467,-0.005795055818840195,-0.018788566606103847,-0.009003263455781904,P5 gd:444,0.009003263455781904
6513,0.013500919642617192,0.014500883993803008,0.0,0.0,0.01697232692218657,0.008994826111721355,P2:7114,0.008994826111721355
3380,0.0,-0.0245720774539615,0.0,-0.019811920877718187,-0.0004604278209705421,-0.008968885230530046,P4:3788,0.008968885230530046
5666,0.0,-0.025227439637368617,-0.0006871705874655803,0.0,-0.018890490003955845,-0.008961020045758009,P3:1539,0.008961020045758009
2673,0.0,-0.011583849127829372,-0.008240798691193003,0.0,-0.02494708738811731,-0.008954347041427937,P5 CD8:55,0.008954347041427937
14138,0.015092643919742289,0.0,0.02505977652745199,0.001583511411740203,0.002996641823339398,0.008946514736454775,P1:21786,0.008946514736454775
10566,0.0,0.026352596740480225,0.0,0.01016904300732623,0.00813438748186499,0.00893120544593429,P2:10855,0.00893120544593429
7009,0.019647167321919,0.011395002788406543,0.0,0.0,0.013260865217036882,0.008860607065472485,P2:4210,0.008860607065472485
15740,-0.011172544461778147,-0.010518981722359664,-0.011012683713853893,-0.011495286978896145,0.0,-0.008839899375377571,MFI:40,0.008839899375377571
1451,-0.003024561849187783,0.0,0.0,-0.02996771369048575,-0.011177825172356349,-0.008834020142405976,P6:25,0.008834020142405976
6633,-0.0004305829245175603,-0.015621310153916698,-0.019859474426910245,0.0,-0.008086465455810888,-0.008799566592231078,P2:655,0.008799566592231078
9979,-0.009606541136537694,-0.009092075523333569,-0.013547470498285374,-0.011229996757695022,-0.00038899451348293064,-0.008773015685866917,P2:1569,0.008773015685866917
9191,-0.00917314389825968,0.0,-0.02144683880698241,-0.001789910637056462,-0.011442691079723682,-0.008770516884404448,P2:22023,0.008770516884404448
1740,-0.0034562494772045513,-0.01189617610728096,-0.004226145686784774,-0.015738342236657734,-0.008483308148547412,-0.008760044331295087,P5 gd:846,0.008760044331295087
6979,0.0,0.001455689157880322,0.022806690348769625,0.01506278460709773,0.004319209170270549,0.008728874656803646,P2:4336,0.008728874656803646
8465,0.015011942939313962,0.0,0.0029921713043568826,0.018114573215436018,0.007469385813476929,0.008717614654516757,P2:23971,0.008717614654516757
658,0.0434449353994775,0.0,0.0,0.0,0.0,0.008688987079895499,P7 Mono:566,0.008688987079895499
6476,0.01517247328508455,0.013410298757457605,0.0,0.0,0.014821981907374673,0.008680950789983367,P2:7260,0.008680950789983367
1945,0.0,0.0,0.019076130937578525,0.0,0.02418667653292763,0.008652561494101232,P5 gd:515,0.008652561494101232
12905,0.013179388485195741,0.019589582286981606,0.0,0.010484653967448587,0.0,0.008650724947925187,P1:25582,0.008650724947925187
9314,-0.00234149365174201,-0.006620120759601097,-0.028246816937043916,-0.005952686007932366,0.0,-0.008632223471263878,P2:21753,0.008632223471263878
13137,0.014142195382899205,0.017731362592572224,0.0,0.011105286013681815,0.0,0.008595768797830649,P1:24863,0.008595768797830649
12930,-0.011164275551447089,-0.0018922237539372366,-0.011125454086929906,-0.0025315838220892535,-0.01624501998475221,-0.008591711439831139,P1:25501,0.008591711439831139
1846,0.010214511621286533,0.013278507701047116,0.0006629225951927071,0.010704503371258115,0.007997613192471598,0.008571611696251213,P5 gd:689,0.008571611696251213
2537,0.0,0.0,-0.03570079942121425,0.0,-0.007149340400383668,-0.008570027964319583,P5 gd:1186,0.008570027964319583
7145,-0.0035558768889661302,-0.017836727113596178,-0.006339649747116354,0.0,-0.015096242987893521,-0.008565699347514437,P2:3439,0.008565699347514437
2985,0.0,-0.03692479511095791,0.0,-0.005818197602483819,0.0,-0.008548598542688347,P4:5850,0.008548598542688347
6944,0.0,0.0,0.01277079670782231,0.015111923381660895,0.014825453130962497,0.00854163464408914,P2:4483,0.00854163464408914
14945,-0.0012995494205084693,-0.013181273151036827,-0.019383433721043335,-0.008740788803775712,0.0,-0.008521009019272868,P1:13374,0.008521009019272868
1473,0.0,0.011385697846735179,0.0,0.0017430309775363934,0.02947552153622854,0.008520850072100022,P6:216,0.008520850072100022
9459,2.8750784561638313e-05,0.009003154492350075,0.015098335845990027,0.018416737830472346,0.0,0.008509395790674817,P2:21315,0.008509395790674817
8025,0.00840915901386108,0.0,0.0,0.010562467872679634,0.023496433167717875,0.008493612010851716,P2:25011,0.008493612010851716
11313,0.0,-0.019816673958395314,-0.007014837705073948,-0.015552474751378309,-8.298874803320133e-05,-0.008493395032576154,P1:798,0.008493395032576154
13447,-0.005620307646069386,0.0,-0.008238048801769761,-0.012219272947598368,-0.0161465259499874,-0.008444831069084982,P1:24107,0.008444831069084982
13313,0.013733257315696409,0.0,0.002815294797572102,0.01734185281815732,0.008308497696765343,0.008439780525638235,P1:24334,0.008439780525638235
15942,-0.007369941089210151,-0.0019517331709183066,0.0,-0.03286906139812345,0.0,-0.008438147131650382,MFI:141,0.008438147131650382
6974,0.0,0.0,0.008231257132646616,0.017584325254145574,0.016360802244756344,0.008435276926309706,P2:4348,0.008435276926309706
1415,0.0,0.0,-0.019790849833132,-0.017572987829664915,-0.004683854017009938,-0.00840953833596137,P6:317,0.00840953833596137
6758,0.008658774656624138,0.02190568641914379,0.0,0.0,0.011482378706764183,0.008409367956506422,P2:5717,0.008409367956506422
4734,0.014236047375459146,0.0,0.0,0.015248417156077007,0.01252271489602584,0.008401435885512398,P3:487,0.008401435885512398
1673,-0.007657270982294345,-0.0072189759742186345,-0.016421254720010842,0.0,-0.010662511255089475,-0.00839200258632266,P5 gd:959,0.00839200258632266
6462,0.0,0.009167080351236001,0.0019565981036937367,0.009429674336972955,0.021186270015867488,0.008347924561554036,P2:7306,0.008347924561554036
15507,-0.03148233306401131,0.0,-0.010238240284788912,0.0,0.0,-0.008344114669760044,MFI:83,0.008344114669760044
15531,-0.013522197897725092,-0.010227967064963215,-0.017908927981825546,0.0,0.0,-0.00833181858890277,MFI:677,0.00833181858890277
1539,-0.007406008863957382,0.0,-0.0054370347320024616,-0.024169887306918873,-0.004601197122090174,-0.008322825604993778,P6 earlyB:89,0.008322825604993778
3605,-0.029208588400786537,0.0,0.0,-0.01229142051770907,0.0,-0.00830000178369912,P3:979,0.00830000178369912
2574,0.0,0.0,0.02932024028528224,0.0,0.011857082145014325,0.008235464486059312,P5 gd:1039,0.008235464486059312
7547,0.0,-0.005691429382889708,-0.015408946846065228,-0.019948208974923547,0.0,-0.008209717040775697,P2:25910,0.008209717040775697
15995,-0.006510019871287844,-0.010574110555939178,-0.015478116945975262,-0.008467687777066022,0.0,-0.008205987030053662,Lin:38,0.008205987030053662
1213,0.015666424495333866,0.01236397232751316,0.0,0.012991080723404495,0.0,0.008204295509250304,P7 Mono:224,0.008204295509250304
15839,0.011083798665834057,0.006338943492283308,0.012283829810390914,0.011242131874665969,0.0,0.00818974076863485,MFI:245,0.00818974076863485
14274,-0.010618673291571158,0.0,-0.010791093545395434,-0.003735951070851739,-0.015787079936527653,-0.008186559568869196,P1:214,0.008186559568869196
1481,-0.011981405216471817,0.0,-0.011576774650625307,-0.01732650479868689,0.0,-0.008176936933156803,P6:194,0.008176936933156803
14124,0.0,0.0,0.026188739853194,0.008189708618910576,0.006502420494249988,0.008176173793270913,P1:21823,0.008176173793270913
6452,0.010395341134788879,0.013554169967981512,0.0,0.0,0.016927457899278943,0.008175393800409866,P2:7327,0.008175393800409866
5829,-0.010711913322315322,-0.007410402593004283,-0.017611117304756584,-0.004834368374349892,0.0,-0.008113560318885216,P2:9722,0.008113560318885216
7694,0.0,0.0,0.020862615347158532,0.0,0.019656244323155384,0.008103771934062785,P2:25561,0.008103771934062785
119,-0.004818659469818798,0.0,0.0,-0.009696813087530327,-0.025693389711498833,-0.00804177245376959,P7:219,0.00804177245376959
1484,-0.008097575436181581,0.0,-0.009369287107002652,-0.022603037430951548,0.0,-0.008013979994827156,P6:187,0.008013979994827156
8255,-0.012240594032948941,0.0,-0.02313022066171579,0.0,-0.004583301798796586,-0.007990823298692263,P2:24485,0.007990823298692263
4623,-0.022662843540821577,-0.009968889702397867,-0.007274060026154309,0.0,0.0,-0.00798115865387475,P3:5648,0.00798115865387475
13438,-0.004174453249524802,0.0,-0.007843063710354831,-0.011922073530412216,-0.015914588692062137,-0.007970835836470796,P1:24134,0.007970835836470796
3065,-0.018654454155079065,0.0,0.0,-0.009631392252778174,-0.011433182755764488,-0.007943805832724344,P4:5536,0.007943805832724344
2407,0.0,0.0,-0.013662058660415392,-0.026035845288785945,0.0,-0.007939580789840268,P5 gd:1451,0.007939580789840268
13489,0.007033956504414597,0.0051483806764555055,0.023733451486893375,0.00376068086698192,0.0,0.007935293906949078,P1:2390,0.007935293906949078
3171,0.020181436478479586,0.0,0.0,0.019469488187459978,0.0,0.007930184933187912,P4:4597,0.007930184933187912
2779,0.0,-0.00707137965877083,-0.022715290686320683,-0.009697245696975339,0.0,-0.00789678320841337,P4:69,0.00789678320841337
6477,0.01976217152298831,0.013837951470086518,0.0,0.0,0.005783385674671159,0.007876701733549197,P2:7251,0.007876701733549197
6947,0.016389281395927453,0.011025030604760415,0.0,0.009441719496400101,0.00240504486909948,0.00785221527323749,P2:4462,0.00785221527323749
516,-0.010238796589459375,0.0,-0.007826903840733802,-0.008742243426454278,-0.012400497014878303,-0.007841688174305151,P7 Mono:6250,0.007841688174305151
4475,0.018512924353171124,0.0,0.01269708707178777,0.007937863263951227,0.0,0.007829574937782025,P3:6142,0.007829574937782025
2590,-0.03893395887551477,0.0,0.0,0.0,0.0,-0.0077867917751029535,P5 NKT:88,0.0077867917751029535
3551,0.0,-0.001147469426612906,0.0,-0.013868795648104528,-0.023814170483850493,-0.007766087111713585,P4:3225,0.007766087111713585
6421,-0.0066543599643188196,-0.0017994092441806395,-0.018304619853458628,-0.012048129735575171,0.0,-0.007761303759506652,P2:7632,0.007761303759506652
2711,0.0,0.0,0.0,0.010916455151510168,0.027883520647074632,0.007759995159716959,P5 CD8:23,0.007759995159716959
7546,0.013330407439572659,0.010555407037997056,0.014892491767091098,0.0,0.0,0.007755661248932162,P2:25912,0.007755661248932162
2637,-0.022607516123820542,0.0,-0.0036145220635277683,-0.012540000084571044,0.0,-0.007752407654383871,P5 CD8:95,0.007752407654383871
5520,0.01782923385955612,0.0,0.0,0.020789201099600113,0.0,0.007723686991831247,P3:245,0.007723686991831247
14233,0.01182129414046026,0.0,0.011299706077711835,0.011310383735947227,0.0040556073317127884,0.007697398257166421,P1:21539,0.007697398257166421
12889,0.018213506230927937,0.009153405953853265,0.0,0.010882573750410454,0.0,0.007649897187038332,P1:25612,0.007649897187038332
14143,0.010981164080792576,0.0,0.025652100724649803,0.0,0.001228688937039798,0.007572390748496435,P1:21777,0.007572390748496435
4620,-0.01811961295878171,0.0,0.0,-0.019735760452884495,0.0,-0.007571074682333241,P3:5656,0.007571074682333241
9115,-0.009069234183890992,-0.0014169657413611125,-0.014235177196055375,-0.00220146372205853,-0.01092953105025544,-0.00757047437872429,P2:22344,0.00757047437872429
13801,0.008629736488982803,0.018834033650007413,0.0,0.010268844434944479,0.0,0.007546522914786938,P1:22732,0.007546522914786938
1400,0.0,0.0,-0.017199255925092242,-0.01788157007525063,-0.0025361481414155796,-0.007523394828351691,P6:42,0.007523394828351691
6903,0.013961327241177416,0.006577669617078332,0.0,0.0028926592155474767,0.014179370315138365,0.007522205277788319,P2:4697,0.007522205277788319
2526,0.013206597230929025,0.011142411992836401,0.01325804398680006,0.0,0.0,0.007521410642113098,P5 gd:1211,0.007521410642113098
2462,-0.021617952614852262,0.0,-0.01273192247650544,-0.003251655151587595,0.0,-0.007520306048589059,P5 gd:135,0.007520306048589059
6045,0.02659203155255324,0.004203474536240971,0.006473359830214174,0.0001513863120159273,0.0,0.007484050446204864,P2:9117,0.007484050446204864
10350,-0.011472504479176946,0.0,-0.011921340392184515,0.0,-0.014005623443398034,-0.007479893662951899,P2:122,0.007479893662951899
2490,0.012835770024336782,0.011761884851297196,0.012797762354688094,0.0,0.0,0.007479083446064415,P5 gd:1292,0.007479083446064415
15075,-0.002263497234439226,-0.024610945788418763,-0.008468210800101184,-0.0019698145504209405,0.0,-0.007462493674676022,P1:12650,0.007462493674676022
8224,0.0,-0.014173775672515699,-0.013666031655100185,0.0,-0.009130895510038834,-0.007394140567530944,P2:2457,0.007394140567530944
7090,0.008873951707441428,0.0020698681489049967,0.00402637593562557,0.01644735991358617,0.005545377589839894,0.0073925866590796125,P2:3742,0.0073925866590796125
6212,0.01177284425821022,0.009799854161478869,0.0,0.0,0.015254342512649533,0.0073654081864677244,P2:862,0.0073654081864677244
2219,0.0,-0.03681189268970702,0.0,0.0,0.0,-0.007362378537941404,P5 gd:1945,0.007362378537941404
6732,0.0,0.0,0.012141450343221854,0.014420642579534784,0.010197500700394112,0.007351918724630149,P2:5911,0.007351918724630149
9627,-0.0047085219513584905,-0.008677337197400492,-0.019166204476683487,-0.004196384386717313,0.0,-0.007349689602431956,P2:21047,0.007349689602431956
11450,0.0,0.022397650666809717,0.0,0.0,0.014151667359828023,0.007309863605327547,P1:7372,0.007309863605327547
15672,0.0,0.024787821442592343,0.01169576186075956,0.0,0.0,0.0072967166606703795,MFI:489,0.0072967166606703795
9460,0.0060641684028127345,0.0,0.01509981645062025,0.013532787839363061,0.0016342550416359159,0.0072662055468863925,P2:21314,0.0072662055468863925
5700,-0.007206033622584021,-0.00523884950361995,-0.011897982226612584,-0.011919449958780932,0.0,-0.0072524630623194974,P3:1026,0.0072524630623194974
1977,0.0,-0.010515908501692458,-0.014922248913348403,0.0,-0.01080090676751119,-0.007247812836510411,P5 gd:451,0.007247812836510411
2533,0.0,-0.03368314244491896,-0.0024326579763562484,0.0,0.0,-0.007223160084255042,P5 gd:1190,0.007223160084255042
15721,0.0,-0.03611076843887764,0.0,0.0,0.0,-0.007222153687775528,MFI:422,0.007222153687775528
8877,-0.007504912435652489,0.0,-0.016327067369073266,-0.012265488258549902,0.0,-0.007219493612655131,P2:23060,0.007219493612655131
941,0.0,0.004841451432525362,0.0134089486602326,0.0,0.017833206457887062,0.007216721310129004,P7 Mono:4281,0.007216721310129004
5085,0.008320301180513537,0.011125402356848665,0.0,0.00901992374340103,0.007507793141116918,0.007194684084376029,P3:3902,0.007194684084376029
13856,0.0,0.0,-0.02707122283242761,-0.008873158070548023,0.0,-0.007188876180595126,P1:22610,0.007188876180595126
6700,0.01805087440307802,0.011380337396776965,0.0,0.0,0.006240650246225664,0.0071343724092161305,P2:6245,0.0071343724092161305
12903,0.010339997322725749,0.018045926724931067,0.0,0.007258855734472903,0.0,0.007128955956425943,P1:25589,0.007128955956425943
11785,0.0,-0.02284053590602858,0.0,0.0,-0.012767726053731466,-0.007121652391952009,P1:6052,0.007121652391952009
1903,0.004573613285453419,0.0,0.018710631106730647,0.0,0.012281804160070638,0.007113209710450941,P5 gd:596,0.007113209710450941
156,-0.0022480709808458833,-0.009253832356670391,-0.005540522735082214,-0.01601557123274942,-0.0023561926594226645,-0.007082837992954114,P7:173,0.007082837992954114
16006,-0.01940590329787458,0.0,-0.013603791842462446,-0.0023680823556966103,0.0,-0.007075555499206727,Lin:27,0.007075555499206727
14123,0.0,0.0,0.015034553808173864,0.01191375690326894,0.008407260524342128,0.0070711142471569875,P1:21824,0.0070711142471569875
13188,-0.03530443036825023,0.0,0.0,0.0,0.0,-0.007060886073650045,P1:24742,0.007060886073650045
6846,0.0,0.0,0.017838249061481178,0.010053996583316386,0.007394522599285956,0.007057353648816704,P2:5050,0.007057353648816704
15709,0.01633855647172589,0.0011691150834317102,0.0,0.004435705273470552,0.013267715772858795,0.00704221852029739,MFI:434,0.00704221852029739
957,-0.006338012132469675,-0.0029536836946344462,-0.004714579385875961,-0.01750095024900479,-0.003647548576193575,-0.007030954807635689,P7 Mono:4242,0.007030954807635689
1121,-0.03118954944145042,-0.003962868749641686,0.0,0.0,0.0,-0.007030483638218421,P7 Mono:3346,0.007030483638218421
2504,0.019672340167403875,0.01149044409671839,0.003962491917025871,0.0,0.0,0.007025055236229627,P5 gd:1265,0.007025055236229627
8482,-0.010815836080754688,-0.006402539297119245,-0.006333081886256219,-0.006901719560936258,-0.004647553903281302,-0.007020146145669542,P2:23931,0.007020146145669542
354,0.03082098275408312,0.0,0.0,0.004231501402779114,0.0,0.007010496831372446,P7 Mono:7,0.007010496831372446
3419,0.0,0.0,0.0,0.022589609251720773,0.012335161553066857,0.006984954160957527,P4:3669,0.006984954160957527
807,-0.009903117384469015,0.0,-0.008354061951390317,-0.006754054817295068,-0.009892132497618512,-0.006980673330154582,P7 Mono:4947,0.006980673330154582
12646,-0.012767057001473476,-0.0029999112529490142,-0.0024233374205551187,-0.003391915575351286,-0.013285517445872825,-0.0069735477392403435,P1:26101,0.0069735477392403435
910,0.009558963147092162,0.0,0.0,0.007767985733555852,0.01752224910644616,0.006969839597418835,P7 Mono:4380,0.006969839597418835
10642,-0.00290964906658237,-0.0029476140784281822,-0.018072011316515896,-0.008799009071918286,-0.001949270080345203,-0.006935510722757989,P2:10452,0.006935510722757989
3400,0.0,0.01272019186110196,0.0008997913831034369,0.016046332709267145,0.004915909354604356,0.00691644506161538,P4:3729,0.00691644506161538
2641,0.0,-0.013428774368818749,-0.005123381360876924,0.0,-0.016029468199733877,-0.006916324785885911,P5 CD8:90,0.006916324785885911
12890,0.015480051019191702,0.01151828103777117,0.0,0.0075718870927500345,0.0,0.006914043829942582,P1:25611,0.006914043829942582
8013,-0.01711126404037662,0.0,-0.007745291062171146,-0.009711973749872978,0.0,-0.00691370577048415,P2:25057,0.00691370577048415
3510,0.0,0.0,0.0,0.0,-0.03448735218847913,-0.006897470437695825,P4:3386,0.006897470437695825
7504,0.0,-0.007060819563286643,-0.007091956108355534,-0.02025342659437417,0.0,-0.006881240453203269,P2:25985,0.006881240453203269
1756,0.0,-0.006067223566499085,-0.004728735008250645,-0.010069557391952548,-0.013481734618746063,-0.006869450117089668,P5 gd:823,0.006869450117089668
14251,0.014541215165266711,0.0,0.013260976399029763,0.0,0.006495115396238539,0.006859461392107002,P1:21505,0.006859461392107002
9609,-0.0011120661095520177,0.0,-0.02105131071938042,-0.012128429917637362,0.0,-0.00685836134931396,P2:21078,0.00685836134931396
3125,0.0,-0.009650918526390377,-0.024616570327773157,0.0,0.0,-0.006853497770832706,P4:5280,0.006853497770832706
830,0.03396647504871209,0.0,0.0,0.0,0.0,0.006793295009742418,P7 Mono:485,0.006793295009742418
4394,-0.015806683668195196,-0.007573848879964681,-0.010542446695221787,0.0,0.0,-0.006784595848676333,P3:643,0.006784595848676333
605,0.0,-0.018283944370333843,-0.007132392203927017,0.0,-0.008423476853888164,-0.006767962685629805,P7 Mono:581,0.006767962685629805
6698,0.01253191635374823,0.009532090387097986,0.0,0.0,0.01167987739846497,0.006748776827862237,P2:6258,0.006748776827862237
15605,0.021058572671224487,0.012670367362698928,0.0,0.0,0.0,0.006745788006784684,MFI:579,0.006745788006784684
3598,-0.018508699916414243,0.0,0.0,-0.015123349519168555,0.0,-0.006726409887116559,P3:993,0.006726409887116559
10408,-0.0007280812041152407,-0.00335336287532552,-0.011130531280260134,-0.01091142097472284,-0.0074858277963541185,-0.00672184482615557,P2:11757,0.00672184482615557
4179,-0.0022241643181350195,0.0,-0.015082783084488426,-0.008855414245019014,-0.007281918632528179,-0.006688856056034127,P3:7276,0.006688856056034127
3511,0.0,-0.002402245603663046,0.0,-0.003199429910049297,-0.027769173246269152,-0.006674169751996299,P4:3383,0.006674169751996299
2661,0.0,-0.004684389040865419,-0.010557993192358539,-0.0028160953037999993,-0.015301125794827196,-0.00667192066637023,P5 CD8:68,0.00667192066637023
8765,0.0034542850205416323,0.0,0.01417955257591409,0.009100507860211422,0.006545149062231867,0.006655898903779803,P2:23251,0.006655898903779803
1595,-0.007471528743936139,-0.02488658213871099,0.0,-0.0007393559054210535,0.0,-0.006619493357613637,P6 earlyB:234,0.006619493357613637
12298,-0.007389496682126404,0.0,-0.021132944429176504,-0.004564730920212521,0.0,-0.006617434406303085,P1:3864,0.006617434406303085
6511,0.0,0.008390172404493818,0.019543765142539932,0.005092760732918229,0.0,0.006605339655990396,P2:7139,0.006605339655990396
4010,-0.001705409315845469,0.0,-0.010825695364818923,-0.009286963131002465,-0.011128026594022592,-0.00658921888113789,P3:7908,0.00658921888113789
3688,0.0,-0.021211252771590184,-0.011722568510583948,0.0,0.0,-0.006586764256434827,P3:867,0.006586764256434827
686,-0.008081725927868407,-0.005302499373520772,0.0,-0.008142524041824199,-0.011263393588238715,-0.006558028586290418,P7 Mono:5559,0.006558028586290418
9117,-0.01762992719790975,-0.0007298862149081618,-0.014400692586718191,0.0,0.0,-0.00655210119990722,P2:22339,0.00655210119990722
7106,0.0,0.0,0.013387078430706844,0.017156924802458232,0.0021619183241193504,0.006541184311456885,P2:3661,0.006541184311456885
13717,-0.005798940040196684,0.0,-0.008679582183078445,0.0,-0.018209461064835394,-0.006537596657622105,P1:23092,0.006537596657622105
2025,0.0,0.01240621700497075,0.0,0.0,0.020278071322782965,0.006536857665550744,P5 gd:35,0.006536857665550744
15754,-0.003143833529769822,-0.015636833806817158,0.0,-0.013885619173794665,0.0,-0.006533257302076328,MFI:388,0.006533257302076328
3079,0.0,-0.008792230136600375,-0.019970207523904968,-0.003301308337864414,-0.0005726826888200314,-0.006527285737437959,P4:5522,0.006527285737437959
13898,0.0,0.0,-0.028312317470133973,-0.004102710119087673,0.0,-0.006483005517844328,P1:22447,0.006483005517844328
6833,0.0,0.0003595814891369714,0.011621007226112893,0.009249022309761027,0.011162812329816136,0.006478484670965405,P2:5131,0.006478484670965405
8330,-0.013198499429799079,0.0,-0.009853803195009059,0.0,-0.0093274637740272,-0.006475953279767068,P2:24198,0.006475953279767068
1999,0.005258220982043627,0.0,0.004787367717326461,0.005645535127576006,0.01665589416356181,0.006469403598101581,P5 gd:408,0.006469403598101581
15973,0.0,-0.031489745533843844,-0.0006979807544438575,0.0,0.0,-0.00643754525765754,MFI:101,0.00643754525765754
15804,-0.00338302803047056,-0.007160713880286442,0.0,-0.021564219528979908,0.0,-0.006421592287947382,MFI:28,0.006421592287947382
262,0.012350525356373772,0.0,0.0,0.01968709279458564,0.0,0.006407523630191883,P7 Mono:926,0.006407523630191883
10066,0.0,0.011332303486915652,0.0,0.005933685464003199,0.01463744393088507,0.006380686576360784,P2:13486,0.006380686576360784
2439,0.0,0.0,0.0,-0.00682658467418592,-0.025076751195110894,-0.006380667173859362,P5 gd:1400,0.006380667173859362
6802,0.02158749281676028,0.010292482079165945,0.0,0.0,0.0,0.006375994979185245,P2:5248,0.006375994979185245
6028,0.012650822637371337,0.0,0.0033688727718968695,0.004534102089573136,0.01131859017880365,0.006374477535528998,P2:9159,0.006374477535528998
14203,0.0,0.0038664579240117137,0.014385730153007212,0.012901321051125429,0.0007158868191147886,0.006373879189451828,P1:21589,0.006373879189451828
9090,0.0,0.0,0.013275443866927538,0.007609076507427576,0.010825460161745766,0.006341996107220175,P2:22486,0.006341996107220175
56,0.0,0.0021758773822901606,0.029524269122496397,0.0,0.0,0.006340029300957312,P7:45,0.006340029300957312
